{
    "weightsOne": [
        [
            0.4723263036791163,
            0.5251174222360042,
            -0.447319306589665,
            0.5876618938540477,
            0.7053476589387215,
            -0.8565890013275141,
            -0.02817750906165828,
            0.4357781115115842,
            0.1267994207064871,
            0.9579799582216306
        ],
        [
            0.36315181365664895,
            0.3021041614769888,
            -0.660423139562228,
            0.8756617842189678,
            -0.47633972852189466,
            -0.8114332571458471,
            -0.48897788040225554,
            -0.1667244340591323,
            0.8044776630710271,
            -0.229746703969814
        ],
        [
            0.96770848023412,
            0.8966045108891063,
            -0.8626382252579115,
            -0.626501782590835,
            -0.8122871217419159,
            -0.7354060685891175,
            0.15759048054673253,
            -0.04565518858053896,
            -0.842920511675229,
            0.340145782682552
        ],
        [
            0.5351450364631021,
            0.3531532040620209,
            -0.94398903128407,
            -0.06709851248858101,
            -0.8615287691786726,
            -0.06389356045762962,
            0.28736142603270687,
            -0.9945445774077808,
            0.2957783155603979,
            0.348167726140878
        ],
        [
            0.2568312355013509,
            -0.1467252745876766,
            0.5995715157869788,
            0.23821328291634436,
            0.0850349648233808,
            -0.20570442894092245,
            0.6607717027590747,
            -0.1081804766265968,
            -0.9344563332008073,
            0.9520515963434208
        ],
        [
            0.6990740798410942,
            -0.10807682196117718,
            0.5152725525201463,
            0.5171938649428041,
            -0.5608222420741868,
            0.13707760210909803,
            -0.4035881695554422,
            -0.31521488247689433,
            0.5302835091952318,
            -0.38942237224414966
        ],
        [
            0.5131918731318952,
            -0.6689823532372878,
            0.6218049223942543,
            -0.04946853807347362,
            -0.9524246762019852,
            0.9878306855980901,
            -0.3569644243647425,
            0.9404433931985647,
            0.03388703436149121,
            -0.5903589474922817
        ],
        [
            0.24408089215948747,
            0.8820587963908879,
            0.12906031449280864,
            -0.22850765288870778,
            -0.5326336964576963,
            -0.2738204178488868,
            -0.9795544546460944,
            -0.11622007007941026,
            0.8385837752102401,
            0.7406307787409392
        ],
        [
            -0.8949676738321848,
            -0.6719472279953858,
            -0.43664959215372856,
            -0.12531661110283632,
            0.24289220214965912,
            0.8472242497636306,
            0.7716324329335378,
            -0.770151203906059,
            0.10454772110003652,
            -0.32204146173619597
        ],
        [
            0.29233625829615195,
            -0.7201043076485092,
            -0.1432748984688732,
            -0.31447563644063803,
            0.7692171645840078,
            -0.8551644319574874,
            0.10712802276987476,
            -0.8261364362012964,
            0.06702298100794146,
            -0.18239242980158665
        ]
    ],
    "biasesOne": [
        0.5157087643446563,
        0.9272737851779658,
        -0.947530761397211,
        0.018776349460404296,
        0.11273877771822582,
        -0.18103765497231783,
        0.8179840768589166,
        0.6742225410728155,
        -0.8240865016066579,
        0.729117442188485
    ],
    "weightsTwo": [
        [
            0.8471266293760946,
            0.1323640689948573,
            0.7133899478777532,
            0.8301460188822838,
            -0.3351551980794836,
            0.17998816846159227,
            0.4876441529752946,
            -0.9315942991603752,
            -0.2457451562398587,
            0.005686872907775475
        ],
        [
            -0.1885576527613182,
            -0.907065465106365,
            0.03496675392127835,
            0.58307540414207,
            -0.6729340268356236,
            0.34954796291556267,
            0.19444446939947846,
            -0.22958044571123715,
            0.22525810088512577,
            0.846606868090416
        ],
        [
            -0.9296671389169531,
            -0.24072653934854849,
            0.11716078254199891,
            0.7852604641467977,
            -0.9181460305838329,
            0.15453915450150113,
            0.15149465508222693,
            -0.9711104457429642,
            -0.6449564263403396,
            0.9392982405058286
        ],
        [
            0.2002607474520406,
            -0.5830490572486575,
            -0.2541296983509309,
            -0.6308434255368225,
            0.23235106269558536,
            0.6042171437415016,
            0.8139999983136392,
            0.3560482325522851,
            -0.4600268301636963,
            -0.5662425681159811
        ],
        [
            0.024091966006313692,
            0.2686843733105053,
            -0.22741661947400083,
            -0.402097254112582,
            -0.9486684236301532,
            -0.32750700417727097,
            -0.5822256209442889,
            -0.962038801618134,
            -0.7392406514672911,
            0.6092454593928491
        ],
        [
            0.16275264149614554,
            -0.24404390181547786,
            0.6717494406909812,
            -0.12105567406179829,
            0.855865579285016,
            0.2247899305126626,
            -0.13903406476268354,
            -0.99324358728623,
            0.08361276410770158,
            0.5026768603719107
        ],
        [
            0.8423098415713934,
            0.27273675781163886,
            0.10097041529168438,
            0.8088215373436134,
            0.592924011898706,
            0.6402393832143407,
            -0.30410101664841704,
            0.7622497229984773,
            -0.39347690349601927,
            -0.4306188056250051
        ]
    ],
    "biasesTwo": [
        -0.7727785575017574,
        -0.7774026483873422,
        -0.9352700056838987,
        -0.8600474648646892,
        0.21873452411354743,
        0.3024326069120955,
        0.1261386028263103
    ],
    "weightsThree": [
        [
            -0.0021414703988231754,
            -0.6312174660587411,
            0.17924664396598033,
            -0.46262616359430697,
            -0.8270918687064808,
            -0.5947953613359649,
            -0.12126505081844563
        ],
        [
            -0.3641211091789427,
            -0.08441833708734325,
            0.8119013180253227,
            -0.5974444365846321,
            0.3650910886715202,
            -0.18707313694957795,
            -0.6299138934354407
        ],
        [
            0.721922696383031,
            0.8484036935190016,
            -0.15065854394489886,
            -0.951320518642828,
            -0.6278023644250539,
            0.4153238551715759,
            0.5462060787278002
        ],
        [
            -0.4634890905743583,
            0.4013876883401364,
            0.8570545121598476,
            -0.009606219371938174,
            0.9706965580828182,
            -0.3229727764954906,
            -0.31119594415456553
        ],
        [
            -0.02289919780318339,
            -0.08902898698512973,
            0.5291748108884757,
            0.24772505877026996,
            0.19580637329727102,
            -0.5584914151641516,
            -0.8612705350057173
        ]
    ],
    "biasesThree": [
        0.0392667542478764,
        -0.7231415271560642,
        0.23434710163164896,
        -0.31488679041850176,
        0.5709572709632709
    ],
    "weightsFour": [
        [
            0.09417111599645023,
            0.9153110389170123,
            0.5765196856283403,
            -0.38369028779216885,
            0.8961858544703514
        ],
        [
            0.21697425322454977,
            0.738631291978286,
            0.22319920261876858,
            -0.2283622767205018,
            0.2001703323074444
        ],
        [
            0.5489244183771531,
            0.004765683109429597,
            0.17730593335866884,
            -0.0928150766177589,
            0.3410231925753491
        ]
    ],
    "biasesFour": [
        0.8400743400351689,
        0.4984339118528658,
        0.6555395559003931
    ],
    "weightsFive": [
        [
            0.9660723915292513,
            0.9966715072224663,
            0.28746971060288384
        ],
        [
            -0.4312519899081255,
            0.29748631934367364,
            0.3702652275381797
        ]
    ],
    "biasesFive": [
        0.4825370058935259,
        0.8238658663911946
    ],
    "fitnessValue": 94.74501516743096
}