{
    "weightsOne": [
        [
            -0.4353894005488781,
            0.07837773208214482,
            -0.006803370539180564,
            -0.5738042650002815,
            0.48286603410846585,
            0.9499967845530766,
            0.3742377973968378,
            0.2726394757946511,
            -0.09971760065709723,
            -0.43611183926200403
        ],
        [
            -0.12734933131986215,
            0.2239752808652864,
            -0.7440822677297487,
            -0.5926765253234059,
            -0.2523620213492548,
            -0.5873372314648058,
            0.9191862765347529,
            0.27385876738011805,
            -0.346443700898468,
            -0.1408941921554625
        ],
        [
            -0.5174841388992526,
            -0.2829422535368402,
            0.660919308130981,
            -0.9018492389328159,
            -0.5985889835962381,
            -0.38136607585732984,
            0.7679089183677583,
            0.46301183114535527,
            0.7710849663060724,
            0.7031862570029721
        ],
        [
            0.9750097067242776,
            -0.2829060213705894,
            0.1911881771080164,
            0.3248956641601495,
            0.1849122958434073,
            -0.40957146653198073,
            -0.1744413282690196,
            -0.5512106692379748,
            -0.09737490052610642,
            0.3898224264111523
        ],
        [
            0.1654694831113137,
            -0.5435595757900151,
            -0.5782862734669283,
            -0.08633499620877272,
            0.10128988802542427,
            -0.9241263391167991,
            -0.22477674473080578,
            0.8283023528061291,
            0.37599518215096905,
            -0.831798611737921
        ],
        [
            -0.14923141085114122,
            0.19427642675894363,
            -0.011521002192100616,
            0.9854794878804012,
            0.45134376704892243,
            0.44158410650612256,
            0.08604281215868115,
            0.33635928175386987,
            -0.15179187284305207,
            -0.7400010407779742
        ],
        [
            -0.778378202813276,
            -0.37560411356989043,
            0.348027988554225,
            -0.8519670766662668,
            -0.003969995376615465,
            0.8865725341007034,
            0.5281363364050211,
            0.7364108436958128,
            0.27234096322048806,
            0.42697652419614673
        ],
        [
            0.6911824274981724,
            0.5976328731174401,
            0.8212821846191933,
            -0.3484448341547286,
            -0.8106594828752045,
            0.7777210694278553,
            0.7206149728948044,
            0.5665538357309345,
            0.23565380588514517,
            -0.43043298176462463
        ],
        [
            0.3771267148158335,
            0.9034868358258072,
            0.028175667478367528,
            -0.7827300297433686,
            -0.6313971966948353,
            -0.38539687047276994,
            0.47455856751487424,
            0.5045097782109691,
            -0.7164141579807228,
            0.7529861776280034
        ],
        [
            -0.556359106689031,
            0.8279063562087865,
            -0.870032660755153,
            0.5709421824971086,
            -0.09680863865075318,
            -0.30841044868095024,
            0.5098216590240334,
            0.5520892494096066,
            -0.27279246073628194,
            -0.027303051806004897
        ]
    ],
    "biasesOne": [
        -0.8652911837042232,
        -0.2966174308957905,
        0.8676037796871554,
        -0.03734368601821747,
        0.6114656973417212,
        -0.21496380570464102,
        -0.12672556882005392,
        0.3443024271061894,
        0.0330604936735428,
        -0.8893284867694169
    ],
    "weightsTwo": [
        [
            -0.19765403389957692,
            0.23273900229893085,
            0.18495174602525633,
            0.27825161820867006,
            -0.8462224235340767,
            -0.9840845620070147,
            -0.24764432518913138,
            -0.8469898798340922,
            -0.6613577191589219,
            -0.45290780579447265
        ],
        [
            0.1576513179286736,
            0.1615739238169902,
            0.9093335451311395,
            -0.2853557964579838,
            -0.8016838502689798,
            0.22493296555801567,
            -0.032129883516482494,
            0.243795839061002,
            0.8261893088143748,
            0.23038750712801526
        ],
        [
            -0.3217963666157255,
            -0.31796321175303954,
            0.8069099018845654,
            -0.5792094842632962,
            0.22383362802066986,
            -0.4250037748099027,
            -0.9048368962373747,
            0.017333461714920118,
            -0.03753041921795264,
            -0.9134261319873074
        ],
        [
            0.9590643428637333,
            -0.7478393441112272,
            -0.5155995855392868,
            -0.4057337057063173,
            0.13716619648139483,
            -0.27449910467978356,
            -0.6313046611654518,
            0.8924061763348887,
            0.42301642217813806,
            0.12116510701023264
        ],
        [
            -0.17846878853038972,
            0.2616813154240245,
            0.21758662343975121,
            0.27315450055620016,
            0.43712221955847563,
            -0.8275033265086231,
            0.5371578011032601,
            -0.934611334771263,
            0.5670941777139824,
            0.21050067153815366
        ],
        [
            -0.0017664175157920958,
            -0.18169861907379103,
            0.31457270146757854,
            0.3512556667924216,
            -0.1167479121276247,
            -0.7549146072399724,
            0.39014481973284765,
            -0.3115741401462857,
            0.22697095711105475,
            -0.003778086256196689
        ],
        [
            -0.6511547731176099,
            -0.6812744823259149,
            -0.4902258317608228,
            0.0726877158464776,
            -0.3629127218068515,
            -0.280875766129846,
            0.27692018041032296,
            0.500182980276821,
            0.9619708979241555,
            -0.4217585094082743
        ]
    ],
    "biasesTwo": [
        0.46142155902097604,
        -0.35865250685399275,
        -0.4329673378871073,
        -0.17114089324597037,
        -0.4610347367543661,
        0.10464610473872105,
        0.4373319580944903
    ],
    "weightsThree": [
        [
            0.3581566691118747,
            0.43153948413365817,
            -0.8405646516306415,
            -0.5123309246523255,
            0.317569003133106,
            0.8908017425828123,
            0.8427047061699602
        ],
        [
            -0.10742391757418823,
            -0.7182000624403728,
            -0.4952630750213016,
            -0.6398476101594581,
            0.3016712080432855,
            -0.7150986769145979,
            0.5878994716848094
        ],
        [
            -0.7222353157806796,
            -0.18541486389056927,
            0.42012142593238466,
            -0.9695769971101336,
            -0.8618290313787025,
            0.05757008956812126,
            0.19999679641204549
        ],
        [
            0.7235134394050371,
            -0.07746465785443202,
            0.31245671240016315,
            0.19794073151272418,
            -0.5697373704901403,
            -0.85028230672231,
            -0.9743738244732143
        ],
        [
            -0.1553728830532346,
            0.9988776616123367,
            -0.1061889144884387,
            0.7566093800447025,
            -0.3412987062717254,
            0.9840008467680599,
            0.9176434759009597
        ]
    ],
    "biasesThree": [
        -0.16361370504522865,
        -0.6172452585430133,
        0.7107462213399065,
        -0.5063534194296129,
        -0.7932526547032865
    ],
    "weightsFour": [
        [
            0.24095693234152527,
            -0.8701072291670431,
            0.7094819065984925,
            0.16953485277519276,
            0.0354417947243173
        ],
        [
            0.17144058934048934,
            -0.9995144419501847,
            -0.8522386790707555,
            0.5316003493089689,
            -0.07476839865403795
        ],
        [
            0.4934847323922864,
            0.154698607058261,
            0.021559050041059846,
            0.08674146540690941,
            -0.4487392143725215
        ]
    ],
    "biasesFour": [
        -0.3097382842908507,
        -0.7718667312169423,
        -0.6833425209516266
    ],
    "weightsFive": [
        [
            -0.14038150325577492,
            -0.7755272754040436,
            -0.14387287038152574
        ],
        [
            -0.2927135942490098,
            0.6775046031003098,
            -0.7741580556315888
        ]
    ],
    "biasesFive": [
        -0.9674244895624873,
        0.23083352431804527
    ],
    "fitnessValue": 67.92012023158408
}