{
    "weightsOne": [
        [
            0.1748724201981633,
            0.42902228549529675,
            -0.7569788989748969,
            0.6779215120724758,
            0.9423657503667613,
            0.17805099125834944,
            0.44981874830021273,
            -0.580450228687696,
            0.3886479303973005,
            -0.4778099481991309
        ],
        [
            0.4972519667918889,
            -0.40515457609702454,
            -0.9217110505329453,
            0.47032826280528717,
            0.9966507789222638,
            0.28322576049466264,
            -0.7800319005537948,
            -0.7933089097407744,
            -0.8465310059817559,
            0.800605207262693
        ],
        [
            0.6225847228387023,
            0.7599552928784903,
            -0.5447426622676914,
            -0.5679994626151808,
            -0.7409927686364801,
            0.8409024834218501,
            -0.9083434783535405,
            -0.10640376598230739,
            -0.9542144448292291,
            -0.9316242522548381
        ],
        [
            -0.5857296471102444,
            0.794509709643552,
            -0.6176638199461053,
            0.7950760312173308,
            0.9888843235239722,
            -0.8702615758890706,
            0.8522185375157441,
            0.640440326368729,
            -0.35571981960690513,
            -0.5366057239525113
        ],
        [
            -0.6671736994678763,
            0.6351231980953649,
            0.0003436967826488946,
            0.5880495532660837,
            0.7471094974426837,
            -0.34840718299998286,
            -0.3549338847635446,
            -0.670011795318828,
            -0.4598380338420356,
            0.5455117967286751
        ],
        [
            0.4325483796850418,
            -0.9408830372780916,
            -0.6464593720001057,
            0.7429171851689818,
            0.37834053531683076,
            0.38458273319468894,
            0.8210939800467711,
            -0.7633535189585574,
            0.06682616834495447,
            -0.33924110950701425
        ],
        [
            0.571601443566579,
            -0.335912580187667,
            0.8380098565228693,
            -0.5367302587881062,
            0.5678777714223278,
            0.010544698919041418,
            0.010477104312704988,
            0.5707386446304261,
            -0.5156211513309472,
            -0.8751286559797651
        ],
        [
            0.4398169639204441,
            0.2751942873489317,
            0.6628062835266184,
            0.898211397330098,
            0.969296264906558,
            -0.9037460770000263,
            0.7200967684211632,
            -0.7888447051298724,
            0.14350634906779836,
            0.6794977584452238
        ],
        [
            0.32089561826643753,
            0.45991119103861755,
            -0.6250887965760024,
            0.12862993212489893,
            -0.040181426945510745,
            0.4294947723396303,
            0.11869582930174061,
            -0.10086370066736228,
            -0.2285385009814389,
            -0.7911457454240627
        ],
        [
            -0.8747013439113565,
            0.8168604775974664,
            -0.39947914960872644,
            0.3477479420799179,
            -0.8086598882147809,
            -0.8811318220466833,
            -0.617731857543109,
            -0.2847003349097126,
            -0.23115043095163146,
            -0.10703249206972898
        ]
    ],
    "biasesOne": [
        0.8286752016431642,
        -0.8787882270442284,
        -0.3691377649324834,
        -0.4892072994495029,
        -0.028375834508294062,
        -0.18876796819496944,
        -0.1526836850447708,
        0.8932189180537158,
        -0.1586967791237992,
        0.7115326890962346
    ],
    "weightsTwo": [
        [
            0.12206221400219786,
            0.15748612995948985,
            -0.6557932016575592,
            0.018650062783988286,
            -0.06802433960416954,
            0.6823915221302974,
            -0.21880404928111918,
            0.11731651861640935,
            -0.08625171951660038,
            0.6415141225801397
        ],
        [
            -0.8559377628998179,
            -0.3533419593576297,
            -0.7213639368479712,
            -0.162825440133038,
            -0.5061404582034579,
            0.11897230750166621,
            -0.503021670964749,
            -0.07174052606794756,
            0.05417030074518259,
            -0.14271490580610924
        ],
        [
            -0.8069498552975907,
            -0.8606776451028688,
            0.27202977770077785,
            0.3364069959421625,
            0.12593708141830717,
            0.7980561025235875,
            0.004637602656200723,
            0.021212020509733698,
            0.2767374266002869,
            -0.3083722573258252
        ],
        [
            -0.44543672229175546,
            -0.8542711717534335,
            -0.7496725023806532,
            -0.7323765895926111,
            -0.277623415205726,
            0.38507549111589845,
            0.8948067604743724,
            0.6118910000765505,
            -0.5184373206122346,
            0.6704827092672763
        ],
        [
            0.6118795027872117,
            -0.9135629863873489,
            -0.23313157516431193,
            0.2180970567298659,
            0.420866941698987,
            0.07815278698819017,
            -0.47261246633599385,
            -0.030064247272171052,
            0.39120311709904065,
            -0.5555756099282341
        ],
        [
            -0.991059370277694,
            0.14595426732689565,
            0.421768755051118,
            0.7644824624711064,
            -0.5385774417969951,
            -0.04523950125466447,
            0.5798953890756728,
            -0.6830218887430477,
            -0.060708165581490725,
            0.7739732466243248
        ],
        [
            -0.03130537202359429,
            0.5848134157467484,
            0.7949434928949592,
            -0.21599312423737715,
            0.9856122620041148,
            0.19234835547476625,
            -0.5710402462267383,
            -0.45110057819209826,
            -0.19618379184448598,
            -0.9667799404481103
        ]
    ],
    "biasesTwo": [
        -0.9434287661009255,
        0.04447025938991689,
        0.22955192887539866,
        0.9014483727273228,
        0.4282266157892576,
        0.04119663247972993,
        -0.8332230322924323
    ],
    "weightsThree": [
        [
            -0.8079825698285446,
            -0.4935003169495542,
            -0.12743733233616084,
            0.5603401851607834,
            0.7191822550083267,
            -0.07010397260479762,
            0.45967945341295
        ],
        [
            0.71358702400017,
            0.8674161735543868,
            0.537282858490173,
            -0.22064938947315027,
            0.18948634591398794,
            0.9738578570329357,
            0.7732989975368867
        ],
        [
            -0.4059664707121995,
            0.35762169667773924,
            -0.2417654442653281,
            -0.5656703546950306,
            0.3181358357776056,
            -0.47172868156943637,
            -0.6639147394932006
        ],
        [
            0.2623364882986723,
            -0.6973154034239644,
            -0.45767486104457067,
            -0.8181828257250945,
            0.3049103821328234,
            -0.319788093419322,
            -0.5156089340817174
        ],
        [
            0.4583060867379649,
            0.8548896717414305,
            -0.09891746879440122,
            -0.8368611011410669,
            0.6538913179830093,
            0.5917626673527299,
            -0.6000861446628338
        ]
    ],
    "biasesThree": [
        0.1135161654832364,
        -0.2915811672568933,
        0.2343030331120155,
        0.4985665706117177,
        -0.933777006398465
    ],
    "weightsFour": [
        [
            0.3787898556831544,
            0.647564451844292,
            -0.46641476695866046,
            -0.7259439835454378,
            -0.45614400360211915
        ],
        [
            0.895510324934971,
            -0.8538647676651756,
            0.31085299186948334,
            0.8567603357131357,
            -0.6465567566994286
        ],
        [
            0.9423098282205722,
            0.7896587892866067,
            0.4676287027319299,
            -0.6444095632157762,
            -0.42651454778850084
        ]
    ],
    "biasesFour": [
        0.622287237422966,
        -0.11358677007571227,
        0.9840393805853835
    ],
    "weightsFive": [
        [
            0.33238456388814375,
            0.6333985734557241,
            0.3358502448461258
        ],
        [
            0.1839417467401001,
            0.5294509297775691,
            0.9295621478840173
        ]
    ],
    "biasesFive": [
        -0.059659698024495,
        0.12045275235680708
    ],
    "fitnessValue": 0
}