{
    "weightsOne": [
        [
            -0.25270733092400266,
            -0.131789480115853,
            0.0922609571368791,
            -0.7421933479094269,
            -0.5343396709479353,
            -0.41468663223158986,
            0.09445593648357264,
            -0.34632682861449826,
            0.9447710248703105,
            0.08794646140063822
        ],
        [
            -0.8235833815989588,
            0.5954975811804588,
            0.7194515968515978,
            -0.5280799501096423,
            -0.2359828441684495,
            -0.6285931012125066,
            -0.16521814907550336,
            0.1687995808479581,
            -0.37041218647493546,
            0.7963463264557848
        ],
        [
            0.639172909203499,
            0.3342286449088081,
            -0.11449659253448319,
            -0.25132608929758793,
            0.6844227271853964,
            0.4193325574497073,
            -0.9165867026666457,
            0.5797754425129362,
            -0.24515739686236704,
            -0.12470626376975447
        ],
        [
            0.9223073112469964,
            0.11188561338600911,
            0.7190970520578439,
            -0.600101005855697,
            -0.2921505519289773,
            -0.10548597916550762,
            0.6286184220035207,
            -0.8243089142837547,
            -0.7063487888314495,
            -0.027408755479141345
        ],
        [
            -0.17672502712253757,
            -0.37337843175887264,
            -0.42552084161452575,
            -0.1230974951412962,
            0.4178303425409564,
            0.9953671212865518,
            -0.8936793835761523,
            -0.8846479921748385,
            -0.3599733260730962,
            -0.8443074230515049
        ],
        [
            0.6040041482437906,
            -0.7458843296456328,
            0.09998255008769807,
            0.06308813415413628,
            -0.07921311752641902,
            -0.5941484640416137,
            0.5584652493074125,
            -0.853461746455489,
            -0.14040866206247293,
            0.9644929290886799
        ],
        [
            0.35062012001586407,
            0.342855664501178,
            -0.6633919817262792,
            -0.3233009512909357,
            0.19099640091968562,
            0.8062291304928451,
            -0.1662159115685442,
            0.5179325532980954,
            0.469306123447484,
            0.9038303039882369
        ],
        [
            0.6278127657334374,
            0.13810861479119385,
            0.8974872596474408,
            0.7473614834425455,
            -0.15232280268182996,
            -0.3027589545743514,
            0.9319271495127297,
            0.32281617088873027,
            -0.7820760161056199,
            0.3352870963363608
        ],
        [
            0.8215391745990006,
            0.5876099979026299,
            0.15092792763822827,
            0.2626814493958989,
            -0.7693059685696744,
            -0.5886804799020202,
            0.5786896557123233,
            0.6458464918711226,
            0.25023654129233575,
            0.06885102226985307
        ],
        [
            -0.5787245584519103,
            -0.3666545197424145,
            0.9770517459186663,
            -0.2779753361443831,
            -0.5027129220263105,
            -0.8349179853870103,
            -0.37346558152735065,
            0.01593682444128519,
            0.43830168613320364,
            -0.12861511935542258
        ]
    ],
    "biasesOne": [
        0.08915308147088985,
        -0.9381791609312511,
        -0.7476010537202469,
        0.14897886415781292,
        0.4326612874989437,
        0.13026971911406648,
        -0.9328869669189648,
        0.8544765309234503,
        -0.15105179828309478,
        0.5079114406062515
    ],
    "weightsTwo": [
        [
            -0.16777137354435867,
            0.9912253641545117,
            0.349507332344257,
            0.9549451844105239,
            0.9677139366161085,
            0.9390150034946689,
            -0.8092706350982122,
            -0.488653698511585,
            -0.7498857162199972,
            -0.953782303708312
        ],
        [
            0.5688415207545616,
            0.03144161196404838,
            -0.10288978738850973,
            0.48169523136602965,
            -0.6996315056057538,
            0.0518852042917175,
            0.6085401635905783,
            0.18460817297297805,
            0.753726587202235,
            -0.6493858184497827
        ],
        [
            -0.6893928015775344,
            0.962343282781539,
            -0.19178978572326444,
            0.46869706024758306,
            0.5774233713578336,
            0.2291653020277158,
            0.685346205837182,
            0.05012875643202053,
            -0.8889787038284482,
            -0.7376014183346957
        ],
        [
            0.381136521791704,
            0.16347805811781546,
            -0.8999901028326622,
            -0.1500349739582445,
            -0.13826854761976004,
            0.3944551872490707,
            -0.2989011616514121,
            0.35174367557878705,
            0.8752537005376355,
            0.8558973408155286
        ],
        [
            0.29194864915894914,
            -0.6656246914256316,
            -0.7584334104956354,
            0.8144712520907877,
            -0.20722029275612908,
            0.20057951992244982,
            -0.5352329983638211,
            0.1486517454028673,
            -0.10424146017427316,
            0.5903877252337228
        ],
        [
            -0.17077592241679262,
            0.18898536674387234,
            -0.6399863405475668,
            0.47471217952562816,
            0.4849156827428418,
            0.607002165430516,
            0.7341116298230959,
            -0.885843084072282,
            -0.9844267191774727,
            0.352391586893426
        ],
        [
            0.5399930813230309,
            -0.9748333932514412,
            -0.18557564495575085,
            0.3830212095143566,
            0.7401703166715474,
            -0.24090219642838773,
            -0.26816547741567787,
            0.43228841373718985,
            0.3614438759743306,
            0.2726168023128197
        ]
    ],
    "biasesTwo": [
        0.46596693328476024,
        -0.17795417012881942,
        -0.07588872782463474,
        -0.7746926565720647,
        -0.6958212339024052,
        -0.2261335018434767,
        -0.5095430470467748
    ],
    "weightsThree": [
        [
            0.8092896659125881,
            0.8706195577735822,
            -0.6458300829284629,
            -0.00635075630766746,
            -0.08049700945017135,
            -0.2565749891057445,
            0.12048970480439847
        ],
        [
            -0.5798068319157714,
            -0.30135532506216456,
            -0.7100851311343956,
            0.7216866734725613,
            0.9994489964982038,
            0.6011824983915317,
            -0.30652186096606515
        ],
        [
            -0.07354256162829809,
            0.993027607840341,
            -0.7669640594255942,
            -0.35432898043102545,
            0.6835841426753697,
            -0.1931409709110392,
            0.9710199716886774
        ],
        [
            -0.37510272331854777,
            0.23819405479737243,
            0.9545577147160031,
            0.6887242318215858,
            -0.34380047906832956,
            0.8424096467653475,
            -0.613945719265427
        ],
        [
            -0.9795053250543628,
            -0.8700135644621838,
            -0.39020271730225486,
            0.7561138260841951,
            0.24970664032059586,
            0.0892549864412524,
            0.7452330513955312
        ]
    ],
    "biasesThree": [
        -0.45043977382835676,
        0.5164734073017971,
        -0.6577650409307054,
        0.5233477713969359,
        -0.9436879948808792
    ],
    "weightsFour": [
        [
            -0.225000198639022,
            0.8559072733154489,
            0.830513905819324,
            0.6104275383068216,
            -0.8035931011626967
        ],
        [
            0.784532498651545,
            0.006601869560630913,
            0.3078819838213298,
            0.8705179249606574,
            -0.10395964311586647
        ],
        [
            -0.49937778992842974,
            -0.937195267447593,
            -0.07890583384097005,
            -0.7702441668033126,
            0.6730705728618651
        ]
    ],
    "biasesFour": [
        -0.8339236324352961,
        -0.014551696640134892,
        0.543430242901642
    ],
    "weightsFive": [
        [
            0.3652407188490874,
            0.829730095770018,
            -0.49508748894969723
        ],
        [
            -0.7689131129223379,
            -0.8854490091798739,
            -0.37942740035966316
        ]
    ],
    "biasesFive": [
        0.3618218120515362,
        -0.31673338648252103
    ],
    "fitnessValue": 17.54244312775684
}