{
    "weightsOne": [
        [
            0.5141092738713948,
            -0.2834197572835453,
            0.9463339766395709,
            -0.3801839673362548,
            0.8539139896619103,
            -0.7714747435145703,
            0.26029794951914154,
            -0.23733868899656918,
            -0.6213919992310488,
            -0.1576223985274805
        ],
        [
            0.17272218014628704,
            -0.6346279414961986,
            0.36372259331562207,
            -0.6003172818315883,
            0.4848530771462627,
            0.37534753448475233,
            -0.24632802869307113,
            0.8089170226331777,
            0.42469182272654393,
            0.8879864300156834
        ],
        [
            -0.6163886945897032,
            0.6600912366768874,
            -0.5415190546636883,
            0.3237384535174155,
            -0.3477497263350182,
            -0.8096423382574409,
            0.26314376812221907,
            -0.5628940465292995,
            -0.2635878003038652,
            0.49453676207356057
        ],
        [
            0.5542361815431307,
            0.09018471963159258,
            -0.6894422213901639,
            -0.6464168265390069,
            -0.21841494354067859,
            -0.6325130747164174,
            0.7517931793301051,
            -0.3444244735371851,
            0.2949944315116708,
            0.4189561269362587
        ],
        [
            0.36457433189228006,
            -0.4274780781294607,
            0.9442021183659617,
            0.7304278401321997,
            -0.5203190579432388,
            0.25292604453994527,
            -0.3889415519789081,
            0.7470294667688275,
            -0.7891387578613882,
            0.5875554713514157
        ],
        [
            0.6467974032219661,
            0.9329719582151104,
            0.07005938790808863,
            -0.5404272608081369,
            0.8791501353239088,
            -0.7256623729240872,
            -0.2937750374770258,
            0.329797234084388,
            0.554484653376911,
            -0.7990273638188061
        ],
        [
            0.5164877346676806,
            0.06801444678187596,
            -0.04136144829424948,
            -0.8762163832648076,
            -0.9664997655445189,
            -0.46982420571137196,
            -0.20510684317955552,
            0.2108079585071394,
            -0.214436718568767,
            0.7609753753901847
        ],
        [
            0.3307997231601847,
            0.5281000768800175,
            0.8146384986439377,
            -0.9895500265026356,
            -0.4008525812960968,
            -0.4714695406374685,
            -0.03312033708036921,
            0.15348167890963493,
            0.14590861570370794,
            0.0765791492991772
        ],
        [
            0.16231956648944523,
            -0.07986699076610715,
            -0.6320670721131119,
            0.5163224169553053,
            -0.10821355668784793,
            -0.3732991649083399,
            0.5152983946932408,
            -0.4901878583194099,
            0.022201625952206205,
            0.23301512999879614
        ],
        [
            0.2831798198964197,
            0.5140742169003931,
            -0.4863572646206886,
            -0.9530452912792304,
            0.4647189604096469,
            0.23194160333337743,
            0.109022493880929,
            0.09706493175039244,
            -0.34858187003132324,
            0.1419711301628115
        ]
    ],
    "biasesOne": [
        0.15761975475530265,
        -0.8905264320874278,
        -0.7641527370446684,
        0.41042267825462764,
        -0.6753728081376114,
        -0.2956936170400726,
        0.7532364372287768,
        0.6803245881569662,
        -0.39215206344611264,
        0.11330917420785513
    ],
    "weightsTwo": [
        [
            0.9513679984227643,
            -0.5016402145862493,
            0.057451238223437784,
            0.8169942269412112,
            -0.15226431535383766,
            0.9748826795020418,
            -0.14952930461768799,
            -0.29701399381863425,
            -0.2995978937300481,
            0.08878142989087645
        ],
        [
            -0.6831383525855705,
            0.49732557135059663,
            -0.9474331326800693,
            0.00171959370164676,
            0.7651827865669965,
            -0.029555125907306357,
            -0.33351667374264227,
            -0.5373244302328191,
            0.965910800826278,
            0.15313632062737437
        ],
        [
            0.20125972364197864,
            0.810234029160706,
            0.6322695644574357,
            0.9587812031822127,
            0.1717180916638772,
            -0.3220444118345025,
            -0.012323964138876153,
            0.7087333919294705,
            0.45478874872491803,
            0.44060036154005533
        ],
        [
            0.9792493149306012,
            -0.03407121987539985,
            -0.8654982750841109,
            0.14750820216103167,
            0.14207137323934305,
            -0.8958350874921464,
            -0.45049483038433236,
            0.5844294488166413,
            0.49282691992979455,
            0.8621801530479023
        ],
        [
            -0.5082785911046279,
            -0.6485179652248614,
            -0.3876769259344526,
            0.9325342792167357,
            0.3835080045724666,
            -0.7030843421727297,
            0.006730722056212279,
            0.7952253212755904,
            0.7469373612013321,
            0.6628417612498165
        ],
        [
            0.504096694281241,
            0.8169914926136728,
            0.24556798323968843,
            0.6414606197488291,
            -0.3693108055339249,
            0.8320813606005544,
            0.5411667625134808,
            0.6199269799645213,
            -0.5494558292168523,
            -0.8692359567359318
        ],
        [
            0.48678226676938596,
            -0.44329278745051326,
            -0.8577981952003977,
            -0.19355567229094484,
            -0.9751376296565402,
            0.9624437917333233,
            0.35565531627900326,
            0.40525659247452106,
            0.8424298369894181,
            -0.08396618180155535
        ]
    ],
    "biasesTwo": [
        0.5705744003303845,
        0.6691717930092351,
        0.24037248767705455,
        -0.4656314718100971,
        0.8537682773809467,
        0.32578507675916035,
        0.7563146556601734
    ],
    "weightsThree": [
        [
            0.346377492165884,
            0.07135272995465369,
            0.846319370242878,
            0.04259914347320026,
            -0.5000967501544411,
            0.605677839975499,
            0.41479890182004997
        ],
        [
            -0.38191452474421017,
            0.81575610189268,
            0.11211165743430707,
            -0.8589928609783859,
            -0.7755315965529692,
            0.6422164957874426,
            0.1042145247713473
        ],
        [
            0.7931403699389104,
            -0.9965085454978424,
            -0.5104524029684396,
            0.46082965331698245,
            -0.6961720898947121,
            -0.00930710334807272,
            -0.42155270352358976
        ],
        [
            0.23114417308577218,
            -0.5630511710755906,
            -0.9664659826251178,
            -0.5693512231743914,
            -0.6368251360524493,
            0.96097956195576,
            -0.13562568784178008
        ],
        [
            0.7540687010364584,
            0.428503142120479,
            0.24747842536715314,
            0.7302403141847049,
            0.4163457556535637,
            0.43493692738982537,
            -0.04223097930524644
        ]
    ],
    "biasesThree": [
        0.10112224932483627,
        -0.9543863551983787,
        0.10073413442245838,
        0.7182074135921555,
        -0.19448328538467097
    ],
    "weightsFour": [
        [
            0.17422413161001304,
            -0.6466552175810949,
            -0.41424163209062637,
            0.36748362859732353,
            0.28749557255355107
        ],
        [
            -0.805117156071893,
            0.9147236866079458,
            0.40426861076514453,
            -0.0788974828238298,
            -0.36441374241426305
        ],
        [
            0.9580342533477701,
            0.12344818402065716,
            0.4041430151266907,
            0.6171619529632497,
            -0.6186236967426149
        ]
    ],
    "biasesFour": [
        0.487807375910835,
        -0.9825216502976599,
        -0.509352041964964
    ],
    "weightsFive": [
        [
            0.3371986573396448,
            -0.7408285789821547,
            -0.18276988774070602
        ],
        [
            0.2644558071967431,
            -0.8050622340235412,
            -0.33065118835109786
        ]
    ],
    "biasesFive": [
        0.6549592483727174,
        -0.6481843738529216
    ],
    "fitnessValue": 0
}