{
    "weightsOne": [
        [
            -0.41335310845041406,
            -0.19188604403994702,
            0.9554738262640261,
            -0.5288673294531183,
            -0.818265210166585,
            0.4248236350615444,
            0.9469256379460591,
            0.31149307916844426,
            0.37637082099898445,
            -0.01368703768100743
        ],
        [
            -0.04965094521053337,
            0.28904667412766605,
            0.05234982026041046,
            -0.32735630982178665,
            -0.20358776688360414,
            0.3907807581608078,
            -0.7714517806335652,
            0.4435437203928638,
            -0.035576714408282806,
            -0.4996279414984217
        ],
        [
            0.26134654432876836,
            0.6332806657846555,
            -0.6280700839993771,
            -0.7330091987719882,
            0.21325855635053914,
            0.2629000449872567,
            0.23788659790107447,
            -0.6763800435680924,
            -0.9930273831940124,
            -0.4860345908431014
        ],
        [
            -0.6261253319074902,
            0.7173488559514489,
            -0.7794013266397513,
            0.6924434051942072,
            0.3248434410095784,
            -0.6783927700276378,
            0.8469357676180249,
            0.2711054565576636,
            0.7955913438611519,
            0.10008093186343969
        ],
        [
            -0.8547047900477367,
            -0.09536256396437803,
            0.05944181963305217,
            -0.5184268967844143,
            0.5988290084999559,
            -0.9773108973380564,
            0.753648055814709,
            0.998979639028958,
            -0.7439082871131679,
            0.1128360488318747
        ],
        [
            -0.001527650247082235,
            -0.566321853066331,
            -0.36672684056544624,
            -0.9051003880550863,
            0.2648443142263117,
            -0.7878953020744259,
            0.042879288727321496,
            0.9513655303009874,
            -0.32909185320997825,
            0.13633577175784772
        ],
        [
            -0.9345192453520808,
            0.4963325534638665,
            0.7521238065352738,
            0.6898064150504808,
            0.9723640135461893,
            0.3414882757783573,
            -0.12875188449069186,
            -0.5596013406269942,
            0.15298942899708812,
            0.5703913189111955
        ],
        [
            0.7609512203429203,
            -0.8925083626447601,
            0.4574612745273341,
            0.6730221332146789,
            0.5746152061035505,
            -0.8106417894825102,
            0.9082441804495218,
            -0.26945525846642315,
            -0.9060412068689476,
            0.7718554267554498
        ],
        [
            -0.7414578569416488,
            0.9016940224350913,
            -0.7920918927792207,
            -0.5572857917212852,
            -0.7667704066282499,
            0.8044300290596835,
            -0.26546265679350434,
            0.3042617539827581,
            0.660325208971458,
            0.5794026044819416
        ],
        [
            0.9056337377643358,
            0.4681897180559247,
            0.7679865285886647,
            -0.26625854434402485,
            -0.5520442329015687,
            0.40985771709929053,
            0.23370437101724217,
            -0.14556505811791132,
            0.3040538272087927,
            -0.3359406154463995
        ]
    ],
    "biasesOne": [
        0.1750086132787778,
        0.028580488465359988,
        -0.7267791777676014,
        0.26382299872586357,
        0.522447402716395,
        -0.25515475424608836,
        -0.6629162766527985,
        0.7310018936845792,
        0.6609702118026135,
        -0.7586246794373963
    ],
    "weightsTwo": [
        [
            0.6449748424542188,
            -0.9823226203229376,
            -0.19147340309725158,
            -0.5885100385959441,
            0.4570905044912912,
            -0.65632474552813,
            -0.4857141921285766,
            -0.8398038212974515,
            0.4107681825764118,
            0.9121332204755277
        ],
        [
            0.11923366773584942,
            0.5978764092631308,
            -0.7816928704092672,
            0.7309283507903814,
            -0.2949331289669257,
            -0.30325108004983203,
            0.18946903950953775,
            0.31355761187174624,
            -0.9546998315491768,
            0.5643257437484934
        ],
        [
            0.9027487970265358,
            0.05395295815328338,
            -0.11347288722942528,
            0.721114951559569,
            0.7026341297771408,
            0.847585231771379,
            0.21751181317482304,
            0.26499962875247496,
            0.4276970180639361,
            -0.9526203050181732
        ],
        [
            0.8218264695606969,
            -0.004018847892971911,
            0.9800363727268506,
            -0.10518717970787983,
            -0.32680840244359133,
            0.7985105246544428,
            0.3523809411252812,
            -0.02223855850337242,
            -0.40423241387180076,
            -0.06662395755152639
        ],
        [
            -0.4178453662093695,
            0.02203154821978437,
            0.98650720862046,
            -0.29935076635472924,
            0.9484802018832201,
            -0.977063754656377,
            0.18140661630423027,
            -0.11062429303339782,
            -0.8333236237997581,
            0.8384584150984198
        ],
        [
            0.6647982416009912,
            -0.07018481038948288,
            0.3365124400089483,
            -0.18909439305777798,
            0.6785326652700763,
            0.14197128684096771,
            -0.35759767903233475,
            0.010092983553562362,
            0.9399319873242575,
            -0.020878959129481123
        ],
        [
            -0.13701990091074956,
            -0.6054191616238174,
            -0.138051377745815,
            0.2014418795679429,
            0.12950242284806857,
            -0.500780974861071,
            -0.45582627351519167,
            0.057148916024880814,
            0.19636423933313019,
            -0.6429491392452407
        ]
    ],
    "biasesTwo": [
        -0.697197742335663,
        0.6851099176130815,
        -0.14525528560021894,
        -0.439537582331061,
        -0.7745840511826447,
        -0.05324595234402518,
        -0.6179306220001273
    ],
    "weightsThree": [
        [
            -0.03597261111808048,
            -0.10890662452438082,
            -0.9212795165386525,
            -0.6043972315364308,
            -0.7224340421640212,
            0.3129550119854163,
            0.8427178447417345
        ],
        [
            -0.6245650390658213,
            -0.9455577184739274,
            -0.10539028403221651,
            0.4523804641269562,
            0.3641086101874753,
            -0.7065609320947805,
            0.9351222578075367
        ],
        [
            0.27070143646167755,
            -0.6438683804651861,
            -0.4292607053951769,
            0.47901371970341855,
            0.43255241229659136,
            0.4523358406246789,
            0.934957723719757
        ],
        [
            0.6385106039698647,
            -0.8528500818109945,
            -0.5489825582593764,
            -0.48383178688498085,
            -0.7865058048093831,
            0.5590729518836801,
            -0.3569799963685554
        ],
        [
            -0.1769344039126266,
            0.8565633522086826,
            -0.12594863282236402,
            0.5613198410783875,
            0.05945508627166807,
            0.7950096454804145,
            0.9560636422313438
        ]
    ],
    "biasesThree": [
        -0.5732013114365708,
        -0.19828397853794755,
        0.6739773924755619,
        0.7180728756830907,
        0.8095775947040365
    ],
    "weightsFour": [
        [
            0.9615064705794163,
            0.3308552514729488,
            -0.018375220058384212,
            -0.8583335302422908,
            0.4781052664693126
        ],
        [
            0.0003484402750066895,
            -0.038044367560528425,
            -0.9136101006621711,
            0.6693507174723543,
            0.6169294087309751
        ],
        [
            0.5967078426853243,
            0.8401154569325129,
            0.02858806208399245,
            -0.2931882623593347,
            0.958836382241866
        ]
    ],
    "biasesFour": [
        0.9000700335125853,
        -0.4572413026624731,
        -0.7314599821598378
    ],
    "weightsFive": [
        [
            -0.03699650223281625,
            -0.7863011539120806,
            0.9146353008575696
        ],
        [
            -0.6111587282164217,
            -0.005756646689487166,
            0.9077338727904323
        ]
    ],
    "biasesFive": [
        0.7808096588098927,
        -0.606888078412561
    ],
    "fitnessValue": 0
}