{
    "weightsOne": [
        [
            0.5086486310824037,
            -0.5380426923877633,
            0.7011627051032705,
            0.6928564874903054,
            0.8508405556002272,
            0.46476287495788204,
            0.3478089431234428,
            0.7991920123962692,
            0.5089370920251843,
            -0.5332890288858418
        ],
        [
            -0.16681109686277473,
            0.33128348185533185,
            0.9399231809832136,
            0.7487498367232708,
            -0.45773227352722556,
            -0.6383652671657551,
            -0.7604900728000334,
            -0.7107788488426474,
            0.6581727948677314,
            0.39853948092661695
        ],
        [
            0.7936210992223598,
            -0.7081819565134084,
            0.1942394395015683,
            -0.9907002141818093,
            -0.13878027550406014,
            -0.3848174678243932,
            0.5830559638792023,
            0.783786425982677,
            -0.5839467913769087,
            0.9762588821449554
        ],
        [
            0.5535478988283209,
            0.9410795056943562,
            0.7535971128571961,
            -0.46450084081201193,
            0.7841587801801062,
            -0.5539840117947632,
            0.9095091549473016,
            -0.05659879884131369,
            -0.3024891677867574,
            0.36345690257523877
        ],
        [
            -0.7949523334474358,
            0.007207210160918853,
            0.14570936730989525,
            0.7107880612346396,
            0.3233225085753031,
            0.7691765816867087,
            0.08664433996721388,
            0.2639153787557831,
            0.1314398382125057,
            0.613874996849038
        ],
        [
            -0.01826154662418178,
            -0.09720261229922467,
            -0.7039867350813609,
            0.7176482340412316,
            -0.4646949043002071,
            0.6362716360631966,
            -0.5342973493279672,
            0.9944040047201443,
            0.12777129210105764,
            0.12040406490699951
        ],
        [
            0.3184434333253243,
            -0.27689562460295103,
            0.9226416214532005,
            0.33069398332792743,
            -0.877830884992572,
            0.07129502105217211,
            0.4808522073614758,
            -0.9338332736479025,
            0.933889654505577,
            -0.8890260485841541
        ],
        [
            -0.794243701976244,
            -0.06581785809673946,
            0.17012763843508827,
            0.978273352050433,
            0.2014531142746332,
            0.4055540289638946,
            -0.2980795372456113,
            -0.6372236349927216,
            0.14754938808310802,
            0.9983923250635349
        ],
        [
            0.0856614842794865,
            0.15565859864867315,
            -0.8829879292542533,
            0.9217511413645489,
            0.7504003965413293,
            -0.036145471745477664,
            0.6052728257015441,
            0.6987998180936827,
            -0.3249187438296999,
            0.07569991061228643
        ],
        [
            0.49886874395420033,
            0.8750912121509615,
            0.2258227183820145,
            0.3426589996378753,
            0.5759217968644641,
            0.1752575322106127,
            -0.9154850792370697,
            -0.545073208776572,
            0.9096170223873392,
            0.15003506949523238
        ]
    ],
    "biasesOne": [
        0.5045894166982305,
        -0.5268890633028205,
        -0.36880062663174384,
        0.42366340099422195,
        -0.6988369481780932,
        -0.24295265083315098,
        0.42092546540894493,
        -0.6316946833636847,
        -0.15047138828519135,
        -0.3197280988615947
    ],
    "weightsTwo": [
        [
            -0.9602166002413663,
            -0.9145835074765636,
            -0.4206431730827449,
            0.4926600961054859,
            0.4148643918851991,
            0.5112760701715904,
            0.20084369897122833,
            0.5597578403623455,
            -0.39587114617557884,
            -0.46717652203708493
        ],
        [
            -0.8088052045582581,
            -0.7122965097597798,
            -0.9852775319384335,
            0.8372202955810759,
            -0.08945151273871477,
            -0.15968102485122926,
            -0.004934694615381208,
            -0.19282054799463055,
            -0.31046211910417587,
            0.4102076008061355
        ],
        [
            -0.03761289193876838,
            -0.6969160982822766,
            0.8690597882252895,
            0.9510529875265872,
            -0.36293013710211497,
            0.8845974996195662,
            -0.23909533898439017,
            0.7886780412714753,
            -0.8319964875105936,
            -0.942972983762298
        ],
        [
            0.04558004018224926,
            -0.8701238563996057,
            -0.9856184242636257,
            -0.47479827065882607,
            -0.7263264447091264,
            0.1524132980006121,
            0.30228713601404866,
            -0.009404999306124262,
            0.794420002833909,
            -0.5794721253926591
        ],
        [
            -0.2954778770055313,
            -0.18569749180432993,
            -0.39242775692293264,
            -0.6255444228655151,
            -0.45698014530369413,
            -0.056843382664629294,
            0.061643096470027636,
            -0.6152640417813948,
            0.6401151328503407,
            0.6871112401232533
        ],
        [
            -0.9893598539744746,
            -0.7854404136791804,
            0.36485639994923313,
            -0.753911158043667,
            0.7393267464989792,
            0.7094639752483731,
            -0.1285955201853961,
            0.390604360321017,
            0.3426460959390232,
            -0.3937100791157897
        ],
        [
            -0.28669082950013336,
            -0.9466205296147745,
            -0.6087240467980843,
            -0.6901147651940458,
            0.3972945635015752,
            0.7525525580627932,
            -0.9832546874383865,
            0.24402633495969694,
            0.643186460762668,
            -0.4779957329918789
        ]
    ],
    "biasesTwo": [
        -0.9469683036717624,
        -0.4338329095612077,
        0.9507233134686217,
        -0.6927354113149389,
        -0.9320063225252431,
        0.41222237232461545,
        -0.6627122664484795
    ],
    "weightsThree": [
        [
            -0.15125394747626308,
            0.5968962573930892,
            -0.27105565635290163,
            0.15341007063075285,
            -0.14970865326454041,
            -0.9024570897741575,
            0.09585724091019765
        ],
        [
            0.42631039076508515,
            -0.26281115734516103,
            0.7604543721845858,
            -0.4876423012055564,
            -0.1790317918839801,
            0.7565354336950825,
            0.17863249073052456
        ],
        [
            0.8407287424838805,
            0.4749493330320933,
            0.44260953252797974,
            -0.34845278378719935,
            0.2656017847709444,
            0.8358881242926304,
            -0.07379785589849841
        ],
        [
            0.9023788303195552,
            0.1187750346231704,
            -0.02903940026933638,
            -0.29483730249084905,
            -0.029776824912671085,
            0.9614277596109988,
            -0.43528601777370546
        ],
        [
            -0.6135528833574748,
            -0.23026556692624034,
            0.7862037007688869,
            -0.9579286591808738,
            0.1640697044659687,
            0.4844839826686369,
            0.9350971311370064
        ]
    ],
    "biasesThree": [
        0.7649624673905642,
        -0.697428672226099,
        0.08703851588324518,
        0.06209013886630599,
        0.44555917559378155
    ],
    "weightsFour": [
        [
            -0.6905293348603065,
            -0.5153037893373715,
            0.9591620578499087,
            -0.49218233328238514,
            -0.046041766105134885
        ],
        [
            0.8110558434919042,
            -0.022497465184993626,
            -0.05806849046463092,
            -0.5411846948814598,
            -0.5224207673408225
        ],
        [
            0.7548291453657585,
            -0.6766905147052094,
            0.20229594508490067,
            0.5537587405800657,
            -0.5791989876474892
        ]
    ],
    "biasesFour": [
        -0.45898415806988413,
        0.8878594728460569,
        0.10274060355513148
    ],
    "weightsFive": [
        [
            0.9189466775392607,
            0.754158440362503,
            -0.2443836850251382
        ],
        [
            0.14869175688041514,
            0.40657761614144317,
            -0.4755483282699422
        ]
    ],
    "biasesFive": [
        -0.7246739805660287,
        0.25964209032199226
    ],
    "fitnessValue": 0.0
}