{
    "weightsOne": [
        [
            -0.015382033725492184,
            -0.7682604472522632,
            0.4074379239933472,
            0.5114289462885149,
            -0.8662178275765595,
            -0.268584333148737,
            -0.5025482966776511,
            -0.973562992378334,
            0.24272852419517754,
            -0.028558415607733867
        ],
        [
            -0.23478613755620148,
            -0.4659832139732807,
            -0.10115727594287116,
            -0.396760205131401,
            -0.22081451774722516,
            0.254729993110115,
            -0.31484559755414,
            0.7593152673251815,
            -0.6570253663666878,
            -0.899353385754851
        ],
        [
            -0.03837495145055603,
            0.1743971867019687,
            0.12858945073843087,
            -0.027057245623667736,
            0.6570889411341014,
            -0.21571931643163467,
            -0.1573962642000295,
            -0.19985767088359063,
            0.868548135505973,
            0.23938939395581604
        ],
        [
            0.7473719093470441,
            0.18199793486719118,
            0.5793091934037371,
            0.8397757580579648,
            0.37601364553703687,
            -0.08608292788812077,
            0.9300555826748844,
            0.3146314568855102,
            0.65370732507986,
            0.7598288878633983
        ],
        [
            -0.5678784692220666,
            0.5557987636525479,
            0.9883652236764746,
            -0.7222383000452213,
            -0.07997473811376099,
            -0.00910036919521473,
            -0.31053887892833587,
            -0.40331002437638896,
            0.899310977144431,
            0.7919940212793757
        ],
        [
            -0.8815499066502406,
            0.1069968165752655,
            0.12223800978373633,
            0.3277217513951898,
            -0.8672105460609161,
            0.7168898633774943,
            0.6608436890871994,
            -0.6792075317641364,
            -0.1715821901628758,
            0.951023409488603
        ],
        [
            0.12372023183945857,
            0.6903559768648391,
            -0.3613283749053462,
            0.47147187132744417,
            0.6520923814620585,
            0.8211596556092409,
            -0.014675985229753774,
            0.3532431280748125,
            -0.8787325411577962,
            0.8455192535132221
        ],
        [
            0.22833110289513248,
            0.02317282962305134,
            -0.8376879947950115,
            -0.14159210594442917,
            -0.6122025156149307,
            -0.4675600772255655,
            0.2053828046244377,
            -0.9532246705631817,
            -0.49776498364722377,
            -0.20069730033257316
        ],
        [
            0.13656170443693516,
            0.6083029506599915,
            0.41478794227763816,
            -0.5461575849723048,
            -0.4153218938491323,
            0.8899163833399804,
            0.28564963596942317,
            0.5566491900326025,
            -0.2178684549241643,
            -0.7669945937573748
        ],
        [
            0.6981950718691592,
            -0.36926420230670765,
            0.49838618849897554,
            0.7511731325538289,
            0.6639674841306844,
            -0.7576735833399197,
            -0.8652485712585403,
            0.8321285319043257,
            0.3294304453326764,
            0.6690693306931572
        ]
    ],
    "biasesOne": [
        0.44644016847110346,
        0.7716921878864995,
        -0.8200258299937557,
        -0.7919124562263429,
        0.19834920638147047,
        0.16400954378230703,
        0.7012385742689171,
        0.7313923534969686,
        0.6458176810250238,
        -0.5669597535907569
    ],
    "weightsTwo": [
        [
            -0.17940021118590965,
            -0.3271925973115333,
            -0.8119630863575451,
            0.9191169729126327,
            0.6375699515415822,
            -0.9788631586699688,
            -0.990254711706235,
            -0.1352532719233812,
            -0.5252830461443943,
            -0.8008167220335656
        ],
        [
            0.7919806441726949,
            0.6397180325015817,
            -0.5005282481794726,
            0.9990884294826301,
            0.06037888610155151,
            0.3440781257035703,
            0.9070594795486495,
            -0.42935231631516624,
            0.49339846756017636,
            0.5675310180364235
        ],
        [
            -0.17423360717733738,
            -0.88824595336001,
            -0.8716584193126717,
            0.7560236588183913,
            0.7059477199035804,
            0.5646239337893906,
            -0.20607156233779866,
            0.6829421012099504,
            0.05709588767168938,
            0.7254951746054685
        ],
        [
            -0.8160051278427816,
            -0.7902943052519662,
            0.8217283241000581,
            0.11283692500660258,
            0.03196525655947147,
            -0.43810878527308295,
            0.3471344592708594,
            0.7278370844875928,
            -0.4957836598311409,
            0.23768610677864754
        ],
        [
            -0.4228787001267682,
            -0.2238597242043603,
            -0.7002026529403731,
            -0.7762179913292875,
            0.09421457646017828,
            -0.2348508095646431,
            -0.997291644707929,
            0.6732992507536435,
            -0.45423700725227767,
            0.14458484642187708
        ],
        [
            0.9307859478215474,
            0.4259041537339041,
            -0.2052319300255938,
            -0.5060127732580042,
            -0.33309878833593554,
            0.4320784004080327,
            0.6693393520632369,
            0.3882888531938369,
            -0.5044549481667473,
            -0.9666387582546161
        ],
        [
            0.63129767223958,
            -0.42418610030225223,
            0.8726521285341626,
            -0.6349167209014481,
            -0.1349025215426063,
            0.5636107985597356,
            -0.6324146899901921,
            -0.3458454645484488,
            -0.4894376915641019,
            -0.4544740817203605
        ]
    ],
    "biasesTwo": [
        -0.11508921271689987,
        -0.8254570268086607,
        0.2628950415009641,
        -0.24851812350159364,
        -0.9053648803371459,
        -0.9156181355007507,
        0.7663778171858562
    ],
    "weightsThree": [
        [
            0.06285927540150582,
            0.7094808579529108,
            0.04576679615133816,
            -0.6843341760328661,
            0.024155934864085182,
            -0.17632323864921662,
            0.5945133894771184
        ],
        [
            0.004260347694167832,
            -0.37574538866996776,
            0.21635376415427254,
            -0.5686101300730761,
            0.46182691056070957,
            0.7111549631397667,
            -0.24513496701396842
        ],
        [
            0.7744556472757671,
            -0.0803712807929986,
            0.33416985805651067,
            -0.39011310489103557,
            0.9428927024993929,
            0.06611680361293448,
            -0.9142096335975161
        ],
        [
            0.3220914710120415,
            0.900604339845769,
            -0.4602208922947628,
            0.6672463565092417,
            0.6735588579555651,
            -0.7270700405746047,
            -0.35404093472704146
        ],
        [
            -0.8646409465432834,
            0.3248584670633272,
            0.5684015427201676,
            0.7479800471864286,
            0.6867911426143618,
            0.8767928678567598,
            0.448227817621625
        ]
    ],
    "biasesThree": [
        -0.14646020897346146,
        0.1291172851866329,
        0.1550911753539872,
        0.29755383237903477,
        -0.23152658127440984
    ],
    "weightsFour": [
        [
            -0.520651797685008,
            0.9487220453437628,
            0.8688531963373773,
            -0.4343206623641094,
            -0.0018362481945737308
        ],
        [
            -0.06223078719425712,
            0.8231374463250496,
            -0.6926655944849804,
            -0.16519384148114424,
            -0.324495264974902
        ],
        [
            -0.44757565819144385,
            -0.29787851182303093,
            0.7458317421922402,
            0.2723826607748039,
            -0.8181600493694943
        ]
    ],
    "biasesFour": [
        0.3831760127773922,
        -0.8063695626758316,
        -0.5652147969284063
    ],
    "weightsFive": [
        [
            -0.5228111656863959,
            -0.8573290896859667,
            -0.562271341750131
        ],
        [
            0.47402854223728075,
            0.7959711370173286,
            -0.22997169615856672
        ]
    ],
    "biasesFive": [
        -0.7279281576654566,
        -0.6850673991357166
    ],
    "fitnessValue": 43.58329902077217
}