{
    "weightsOne": [
        [
            -0.011268309358035022,
            0.29558331241116464,
            -0.737412987087954,
            0.3559366432199851,
            -0.0933795526953074,
            0.46862834913599594,
            -0.41837385231286506,
            -0.6282407478253755,
            -0.6013826632987467,
            -0.231184249785642
        ],
        [
            -0.4765152721297987,
            -0.0007906830597048664,
            -0.10241002744296668,
            -0.4316336598071371,
            -0.5253039977760336,
            -0.9120489480927059,
            -0.9524577903183882,
            -0.00527776151851711,
            -0.2030920919725503,
            0.140732578143818
        ],
        [
            0.6064971098988357,
            0.8773454268873493,
            -0.254696249747111,
            0.16709213350370455,
            0.3523034354261727,
            -0.5881238227794492,
            -0.6440675480385658,
            0.02318884580662539,
            -0.2582807783434373,
            -0.6767660392020172
        ],
        [
            -0.8964611260472417,
            -0.658944635062771,
            0.24923848630789336,
            -0.2566222212185798,
            -0.4016938542294799,
            -0.5801186038044723,
            -0.8261677325167849,
            0.0293339568829023,
            0.3317311803808707,
            -0.5212023745339673
        ],
        [
            -0.8141293404339671,
            -0.7233364086580223,
            0.9621005389435247,
            -0.7755130847750977,
            0.3905326243478764,
            -0.3067094904370047,
            -0.36658063925624473,
            -0.9788255239493406,
            0.4540451563272123,
            0.1992313891989257
        ],
        [
            0.6116600308515143,
            0.11513322682170513,
            0.9314562572030209,
            0.045248167294730024,
            0.9301639043592178,
            0.38079853544741527,
            -0.46414652015514424,
            -0.5296314518909329,
            -0.3509051909028962,
            -0.4352295819622187
        ],
        [
            0.06329860409764576,
            -0.5444018554767083,
            0.7739696365200044,
            -0.4358529793051136,
            0.666943456017324,
            -0.24943595976611177,
            0.4626594238551356,
            0.23497057047711079,
            -0.055363866351951785,
            0.3318328227810565
        ],
        [
            0.0802123709467728,
            0.6226213467164172,
            -0.2526817031094708,
            -0.8238722271234273,
            -0.1401257134990912,
            0.638945497681874,
            0.9137901564609698,
            -0.7629281224390094,
            -0.12513509012510093,
            0.5689696703481522
        ],
        [
            0.6456636375316072,
            -0.9639555556459591,
            0.9173577227458065,
            0.20249461916482803,
            -0.2851269499376876,
            -0.6248025127149108,
            -0.3768806096990842,
            -0.5040556131738119,
            0.19932032683703715,
            -0.9478245535580945
        ],
        [
            0.9131598714873757,
            -0.8881921063642888,
            0.8924349717643199,
            -0.66524613854541,
            -0.6956775897755672,
            -0.2462383093035685,
            0.3544672734283887,
            -0.5068944426234085,
            -0.46992275910014336,
            0.39934943633279607
        ]
    ],
    "biasesOne": [
        -0.2612864094756171,
        0.7797926070112944,
        0.2260503611027751,
        -0.4217820053693542,
        -0.8488739321689451,
        -0.05468533216690674,
        0.26266337814727825,
        0.39114725716897225,
        -0.2159126353180807,
        -0.03791433721790294
    ],
    "weightsTwo": [
        [
            0.7703379762922082,
            -0.7803550701065078,
            0.006151165735300168,
            0.7368463391529383,
            -0.4233891628009414,
            -0.7229159869630997,
            0.03919397124132695,
            0.6888339258272616,
            -0.7933203149348744,
            0.03802652387683114
        ],
        [
            -0.8965810619169006,
            0.7031241777167847,
            -0.4787451752787275,
            0.4818862353398081,
            -0.7063338054460724,
            0.6442372773801668,
            0.7052548929415454,
            -0.13658366520909238,
            -0.7629421011529314,
            0.6877509775979576
        ],
        [
            0.8174345325169068,
            0.726512680952841,
            0.7330818113975699,
            0.6259519915024336,
            0.7239322096684853,
            0.6053705752626399,
            0.729073047869788,
            0.9094001330186798,
            0.12797792269468578,
            0.639499057656906
        ],
        [
            -0.7710573758438741,
            0.11729452503140836,
            -0.880929863238328,
            -0.9688964091634646,
            -0.6291939950960388,
            -0.5396381549030373,
            -0.3350463665026706,
            -0.24305266304419626,
            -0.9435021214632491,
            0.35354351145259155
        ],
        [
            0.11388594753533887,
            -0.6799287233045694,
            0.5531983366727928,
            0.8741800243255371,
            -0.938693937546599,
            -0.8291351193207708,
            0.3007920193081133,
            -0.5399386720473245,
            -0.17629955732829172,
            -0.5642665914995164
        ],
        [
            -0.5488955167467182,
            -0.26924212297186934,
            0.018764971384000795,
            -0.02425441754426272,
            -0.8752241275742649,
            -0.18664148463826957,
            -0.8034884235602575,
            -0.8620473087951674,
            -0.9138160430401716,
            0.47973745430627357
        ],
        [
            -0.2225459022384617,
            -0.13936324853116933,
            -0.5655035603357568,
            0.3379023389752611,
            -0.6998756905442141,
            0.07298718357815415,
            -0.8851157309020015,
            -0.969819086939758,
            -0.0765649019796335,
            -0.47070113009964465
        ]
    ],
    "biasesTwo": [
        -0.03799263940427844,
        -0.10719288516292069,
        0.1396201592766262,
        0.20983634587824884,
        -0.3855080962570403,
        -0.26049848520195384,
        -0.9399182923569953
    ],
    "weightsThree": [
        [
            0.24172026802774105,
            0.7314885697754223,
            -0.9737298697743464,
            0.24011793950471727,
            -0.8791564616882515,
            0.1086780974808117,
            -0.2784857627086672
        ],
        [
            -0.5063283108511412,
            0.9253171667122047,
            -0.2990624854720343,
            -0.12791173399480837,
            0.6628846097131857,
            0.5600610577715333,
            0.5718067940291489
        ],
        [
            0.7435847206397013,
            0.29235804170457347,
            0.824163794920902,
            0.9796205234306232,
            0.2759590293151035,
            -0.41644260747103035,
            0.14331424131576354
        ],
        [
            -0.37284687505956016,
            0.054260817584003807,
            -0.5324990368176579,
            -0.5390152117032838,
            0.06381738477334253,
            -0.07381430994445282,
            -0.6422383434583745
        ],
        [
            -0.602953151463318,
            0.3955849112374017,
            0.12299164388153616,
            -0.23236557600418717,
            -0.40670115134387386,
            -0.5617102095202746,
            -0.9675009029738149
        ]
    ],
    "biasesThree": [
        -0.7463297969494231,
        -0.26945881038431585,
        -0.363578526739323,
        -0.3847271956545204,
        0.8716726665274384
    ],
    "weightsFour": [
        [
            -0.6657437957516037,
            -0.9337936037181314,
            -0.6132136484709798,
            0.7409802621705779,
            -0.5521775614949802
        ],
        [
            -0.36955598689924507,
            -0.9816934498919738,
            -0.08551895474595317,
            -0.34571309239045833,
            0.872696339860501
        ],
        [
            -0.7768387080656372,
            -0.7364800043055793,
            0.1820871089385918,
            0.8548252813624244,
            0.6603934392702437
        ]
    ],
    "biasesFour": [
        -0.7903257505830181,
        -0.7396159277028009,
        0.16310287929846545
    ],
    "weightsFive": [
        [
            0.7493929638275223,
            0.8409356971120354,
            -0.931634385223352
        ],
        [
            0.7005771104356764,
            -0.09081352962461664,
            0.8299847231599506
        ]
    ],
    "biasesFive": [
        0.08637695169620674,
        0.7708049439549838
    ],
    "fitnessValue": 0
}