{
    "weightsOne": [
        [
            -0.7102749368814993,
            -0.8394917619369542,
            -0.535839679046259,
            0.17957319095638735,
            0.8767145582406586,
            0.7499856739182009,
            -0.2734065333534692,
            0.20953754172153105,
            0.6710958742192163,
            0.32072415983231495
        ],
        [
            -0.3496261441459234,
            -0.4851005115797449,
            0.36041827238865953,
            0.48416251960095935,
            0.939070185988607,
            0.27863346562464275,
            0.38587335747504214,
            -0.21816981280616887,
            0.8649923301466131,
            0.1983141700333153
        ],
        [
            0.36397825781155047,
            -0.3800852928473606,
            -0.5285274971037806,
            -0.49397326375299144,
            -0.25746786973568425,
            0.5065871250894369,
            0.019661052867038675,
            0.755807125173289,
            0.25441346351270844,
            0.7840281000098754
        ],
        [
            -0.4941107650955905,
            0.8411541514490481,
            0.9332730318002669,
            0.6954747781437238,
            -0.24737568279951794,
            -0.8013605551251681,
            0.028251898580706314,
            -0.7549538938718867,
            0.9265688680214219,
            0.42889764750967685
        ],
        [
            -0.3051085259288169,
            -0.8072967208761632,
            -0.3887219388472136,
            0.7901821998202128,
            0.8788916675387823,
            0.9917846574814322,
            0.6441456006903001,
            0.1820781576462016,
            -0.5810748228858615,
            0.7439502085671803
        ],
        [
            -0.6696731506255058,
            -0.16028553085715602,
            0.4459582197546297,
            0.6329454770535152,
            0.1907295578778414,
            0.8349059216359511,
            0.17320306925799955,
            0.5967356944527327,
            0.47224777356955916,
            0.6058591245371303
        ],
        [
            0.09167547213770888,
            0.5985687794831533,
            0.3410830387125845,
            0.03402766178595518,
            0.2609116198547541,
            -0.9015791313668826,
            0.6969333160446591,
            0.5813656937411256,
            -0.5049174342438238,
            -0.48918351007321625
        ],
        [
            -0.3012633668377136,
            -0.4763959252737473,
            0.3991886467748087,
            -0.47157610404995554,
            -0.24867636759918832,
            -0.5340396457849073,
            0.5651935552978726,
            -0.3728554666308501,
            -0.8666546943885391,
            0.44114245343379643
        ],
        [
            0.7185573285965798,
            0.449122671720497,
            -0.6207129521045467,
            0.8272152151329029,
            0.2605411792227623,
            0.6036993005686777,
            -0.801720768273471,
            -0.2412524397583251,
            0.5109593534817896,
            -0.3187879978203616
        ],
        [
            -0.6853944861640884,
            0.5409473401243146,
            -0.1316597299847153,
            -0.949020940252207,
            -0.10653512200396498,
            0.1332983169518971,
            0.31709933548434965,
            -0.4590864572086879,
            0.6935133301005285,
            -0.42789439504100923
        ]
    ],
    "biasesOne": [
        -0.9917134530456375,
        -0.5922376868445953,
        0.9285175523556357,
        -0.8018279108636945,
        0.43040681175676765,
        -0.8361893568135355,
        -0.6186141874683566,
        -0.4251836549375765,
        0.29675417713660646,
        0.6100647045646088
    ],
    "weightsTwo": [
        [
            0.09867928095870093,
            0.2546620161530093,
            -0.5906867571039573,
            0.3429801377727284,
            0.10947594989621257,
            -0.019406880783987557,
            0.8388893603406047,
            0.7017478372683781,
            -0.09691119296953699,
            -0.8946017909261366
        ],
        [
            -0.35744781518200197,
            -0.3984356462552543,
            0.19453683147854517,
            0.5958407501787177,
            0.46267433839850725,
            0.756092316359938,
            -0.9167378418165653,
            0.7252785661621672,
            -0.03753758442730626,
            -0.15053175026111365
        ],
        [
            0.04906039876699975,
            0.2528490152953917,
            0.8932052132252806,
            0.5441780507752956,
            0.9905384573628813,
            -0.6031049359452572,
            -0.06370680898099201,
            -0.0650731088386034,
            -0.6775372001639155,
            -0.8325143804396182
        ],
        [
            -0.8157062457682445,
            -0.17861610280690865,
            0.5888760383636051,
            -0.398857108578484,
            0.44438529887010136,
            -0.13445692590248948,
            0.05663018771090589,
            0.0908184663325502,
            -0.28687156652247725,
            -0.9619598153782467
        ],
        [
            -0.7066437077669894,
            -0.7243691296795502,
            -0.1297968148330897,
            -0.33511826673471123,
            -0.44094639132552027,
            0.1313640241232119,
            -0.8298573756115069,
            0.504425687651419,
            -0.36149110605587675,
            -0.9780020509740357
        ],
        [
            -0.5266795769735049,
            0.5532846081484024,
            -0.33909578661026063,
            -0.3487509951546579,
            -0.20598108254950098,
            0.8452443594029335,
            0.44003637330423806,
            0.7985875270431475,
            0.6133574294477637,
            -0.6036356622455847
        ],
        [
            0.9096243305616138,
            0.9519016095650923,
            -0.11856214660415598,
            -0.056939260171081196,
            -0.5099363006662978,
            -0.8997890186311894,
            -0.5859046021045928,
            -0.4326683324866105,
            -0.6352908337066954,
            -0.5548394557082805
        ]
    ],
    "biasesTwo": [
        0.9398134312801609,
        -0.11644670384390876,
        0.5208591270596334,
        -0.5241971981183404,
        -0.5394779757677963,
        0.07858944931483847,
        -0.12345159375823012
    ],
    "weightsThree": [
        [
            0.16025094450203503,
            -0.07064707981614426,
            0.5127206927319725,
            -0.37201332073911053,
            -0.26375795408507585,
            0.45746682463862354,
            -0.6926578604243332
        ],
        [
            0.2550383320519587,
            -0.8242005562366677,
            -0.8588644597247195,
            0.5815668599502268,
            0.36678595299681027,
            -0.15235871025238512,
            0.3845561709003049
        ],
        [
            0.8275095309030798,
            -0.18026476385802326,
            0.7101687781786648,
            0.41519923505365663,
            0.5249381257710448,
            0.49592058411338047,
            -0.11623804875650823
        ],
        [
            0.8605005794055498,
            -0.5625887772739757,
            0.41224249578456496,
            -0.7997217891869994,
            -0.6225789016633669,
            -0.19130322394464128,
            -0.5488352527188392
        ],
        [
            -0.0370096367098347,
            0.4633293869949664,
            0.9397329263267205,
            -0.4673626006382059,
            -0.6225750350763521,
            -0.015602248900097315,
            -0.18521677950904292
        ]
    ],
    "biasesThree": [
        -0.9561787802125976,
        0.8356825924951172,
        -0.1207534508416328,
        -0.626166957968884,
        -0.9491866373356994
    ],
    "weightsFour": [
        [
            0.17701103764185877,
            0.14982099551938965,
            -0.07025767692707441,
            0.28936498557201484,
            0.18873934980407636
        ],
        [
            0.3599963709479501,
            0.6177284880951963,
            -0.3028958564704982,
            -0.6019510933619636,
            0.8020594120553286
        ],
        [
            -0.18796834984525113,
            0.20647874615323203,
            0.4416248163487686,
            -0.44153275809739756,
            -0.540447396709504
        ]
    ],
    "biasesFour": [
        0.6984910804654654,
        -0.955224779670971,
        0.6355075889525508
    ],
    "weightsFive": [
        [
            0.5597244647278525,
            0.6336630752407268,
            0.9991685658912259
        ],
        [
            -0.37738864453830034,
            -0.3518145921407392,
            0.4424276051003251
        ]
    ],
    "biasesFive": [
        -0.5852476621365419,
        0.29025170374720743
    ],
    "fitnessValue": 0
}