{
    "weightsOne": [
        [
            0.10223946234967185,
            -0.8055267589434363,
            0.7357602480556829,
            0.2707441052901891,
            -0.18814960594044483,
            -0.07721696932774447,
            0.9191299682187424,
            -0.6263938760455798,
            0.7575409705231626,
            -0.4017970981199881
        ],
        [
            -0.2543979429085452,
            0.8847706409977334,
            -0.7036176431569243,
            -0.7535606334892166,
            0.5237992209004791,
            0.4483061182611092,
            0.8080571732195214,
            0.09081869609947502,
            -0.24234917806830447,
            0.876912983631835
        ],
        [
            -0.9093095898844685,
            0.34168157007657096,
            0.7084232822786127,
            0.9359867300133475,
            0.6792384586633977,
            0.8985835488010387,
            0.14071857975115631,
            -0.6983857029972287,
            -0.6690201130401838,
            -0.03374619830443604
        ],
        [
            -0.3510467108547062,
            -0.1659172696845157,
            -0.8979679815053718,
            -0.4306068578196698,
            0.8442104897330922,
            0.1124486173759085,
            0.1991201188665106,
            0.26851367574634355,
            0.30821468330497837,
            -0.7337017765908296
        ],
        [
            0.6861619541945234,
            0.819681716779679,
            -0.13219058360955582,
            0.8018030860696526,
            -0.2326068629168474,
            0.19470361386246227,
            0.12638655111233632,
            -0.14527556486643212,
            -0.5984141255379796,
            0.2903896788792588
        ],
        [
            -0.629541261696599,
            0.15154747838391502,
            0.005982604916754619,
            0.6871620096181696,
            0.9073657649221318,
            0.05851107754160889,
            -0.47630926348310276,
            0.41817725193366395,
            -0.45798035248203117,
            0.9275721898352682
        ],
        [
            0.2903169005520654,
            0.9312999672151943,
            0.032817627574992736,
            0.3387885033131264,
            -0.9561480143617727,
            0.10799749842156658,
            0.9116254665651529,
            -0.5333764353185833,
            0.0726675650301638,
            0.6513311587856347
        ],
        [
            -0.35576148046133693,
            -0.043935294663968616,
            -0.63568041064643,
            -0.7737514195752064,
            -0.10772205152189263,
            -0.704470465083914,
            -0.28574659221939425,
            -0.21312722845967502,
            -0.14187736027228803,
            -0.8695010978702986
        ],
        [
            0.18927855209336708,
            0.35306742845272776,
            -0.0051857079502539705,
            0.5543423451823886,
            0.10063634957673973,
            0.2666603332934889,
            0.772235470037222,
            -0.8221438651386204,
            -0.46388858986021675,
            -0.9697574834756304
        ],
        [
            0.03941283261575679,
            -0.6781677577775436,
            0.3122094647761615,
            -0.7783489406455397,
            -0.583471710217965,
            -0.6410392499073105,
            0.5802735190467752,
            0.3873381258581161,
            0.6322670645334005,
            -0.4065593777921708
        ]
    ],
    "biasesOne": [
        0.3933495499913633,
        0.3370156394831183,
        0.4138970366750363,
        0.47147798101083715,
        0.05124656977279196,
        -0.9446592431804723,
        -0.2913463500004083,
        -0.9819756098993153,
        0.7212604949998118,
        0.7024480213660431
    ],
    "weightsTwo": [
        [
            0.8730679536285766,
            0.4176723100370803,
            -0.1269726631288033,
            -0.7380236042142756,
            -0.17479406931121955,
            -0.7109962977695594,
            -0.6549627714379018,
            -0.3784842536195401,
            0.5125034666147783,
            -0.36674156588460116
        ],
        [
            0.25843842515493254,
            -0.29501521023452026,
            -0.6448037697497457,
            -0.9903084643897364,
            -0.0418610344353505,
            -0.26702921717139905,
            0.47685684583523247,
            0.6971319788611534,
            0.16795532139893643,
            0.3293566372935681
        ],
        [
            -0.1909896912493858,
            -0.7456277665729687,
            0.6428741545421226,
            -0.14169817129345064,
            0.9773195818499929,
            0.8378326174833326,
            0.42971206144350416,
            0.573083113845198,
            -0.31046614461794575,
            -0.6158303888973011
        ],
        [
            -0.3366840389596806,
            -0.3499740192381089,
            0.4776179854201428,
            0.1562377008529332,
            0.380978952821986,
            0.9356945261971739,
            -0.9145525150770766,
            -0.44681181442628715,
            0.46932136151143755,
            -0.014214048748200758
        ],
        [
            -0.27127641747541587,
            -0.6306422225081663,
            -0.09654105032523419,
            -0.47990674264667654,
            -0.8518902361050094,
            -0.24101197754079373,
            -0.9459048678325597,
            0.9948189240480321,
            0.016270147383301348,
            0.876451695760857
        ],
        [
            0.24370561222820575,
            -0.6995391394208974,
            0.42760866346031934,
            -0.4705915548673847,
            0.3748489908803212,
            -0.804803826684223,
            -0.24714807989142074,
            0.7136313316579661,
            -0.21248001558566432,
            -0.17612085538517852
        ],
        [
            -0.6162513169546253,
            0.006294255001497051,
            -0.06905448058279395,
            -0.36848756521871384,
            0.5344773574878796,
            0.9499697726222582,
            -0.8318139170998027,
            0.532572827624791,
            -0.7650408293347428,
            -0.9433674499644631
        ]
    ],
    "biasesTwo": [
        -0.828516864501357,
        0.9129358770532598,
        0.5217237640257939,
        0.4199167933529684,
        0.7667765789092389,
        0.7415345394250239,
        -0.5468126540784586
    ],
    "weightsThree": [
        [
            -0.8991710556893067,
            0.1179431866617695,
            0.6220323512966086,
            0.7510140638405791,
            -0.8043398706847307,
            -0.8077514070099834,
            0.1867490916568506
        ],
        [
            -0.41846620409082047,
            0.49388722768927207,
            0.06587784447773881,
            -0.7175477316786489,
            -0.45365582145229655,
            0.7445241505957463,
            0.5033268550468974
        ],
        [
            -0.7979759336660659,
            0.7575155412803076,
            0.42957380254278865,
            0.9837284214466133,
            0.07891416393934403,
            0.19959799265679146,
            0.18186940914550043
        ],
        [
            0.1024739903271088,
            -0.4446161696861344,
            0.5699398004551834,
            -0.6871787500689508,
            -0.19481518603951797,
            -0.732484932678841,
            -0.7816976250744292
        ],
        [
            0.8034348525902331,
            0.12959717478622323,
            -0.543430025883723,
            -0.7021495457939761,
            0.5019455258126511,
            0.7470844335339977,
            0.7298050185263971
        ]
    ],
    "biasesThree": [
        -0.49075011962731185,
        -0.8983747645206137,
        -0.9610145476439844,
        0.08332825912305353,
        0.12956706097034343
    ],
    "weightsFour": [
        [
            -0.07041927511770485,
            -0.25186647929417183,
            0.9170095633793516,
            0.9376621139640315,
            0.9097191917546725
        ],
        [
            -0.882522104195363,
            -0.8216776552934544,
            0.23133488965898064,
            0.06894500540461723,
            -0.36460479866040973
        ],
        [
            -0.7985510523359654,
            0.41553346791263257,
            0.16506469090114773,
            -0.05626194939469653,
            -0.2671646318305021
        ]
    ],
    "biasesFour": [
        -0.6868747430084488,
        -0.056248789160877166,
        0.8946883224903472
    ],
    "weightsFive": [
        [
            0.9905001281915762,
            0.1798786360963598,
            0.9689489300655443
        ],
        [
            0.5348017371190521,
            0.5487335493714143,
            -0.1547510354222228
        ]
    ],
    "biasesFive": [
        0.3245377140832608,
        -0.44681604983529244
    ],
    "fitnessValue": 0
}