{
    "weightsOne": [
        [
            -0.07325265948041704,
            -1.506463713932046,
            3.7326218669470315,
            -0.18565464782507202,
            -4.817999164061693,
            -2.115465685638646,
            -1.1435506883147974,
            0.044301386923616626,
            -4.210241716808236,
            3.051770944644499
        ],
        [
            3.2801234083075776,
            0.19823694311104956,
            4.7423330461903035,
            3.1889349866991594,
            2.7956115728579984,
            3.1752914365632225,
            -0.512866526903025,
            -1.0439856366665157,
            0.28656649841164583,
            3.812446150153413
        ],
        [
            -4.121670668916764,
            3.7273658888402785,
            0.008548050224797876,
            4.350775613930953,
            3.2147080859213233,
            -4.760251385585179,
            2.588361350900879,
            3.0255070740388295,
            -0.9631633528859549,
            2.3791837406157947
        ],
        [
            3.5009886155739984,
            -1.2309890464369353,
            -0.08911521511289511,
            -2.5551761976935907,
            4.770433605243731,
            0.8253354597862641,
            -0.9533535055706768,
            -0.7347709813440413,
            -0.20748636114459984,
            2.071969905136214
        ],
        [
            1.048788569016982,
            2.6794294552980533,
            4.229344390357532,
            1.5132035873635523,
            1.4445071463314338,
            -1.735358990920707,
            -4.833075023142469,
            -0.32041605604260326,
            -0.23409261071656395,
            -0.5935652872271122
        ],
        [
            -0.10151938419251039,
            4.202668564123272,
            -0.22026805864204246,
            -2.754659495377817,
            -0.9529166081492848,
            -1.5199741619709295,
            -2.9846432521266744,
            -1.686291836225331,
            -0.903481502241231,
            -0.6545498626537691
        ],
        [
            -1.0129806093451355,
            -1.3310150816860675,
            0.7929001860032123,
            0.4963994822926887,
            -3.1215422565384667,
            3.6833087737937404,
            0.9065569930780217,
            -0.8062167591647482,
            0.725724459383513,
            2.2654545993051878
        ],
        [
            -0.6551806062915624,
            -1.8059699508096339,
            1.0853254855434713,
            2.7033041950655203,
            -0.923150506444383,
            2.8042090653578278,
            4.42803561139147,
            -3.5467116051353518,
            -1.1909560435882316,
            -2.726144489116493
        ],
        [
            -0.3526574518415284,
            2.247473798487613,
            2.2744023582260118,
            -0.16520428896824768,
            4.616679797606119,
            -1.6471738306179553,
            -0.536637237113391,
            -1.6718344592524872,
            0.5799390183582824,
            3.963023493579435
        ],
        [
            -3.714057626033882,
            -0.8363002992732522,
            -0.205792421188292,
            3.46622721064308,
            -3.4780196886080903,
            1.8243791176204578,
            0.1998225317098994,
            0.8640967520586162,
            -3.2000403981580194,
            -2.2797902768378098
        ]
    ],
    "biasesOne": [
        -0.4982273736295024,
        3.3717862373090224,
        3.786548656854645,
        -0.21863032392055448,
        -4.019548271661786,
        -1.1778931709817666,
        1.190580508426792,
        3.7212421428681264,
        4.610902136818849,
        2.775890857713975
    ],
    "weightsTwo": [
        [
            0.6836371531455778,
            4.001764398830833,
            2.7639675999633626,
            -1.5244658201107253,
            -0.17446513229350202,
            -0.41750547612079103,
            4.921971964083108,
            1.6048568660991087,
            0.19752234665019763,
            -1.5393501389447426
        ],
        [
            0.735801909808881,
            4.7457350198606125,
            3.709218493295852,
            -0.8339246113855976,
            -4.750871889182959,
            -0.9338155423910415,
            0.49577874757086704,
            0.3492284369729395,
            1.8399781963222406,
            0.0145190952324592
        ]
    ],
    "biasesTwo": [
        0.8116937933979589,
        1.6866296994599992
    ],
    "fitnessValue": 33.23618676535677
}