{
    "weightsOne": [
        [
            -0.25773814086696656,
            0.5189334420133218,
            0.6199719214462898,
            -0.6659714406237665,
            0.4188903974786635,
            -0.845394440881104,
            0.8903520129199098,
            0.2087576207968158,
            -0.4158127221070482,
            -0.4437687223283522
        ],
        [
            0.44008433494399934,
            0.2747733590509067,
            0.8164299225908795,
            0.19175194915369254,
            -0.9321106745783039,
            -0.35028466628861277,
            0.4024602654190661,
            0.9283153410427227,
            0.9159530661466526,
            0.3314934674486736
        ],
        [
            -0.30038771366939465,
            -0.13375197787548365,
            0.9873949373375126,
            0.15990697229695416,
            -0.5513124554419067,
            -0.5764589724475344,
            -0.17366624902347683,
            0.4173191616985177,
            0.9377180481629823,
            0.3566310931534158
        ],
        [
            0.7195336030011248,
            -0.5322320547778834,
            0.34940189727476767,
            0.3984588750030451,
            -0.07408027282725249,
            -0.7275167476083337,
            0.14794388616130738,
            0.1504323048785321,
            0.9977809095066066,
            0.20872374505813407
        ],
        [
            0.9147481439500542,
            -0.5133040260896558,
            -0.2847644896553918,
            0.7245972603476614,
            -0.20601100696836072,
            -0.7838671350275566,
            0.05605882570063425,
            -0.6252389225244142,
            -0.42794063578042874,
            -0.9262220752599131
        ],
        [
            0.10237929962931536,
            0.38650152376497404,
            -0.8295807335928695,
            -0.023772030257741994,
            -0.3408059600110349,
            -0.9851023178986487,
            -0.011192335119285968,
            -0.2634019058791539,
            -0.7625893855959884,
            0.6573479264432653
        ],
        [
            -0.7333994111440549,
            -0.8643037023732021,
            0.1112964270194754,
            -0.8367141943385195,
            0.7625310789961519,
            0.9486286552661323,
            -0.14996377761403856,
            0.9219969348543153,
            0.7502233467989115,
            -0.6276873202565101
        ],
        [
            -0.9656318411716203,
            -0.6977091386004606,
            -0.7401876671627685,
            0.06781511085722447,
            0.070329755154946,
            -0.18872334819536563,
            -0.37993775054840206,
            0.9469645364926544,
            -0.5954404309105812,
            -0.49693866626725214
        ],
        [
            0.5464928664303552,
            -0.6577268638364939,
            -0.35664380516767813,
            0.4941213296285971,
            0.6677489275668671,
            -0.5760959514501116,
            -0.5381405802149104,
            0.507980335073358,
            -0.5345869253543107,
            -0.3563798812200707
        ],
        [
            -0.6232873139823321,
            -0.5205906359089805,
            0.5093571740284739,
            -0.07925826138154046,
            -0.611406752661686,
            -0.2257324439992925,
            -0.9190554375216329,
            0.6762071588188445,
            0.33853576232237304,
            0.32149924373768535
        ]
    ],
    "biasesOne": [
        0.4487536281017612,
        -0.8138184702486819,
        -0.35889305172804264,
        0.9184671963382871,
        0.48622227904090254,
        0.353143797527091,
        0.6754562931028605,
        0.18972434784290093,
        0.8963481203459958,
        0.4424939308577831
    ],
    "weightsTwo": [
        [
            -0.11162537890041224,
            0.07051032861399009,
            0.9590347505094374,
            0.0803366984530629,
            0.9994030951730497,
            0.6538220791333671,
            0.28044557309483165,
            0.33235080442076237,
            0.049607472918254736,
            0.485338347209576
        ],
        [
            0.9321472083037003,
            -0.06685516954560988,
            0.9286276732797762,
            -0.5033660208098489,
            -0.7828690199054162,
            -0.8784874198620023,
            -0.38465254385562475,
            -0.7974889925071023,
            -0.05248498853795991,
            -0.24608502027420243
        ],
        [
            0.18740577125317848,
            -0.042343036725170924,
            0.6992418795684379,
            0.7306163959783705,
            -0.36650562751003113,
            -0.29302344352710463,
            0.24973770777439053,
            0.7110338002680703,
            -0.4959559566614764,
            0.6328774555507202
        ],
        [
            0.5238887508889325,
            -0.22443135760640032,
            0.18114188845163648,
            -0.8738020500250179,
            0.4678895708601092,
            0.49954846203564807,
            0.22186483195356788,
            -0.02287758512943161,
            0.5283426506179794,
            -0.6482059477697437
        ],
        [
            -0.9978150377733976,
            -0.9208318711423491,
            -0.7854496795048493,
            -0.0995019198939171,
            -0.3280643797795417,
            -0.928053218080708,
            0.8746759554116368,
            0.5677929030485804,
            -0.19408632170272244,
            0.048840765672815145
        ],
        [
            0.5046533858543774,
            -0.3692338641608772,
            0.4017492648023797,
            -0.5146293352082647,
            0.4634207784722222,
            0.33604374091313116,
            0.03742906741983765,
            -0.20151510406688122,
            -0.4686033275611341,
            0.012021218198526418
        ],
        [
            -0.26127125106779636,
            0.8667710994611622,
            -0.21292274325851235,
            0.6759843715379845,
            -0.9686709947567966,
            0.4319371758933561,
            -0.4360670758265235,
            0.534174114732153,
            0.7468757336143292,
            -0.4967377676474194
        ]
    ],
    "biasesTwo": [
        -0.26901701200742467,
        0.32824523778152126,
        0.9108440515393259,
        0.7305497467856734,
        0.5498434531189378,
        -0.4019143739981874,
        0.02897743240296169
    ],
    "weightsThree": [
        [
            -0.9970474292047973,
            0.5337038365768063,
            -0.40889660355222235,
            0.7283697927151076,
            -0.3802182776723768,
            0.5757394312360322,
            0.04246585181243301
        ],
        [
            -0.752997709727032,
            -0.6871162548424394,
            0.9467486094719475,
            0.0458140439596324,
            0.6629813318447346,
            -0.05127397687543356,
            -0.025244081604433255
        ],
        [
            -0.37648973178462763,
            -0.73081979544391,
            -0.2840755604116061,
            -0.4394836990352524,
            0.6671347073372194,
            -0.27526525892886955,
            0.32270756579398907
        ],
        [
            0.0021089934056546245,
            0.6340027383866353,
            0.5862157464578117,
            0.5503771278548839,
            -0.7724199986410214,
            -0.14440664143371706,
            -0.7759548809708037
        ],
        [
            -0.44243594743961334,
            0.45187636853305335,
            -0.2562248440196313,
            -0.31282290889044995,
            -0.2404262278397653,
            -0.8101478786889011,
            -0.6235528278217446
        ]
    ],
    "biasesThree": [
        -0.6358864768802477,
        -0.16110663755646448,
        0.03011126127549013,
        -0.9241756532317071,
        0.2505697073310571
    ],
    "weightsFour": [
        [
            0.8769082859927597,
            -0.0122199559749121,
            0.8786468973374246,
            0.15090974410080316,
            -0.5916815435995899
        ],
        [
            0.33753706670652717,
            0.8278329938625049,
            0.8447090084250446,
            -0.042900711838478545,
            -0.7769006056665415
        ],
        [
            0.3788095561672944,
            -0.06347218730726367,
            -0.6466396531159939,
            0.3626674745916849,
            0.12264364356156743
        ]
    ],
    "biasesFour": [
        -0.5144567572944421,
        -0.8933558811497926,
        -0.4995583622211528
    ],
    "weightsFive": [
        [
            -0.7565290615298033,
            -0.6603984970094812,
            0.5591659456090727
        ],
        [
            0.7674128557370101,
            -0.47764317044966464,
            -0.2597920506099545
        ]
    ],
    "biasesFive": [
        0.3853838010174955,
        0.9589146604413934
    ],
    "fitnessValue": 0
}