{
    "weightsOne": [
        [
            0.893188467261343,
            -0.44249578079085516,
            -0.35232187230576884,
            0.372098591678367,
            -0.7257781235304483,
            0.6362477157054776,
            -0.04445211151987927,
            0.0464394168698421,
            -0.9627245606535455,
            0.1979572454959988
        ],
        [
            -0.5833572096760751,
            -0.8165658304329708,
            -0.42530342774259733,
            -0.03739246818945796,
            -0.5218547224619718,
            0.3178752684217707,
            0.6852302894994113,
            0.48933265506657775,
            -0.6969253963060191,
            -0.5838238267026163
        ],
        [
            0.9433887800929392,
            0.8912988366968093,
            -0.792690003464585,
            0.3912892782775865,
            -0.6472743263679044,
            -0.24135667474768097,
            0.5097822518606634,
            -0.8773371827399041,
            0.5064716857030511,
            0.8926617620038415
        ],
        [
            0.33169571203892567,
            -0.033105257227372675,
            -0.7929372472230716,
            0.8195611604931474,
            -0.8139545993049362,
            -0.4649535954056194,
            0.5414495648148308,
            0.9220510732085976,
            0.7100493396764993,
            -0.8091420952459345
        ],
        [
            0.2109294075312984,
            0.6561242848120923,
            0.8961634897450872,
            0.18345382181045689,
            0.8327742752754785,
            0.830709055686585,
            0.6725925804221626,
            0.107742515487814,
            0.36205148135632625,
            0.3063282448381097
        ],
        [
            -0.034094909015438324,
            -0.8945688316897034,
            -0.5797026949483732,
            -0.8327380526800303,
            0.6518574027841635,
            -0.4566563297774191,
            0.6372752557073054,
            -0.39015449404158953,
            -0.7817157124033147,
            0.20710004401129867
        ],
        [
            -0.7573850384303344,
            -0.851461581774352,
            -0.17294034472628073,
            0.3673043095868658,
            0.6542743063503609,
            0.8172486401354087,
            0.9868560908249373,
            0.7597534559985051,
            0.24810552770549443,
            0.1515998022276781
        ],
        [
            0.756120168475426,
            0.5691945163945509,
            -0.8591230607548725,
            0.8842839606564716,
            0.7858323347180782,
            -0.13569776615346374,
            0.7842922662078076,
            0.7792122604736076,
            -0.306053793109776,
            -0.7931567037773697
        ],
        [
            -0.4656192402497821,
            -0.9053517409541327,
            0.03626312075505522,
            0.9651795733950601,
            -0.905596427564286,
            0.13828516906549004,
            -0.6465658832347378,
            0.10463378694884362,
            -0.6350228834707856,
            -0.35761410379906144
        ],
        [
            0.5882246648769149,
            0.5613906007536953,
            0.7700472507589717,
            -0.7258632921714903,
            0.2110951708755846,
            0.10301104504392611,
            0.9384082778144409,
            0.8549541018100733,
            0.2737338919537382,
            -0.9022640105615449
        ]
    ],
    "biasesOne": [
        0.08864171839928447,
        -0.44725021456890524,
        -0.04428794611815379,
        -0.04382659837877889,
        0.13234806375430908,
        0.7911817917553774,
        0.11457916920345412,
        0.14573601720522333,
        -0.5980489844150367,
        -0.10227919968316357
    ],
    "weightsTwo": [
        [
            -0.42107228637572214,
            -0.0778599156961115,
            0.24894586923458872,
            -0.9218863947205789,
            0.528112893239244,
            -0.5745390014386729,
            -0.057796678566115034,
            -0.867966666401286,
            -0.8305860846048136,
            -0.8363488562107682
        ],
        [
            -0.8351087793684295,
            -0.824859615624645,
            0.0620944827648251,
            -0.2633907751969089,
            -0.7674932229015248,
            -0.45728067724033794,
            0.1230680289119146,
            -0.7714924230687306,
            0.210174855434059,
            -0.7987382266810519
        ],
        [
            0.5838772877170864,
            -0.9727532724853745,
            0.12491954659461402,
            -0.6652461502549587,
            -0.46777811673055925,
            -0.05048251633916245,
            0.2135926254471876,
            0.6544149331058384,
            -0.8102459851006705,
            -0.05470644126839552
        ],
        [
            -0.1265561522846015,
            -0.4515471106230371,
            -0.3820440923916455,
            -0.7193848887149066,
            -0.9131334881163431,
            0.10937195691139445,
            -0.9118443379528622,
            -0.39732616079241145,
            -0.9856655501857741,
            -0.15627126213865417
        ],
        [
            0.9461898517482177,
            -0.624028711248773,
            -0.1678963236998201,
            0.02411347353666682,
            0.7287924460752688,
            0.6148577160904909,
            0.2440071547000915,
            -0.5012992415529689,
            -0.001902166151713569,
            0.6586392437894191
        ],
        [
            -0.6895933480704242,
            -0.47278245435062005,
            0.9549217034126247,
            -0.4756198338630204,
            -0.30381146259477054,
            0.4206915725390661,
            0.7031748049233129,
            0.10300979732804327,
            0.3898189409665289,
            0.905059356361994
        ],
        [
            0.5276913682299846,
            0.69905207564316,
            -0.06517956748059284,
            -0.4215409942967614,
            0.04049457808715218,
            0.6248542397515187,
            0.12724215361577396,
            0.4755381599402615,
            0.495008462292037,
            0.8590179519675112
        ]
    ],
    "biasesTwo": [
        0.2871346791040874,
        -0.6871000960351641,
        0.4375776803252944,
        0.13693663809844558,
        -0.9312432897298528,
        0.16302485144361278,
        0.13380084898106315
    ],
    "weightsThree": [
        [
            0.266379069196264,
            -0.10301826947780834,
            0.11112324728433198,
            -0.03626082016692744,
            0.8351410192830524,
            0.9236454053062426,
            -0.5966092881749676
        ],
        [
            -0.8876055046981779,
            0.4522268004258514,
            0.37084293124024703,
            0.36808823252581946,
            -0.2920125393725357,
            0.35282922393438354,
            0.9426952186410991
        ],
        [
            0.46444628454570447,
            -0.15263440669701156,
            -0.6397513133957236,
            0.6733089493929811,
            -0.8781249642310678,
            -0.04516782603858349,
            -0.6656085943220669
        ],
        [
            0.9729282588264714,
            -0.7631268400752587,
            0.7952578273115878,
            -0.674614091311192,
            -0.2073013249696094,
            0.47707692366499455,
            -0.5921922990614314
        ],
        [
            0.4051824328185267,
            0.2329662114942359,
            0.2307146663012445,
            -0.6782079083495738,
            0.5531093072945312,
            -0.4508490753078298,
            -0.5600979522514029
        ]
    ],
    "biasesThree": [
        0.03613723570577143,
        -0.8177158327822651,
        -0.4055627945027682,
        0.8712646354799256,
        -0.3248164172199679
    ],
    "weightsFour": [
        [
            0.981501778936225,
            -0.3946297374234031,
            -0.5733355052228404,
            -0.21581543534578285,
            -0.7001400294009759
        ],
        [
            -0.174937487209059,
            -0.3439086105546838,
            -0.8873931450716195,
            0.9263930947302905,
            -0.7848426504046329
        ],
        [
            0.3937888193785881,
            -0.14781034555309702,
            -0.005613697275993035,
            -0.530911107248994,
            -0.3891464981793886
        ]
    ],
    "biasesFour": [
        -0.13869567141205486,
        0.013629651786520203,
        -0.9256036547311297
    ],
    "weightsFive": [
        [
            0.5232503584570669,
            -0.1486541608857601,
            -0.613922583389265
        ],
        [
            0.750168939862325,
            0.9278320878835464,
            0.38477210499172276
        ]
    ],
    "biasesFive": [
        0.9432207842722531,
        0.7787362526757746
    ],
    "fitnessValue": 0.0
}