{
    "weightsOne": [
        [
            -0.3680217397860135,
            0.040858785313458545,
            0.5976580894796606,
            0.31118217952031646,
            -0.6132186301351306,
            -0.2815679185396287,
            -0.15590319093082794,
            -0.768865505812905,
            -0.3788202495936608,
            -0.8731612459768039
        ],
        [
            -0.8277450607916432,
            -0.20893270626778127,
            -0.817964245289174,
            -0.8778852782935416,
            -0.9765216600607047,
            -0.7663154219699235,
            0.8724861090960383,
            0.41170212822383445,
            -0.6916934676936346,
            0.6115006323070915
        ],
        [
            -0.7970175791857288,
            -0.7160414492880611,
            0.5616582106474546,
            0.002904295384681177,
            0.45066231535874723,
            -0.4139421379468573,
            0.10647682654452795,
            0.7099382872942042,
            0.2509388399786965,
            -0.8830817125950989
        ],
        [
            -0.20115353178979034,
            0.07849641665113971,
            0.4240658443572949,
            -0.3701023979888025,
            0.5433659086145746,
            0.3629783107956597,
            -0.6476166077975867,
            -0.5331841150241685,
            -0.34537012876461093,
            -0.02524349140357951
        ],
        [
            0.6551450821061642,
            0.28499649166792107,
            0.7347104570063976,
            -0.6737725534677503,
            -0.6301972325463558,
            -0.1307648496549132,
            0.2680732347610608,
            -0.5805519134387538,
            0.547646902427189,
            -0.18377294305912106
        ],
        [
            -0.2871734225675926,
            0.0296929542887161,
            -0.15173207832010216,
            -0.2582898526277533,
            -0.4539566418224954,
            0.6448274624449357,
            -0.765817910536257,
            -0.6342087643177203,
            0.4482430067344678,
            -0.6691589382481942
        ],
        [
            -0.4771486693425666,
            -0.5578474913060356,
            0.2301493813115323,
            -0.28444322184209225,
            -0.9020915658629971,
            0.276759245446522,
            0.23743951306991873,
            -0.577210980849937,
            -0.11927231989379838,
            -0.5179650523074104
        ],
        [
            -0.9248113215075844,
            0.4800508441040199,
            0.8838037606879778,
            0.20313549840681144,
            0.8482804050430768,
            0.478225771288844,
            0.8538433602488062,
            -0.6315228723758202,
            -0.5448304721229151,
            0.9248455834456573
        ],
        [
            -0.5184952672074372,
            0.010683832119892323,
            0.696783409843966,
            0.25366508399691323,
            -0.8903226862221696,
            0.7369573838597723,
            0.620196914609886,
            -0.007947278568228633,
            -0.047322093301169765,
            0.8200886736577244
        ],
        [
            0.17856839282348624,
            -0.01563933005413798,
            0.3315014281642479,
            0.9875864351827743,
            0.14456767643034185,
            0.8211143182834741,
            0.8150306213368321,
            -0.8855719834498881,
            0.4187852526899243,
            -0.7601494516082838
        ]
    ],
    "biasesOne": [
        0.6918735954252981,
        0.3603297790539175,
        -0.5633929294576911,
        -0.8015675407385661,
        -0.33993193130155097,
        -0.8972936624658183,
        0.9850111113046427,
        -0.07954654512278947,
        0.6185236166247217,
        0.3145437967456366
    ],
    "weightsTwo": [
        [
            -0.8326109398199533,
            -0.27895802132531555,
            0.5747618881540144,
            0.5820026111986778,
            0.29354372069137935,
            0.00012196818761833761,
            -0.23030119932077509,
            -0.6620946729662387,
            0.031446510043455556,
            -0.82807308950485
        ],
        [
            -0.677069476085906,
            -0.7553243755257006,
            -0.5609024420690571,
            0.6578940844468402,
            0.19407859271034478,
            0.5458396733660249,
            -0.09507820896209385,
            0.3508960309739897,
            -0.878583410071277,
            -0.9993375015653565
        ],
        [
            0.7793013877725077,
            -0.6129301327013001,
            -0.7729442638467126,
            0.13513645203784108,
            0.08163741316702566,
            0.27072189767769306,
            0.4122644588117317,
            0.5972424555619222,
            -0.867226764586595,
            0.5976989025792325
        ],
        [
            0.790583231458855,
            0.13253879243139632,
            0.22901097241412582,
            0.6765726053582397,
            0.4715894883238967,
            -0.18098262819013722,
            -0.9513685552400082,
            -0.25391658440858844,
            0.3976631031488942,
            0.741562304916014
        ],
        [
            -0.9383007702048705,
            -0.8559748828014682,
            0.2512893904645712,
            -0.190465242559533,
            -0.5377494578717437,
            0.49382073998959974,
            0.4097189341196146,
            0.9066793777954378,
            0.6819449021485309,
            0.8145419744696618
        ],
        [
            0.7410746286843319,
            0.9916766209431518,
            0.9935505670901521,
            -0.2734218012109224,
            -0.4928791990987249,
            0.04366275400786179,
            -0.23971109353584086,
            -0.9689005452538177,
            -0.6635095888445679,
            -0.8390116137677961
        ],
        [
            -0.14488510438078395,
            -0.7265501127386138,
            0.6906405074922037,
            0.5381908251092162,
            -0.22396851037794097,
            0.22530448633257172,
            0.20170780103859776,
            -0.6678265165614794,
            -0.050757460509845975,
            0.5169899736877115
        ]
    ],
    "biasesTwo": [
        -0.4333437437701084,
        0.2688621514933096,
        0.4939200025008861,
        0.952839869326636,
        0.4995972309089476,
        -0.5737498431642876,
        0.6817848827790847
    ],
    "weightsThree": [
        [
            0.029360025358144526,
            -0.9143528660373128,
            -0.6036734379022424,
            -0.011166252909474483,
            0.3459036808095819,
            -0.6083283947553857,
            0.9443739047278694
        ],
        [
            0.9804609575444758,
            0.9588178087591843,
            0.9239072272659974,
            -0.6552314792339711,
            -0.7479377718811944,
            0.17290901376739054,
            0.24274390404614188
        ],
        [
            0.41932810835589596,
            0.04545294856129933,
            0.926641027053694,
            0.1906463862361798,
            -0.33490457149040953,
            0.7412690800242849,
            0.44221108603809856
        ],
        [
            -0.8787931854326569,
            -0.7372457569299833,
            0.09273659079492047,
            -0.48437034896403053,
            0.9034185074972565,
            0.004565482262892662,
            -0.03931076521806487
        ],
        [
            0.20594718170911008,
            -0.19108931996797685,
            -0.5671790665704657,
            0.3968961969780487,
            -0.895557753731627,
            -0.6369572245850954,
            -0.1795226262542533
        ]
    ],
    "biasesThree": [
        -0.8933131462016974,
        0.956635836191853,
        -0.6309217807123431,
        0.16015967143926435,
        0.0045876956517374445
    ],
    "weightsFour": [
        [
            0.8317590584708678,
            0.756207676128636,
            0.6843320715441092,
            0.3579188368173476,
            -0.5290051417306862
        ],
        [
            0.21031072586111388,
            -0.7692903890981169,
            0.2752236190697954,
            -0.39273129301874676,
            0.2929272660612525
        ],
        [
            -0.19634257050031345,
            0.03590819898321351,
            -0.381246711045262,
            -0.9484309688186183,
            0.0027554680956285438
        ]
    ],
    "biasesFour": [
        -0.6180696257937246,
        -0.06429551456053861,
        0.1443858014442403
    ],
    "weightsFive": [
        [
            0.8734258263916637,
            -0.9927014189050312,
            -0.7843333632821778
        ],
        [
            0.06775490833008968,
            -0.5028686140732774,
            -0.7483032520661967
        ]
    ],
    "biasesFive": [
        0.32810878710185,
        -0.002349244015361407
    ],
    "fitnessValue": 0.0
}