{
    "weightsOne": [
        [
            0.7883740788583415,
            0.14575419312101912,
            0.6281278023628023,
            -0.6805381984864725,
            0.1136369506362187,
            0.20829967127042925,
            0.9668071533753304,
            0.9604528051574606,
            0.7344635014128009,
            -0.9805181854062806
        ],
        [
            -0.22291473489720293,
            -0.5157335403432974,
            0.32270094723168263,
            -0.937107740809072,
            -0.7884912540378799,
            -0.6769440700844538,
            -0.05390812447887061,
            -0.7285438359203025,
            0.12967849960336708,
            0.9578188071250646
        ],
        [
            -0.3145744823802361,
            -0.5181120499959297,
            -0.5967209799627042,
            0.9139822580406762,
            -0.45473833506867845,
            0.3345856238721967,
            -0.7132066598796492,
            0.17109965361890378,
            0.6463391137638148,
            -0.06062284651351435
        ],
        [
            -0.446552579338116,
            -0.25038337418585677,
            -0.08068480576928527,
            0.6011528979405114,
            0.25008800933714537,
            0.992503768332603,
            0.2624037412515843,
            0.8209015518554699,
            -0.17011516475653088,
            0.6851359984964129
        ],
        [
            -0.3426689768689255,
            -0.970541421181752,
            0.034322453635638794,
            -0.7354614949482243,
            -0.9029861143606903,
            -0.7569523791863575,
            0.4964176425633484,
            0.3308896018144474,
            -0.5968993039231072,
            -0.32064169224307526
        ],
        [
            0.44208997238893355,
            -0.04711458152011261,
            -0.9528545071960846,
            0.03635676559104151,
            0.428035848326743,
            0.7608799694243549,
            0.9113796095956395,
            -0.1854862073009469,
            -0.6468020555656517,
            -0.04433324859989596
        ],
        [
            -0.7450343925538554,
            0.3561736948781593,
            0.19639626141036293,
            0.21794606567231956,
            0.9642970046245796,
            0.22830130725259767,
            -0.1618474030008945,
            -0.2992667577912316,
            0.12993033221351658,
            0.528463366745205
        ],
        [
            0.6509990913486576,
            0.7295757483539709,
            -0.6030735449229441,
            0.18750948054854977,
            0.040888989928458574,
            -0.36522139061401937,
            -0.9104530393964416,
            -0.764898548561536,
            -0.26669775060084744,
            -0.3368480482801879
        ],
        [
            0.027529143623570285,
            -0.3752610091193087,
            -0.6437695091250064,
            -0.4102832545998263,
            0.1399353304288149,
            -0.8746144695933094,
            -0.64540870085254,
            -0.9016897359151497,
            0.3972101721280896,
            -0.8342237703499462
        ],
        [
            -0.31776127911657004,
            0.701239456404031,
            0.08293374118053376,
            0.1118575028885842,
            -0.3634814596487921,
            -0.6249021551445317,
            0.21713809923384342,
            -0.3496403901938945,
            -0.4224422400846588,
            -0.00354814602001019
        ]
    ],
    "biasesOne": [
        0.02926149018331059,
        0.8385443101758518,
        0.15301080560296043,
        0.7404176891329002,
        0.19816035706130108,
        0.6388864565296593,
        -0.5126860714952011,
        -0.5940511110591746,
        -0.4587419509641777,
        -0.05620846571142435
    ],
    "weightsTwo": [
        [
            -0.498567831636606,
            0.430104228771081,
            -0.9784363814714934,
            0.08378310458306171,
            0.8121341962022006,
            0.9055235187273212,
            -0.2407776510028461,
            -0.37933847284178834,
            0.7844040825304521,
            0.04582302254366111
        ],
        [
            0.6194929745920865,
            0.9259934633294467,
            -0.4764480067305079,
            -0.8801077487558986,
            -0.7865122944688037,
            -0.4797850295361772,
            -0.9812572465915452,
            0.5666090874970089,
            -0.6602669637439116,
            -0.15183379810048736
        ],
        [
            0.5476814896005688,
            0.8192929950815053,
            0.430939611158883,
            0.9979339231500262,
            -0.3670985604791439,
            0.8998237402826368,
            -0.08522867042394044,
            -0.4395195489081347,
            0.12079575572868073,
            -0.9333056867116671
        ],
        [
            -0.8902286798056163,
            -0.7146102767085227,
            0.9450346484036287,
            -0.23879731643061564,
            0.32587754403717994,
            -0.5946839723226831,
            0.12701657873426964,
            0.10677323439319553,
            -0.6822069444022987,
            -0.48323520684038734
        ],
        [
            0.9080910374985931,
            0.3707881371441626,
            0.29738658080491875,
            -0.08772880043169184,
            -0.4071310229845442,
            0.7850941556076887,
            -0.1511384382470604,
            0.6757130432862724,
            0.5127427018332613,
            0.9080839416538786
        ],
        [
            0.833933645549312,
            -0.6699511581752287,
            -0.010425526832903431,
            0.09707868582409196,
            0.3526246781869651,
            0.08849821556616,
            -0.8519053145954083,
            0.8122805573150784,
            0.5880756060688157,
            -0.9561054800514024
        ],
        [
            0.8818403420167238,
            0.8667279379916173,
            0.9109700477133682,
            0.039551181608302066,
            -0.386347335066785,
            0.6980387322140784,
            -0.5276171114232655,
            0.10448058267614213,
            -0.37211326678120926,
            0.6802412541549867
        ]
    ],
    "biasesTwo": [
        0.9102399506048575,
        -0.29110900558750075,
        0.14266567055323698,
        0.0787307387254974,
        0.8179840659515061,
        0.4430034152466824,
        0.4088393655989975
    ],
    "weightsThree": [
        [
            0.2690522005617233,
            -0.601067656405698,
            -0.9536136676693352,
            0.839986337105058,
            0.1706585149495452,
            0.42733502620518715,
            -0.5282202208591493
        ],
        [
            -0.3554646690499237,
            0.631386104644243,
            -0.9624186542461524,
            -0.12583471387450018,
            0.7316243451573419,
            -0.4352502910771534,
            -0.19286411041868878
        ],
        [
            -0.649360500218096,
            -0.6089463202131795,
            0.6088083765100825,
            0.4052551462370091,
            0.11835045400163935,
            -0.9411431428564399,
            0.8648168967226708
        ],
        [
            0.16885362335574472,
            -0.5952412330999259,
            -0.9911240464476341,
            0.7121274814451273,
            -0.5392594678167442,
            0.21142646417624,
            0.2530880695839146
        ],
        [
            -0.1379392593381472,
            -0.24179576655418278,
            0.069823561853525,
            0.9749608035727451,
            0.04138443383135315,
            -0.4418639397372528,
            -0.7684222589207546
        ]
    ],
    "biasesThree": [
        0.14950119101597226,
        -0.8545704240662897,
        0.20851585511430248,
        0.28089256005602015,
        -0.3433022581408074
    ],
    "weightsFour": [
        [
            0.24899796692195064,
            -0.10873188447383475,
            -0.18365992058989233,
            0.8419566322573744,
            0.7014400475663742
        ],
        [
            0.4513772276670249,
            -0.873490863552542,
            -0.386956839727151,
            0.4751748957009194,
            -0.7736849594983497
        ],
        [
            0.3820072411872977,
            0.9952132953187662,
            0.7436894124206035,
            0.5376918258052117,
            0.9106162006501877
        ]
    ],
    "biasesFour": [
        -0.6612693392248876,
        0.3923649680326511,
        -0.42020306455241263
    ],
    "weightsFive": [
        [
            -0.12935492083435585,
            0.8489510070295891,
            0.6569214658078726
        ],
        [
            -0.22746459371704209,
            0.305759606099387,
            0.47383803339232555
        ]
    ],
    "biasesFive": [
        0.07791163871969475,
        0.48020167013421555
    ],
    "fitnessValue": 12.149586807139817
}