{
    "weightsOne": [
        [
            -0.8802887505027697,
            0.6390829224977717,
            0.97954186317374,
            -0.5973999868298667,
            -0.9828887351667204,
            0.9626880442494827,
            0.06503139052980167,
            -0.912674997673812,
            0.6881152944963191,
            0.22913972026011908
        ],
        [
            -0.8326178146111829,
            -0.8454089229799997,
            -0.23735603610222622,
            -0.3928463873947512,
            -0.5405213694022961,
            0.46385963503984096,
            0.6583472130378107,
            -0.05647749541651015,
            0.5375464642820313,
            0.7535705433199809
        ],
        [
            -0.021521122465015807,
            0.5451336038660919,
            0.8510072435432441,
            0.7696158924575389,
            -0.16822078824990871,
            -0.32223715858676316,
            -0.8993808756187647,
            -0.9974571419018705,
            -0.2669532990248895,
            -0.9004095829759668
        ],
        [
            0.8177768560727341,
            -0.9995893088501677,
            0.07466764449591246,
            -0.5500618254174614,
            0.14692009883216062,
            -0.17223111880944275,
            0.4839835854485097,
            0.9702508887162675,
            0.3419337633043402,
            -0.49817485992006993
        ],
        [
            -0.4620312366011865,
            0.21643563803716348,
            0.0962416732832132,
            0.654377720486466,
            -0.7868542644423724,
            -0.26742286470658194,
            -0.2953060488659345,
            -0.29388267324029194,
            0.2689062824531421,
            0.79667856029487
        ],
        [
            0.0017053131743092198,
            -0.6856427759045143,
            -0.5937561051874425,
            -0.7203974440144556,
            -0.6381360909196814,
            0.25404280580745175,
            0.968537664839177,
            -0.9938507599717639,
            -0.385999910707562,
            0.28523518925351654
        ],
        [
            -0.4617884329257942,
            0.6441453475634589,
            -0.6737112075703278,
            -0.512285073572228,
            0.1628811758129809,
            -0.9441196556089797,
            0.6754281113958587,
            -0.9281055454099143,
            -0.7411925957730603,
            -0.23040948431009323
        ],
        [
            0.9080867148234226,
            -0.9137519114928563,
            0.9494372118147965,
            0.2430716988335857,
            -0.8181935820912818,
            -0.8694640839884222,
            0.3207892803076793,
            0.5403628359508919,
            0.49205890507384664,
            -0.8074707996047086
        ],
        [
            0.9688123995975955,
            0.7391000936277277,
            -0.049462293081652176,
            -0.7195235939698179,
            0.007782148341930917,
            -0.7498657875326502,
            0.46017564581667325,
            0.7669404750078905,
            0.9081386871839665,
            -0.4541171020220902
        ],
        [
            0.41144570843001493,
            0.797880702654227,
            -0.9831339742893446,
            0.9649578539919215,
            -0.9346436673344394,
            -0.8090417031572661,
            -0.6833078090179971,
            -0.773680297294921,
            -0.16481183701510593,
            0.6289984094463681
        ]
    ],
    "biasesOne": [
        0.7294761256268039,
        -0.2565064238857149,
        -0.18609116399050518,
        -0.28720286327280475,
        0.9204390894502543,
        0.3417268182401543,
        -0.287850474925162,
        -0.11643042515742219,
        0.7466885924628952,
        -0.21245762444572103
    ],
    "weightsTwo": [
        [
            0.24770170837622163,
            0.040907026569538596,
            0.6872316552355393,
            0.9709323079285945,
            -0.4932066642147128,
            -0.8438401628288523,
            0.07587085386746706,
            0.6941417036850972,
            -0.9989157572741116,
            -0.3921656301837346
        ],
        [
            -0.6061103984331728,
            0.4762702428445378,
            -0.81630378447262,
            0.9144469968751376,
            0.017799920399933722,
            -0.3562288409015666,
            0.20992233358610757,
            -0.36281520270817413,
            -0.9182627594009038,
            0.4199462742201634
        ],
        [
            -0.005672468406600961,
            -0.992699234876617,
            -0.38123441183502127,
            0.7202616802040311,
            0.667368725058689,
            0.2682111279419137,
            0.0777943385435862,
            -0.4468065199593294,
            0.49118430091138565,
            -0.20119777509108738
        ],
        [
            0.6118896526590469,
            0.28470997985261515,
            -0.24899915033056264,
            0.11853855017012571,
            -0.9456709987909,
            0.029504715033868756,
            0.7701144139311435,
            0.3536967440111718,
            0.6211188720641039,
            0.6331418766818968
        ],
        [
            0.5811786023432952,
            -0.5478520542073972,
            -0.7215906184868295,
            0.9922936730767487,
            -0.22076979768536398,
            -0.2764847431964752,
            -0.5093852291203673,
            -0.0016490325403306638,
            0.6178202355783355,
            -0.48336834895267633
        ],
        [
            -0.4065989549096982,
            -0.6534371316159098,
            -0.12004261747334244,
            -0.7752199170430774,
            0.1411851516145861,
            0.8698944442115837,
            -0.03252198287819419,
            0.08072416824291784,
            -0.7575442144714781,
            -0.8959499496525476
        ],
        [
            -0.1531972457574764,
            0.2522392129839448,
            0.46908042058817667,
            -0.10528345747797152,
            0.16805095144270932,
            0.15925919778314657,
            -0.5716783608844043,
            -0.6382672228571835,
            -0.8155520427867546,
            0.7623953950795146
        ]
    ],
    "biasesTwo": [
        -0.17634588635852388,
        -0.7783900368949728,
        -0.2996670084505362,
        -0.34814232172418436,
        0.3055818434791917,
        -0.9504988181072473,
        -0.8814772364257599
    ],
    "weightsThree": [
        [
            -0.24704148803864356,
            -0.2724841003634404,
            -0.1296822126159538,
            -0.27411389753636484,
            -0.031661372563053236,
            0.9016218547593018,
            0.16403367685246129
        ],
        [
            -0.6121830765946243,
            -0.9213554157483803,
            0.17775439038375662,
            -0.7105801118247677,
            0.08459495818428775,
            -0.22563786504611816,
            0.6535206499495159
        ],
        [
            -0.7406735028092333,
            0.5547487149685846,
            -0.9933479943257479,
            0.20902695056289833,
            0.16510320205439144,
            -0.15588012497722326,
            -0.7506144492501416
        ],
        [
            -0.2859835420715182,
            -0.34000403870985196,
            0.5923750035426536,
            -0.9654996962955975,
            -0.5221687408432716,
            -0.9337669357431952,
            -0.09986143641178513
        ],
        [
            0.2531952649033189,
            -0.4601464167217335,
            -0.042033305772656515,
            0.0008719287981704404,
            0.34025337485541063,
            -0.8121322911655287,
            -0.01636651704008485
        ]
    ],
    "biasesThree": [
        -0.5000911400606172,
        0.9756065857780185,
        0.8920431318784412,
        0.039245146884930415,
        -0.26187474540314315
    ],
    "weightsFour": [
        [
            0.34843964937850624,
            -0.09877805800935313,
            -0.33737387546392505,
            0.6070516326677884,
            -0.1553604944577316
        ],
        [
            -0.3744740869854717,
            0.452314237979937,
            -0.4651259424237373,
            -0.808524763389429,
            -0.18071141296126503
        ],
        [
            0.7826034275280389,
            0.43745831849459327,
            0.07567195014083383,
            -0.059904845129505446,
            -0.7725579954455133
        ]
    ],
    "biasesFour": [
        -0.04317049083399982,
        0.5732325800392251,
        0.8196664099343507
    ],
    "weightsFive": [
        [
            0.552629725747626,
            0.4072602483285801,
            -0.9429902037395552
        ],
        [
            -0.0725412241319412,
            0.5779215232954236,
            0.39139711675702826
        ]
    ],
    "biasesFive": [
        0.36013542034118284,
        0.16101154732412049
    ],
    "fitnessValue": 0.0
}