{
    "weightsOne": [
        [
            -0.050085136680019016,
            0.26737312114789846,
            -0.4350316522391946,
            0.0009930153649075901,
            0.383616052795692,
            0.1104711437897874,
            -0.10920965766492685,
            -0.959285825135215,
            -0.44180519277879315,
            0.5087629392534845
        ],
        [
            0.8316843595103129,
            0.9470324739789404,
            0.4589367660614492,
            -0.14611655159244452,
            0.6750198433740833,
            -0.3178266594135779,
            -0.7180211216485657,
            0.8993598479489835,
            0.15492241070834512,
            0.21841698449051528
        ],
        [
            -0.4276517803837214,
            0.11953173271743966,
            0.6207402431392566,
            0.8867352287051833,
            0.013899849759044791,
            0.10376570575505428,
            0.7486999872466038,
            -0.09558635377650582,
            -0.7402356995629431,
            0.01891612702935741
        ],
        [
            -0.6988798424640479,
            0.46330894195659056,
            -0.26121404493955036,
            -0.24688275274224702,
            -0.40616310577623005,
            -0.31534464405229534,
            0.1289609680842949,
            -0.7219636242949907,
            0.8460032731359983,
            0.6655023627746981
        ],
        [
            -0.1601787186531256,
            0.18192495415480603,
            0.6409768972583314,
            0.025492787646307358,
            -0.5218432063170673,
            -0.7584357838531857,
            0.3155700734187048,
            -0.18005494177759562,
            -0.17631441433576245,
            0.07863074243418544
        ],
        [
            0.49573479683235844,
            0.031776721715045975,
            0.17637168879867904,
            -0.937341272528186,
            0.8377886022997181,
            0.26294834279208934,
            -0.6711038506384022,
            0.32050576432418065,
            0.9296529291053126,
            0.9743580595765724
        ],
        [
            -0.05158412042688987,
            0.12788142202614372,
            -0.42158728705889437,
            0.5724147211343467,
            -0.10849051208428695,
            -0.5095598256573588,
            -0.555360731723002,
            0.8227143300056954,
            -0.7574828969175746,
            0.7960576137225113
        ],
        [
            -0.7651830619242301,
            -0.4088658398786189,
            -0.34222313250088066,
            -0.2528033453897036,
            0.25036837548129953,
            -0.616600361680647,
            -0.27175559291968576,
            0.08277337572546117,
            -0.9530097425529167,
            0.7525841763577634
        ],
        [
            0.8561598921857343,
            0.484704137104468,
            0.5397137743996903,
            -0.2578281804036071,
            0.8857704816190415,
            -0.5921214428290662,
            -0.4405680223717181,
            -0.9965073796630985,
            0.5782104250226541,
            -0.332923597655997
        ],
        [
            0.04136902929125785,
            0.04901049485624154,
            -0.24065945900736074,
            0.5450987829338969,
            0.9814998178039598,
            0.7913908331446846,
            -0.7024082715580144,
            -0.8881692345973033,
            0.13717717012869213,
            -0.5419314999935763
        ]
    ],
    "biasesOne": [
        0.030388180334307124,
        0.3062620718930025,
        0.7491906645387543,
        0.1264300706785857,
        0.4721221756963385,
        -0.22987383984464893,
        -0.7347411213789337,
        0.9438104255433386,
        -0.10533524273582207,
        -0.8739307074463956
    ],
    "weightsTwo": [
        [
            0.19838584724048514,
            -0.3551620722373481,
            0.5337192649108831,
            0.5247064897654004,
            0.4246771787186019,
            0.8094089301022829,
            -0.5939836550681268,
            -0.2974379740665698,
            0.8712027054404912,
            0.34147026935053937
        ],
        [
            -0.017520732885520696,
            -0.9353558019671355,
            0.7902126524236093,
            0.9175123031635091,
            -0.333438051249064,
            0.8761965903753368,
            -0.9366268209059594,
            -0.17763879847878572,
            -0.9546971149812917,
            0.0343874414055394
        ],
        [
            0.16206274299150114,
            0.13259133957761793,
            0.34874026860214724,
            -0.22181623001935313,
            -0.7901619272862892,
            -0.9024407113269104,
            -0.7275053377258132,
            0.5389265991590344,
            0.8621643364768066,
            0.34700879480384494
        ],
        [
            0.6262262693825096,
            -0.36874623441570575,
            0.7429459472204525,
            -0.32639530042509524,
            -0.38074363855101256,
            0.8815693979942119,
            0.6148735024662491,
            0.5896445289737897,
            -0.6172811548993518,
            -0.729435139024619
        ],
        [
            -0.3356684698766892,
            0.31781285353705946,
            -0.8647329966458792,
            0.7526821544616129,
            -0.6320486031620183,
            -0.8587557299068678,
            -0.20089727162732252,
            -0.9237898368890023,
            -0.44911668763306434,
            -0.280497507631569
        ],
        [
            -0.4807263361476217,
            0.6907685623801478,
            0.6168917187115806,
            -0.5839000713189917,
            0.8889912313043622,
            0.2919101463942202,
            0.15465382773336733,
            0.5591826464992284,
            -0.5794147699290413,
            -0.5005793414271678
        ],
        [
            0.41281819062336633,
            0.9036542009751567,
            -0.6599927487058455,
            0.22337191868306117,
            0.2944373372546898,
            -0.20558838732556017,
            0.11759551767217258,
            -0.17960237560315062,
            -0.14219045915626172,
            -0.5466936410324328
        ]
    ],
    "biasesTwo": [
        -0.10162192587173347,
        0.2331573429331808,
        0.44423676397339085,
        -0.3008615329368727,
        0.6309100018293552,
        0.6000131736459737,
        -0.7997970205898297
    ],
    "weightsThree": [
        [
            -0.4769178373737979,
            0.004859158663119478,
            -0.10476929956322034,
            0.17988941643436718,
            0.3665055241009323,
            0.7236381474797724,
            -0.9588700496283349
        ],
        [
            0.2853064482884182,
            -0.9111246144852956,
            -0.04324048070162978,
            -0.5385589647403211,
            -0.2088954472877096,
            -0.49148963776026733,
            -0.6604997057878963
        ],
        [
            -0.042523760498146546,
            0.4581377870821466,
            0.4952444512003513,
            0.5066737557808403,
            -0.8046699269627506,
            -0.6497659409976846,
            -0.19271047982325262
        ],
        [
            -0.3083468735224224,
            -0.858631111930207,
            -0.717190530100255,
            -0.4724527846640756,
            -0.20126135908660858,
            0.09868648262858715,
            0.7367234324628953
        ],
        [
            -0.45892242259586613,
            -0.6623175487112141,
            0.6273236739355288,
            -0.23670095111628164,
            0.12789079466999786,
            -0.5151743841301428,
            -0.6685363343690918
        ]
    ],
    "biasesThree": [
        0.9124786974071499,
        0.31031260378955094,
        0.19324702706594654,
        0.2259257980670486,
        -0.9832841945136306
    ],
    "weightsFour": [
        [
            0.4072059158666168,
            0.5519567867124353,
            0.4387107689812064,
            0.9900254685862722,
            -0.20519520768964372
        ],
        [
            -0.781634219413452,
            0.9660932745746376,
            0.646762167052034,
            -0.1105210080453034,
            -0.7774390739462433
        ],
        [
            0.6438253098956281,
            -0.2860251564523024,
            0.6608157882181622,
            0.26236861834325853,
            -0.1358320219490763
        ]
    ],
    "biasesFour": [
        -0.5186920125788705,
        -0.14655720882295165,
        0.5522561093809846
    ],
    "weightsFive": [
        [
            0.6608033167143934,
            -0.6731895863963284,
            0.7908451277069097
        ],
        [
            -0.9780529700646992,
            -0.32925790981354597,
            0.21915649095231937
        ]
    ],
    "biasesFive": [
        0.06292552289383324,
        -0.54237462029916
    ],
    "fitnessValue": 6.090710123809637
}