{
    "weightsOne": [
        [
            0.2710333522969335,
            0.8564256492406397,
            0.0669098279918996,
            -0.3855874075934407,
            -0.8934787657295806,
            0.9110967327762443,
            0.8039644194955904,
            -0.10075000349090213,
            -0.13548877166570428,
            -0.09515835440569709
        ],
        [
            0.35961388080391643,
            -0.7683958177724792,
            0.26597564305308463,
            -0.8953709724014265,
            0.28109687108953874,
            -0.5798826278471823,
            -0.5035266927206861,
            0.13444919879325878,
            -0.6067260980682512,
            -0.8190543951273037
        ],
        [
            -0.4863822595929679,
            0.5256201932216735,
            0.0459096203697007,
            0.3131598541502223,
            0.7015051266639893,
            -0.14086703323140926,
            -0.35612957631891096,
            -0.9809784401000687,
            0.4144063463087482,
            -0.9706234331737023
        ],
        [
            0.9105956293193589,
            0.4895142653354756,
            0.8902678899351182,
            -0.6954147155167028,
            -0.30538758392915066,
            0.4609830865087745,
            0.24049446404175256,
            -0.07668624197384055,
            -0.6943572160043994,
            -0.2009858531553368
        ],
        [
            -0.33496740613949716,
            -0.6601462627781047,
            0.45123253068591884,
            0.6076493094489841,
            0.5428045393202832,
            0.14670285387190596,
            -0.2564501623034423,
            -0.7959635507757081,
            -0.07475801776719582,
            0.19042978289140255
        ],
        [
            0.7070731207660865,
            -0.527702739181878,
            0.9469509196687673,
            0.9694031615583172,
            -0.7454789888698126,
            -0.06369719423962117,
            -0.8705849428790204,
            0.5434378083107505,
            0.16945747717095938,
            0.3979839667147451
        ],
        [
            -0.845335250339204,
            0.6668078613357862,
            0.3317783501910123,
            0.21278096375821165,
            0.7930515726558229,
            0.6452124535205264,
            0.8746141370881035,
            0.0752611781247765,
            0.4661681725121285,
            -0.19692257863578755
        ],
        [
            0.5236113539470484,
            0.7337220378611027,
            -0.9771483751580461,
            0.22043027182514985,
            -0.9494373212404017,
            -0.09189465867806001,
            -0.6160413793577761,
            -0.106597703834582,
            -0.14334656510643407,
            0.8241213256733007
        ],
        [
            -0.4895126012500681,
            0.5763077025387147,
            0.7191043258239682,
            -0.13212928294485593,
            0.9647327834503334,
            0.8961726085875654,
            -0.37768997487300005,
            -0.5880559790529636,
            -0.9844231501472971,
            0.13868274617880005
        ],
        [
            -0.48338450774872177,
            -0.18785131704345615,
            0.17579500134282067,
            -0.09402953853609874,
            -0.514922964777474,
            0.20009788265923034,
            -0.48518426606729737,
            -0.7202590059416489,
            -0.7597487617252046,
            0.481541865902229
        ]
    ],
    "biasesOne": [
        0.4103806149247655,
        0.18779327517903432,
        -0.09964730337425887,
        0.8023171458481002,
        -0.10943266609466717,
        -0.2759489332743139,
        -0.2883372700529885,
        0.9853469037504847,
        0.6886930204099844,
        -0.4164026746673928
    ],
    "weightsTwo": [
        [
            -0.691096649403623,
            0.28499479271421135,
            -0.30940307485815355,
            0.2182950615551642,
            -0.11640717377361742,
            -0.5265111111571408,
            0.3275507697312823,
            -0.8773077494566968,
            -0.1158574314552463,
            -0.8165716405950214
        ],
        [
            0.2281441839769467,
            -0.48554983506474536,
            0.49012122379080525,
            -0.1343062630859233,
            -0.5525050769111692,
            -0.24700432597649447,
            -0.08422430293868177,
            0.6412314450942753,
            -0.19287568106157482,
            0.9802415211075233
        ],
        [
            -0.8334463163848487,
            0.3896497878848233,
            0.7050475194382133,
            0.9244750205917307,
            0.23695091649211752,
            0.8765713024343804,
            0.8197702786896348,
            -0.558565225819484,
            0.2491922876815178,
            -0.11625391969606502
        ],
        [
            -0.1968385684600269,
            -0.9078563200869194,
            0.4904391042954712,
            -0.42057443422113283,
            -0.7137399671281306,
            0.6520242290703901,
            -0.9182268349284128,
            0.6981321104626652,
            0.48215020431953803,
            0.8352332601174437
        ],
        [
            -0.3020931457422935,
            0.7909398196420308,
            -0.22376493004892972,
            -0.9620379621367174,
            0.3836334332817619,
            0.7180371824411818,
            -0.7067818974495761,
            0.05736092712976992,
            -0.4052819068253968,
            -0.687906769503021
        ],
        [
            -0.0118527004329112,
            -0.7527859834045287,
            -0.002255227359451606,
            -0.46541737715136833,
            -0.6988019473633467,
            -0.7033262996589289,
            0.5350493206271238,
            -0.3416339539277846,
            0.7306061242623443,
            -0.9800010509530466
        ],
        [
            -0.8814213765269323,
            0.49478798615674746,
            0.22722151143139535,
            -0.36641423106728754,
            0.021223328937211683,
            -0.40511813751540915,
            -0.6589656577010563,
            -0.6298724639949087,
            0.2725627228182397,
            0.1131397213530696
        ]
    ],
    "biasesTwo": [
        0.33633886319559325,
        -0.9732657212769271,
        -0.5679380516332833,
        -0.7395353519367045,
        0.20603189565635205,
        -0.18875263342604764,
        0.9821098684114546
    ],
    "weightsThree": [
        [
            -0.2777559639465741,
            -0.9759029958340677,
            0.41857245995804226,
            -0.8810110675229876,
            0.3181169223139786,
            0.6710623954525801,
            0.2916283820297827
        ],
        [
            -0.7963922855194083,
            -0.16298769713461847,
            0.19793729829043016,
            -0.45961364246444414,
            -0.5553324258064911,
            0.15881829243703738,
            0.5172551115611337
        ],
        [
            0.6637891488856689,
            0.37475729007610026,
            -0.08592563944685905,
            -0.5748689157486375,
            -0.3769183557892617,
            0.878249454872108,
            -0.062086378256750674
        ],
        [
            -0.5185918067513946,
            0.9298412086989072,
            -0.9770132799721973,
            -0.9081523537290666,
            -0.2510524285900646,
            0.9670553704515041,
            -0.8252711594586337
        ],
        [
            -0.32531461591227995,
            -0.32665802473944594,
            -0.2192931997019394,
            -0.6059594673245883,
            -0.5334595386027474,
            -0.31477833191730875,
            0.5966481836659789
        ]
    ],
    "biasesThree": [
        -0.04561278938217894,
        -0.2829868042301493,
        -0.26109634086786615,
        -0.7852308063528746,
        0.6924550302465775
    ],
    "weightsFour": [
        [
            -0.5203162330878748,
            -0.7454827031451667,
            -0.7007015833912085,
            0.5563234872982876,
            0.781220371640436
        ],
        [
            0.47705622938271475,
            -0.16066075166427218,
            -0.5685487299020273,
            0.27495403316908984,
            0.2200397267975156
        ],
        [
            -0.954562034248023,
            0.07447171956763321,
            0.625016098112031,
            -0.8292624730345277,
            0.1896475058234024
        ]
    ],
    "biasesFour": [
        0.6445759923372754,
        0.3043814009445547,
        0.6374594677463816
    ],
    "weightsFive": [
        [
            0.755719281140717,
            0.30287930203545876,
            -0.8895054185273166
        ],
        [
            0.5788312532485929,
            0.41222653794606634,
            0.9378592151341469
        ]
    ],
    "biasesFive": [
        0.6934831091314786,
        -0.3846761393826057
    ],
    "fitnessValue": 11.399467631840183
}