{
    "weightsOne": [
        [
            0.4019348152571265,
            0.17662202353230216,
            0.9970927577734494,
            0.6040066576358776,
            0.6359672884739576,
            -0.4557218691261491,
            0.04358309530509574,
            0.4498203482173504,
            0.9267796726909148,
            -0.702661037184003
        ],
        [
            0.9031021568686064,
            -0.7510254635452944,
            -0.3016982974132709,
            0.4422269642481256,
            0.592705285228063,
            -0.4462080081710178,
            0.3199203737013565,
            0.1352534317667613,
            -0.32259866547998417,
            0.862339387134313
        ],
        [
            0.7044520359267656,
            -0.09981907008765534,
            -0.1657534501159219,
            0.12985265319689798,
            -0.6699427295420344,
            -0.5834536242768662,
            -0.1089089650261883,
            -0.0726907784910149,
            0.7628127519193613,
            0.3954015693011268
        ],
        [
            -0.7518419685882647,
            0.7723609078383855,
            -0.8843546199819217,
            -0.3842694292896147,
            0.19000324066638385,
            -0.13209989191445048,
            0.20754851212815106,
            0.07341973630605536,
            0.12437138113991253,
            0.3226071301748834
        ],
        [
            -0.4291157189961581,
            -0.3548064582453849,
            0.3902123963471955,
            0.06533067464679476,
            -0.44489520464771126,
            -0.6440761121757987,
            0.30845984613387034,
            0.29863075643145054,
            -0.07496815806794221,
            0.9504828582545561
        ],
        [
            -0.5244262646958855,
            0.06571395984003825,
            0.2564875782231768,
            -0.6761049493130986,
            0.48602131215265776,
            -0.8036816467828429,
            -0.1317690294131162,
            -0.5833432504198499,
            0.4567546835588987,
            0.10932209787684233
        ],
        [
            -0.8125015338816302,
            0.38758744128373745,
            -0.01915907648783799,
            -0.3192652177191624,
            -0.39452393953580844,
            0.43363693926906954,
            0.880288272741919,
            -0.234225445208885,
            0.6164570155063371,
            -0.4407626780789762
        ],
        [
            -0.6343130214915127,
            -0.9560235078987771,
            0.3226208702555835,
            0.4962059430001211,
            -0.7678759029189088,
            -0.13143842717021115,
            0.12379316714741129,
            0.7944480518648773,
            0.926807936283178,
            0.4512533038207902
        ],
        [
            -0.01639408852475599,
            -0.3394009831845095,
            -0.48932353211645774,
            -0.6120788025844337,
            -0.37850651906069777,
            0.6562482629891062,
            0.5249843986058138,
            0.11874348625006625,
            -0.24328086441200147,
            0.11336605650950005
        ],
        [
            0.07306642438535338,
            -0.1864550777456595,
            -0.7170182362078306,
            0.4932495132694239,
            -0.7541375046448482,
            -0.7258886537201794,
            0.5964629189348296,
            0.5375292055117755,
            -0.22801089016655518,
            0.8424099937490492
        ]
    ],
    "biasesOne": [
        -0.6044079027440434,
        0.8345299030166002,
        0.6822179593313045,
        0.022150774129369832,
        0.12295443749235346,
        -0.7585542737730337,
        0.41100731519749,
        -0.6918691906575154,
        -0.864350176590972,
        -0.4421774950990909
    ],
    "weightsTwo": [
        [
            -0.672155579237433,
            0.9365130122311738,
            -0.19831622425833606,
            -0.16642189977020472,
            0.8871249729687509,
            0.5271549390370698,
            -0.10321834962267884,
            -0.7544764732921179,
            -0.749153855841072,
            0.8423800425820283
        ],
        [
            0.24129208524594814,
            0.6913300323318932,
            0.6366693459416393,
            0.3157586942619097,
            -0.3408935875601855,
            0.1924797386018915,
            -0.3990984635380288,
            -0.3518619647078862,
            -0.85292090166132,
            -0.4747037407726453
        ],
        [
            -0.5332210385448422,
            -0.4234116582965124,
            -0.9613780857869396,
            -0.6714429133241775,
            -0.6057632547474712,
            -0.9978711525489574,
            0.38578973183056586,
            0.5768003227278031,
            -0.7045899579307617,
            -0.4907889016493543
        ],
        [
            -0.3516984845532456,
            -0.5637795457012891,
            0.8837648754892962,
            -0.5208327773833497,
            0.6489173895862521,
            -0.8978485135662446,
            -0.9131485620819442,
            -0.26142885930516657,
            -0.44619146835819645,
            -0.5635685815554121
        ],
        [
            0.878970765597084,
            0.8869225092163775,
            -0.9493022756940062,
            -0.28398887315245025,
            -0.4736472129500662,
            -0.8879967347108513,
            0.10131646801156613,
            -0.318591613545649,
            0.2544396102118822,
            -0.7079330481955679
        ],
        [
            0.7306732031289909,
            -0.8780766583434927,
            -0.7901363622010602,
            0.23189193917271034,
            -0.9963803289787072,
            -0.14491826088530746,
            0.012316918586023906,
            0.9226977301435688,
            0.9935620983061775,
            -0.3241403545235684
        ],
        [
            -0.3388729680392508,
            -0.012376652926186171,
            -0.042661874393344235,
            -0.6701264416375934,
            0.6878876819693553,
            0.08177273529547557,
            -0.28182166856065805,
            -0.47943136416559784,
            0.8046526517067387,
            0.2811478202444193
        ]
    ],
    "biasesTwo": [
        -0.16120558197956725,
        0.5361823226363049,
        0.014017264394788453,
        -0.10541309772448715,
        -0.27361938552079224,
        0.46266458696380175,
        0.14833206497244
    ],
    "weightsThree": [
        [
            0.05484782078260997,
            -0.13184530665688432,
            0.9828507426260085,
            -0.2521329283670646,
            0.17236833680464003,
            0.6680766858116931,
            -0.07544143813794091
        ],
        [
            -0.46248346385226013,
            0.03176927495731929,
            -0.6794424950828337,
            0.13333807168597445,
            -0.42004426528562333,
            0.8756305691935762,
            0.7674114666592671
        ],
        [
            -0.7056242983850711,
            -0.4960304900885406,
            -0.42022439083953755,
            -0.185492907678676,
            -0.6256187806996352,
            -0.00867071061336544,
            0.059558784135633314
        ],
        [
            0.550569322168085,
            0.7215408926113895,
            -0.28640748530760285,
            -0.8013609298158366,
            -0.8496585798065177,
            0.052138705880066416,
            -0.7400843523859868
        ],
        [
            0.5532112072685709,
            0.3680776599962263,
            -0.33070829039923244,
            -0.4722468405301139,
            -0.40620232031643866,
            0.1514601092861978,
            0.07677426134667464
        ]
    ],
    "biasesThree": [
        -0.11565580567979739,
        0.8434631595600961,
        -0.9553702583388703,
        0.42781864621600163,
        -0.6313375840137827
    ],
    "weightsFour": [
        [
            -0.735331429979089,
            0.672472368888319,
            -0.0785531289192456,
            -0.6750527384391873,
            0.5404878767071706
        ],
        [
            -0.2613403147952662,
            0.9415584661240817,
            -0.30770202944262404,
            0.7362864429892164,
            -0.6247213766883903
        ],
        [
            -0.5350029519990502,
            -0.3573723155608073,
            0.17652421402374574,
            -0.4669262834228254,
            -0.7230982608770848
        ]
    ],
    "biasesFour": [
        0.8257842886548283,
        -0.30669676921977995,
        -0.5635123333709933
    ],
    "weightsFive": [
        [
            -0.8875770313147402,
            -0.9030149382229968,
            0.22439771465104608
        ],
        [
            0.3429736511908399,
            -0.9935014771153023,
            -0.9642044175048043
        ]
    ],
    "biasesFive": [
        0.9182510480939903,
        0.5725629712730924
    ],
    "fitnessValue": 0
}