{
    "weightsOne": [
        [
            -0.1748944751544299,
            -0.8519816613889952,
            -0.8777649348066812,
            -0.4365332121625516,
            -0.1614523411649995,
            0.6132616323663156,
            0.16509270110408392,
            0.9105388343520866,
            -0.9135940209439739,
            -0.30251077327953135
        ],
        [
            -0.22795865672693116,
            0.1768674838157136,
            -0.034152467937590636,
            0.966085330812585,
            0.6005667956481606,
            0.9923222302596715,
            0.12423164913569962,
            -0.2103248015274357,
            0.2748890679024081,
            0.6999119002735266
        ],
        [
            -0.9372727471447444,
            0.5554567989211927,
            -0.22610123146650052,
            0.9903734205406629,
            0.05071540954141329,
            -0.9166482201947062,
            -0.8570713598991053,
            -0.49275787836243645,
            -0.3429418377363307,
            0.09678162686702207
        ],
        [
            -0.3557347349020745,
            0.9842469080390976,
            -0.12497588853363761,
            0.8284567977302248,
            -0.6067579611787637,
            -0.9367601577846909,
            0.49645880584257585,
            0.6601899443471086,
            -0.6735291396853429,
            -0.8292590586539819
        ],
        [
            -0.7446709601008106,
            0.8505923977799397,
            0.5438051417977996,
            -0.4336282985375315,
            0.4374028827683152,
            -0.3484530525683194,
            -0.932036142174093,
            0.4364561915947853,
            -0.41604118969962856,
            -0.5614036803324585
        ],
        [
            -0.2385656347896472,
            0.5070991775018368,
            -0.613779815259379,
            0.714431625039744,
            0.6991634461432852,
            0.7986623479321509,
            -0.18874883433095402,
            0.23579083730622852,
            -0.8831129097473542,
            -0.7810816495853239
        ],
        [
            -0.3124199009892863,
            0.7629760578798248,
            -0.5318109342686745,
            0.3115768377976318,
            -0.248883902131942,
            -0.29484022164930646,
            -0.6633386934359824,
            0.20318971385990925,
            0.22339268086343322,
            -0.42365888189227596
        ],
        [
            0.04656414250969476,
            0.573853905919619,
            0.10499255599816837,
            0.5533780097869325,
            -0.7776206047268377,
            0.42902380489600866,
            -0.9196494833426547,
            0.2634903124269681,
            0.34235993201129555,
            0.6208816103566035
        ],
        [
            -0.8110250779920158,
            -0.06183960215624307,
            0.0700237794459797,
            -0.5839529419502032,
            0.8602821890802586,
            0.8517923857816623,
            0.27443565652262203,
            -0.46687396517016566,
            -0.1211925338307922,
            0.2572464147285798
        ],
        [
            -0.3740294880481012,
            -0.4482409052663212,
            -0.5646081830992244,
            -0.7095108820715936,
            0.856468847912712,
            -0.9197010744285969,
            -0.8143223040574605,
            -0.7649382090399353,
            -0.5677636544044611,
            0.9252146918707098
        ]
    ],
    "biasesOne": [
        -0.18635706473427693,
        -0.1119185928306583,
        -0.9387328530901669,
        -0.28147732686551974,
        0.11958101144399325,
        0.6695015558756228,
        -0.4327895538909097,
        -0.8043082917840512,
        0.80151553390825,
        0.5910882408498941
    ],
    "weightsTwo": [
        [
            -0.09164024375561253,
            0.4103015027975401,
            -0.08992439451608525,
            0.42158310849024305,
            0.8200112646000048,
            0.3585835026534463,
            -0.06896806203921768,
            0.9862622728318882,
            0.15505872782521135,
            0.12094879590099561
        ],
        [
            0.4192078689580858,
            -0.011101134960321835,
            -0.5940848236706615,
            -0.629394135473416,
            0.049106703677824104,
            -0.17081745601503107,
            0.8406684644269744,
            -0.8414733423925633,
            0.9786052745146074,
            -0.7400292789145033
        ],
        [
            0.8729877983387329,
            0.12189697219756623,
            0.10312411808150879,
            0.04349100700825903,
            -0.36504651939022037,
            0.5424495949104178,
            -0.7276714814580847,
            -0.44330170177743233,
            -0.30278537669120276,
            -0.028379712406553903
        ],
        [
            0.20231757223147828,
            -0.5599257034569236,
            0.01774074847920959,
            0.1518662212337345,
            0.3860272480196314,
            -0.3204658528213795,
            0.7804163053010096,
            -0.9823656255087421,
            -0.24546554459266634,
            -0.1627321420379808
        ],
        [
            -0.7583392928302117,
            -0.4542405520343942,
            0.5683395989928428,
            -0.5169669173616576,
            -0.05791146815661041,
            0.4570859419021822,
            0.14291746845282027,
            0.036913817010241656,
            -0.2408522626714651,
            -0.6153421125171454
        ],
        [
            0.18592243275576315,
            -0.4081856017926766,
            0.870099545643283,
            0.9952039333360827,
            -0.787371927624712,
            -0.6607940935268262,
            -0.46410409149159326,
            0.24238101024676384,
            -0.02136107123543174,
            0.09832600537538183
        ],
        [
            0.6674371337802074,
            -0.4692805686348316,
            -0.5319247141177712,
            -0.6662905592410653,
            -0.4199590639818884,
            0.3005846519435744,
            -0.7242865311759852,
            -0.061118954496509836,
            -0.7443672557561882,
            0.12990736004240633
        ]
    ],
    "biasesTwo": [
        -0.7802715508029892,
        0.9248782722121371,
        -0.48417982701964957,
        -0.7570248036256515,
        0.2564716227255919,
        -0.7233223887963207,
        0.7553107356164832
    ],
    "weightsThree": [
        [
            0.18351948302600896,
            0.3798235051841863,
            0.7547413092464677,
            -0.12306629635674415,
            0.6119991555545337,
            -0.5480389038840727,
            0.5751125660512015
        ],
        [
            -0.06581669605564544,
            0.8664528254186603,
            0.2862808545808715,
            0.6366490662529427,
            0.7057587328583057,
            0.7166145075867407,
            0.9975240222833504
        ],
        [
            -0.4472266508973288,
            0.8109514381623559,
            -0.41793693516219754,
            0.7434161396176073,
            0.44092811113663566,
            -0.6619635665253294,
            0.7972775451702305
        ],
        [
            0.2163624799187045,
            0.5329941957472946,
            0.5865274552813908,
            -0.9297863956268604,
            -0.05489322142123809,
            -0.8612365739904533,
            0.5520755681612914
        ],
        [
            0.82123220850434,
            0.9553002190123108,
            -0.5595759283352459,
            0.06949615099613426,
            -0.41838476214792575,
            0.4945851821222582,
            0.9123098875246956
        ]
    ],
    "biasesThree": [
        0.6835435415879387,
        0.4437863157707771,
        -0.8879338968598696,
        -0.4506668673500305,
        -0.7318527804852666
    ],
    "weightsFour": [
        [
            0.31740027426858664,
            0.232866321067406,
            -0.6199762649179743,
            -0.7039583757784866,
            -0.08285220301838536
        ],
        [
            -0.7654976403922877,
            0.6760081229138153,
            0.8804663543691946,
            0.9240870787370672,
            -0.027675712735541147
        ],
        [
            0.9140199743361048,
            -0.9556047339977156,
            0.6075771491534074,
            0.2366818665878092,
            0.01139396009633109
        ]
    ],
    "biasesFour": [
        -0.34241489554158644,
        -0.6915789779617623,
        -0.6420430487561883
    ],
    "weightsFive": [
        [
            -0.18410017647927202,
            0.7343981143661793,
            0.8011298043035882
        ],
        [
            0.21844351005987095,
            0.9515299362588012,
            0.0399122211318621
        ]
    ],
    "biasesFive": [
        -0.7516184901100365,
        -0.11200248791096246
    ],
    "fitnessValue": 0.0
}