{
    "weightsOne": [
        [
            0.3144878809060734,
            -0.8332856972512253,
            -0.03482698005841178,
            -0.11653760609466302,
            0.5941605827794807,
            0.40827189914947226,
            0.9703230909228215,
            0.6417728225787191,
            -0.7899746358363111,
            0.16620690182753717
        ],
        [
            -0.10304857397447753,
            -0.6910385353518715,
            -0.6650368334906744,
            0.7578901517485062,
            0.17394797624894864,
            0.96900284480117,
            -0.3720438272046973,
            0.4054236878073998,
            0.046296434677746134,
            -0.3580328673767872
        ],
        [
            0.388512626175892,
            0.16961290974051746,
            0.12359973463287188,
            0.3023461109202019,
            0.7443674419468842,
            0.4862021538675172,
            0.23077729600467456,
            -0.43835374127773075,
            -0.20207438432567426,
            0.768041171106645
        ],
        [
            -0.607948154796693,
            -0.36029084091745145,
            0.8792295109480499,
            0.7770688285035345,
            -0.22054654690127307,
            -0.6256783314243202,
            -0.41269552512908914,
            0.6733527259036654,
            -0.6159275490019551,
            0.7008840090681567
        ],
        [
            0.19433314736146734,
            -0.04675398801915409,
            0.7081180868038102,
            -0.8874272532408871,
            0.4862340599173669,
            -0.08557613836483013,
            -0.056044093087155744,
            0.9852374689986987,
            0.3484340657959273,
            -0.8497769911865793
        ],
        [
            0.14303088275861842,
            0.2573072156134497,
            -0.5694760556926735,
            -0.30870675536844394,
            0.020013830068837724,
            0.45465627648515805,
            -0.2069936123436924,
            0.4826514159032649,
            0.02526721999692194,
            0.8580137742648519
        ],
        [
            -0.44757518918913153,
            0.12489338679872897,
            -0.7389334568980774,
            -0.8744015543215462,
            -0.022605334480414463,
            0.10582013630648235,
            -0.5503927196416032,
            -0.40902862968715614,
            0.5038650173211097,
            -0.5353629736876568
        ],
        [
            -0.6927496468453953,
            0.3007825165597584,
            0.4757764117255381,
            0.01081325839999736,
            -0.63665561756888,
            -0.7951305989187232,
            -0.406436993296603,
            0.08828216171503578,
            -0.38935505153231853,
            -0.9054559769661563
        ],
        [
            -0.4946383752175332,
            0.5335017654021574,
            0.7518483542937022,
            0.10242897872406198,
            -0.35085393317634583,
            -0.12486914482869893,
            -0.2708105614748617,
            0.6919610712220843,
            0.6754320603751098,
            0.46667248681614315
        ],
        [
            -0.6439625791064456,
            0.3470807766599002,
            -0.8355927603275937,
            -0.4207474007006782,
            -0.287537256538297,
            0.07365574225310523,
            0.011481683732370795,
            0.48419963373023545,
            0.5480629170359319,
            0.5658347390747243
        ]
    ],
    "biasesOne": [
        0.7226208177439521,
        -0.6112710289723633,
        0.9638601314585464,
        -0.08020292919656802,
        0.618421617814273,
        -0.07993699456262715,
        0.2736313505454484,
        0.8138465538048019,
        0.39486002063047665,
        -0.8743183109595485
    ],
    "weightsTwo": [
        [
            -0.5885135061956346,
            0.1932407983190556,
            -0.2775589551726867,
            0.20797476887679123,
            0.09382920564408415,
            0.8392202495903547,
            0.5329687849738989,
            -0.007780681578105186,
            0.7661648467949886,
            -0.0897650060184676
        ],
        [
            -0.8025039614796536,
            -0.3948844244133547,
            0.5985651974760275,
            0.07504462527807099,
            -0.6339853501174095,
            -0.06389032699040209,
            0.557597541913673,
            0.6611210190714212,
            -0.5670729910992471,
            -0.32105958347138897
        ],
        [
            0.4101664990688447,
            0.3809579297201293,
            0.42259292246219315,
            -0.3141549270829036,
            -0.7360271619490477,
            -0.17456255609378157,
            0.5901232046019411,
            -0.35942961587073086,
            -0.9782965082767276,
            0.44912385254120535
        ],
        [
            -0.21900356204638594,
            -0.8927121162453917,
            0.7266304829574834,
            -0.6599328509831801,
            -0.8360661844505304,
            0.9609051720309298,
            -0.4826936512791997,
            0.6756455722543209,
            -0.67154128912815,
            0.03915678708285508
        ],
        [
            0.6197330420380878,
            -0.6766860256049747,
            -0.013757248273714717,
            0.8559809753185421,
            0.03251312374691295,
            -0.02138596523087699,
            -0.5031416723497313,
            0.8986120290916448,
            0.38680839985793036,
            -0.7809844005082569
        ],
        [
            0.9008953602591658,
            -0.49628293456614503,
            -0.460418210400503,
            -0.03482940622924713,
            -0.36480112429321543,
            0.7744861908520915,
            0.9608484261796597,
            0.7310691171542656,
            0.7918192190684663,
            0.8583322173994967
        ],
        [
            0.31049241177806564,
            0.06389604032336482,
            -0.211405858592294,
            -0.7963387140255522,
            0.8858978928953458,
            0.8165008646724912,
            -0.5304333430000667,
            0.012670570064569064,
            -0.5340564546159652,
            0.6859386320430252
        ]
    ],
    "biasesTwo": [
        0.44955616921956976,
        0.07355893681667025,
        0.21122640862160202,
        -0.8144842657650129,
        -0.6706120001844602,
        0.7022242978357476,
        -0.4722175243746223
    ],
    "weightsThree": [
        [
            -0.8462331913537946,
            -0.4991301597471507,
            0.549610248303545,
            0.6061759160889075,
            0.10706902978524058,
            -0.5357962093461719,
            -0.6847631118967636
        ],
        [
            0.8666563375230287,
            0.23215184026127123,
            0.861258389494048,
            -0.30700301431824184,
            -0.9792603707215406,
            0.10341553097570766,
            0.050565255840132606
        ],
        [
            -0.21411488977175286,
            -0.9225194301608057,
            -0.8581057657613247,
            -0.4903689711854038,
            0.6622360341657083,
            -0.7807566100264889,
            0.2362273650981097
        ],
        [
            0.024006429678468333,
            0.4353147923094345,
            -0.2897938596795413,
            -0.30513494439530087,
            0.4236892146756437,
            0.4429739831381885,
            0.02714056968504841
        ],
        [
            -0.2876102279573747,
            -0.8152672601966457,
            -0.6196821666600576,
            -0.7221585520180183,
            -0.13696938011844173,
            -0.8076319035869008,
            -0.6379564908949598
        ]
    ],
    "biasesThree": [
        0.8103767929745342,
        0.421836450793984,
        -0.5023623382414524,
        -0.10277416397843364,
        -0.07918617662647032
    ],
    "weightsFour": [
        [
            0.443435721294402,
            -0.8185525354517491,
            0.5048366053110522,
            0.3384266357668082,
            -0.04092743675318111
        ],
        [
            -0.29401010904524383,
            0.7589817774412815,
            -0.5580349342215745,
            0.7583939858830644,
            -0.7649809836751826
        ],
        [
            0.2518024940266106,
            0.3114622100756379,
            0.9623243169668723,
            0.3203566523606758,
            -0.2050086036687262
        ]
    ],
    "biasesFour": [
        -0.6224675251861438,
        0.3811264739729814,
        0.516929454056287
    ],
    "weightsFive": [
        [
            0.193191634612907,
            0.41679270734124674,
            -0.5198520045032224
        ],
        [
            -0.2723765349586502,
            0.1208102717471029,
            -0.25840509699747916
        ]
    ],
    "biasesFive": [
        -0.9622406797414231,
        -0.9964193835836996
    ],
    "fitnessValue": 7.019596791369684
}