{
    "weightsOne": [
        [
            -0.15056366889417094,
            0.2759632397409597,
            0.9327955899301763,
            -0.6029232141016829,
            0.18439240747640784,
            -0.3223614528651355,
            -0.04322588242440473,
            -0.5560108952287912,
            -0.2997481972699818,
            0.9606511007066467
        ],
        [
            -0.6825289307713576,
            0.5858581048281231,
            -0.5590394897882403,
            0.9090197186051467,
            -0.30412409774815985,
            -0.2893145038814471,
            -0.6694723402727829,
            0.08712632482807958,
            -0.8344485545161577,
            0.3495749623795741
        ],
        [
            0.8492274298368871,
            0.5263326870020844,
            0.8906561676162774,
            0.19113367125169423,
            -0.38256905413146747,
            -0.35504106049444384,
            0.41072399121366,
            -0.7481109111896547,
            -0.9835827111266391,
            0.4013114006123346
        ],
        [
            0.286065565351872,
            0.15862393348672899,
            0.8747247191973897,
            0.3855433145299454,
            0.4039789893958703,
            -0.7761268458973309,
            -0.4113440072867198,
            -0.9604910578054542,
            -0.26161822048974437,
            -0.9335469260155149
        ],
        [
            0.5111505718904288,
            -0.7905905110154576,
            0.7158643227671135,
            -0.41172128290613075,
            0.4878535838525795,
            0.004101643531708277,
            -0.3049284690813052,
            -0.21877441164447076,
            0.7890224532749428,
            0.2609010297580596
        ],
        [
            -0.7884718338245202,
            0.5848223230031864,
            -0.9560411915711746,
            -0.10118766516791688,
            -0.8656973373345891,
            -0.875743681658099,
            0.31090658389736125,
            0.7319968846928093,
            -0.9298354901320396,
            0.05941452099865341
        ],
        [
            -0.4134076691811528,
            -0.9642700151666557,
            0.40939587354239926,
            0.7747264445256392,
            0.13660153773164319,
            -0.8427718834811582,
            0.4436219209112009,
            -0.19136503488907652,
            -0.8837156544943077,
            -0.4894036461256621
        ],
        [
            0.18016702261590667,
            -0.08547112524553802,
            -0.9921728119796405,
            0.9669445410668396,
            0.42348685786036366,
            0.8224251198261163,
            0.4112814887591627,
            0.11795703825872206,
            0.99413595541248,
            0.8108764680900655
        ],
        [
            -0.3360934174136796,
            0.26967758563750954,
            -0.9670167319548542,
            -0.9116246917239101,
            -0.3760826723477455,
            0.5055749697020344,
            0.6636162985602734,
            -0.27513930880209414,
            -0.1741152391597518,
            -0.5367922669552383
        ],
        [
            -0.15708840491379505,
            -0.9232448924366785,
            -0.41523682622537517,
            -0.6736938695842454,
            -0.32345075122920064,
            0.2103174787985984,
            -0.8198343613728287,
            -0.18020455906395316,
            0.30857293442298594,
            -0.232614745833152
        ]
    ],
    "biasesOne": [
        -0.8623909946429642,
        0.5107159586466452,
        -0.35133623301293015,
        0.21357069601069467,
        -0.6400778047700979,
        0.7436425860395905,
        0.6105147620329234,
        -0.13630262542344052,
        -0.2550912467699036,
        0.763478185426441
    ],
    "weightsTwo": [
        [
            -0.19620978394299615,
            0.4077345791527698,
            0.08100012734942674,
            0.953277864757639,
            0.8708304977600174,
            -0.6444588778621403,
            -0.0632012309841763,
            -0.5658370021014212,
            -0.33936420152065017,
            -0.6644376705285482
        ],
        [
            -0.40055363459714854,
            -0.9276874516669085,
            -0.7625222357880554,
            0.08200308471560169,
            -0.9245733566724943,
            -0.8764213718105223,
            -0.45838867198880573,
            -0.7511481135397189,
            -0.906171512938865,
            0.12192990226666778
        ],
        [
            -0.5850308818929335,
            0.4360963613377189,
            -0.10733773547479175,
            0.13783411082954866,
            -0.9003621146784342,
            -0.9738457612626319,
            -0.5134942452539313,
            0.590330876316498,
            -0.6811266560857503,
            -0.7891766702363667
        ],
        [
            0.22533637268281814,
            0.3367320391007189,
            -0.3025785654196951,
            0.4634941870553737,
            0.20649719179540704,
            0.29156131138217867,
            0.8730931326889804,
            -0.048516343748373325,
            -0.005342874432732403,
            0.3319842627860128
        ],
        [
            0.013221625871124187,
            -0.9338334983873058,
            0.12783981646574527,
            0.4801027967285014,
            0.5722174708944445,
            -0.5046430426358306,
            0.4376199812954815,
            0.5318673582973208,
            -0.8970280203167007,
            -0.4316257801378973
        ],
        [
            0.5516821574291002,
            -0.677688526718413,
            0.4395879392290154,
            -0.12756317439734577,
            0.7896706858128857,
            0.023937265933706042,
            -0.8195936049193975,
            -0.500714481285359,
            0.3689080151859414,
            -0.007288877962252638
        ],
        [
            -0.7239355913731296,
            0.5252396049476558,
            0.6633260676669848,
            -0.2545716771337516,
            -0.9751169772076382,
            0.23175635605463052,
            0.7413540075397502,
            0.7300813613970862,
            0.2706573159125407,
            0.07505467035497149
        ]
    ],
    "biasesTwo": [
        -0.4489179896582882,
        0.10197349846662962,
        0.16030554322757418,
        0.20418914945184308,
        -0.4393351608017084,
        0.46424229037408105,
        0.4578002238747205
    ],
    "weightsThree": [
        [
            -0.18801904164320837,
            0.912253681713243,
            0.8177095396166663,
            0.5399906493789177,
            -0.3578990926673087,
            0.10298958791219759,
            -0.6781227902532032
        ],
        [
            0.39048471701315224,
            -0.30894179896861007,
            -0.1436378076756326,
            -0.6819348343555456,
            -0.6356269561152585,
            0.05916595503191924,
            -0.12294155331307155
        ],
        [
            0.7067619634509676,
            -0.0591684707297051,
            -0.24482798827866414,
            0.8004526921949318,
            -0.998960856989878,
            0.3734488945309873,
            0.22548130331342975
        ],
        [
            -0.22243975406049787,
            -0.41870344102244084,
            0.7180791973140701,
            -0.9119950336461351,
            0.22719394902563184,
            -0.2878981788935846,
            0.8312589297701551
        ],
        [
            0.5869830883316398,
            0.6813376787289567,
            -0.7242246289435235,
            0.29622186939752115,
            -0.8080210124247542,
            -0.646039093531251,
            0.9818277816388796
        ]
    ],
    "biasesThree": [
        0.5680343448850209,
        -0.19165561526456343,
        0.697034219648148,
        -0.05451118345211903,
        -0.8111522947999323
    ],
    "weightsFour": [
        [
            -0.16707928771745806,
            -0.9355443840227824,
            -0.04366102902082725,
            0.09802373362142314,
            -0.371796633668517
        ],
        [
            0.15219247448148576,
            -0.2016277129648547,
            0.8051389218280438,
            -0.7439048805161148,
            0.8250846637192737
        ],
        [
            0.7763135153838545,
            0.8444911163495619,
            -0.7927269776937729,
            0.23039768314121467,
            -0.4377490779666895
        ]
    ],
    "biasesFour": [
        0.05587092918277747,
        0.2128508922114205,
        -0.5539987909559037
    ],
    "weightsFive": [
        [
            -0.4883700424110049,
            -0.06937849379713534,
            0.13902565377859077
        ],
        [
            0.5843084559400784,
            0.07057148977232797,
            -0.23451391025514123
        ]
    ],
    "biasesFive": [
        -0.6184917877685498,
        -0.012429961782270738
    ],
    "fitnessValue": 0
}