{
    "weightsOne": [
        [
            -0.9247556577471365,
            -0.17412237901142724,
            -0.0967856888608456,
            0.36647509490991004,
            -0.12209514202527583,
            -0.053745833300620216,
            -0.4151825403564655,
            0.9641832480848747,
            0.2810761998906117,
            0.8916911483796026
        ],
        [
            0.38090345216409016,
            0.5926730627316357,
            -0.9998659940175165,
            0.3942624931880283,
            -0.8088923978991349,
            -0.7687531263095515,
            -0.9805039132150755,
            0.9188708344447567,
            0.6855619878196164,
            0.1379050937291475
        ],
        [
            0.37212145507670225,
            0.365719015448811,
            -0.2733676659401929,
            -0.12251162477167266,
            0.2542171815922938,
            -0.9577794951697605,
            -0.0005814278654936444,
            0.05236186045950397,
            0.25674207637766,
            -0.6037809100784517
        ],
        [
            0.11580277531261984,
            -0.6763156285747398,
            0.6784275120819816,
            0.15824264375413688,
            0.05535913004854787,
            0.8472425094530709,
            -0.9744795039122365,
            0.12374803902337739,
            -0.8665202369780118,
            0.8443174269904574
        ],
        [
            -0.35233466369839017,
            0.12657477642681436,
            0.31573733250000013,
            0.22525048819849047,
            -0.6255690112334331,
            0.2493722799318474,
            0.44275714293057833,
            -0.29219052451249494,
            0.8629920720041504,
            0.09366167596557862
        ],
        [
            -0.7570318371699849,
            0.28767491012745006,
            -0.7568852727573636,
            -0.9711609758437678,
            0.6142692533713756,
            0.28853397046187435,
            -0.9071830844665247,
            0.9754917636156832,
            -0.8386495101687157,
            0.8912774030023869
        ],
        [
            -0.22017346443404762,
            -0.13504578871306872,
            0.9870648807998972,
            -0.018460121119624917,
            0.9861601496659127,
            0.025851073286510484,
            -0.7451817756848798,
            -0.6775700878387285,
            -0.6279782109528864,
            0.6241653153284474
        ],
        [
            -0.4455382692127794,
            0.9130585901306318,
            0.7086038270482147,
            -0.9902515841620791,
            0.7319736146868279,
            -0.5921288815145633,
            0.7249238408574445,
            0.5525273901675749,
            0.4567608191887558,
            -0.4048766190270221
        ],
        [
            -0.13549890128287578,
            0.49481506385657603,
            0.8605726960045859,
            -0.11654701641367637,
            -0.29830159619090435,
            -0.526643384493144,
            0.1604450512061799,
            -0.20668524359627183,
            -0.07718963503191723,
            0.8188024777220353
        ],
        [
            0.9102620904943977,
            -0.8845868793261051,
            -0.09643017098845008,
            0.9565036532272899,
            0.9135912153034447,
            0.6527164622610278,
            -0.4105445022877836,
            -0.20372247991416925,
            0.866897135545186,
            0.613914792855603
        ]
    ],
    "biasesOne": [
        -0.7138005456170831,
        -0.4875877562521318,
        0.14124666545680786,
        0.3665245432086375,
        -0.2137070933960319,
        -0.9821271495091082,
        0.7462605247719927,
        0.4150371378008111,
        0.2517786103163784,
        -0.19779877645800537
    ],
    "weightsTwo": [
        [
            0.6253966783850358,
            0.9674140197631946,
            -0.06272101911007599,
            0.2473416609534822,
            0.48340491947451225,
            0.786569348172262,
            -0.6363774391858019,
            -0.34126417243066487,
            -0.556679476594929,
            0.8088380517230764
        ],
        [
            0.12564124946860167,
            -0.39556221520237167,
            -0.5298672262539832,
            0.0647809337787626,
            0.13152041072846843,
            0.057834942581027615,
            0.9152812786183155,
            0.4634221283897675,
            -0.9411439459961466,
            -0.8476876336644301
        ],
        [
            0.45280053109518903,
            0.8299254008433172,
            -0.8391032883587579,
            0.841496820893125,
            -0.3025610977586861,
            0.2385400149189334,
            -0.042429516422519686,
            -0.6430624289236582,
            0.8285479455250844,
            -0.20319924660230315
        ],
        [
            0.031202353367203894,
            -0.6651312535802485,
            -0.5989308102090458,
            0.025425706142808258,
            0.3164882250744643,
            -0.11389219004370266,
            0.7865163534014814,
            -0.08968001137199333,
            0.5254284207320878,
            0.7715736277410077
        ],
        [
            -0.925973962758506,
            0.30435931559918505,
            -0.5980151632589659,
            0.884492083609085,
            -0.9858969366627055,
            -0.6581236524615393,
            0.3363773169201649,
            -0.4166187186654089,
            0.17421983434163568,
            0.8949735572837834
        ],
        [
            -0.6540943709233831,
            -0.301699214855756,
            0.05339235609232129,
            0.5032560338907555,
            -0.10613473284664354,
            0.37243178556121226,
            -0.7062967059020477,
            -0.2728436507902081,
            -0.7152762706624514,
            -0.8718699082343748
        ],
        [
            0.3436151961422358,
            -0.20469510846619676,
            -0.3455866842017934,
            0.9644238330335873,
            0.39104626899436323,
            -0.65188831716977,
            -0.8576323449158956,
            0.6729344980777023,
            0.333188922934635,
            -0.342183209314856
        ]
    ],
    "biasesTwo": [
        0.8291232321997983,
        0.12504787558366104,
        0.12251690383524139,
        0.018540601796235734,
        -0.6408080892472412,
        0.5733761471609427,
        0.939001874526662
    ],
    "weightsThree": [
        [
            -0.81523258254799,
            -0.9986905877184358,
            -0.40138745349832394,
            -0.9837739857137122,
            -0.4857763766466825,
            -0.9990921633368517,
            0.3103960113396578
        ],
        [
            -0.6598350324893114,
            -0.8038726426944969,
            0.46755057069111516,
            0.16488436379853177,
            0.45465450207844804,
            0.15285963648684775,
            -0.9398842219390233
        ],
        [
            -0.027288182338567557,
            0.8427157084280217,
            -0.5341001839941013,
            0.8246941770589775,
            0.3174846294061697,
            -0.16919282150393267,
            0.22405604270818524
        ],
        [
            -0.06193164912734472,
            -0.2520523725252499,
            0.5138380446494804,
            0.6086475078600393,
            -0.38767964699735025,
            0.8072364104847993,
            0.8540552141998166
        ],
        [
            0.31638164304971395,
            -0.9168713754303239,
            -0.8648077819899787,
            0.6825950423401994,
            -0.9749250429121972,
            -0.9166296342135081,
            0.39842544091383303
        ]
    ],
    "biasesThree": [
        -0.13988652940649904,
        0.9792710533962818,
        0.25335851702501744,
        0.47964776802304865,
        -0.2505101194723893
    ],
    "weightsFour": [
        [
            0.38999710168223634,
            -0.334759167034828,
            0.053289908102749806,
            -0.9575624875527489,
            -0.4380304260044716
        ],
        [
            0.2832714665061695,
            -0.6808927595068146,
            -0.14965293179727257,
            -0.7250059302210607,
            0.6044661985893116
        ],
        [
            0.17159630698880912,
            -0.2274330518077634,
            0.041352401215814405,
            0.5875854420681761,
            0.7712758207830508
        ]
    ],
    "biasesFour": [
        0.837516500387465,
        0.7155942725157582,
        0.8440818775843466
    ],
    "weightsFive": [
        [
            0.6244641064436454,
            0.14544117777243648,
            0.02831492672960101
        ],
        [
            -0.841825290806195,
            0.8242093434604296,
            -0.5575068613351069
        ]
    ],
    "biasesFive": [
        -0.3064660039278144,
        -0.22760658933804945
    ],
    "fitnessValue": 0.0
}