{
    "weightsOne": [
        [
            0.5392453384118971,
            0.1077841154454462,
            -0.4200988898381355,
            -0.9302949611826874,
            -0.8192303753856265,
            0.9519553236225169,
            -0.04247303879768749,
            0.2454865909057775,
            0.1789805844249912,
            0.030442870620232876
        ],
        [
            0.1782078486596279,
            -0.6167318395598664,
            0.18128773077348104,
            -0.3432962561872537,
            -0.3734689254032342,
            -0.5744451728792992,
            0.46605658420213136,
            -0.794048993124997,
            -0.7660267663783276,
            -0.2952656719608626
        ],
        [
            -0.9560910280327453,
            0.9223915594004157,
            0.4784492386948176,
            0.15759735181624634,
            -0.38885741260667817,
            -0.6959569533597805,
            -0.12887577191181143,
            -0.8757574427664683,
            0.9186209477021554,
            -0.6786650516934198
        ],
        [
            0.6247292742186696,
            -0.6920260323937659,
            -0.938944047405935,
            -0.19773099841251351,
            0.7423073909468398,
            0.054942156825892985,
            -0.41830000088252195,
            -0.23328567747731443,
            0.9774466746425081,
            -0.566412990027807
        ],
        [
            -0.34627641064188897,
            -0.23740835428319818,
            -0.024270539790824053,
            -0.3884826321111108,
            -0.7474274290533587,
            -0.8165516514713143,
            -0.5742764005231604,
            0.48208788254136925,
            -0.5823798574038572,
            0.703390013971936
        ],
        [
            0.18043456109803202,
            0.47946565460222845,
            -0.5000811035379882,
            -0.06484090541034848,
            0.06359533920196503,
            0.2528646946120914,
            -0.1831639414292645,
            0.9870085842379148,
            0.9101042310386938,
            -0.12285428837237733
        ],
        [
            -0.784399478807549,
            0.1715067597496156,
            0.2726155447983374,
            -0.47851366664725914,
            -0.5804872977454036,
            -0.59307507069589,
            -0.0177628512102892,
            0.5957998128226456,
            -0.6067168729326784,
            0.5903393010898574
        ],
        [
            0.37385553722257536,
            0.10487791364274712,
            -0.1007753405523375,
            -0.6128788780370837,
            0.4192074154783545,
            -0.8602064589235414,
            -0.2089340545773175,
            -0.704825920178529,
            -0.39838549027043846,
            0.05753645543488917
        ],
        [
            -0.6279345939972083,
            0.04754516242056206,
            -0.10827026432567055,
            -0.9233628407028378,
            -0.20369198582553305,
            -0.35462999533845774,
            -0.3237955606499556,
            -0.030154850823263413,
            0.3221603140878859,
            -0.7424259924073457
        ],
        [
            -0.8696164246653986,
            0.6120452358032178,
            -0.7814684840454884,
            0.3775327554619061,
            -0.31944312520749896,
            0.14667777266083637,
            0.7379798947236285,
            -0.5304252613189329,
            0.17701138326062527,
            0.08317391258187157
        ]
    ],
    "biasesOne": [
        0.07400883695769656,
        -0.3713739088638288,
        -0.908794687550893,
        -0.6268016050853702,
        0.4851988104456575,
        -0.5929851544022855,
        -0.08217183051890209,
        0.9437564497907716,
        -0.19231197995285676,
        0.35172137160313066
    ],
    "weightsTwo": [
        [
            -0.057495988882226845,
            -0.035177265796173085,
            -0.6742964358049095,
            0.6749805716386206,
            -0.7662930126965659,
            0.983671263899196,
            0.33870781828731644,
            -0.7045347281790693,
            -0.25750138186773386,
            0.3948344627561404
        ],
        [
            -0.3404938793475196,
            -0.06216993083579769,
            -0.6820824229446265,
            0.23659246222708585,
            0.09164325184318534,
            0.7574429442209432,
            0.4850454965644875,
            0.6404589850945615,
            -0.25459599487288465,
            -0.9141524278051265
        ],
        [
            -0.37866378065640993,
            -0.17596102115402057,
            0.2781250306387264,
            0.871043940046119,
            0.9536284898092613,
            -0.2246170651869479,
            -0.5434754346676414,
            -0.10196974677752135,
            0.6640624005553244,
            -0.5059556060955952
        ],
        [
            -0.0022754324380906965,
            -0.7064264734213963,
            0.025871862028905568,
            -0.27605313492890815,
            -0.3819562968706567,
            -0.9000971793369363,
            -0.27408138909300295,
            0.4656930374033179,
            -0.8049641789148774,
            0.5048143327815209
        ],
        [
            -0.3694023685954213,
            -0.5767149677899561,
            -0.8544059948384588,
            -0.7742081415427609,
            -0.2646392610993693,
            -0.6667877239473559,
            0.5346790344656065,
            -0.7078316520375294,
            0.4466142548917431,
            0.8982071717384681
        ],
        [
            0.4061985239164305,
            0.8835280493516144,
            -0.8714158181672453,
            0.489865070993978,
            0.08250447885820833,
            0.022876946106081153,
            0.5833865366490281,
            -0.0192227429596179,
            0.37130836566533154,
            0.2659589098614219
        ],
        [
            0.31039781021903057,
            -0.4811655021488439,
            -0.8028386375746592,
            0.0832954035525506,
            -0.5331444137664079,
            -0.5320358282557367,
            0.9786575782488427,
            0.542592840859792,
            -0.8826685996277537,
            -0.513693558243365
        ]
    ],
    "biasesTwo": [
        -0.11594813058881659,
        0.8740675827797642,
        -0.0005458758646017525,
        -0.7347888227707255,
        0.7369365141699287,
        0.06901971403954454,
        0.710105126102345
    ],
    "weightsThree": [
        [
            0.6447044114604628,
            0.31060063476732513,
            -0.24203033306495358,
            0.7448344433171459,
            0.8616814814528884,
            -0.7128879873803795,
            -0.6916797617114687
        ],
        [
            0.28736554283157845,
            0.3748802081424245,
            -0.9952223620283185,
            0.34022185893122114,
            0.28162035957198306,
            -0.09002404326352864,
            0.04161841241507358
        ],
        [
            -0.6470782370085864,
            -0.3464688998303227,
            -0.593684331151354,
            0.026666519400199595,
            0.1886393639724535,
            -0.9087137828312215,
            0.5006111024784603
        ],
        [
            -0.024051064713477288,
            -0.004387996797439175,
            -0.0687315437198115,
            0.8302344847925267,
            -0.181635055856882,
            -0.030362762541300103,
            -0.3358055462837872
        ],
        [
            -0.5991562734283524,
            0.47771374891492235,
            -0.24409510694166725,
            -0.5264593138326459,
            0.1694751116885731,
            0.21343070057576408,
            -0.9279974099167645
        ]
    ],
    "biasesThree": [
        -0.0651530431848304,
        -0.8238330337951003,
        -0.9937604007263674,
        -0.5258730061143135,
        -0.5052306021938635
    ],
    "weightsFour": [
        [
            0.580542767003879,
            -0.10220722786020531,
            0.48142516153756265,
            -0.5018521781246728,
            0.03206371399593522
        ],
        [
            -0.1918319294156814,
            0.482638025177794,
            0.44963428060874056,
            -0.590246860500925,
            0.10725980729025353
        ],
        [
            0.8542772155403446,
            0.047070234669239985,
            -0.5070183122173519,
            -0.29000811729769715,
            -0.6849790509195286
        ]
    ],
    "biasesFour": [
        0.9546644733326788,
        0.5344215228809157,
        -0.2550613131771451
    ],
    "weightsFive": [
        [
            -0.6905445638808925,
            0.09608204671622711,
            0.9344484026937063
        ],
        [
            -0.43564524078265965,
            0.2539563238884315,
            0.3174129493255553
        ]
    ],
    "biasesFive": [
        0.28950021195861453,
        -0.6431825839776761
    ],
    "fitnessValue": 11.022595796459258
}