{
    "weightsOne": [
        [
            0.6840865526055273,
            -0.8894541600088584,
            -0.26522698706040626,
            -0.2281328519484871,
            0.04575448556718831,
            0.78596984050245,
            -0.6877938390483049,
            -0.9294939885527116,
            -0.546762593531783,
            -0.19500815831008
        ],
        [
            -0.6008028003149177,
            0.4258314738963014,
            -0.9834739929201639,
            -0.49694978746368546,
            0.5800180567294857,
            -0.8716068503039991,
            -0.9187965347090863,
            0.38842846365909733,
            -0.7375014441437993,
            0.01425219731621441
        ],
        [
            0.9341016008800311,
            -0.7760845606036988,
            0.21836460875702257,
            0.615797805113754,
            0.6515532430653903,
            -0.5977530995896652,
            0.8672849757308263,
            -0.10283839843943499,
            0.6381928912774735,
            -0.6334234322671501
        ],
        [
            -0.23738280297765457,
            -0.5878231806114023,
            -0.6039436733549415,
            -0.4448572606846326,
            0.13259203937984276,
            0.409330544983747,
            0.9965532391487941,
            -0.3953342808790421,
            -0.6681710443560125,
            -0.9859756985912709
        ],
        [
            0.732322423136401,
            0.5541361427832909,
            0.5151617963035653,
            0.7829888601349295,
            -0.5251513683329485,
            0.40919848530779546,
            0.5360354040896944,
            0.29564235712501774,
            0.27359541676404153,
            0.9758861418597395
        ],
        [
            -0.5417823397140704,
            -0.9820220472574068,
            0.5222989196970733,
            0.14533268344214312,
            -0.5684822945417494,
            0.010770745685992233,
            -0.41324081121490974,
            -0.02912528638888867,
            -0.9478135609637757,
            0.6819853095469326
        ],
        [
            -0.4423402187606231,
            -0.26389846544980977,
            -0.38296496950006387,
            -0.2535133031966519,
            -0.058812711898691195,
            -0.5200666828980565,
            -0.6092905984839718,
            0.17994711170789457,
            -0.9999502136168357,
            -0.8828709256351042
        ],
        [
            -0.11511867358169181,
            -0.8851641905181216,
            -0.7211052485485308,
            -0.9228856550520732,
            0.565951328287446,
            0.8204673037925694,
            0.3064967371944711,
            0.1986309035145919,
            -0.45720826177345564,
            0.8912364951278868
        ],
        [
            0.13789655656083455,
            0.7011097476411456,
            0.8388775411885445,
            -0.22469954654184598,
            -0.7798471947805634,
            -0.9644891558820199,
            0.8569773451993572,
            0.8680956385869816,
            -0.05335559898566067,
            0.28721627818738527
        ],
        [
            -0.3903922212135864,
            0.852211366542569,
            -0.4533573208877375,
            -0.1182123684698626,
            0.593168170317111,
            0.9246631889633479,
            0.11082365841368369,
            0.03357821120899063,
            0.735614037776188,
            -0.5551760474365164
        ]
    ],
    "biasesOne": [
        0.7893068836804484,
        -0.05238298727237267,
        0.9472335184403755,
        0.46524768242673975,
        -0.7505630963959382,
        0.6949133115892112,
        0.14368004139808543,
        -0.531276027459942,
        0.27187638324606667,
        0.1378693616793738
    ],
    "weightsTwo": [
        [
            -0.3627485631620073,
            -0.7306694222849603,
            0.8326658140770036,
            0.19010392567777523,
            0.33090456000142976,
            0.15168018517884163,
            0.3074506395093144,
            0.19951265321032263,
            -0.3970021536699575,
            0.5841765097583838
        ],
        [
            -0.08014634778007412,
            0.20224827185469918,
            -0.612387130159606,
            0.6670831771209631,
            0.6217545583726902,
            0.267440249542497,
            0.2910730879589749,
            0.26151624906534066,
            -0.47592030530475404,
            -0.7198056719952517
        ],
        [
            -0.8790650340375954,
            0.047124791558345924,
            0.20493929276139689,
            0.2846743515016674,
            -0.7752407965354124,
            -0.07928298575774795,
            -0.24018609357868725,
            -0.7664811777543632,
            0.7827863578769356,
            0.21279584783724048
        ],
        [
            0.872546941732689,
            -0.163485713948488,
            -0.97950020259207,
            -0.43711103103659843,
            0.19790584619904816,
            -0.2639985936049911,
            -0.5691935357465185,
            -0.31488129371385876,
            -0.828086975944831,
            -0.5568843182810954
        ],
        [
            0.49137925476573185,
            0.6734090445845542,
            0.10104538226526372,
            0.6393343816869834,
            0.9929587581703576,
            0.2992131337540598,
            -0.33216890820859635,
            -0.6930790011169143,
            0.270964678348222,
            -0.22360886851592587
        ],
        [
            -0.09160346606216829,
            -0.5951969201172693,
            -0.4044916745818796,
            0.04745655459922715,
            -0.1859307334889364,
            -0.697524276656641,
            -0.3935847088881663,
            -0.21193462472998048,
            0.5757916921411141,
            0.11576704619072742
        ],
        [
            -0.5012952517004943,
            -0.2590639356265714,
            0.0760035294002328,
            -0.060669631481490516,
            0.8212553315421351,
            0.9795783880400553,
            -0.12868324970168898,
            0.5271127735082559,
            -0.8432858426469645,
            0.13273444340905338
        ]
    ],
    "biasesTwo": [
        -0.23855098568788602,
        0.6528082197087457,
        -0.3793097752446095,
        0.6060408576568883,
        0.6202296210881668,
        -0.23039644808594595,
        0.3046341677502262
    ],
    "weightsThree": [
        [
            -0.5479902921802413,
            0.8644735350978383,
            0.4063348787882566,
            0.8985757525373461,
            -0.07647431132566873,
            -0.481205645860036,
            0.017500719576222457
        ],
        [
            -0.9019927175455864,
            0.37252557020330257,
            -0.011449279823673608,
            0.9939585998591811,
            -0.6604635664336189,
            -0.43288708914337737,
            -0.05216060091150987
        ],
        [
            0.41468752166484135,
            0.12057667770145475,
            -0.32111407485016086,
            -0.03253328690726609,
            0.4583633437716226,
            0.6512564850821818,
            0.4372928105735443
        ],
        [
            0.0250229492209042,
            -0.9731943436877621,
            -0.7336671024245636,
            0.11576222123514213,
            -0.08994554911424801,
            -0.12018670967557199,
            -0.7582655417827557
        ],
        [
            0.81883407858188,
            0.40309498646907427,
            -0.8730266318227498,
            0.486991994684437,
            -0.6459213620587705,
            0.2835162609887931,
            0.6994020248530548
        ]
    ],
    "biasesThree": [
        -0.7127619144209953,
        0.7999027330512825,
        0.6065499013829456,
        0.9216417506533223,
        0.2812502732006168
    ],
    "weightsFour": [
        [
            -0.13682402319587061,
            0.9263915466732644,
            0.9447671389674741,
            -0.15250404271689555,
            0.1877073961251221
        ],
        [
            0.02283404285377122,
            -0.5977430834577051,
            0.5139586677470458,
            -0.07514064497364181,
            -0.4484539721124734
        ],
        [
            -0.804759354903031,
            -0.8128361176786032,
            -0.7417156071509794,
            0.748088973002355,
            0.8032604548980777
        ]
    ],
    "biasesFour": [
        0.5134523644108036,
        -0.5453747401035416,
        -0.8056184070156291
    ],
    "weightsFive": [
        [
            -0.07412419230836753,
            -0.20761494029000005,
            -0.3746257817888834
        ],
        [
            0.6033855740377276,
            -0.1462182503010543,
            0.8808081284629585
        ]
    ],
    "biasesFive": [
        0.9325773678153964,
        -0.27845745965632096
    ],
    "fitnessValue": 0
}