{
    "weightsOne": [
        [
            -0.7267263992182089,
            -0.7141218218369363,
            -0.9158742676139671,
            0.09200624609812014,
            0.3883165147981944,
            0.3918393825228288,
            -0.797439720298575,
            0.8784610127892978,
            -0.10042343478136684,
            -0.24977837141737602
        ],
        [
            0.3746526520489406,
            -0.6589532332303643,
            0.5796910529440931,
            -0.5680134159485859,
            -0.403550943050053,
            -0.7674157235556798,
            -0.30384281156921267,
            -0.01090585931725041,
            0.4114564787267123,
            0.9542904584787459
        ],
        [
            0.04178983064767894,
            -0.8618890775210588,
            -0.7082952014129544,
            0.7818607978573515,
            -0.687264426097753,
            -0.7794341437451686,
            0.637139638086921,
            0.7667522090764862,
            -0.49772035170043294,
            -0.9193931466000811
        ],
        [
            -0.935074401506031,
            -0.8311758931219193,
            -0.199540338999745,
            0.8004433886143192,
            -0.2925698542497288,
            -0.4176334286065282,
            -0.395021061203086,
            -0.31110108799534997,
            0.648069274466792,
            0.4853080625349331
        ],
        [
            -0.4275831829355945,
            0.21871498381728038,
            -0.6334745009578984,
            -0.859012744776303,
            -0.8702633929989316,
            -0.06790072126912783,
            -0.0627415022755784,
            -0.07686275303447876,
            -0.49864343651801657,
            0.610674447465885
        ],
        [
            0.6345564938887607,
            -0.6779809044222418,
            0.9077464855122861,
            -0.3981087549979827,
            -0.6164460449032125,
            0.03660428083109246,
            -0.062283232333347094,
            -0.6268523088641238,
            -0.08672688965982367,
            0.7208797725262157
        ],
        [
            -0.5915971228826933,
            -0.7270724986102808,
            0.8590228238484985,
            -0.03388130222715535,
            0.16305984081148917,
            -0.07282165565792598,
            -0.6758623818119904,
            0.9830845034730438,
            0.3940098574568418,
            0.3368910691501985
        ],
        [
            -0.7623085364574067,
            -0.4438896841048736,
            0.4226606154534376,
            -0.031168093215794945,
            -0.43263952027842745,
            -0.12144749681283185,
            0.8008549311547488,
            -0.9537948484031795,
            -0.40618207045056653,
            -0.5956707836380675
        ],
        [
            0.4953627979873456,
            0.858900510301674,
            0.7475894545745867,
            0.20676949251620846,
            0.7725371029423802,
            -0.05131494439891404,
            0.257191550544305,
            0.5701008494616315,
            0.08412449117673382,
            -0.5885160987577231
        ],
        [
            -0.6602082749943616,
            -0.543041520350348,
            0.6389205109143288,
            -0.045354020141131546,
            -0.4972711338906668,
            0.8674985311386172,
            -0.6781336910393869,
            -0.6083229615243351,
            -0.9801517062197251,
            -0.7442074535240015
        ]
    ],
    "biasesOne": [
        0.48694745299600695,
        -0.5662585307563901,
        0.4988035678597944,
        0.9805858901862263,
        0.0785021873927032,
        -0.708442274364951,
        0.10970769463390928,
        0.7604534959278357,
        0.15700502892049073,
        0.6406410261055304
    ],
    "weightsTwo": [
        [
            -0.04208044040024772,
            0.5328154760223494,
            -0.347672509713403,
            -0.0993260269392402,
            0.31440820011390747,
            -0.963862910334585,
            -0.3452107424552666,
            0.340430466788723,
            0.22807574445681822,
            -0.40926375582047725
        ],
        [
            -0.11948035767229603,
            0.6545910472276628,
            -0.9807725092229944,
            -0.6639575812910117,
            0.32048823024332584,
            -0.9831605730992565,
            0.8259530155651669,
            0.6510991069064864,
            -0.6783605967381527,
            -0.6625843486759813
        ],
        [
            -0.84042762286037,
            0.6054516922464359,
            0.8751846180052834,
            -0.2697736860823674,
            -0.24280517504748222,
            -0.654706311248906,
            0.032478145025738314,
            -0.3485768514123444,
            0.2644077947621932,
            0.1523882733734634
        ],
        [
            0.6378608578486609,
            0.7947030758561011,
            -0.3663502571748227,
            -0.6737638751234036,
            -0.661437622882225,
            -0.748387661345361,
            -0.9516794448051551,
            0.005492502805554134,
            0.9165281447678733,
            -0.1559449132257722
        ],
        [
            0.6468388884791287,
            -0.019715437522562107,
            0.6718506933105293,
            -0.45935128710656015,
            -0.4919802161305973,
            0.12939833010844892,
            0.9423770605546462,
            -0.4313543368109234,
            0.7994586114552671,
            0.2304710210248857
        ],
        [
            -0.5447204707376241,
            -0.66072048160336,
            -0.05521348448193275,
            0.4926017475128204,
            -0.8421898794966443,
            -0.09866267099317683,
            0.7469080432617909,
            0.36802846266213574,
            0.9506129088978934,
            -0.6919744909896863
        ],
        [
            -0.9396154714323481,
            -0.31138413363602124,
            -0.7855739351217128,
            0.5706194554334989,
            0.028125635527035397,
            0.564341237700368,
            -0.20942805022219835,
            0.5596682136161593,
            0.04992446123739658,
            -0.3215841126206178
        ]
    ],
    "biasesTwo": [
        0.48294118307619205,
        0.9643714714379015,
        -0.8351488682662196,
        0.7523147784524422,
        0.034849178586032536,
        -0.8143882008318737,
        -0.5489593571700253
    ],
    "weightsThree": [
        [
            -0.6473836802492727,
            0.46544699105511045,
            -0.8948973601315717,
            0.37824757033805656,
            -0.8750582026473757,
            -0.32485803602237784,
            0.8531850411905533
        ],
        [
            0.9336806233716819,
            -0.8296111542334075,
            0.5344302385256912,
            -0.42541158107751476,
            0.8031702565381653,
            -0.7738751875128431,
            -0.5472610230835917
        ],
        [
            -0.48735780899812053,
            0.3740268763942529,
            0.9664820542465549,
            -0.7958436813363616,
            -0.00026158611488957817,
            0.30396462253338363,
            0.37695256397170884
        ],
        [
            -0.13233192924812798,
            0.09680259377723854,
            -0.22849597738019667,
            -0.26314992267793236,
            -0.16985823415395496,
            -0.4295888763054043,
            -0.8962465021617327
        ],
        [
            0.9629457029600601,
            -0.28595367517250825,
            -0.5349878103225505,
            -0.31239508552451545,
            -0.21006204579672128,
            0.8206455438232176,
            -0.3385796947789983
        ]
    ],
    "biasesThree": [
        -0.46259136604205153,
        -0.13080514633454277,
        0.8587158865433433,
        -0.10268063360743285,
        -0.5901304120883024
    ],
    "weightsFour": [
        [
            -0.5984149736465478,
            -0.7020518404730378,
            -0.3286241315594629,
            0.8061224427958626,
            -0.3079551482047713
        ],
        [
            -0.8914204810576409,
            0.7529665289246839,
            0.9282722585165548,
            0.17798577600040555,
            0.8461551824058235
        ],
        [
            -0.44355995358545686,
            0.1914550984511565,
            0.1792972802206667,
            -0.5046255171539469,
            -0.536581966272127
        ]
    ],
    "biasesFour": [
        0.8483014604635191,
        0.8679979401768174,
        0.04882737110859092
    ],
    "weightsFive": [
        [
            0.9566422184889287,
            -0.8393383172981046,
            -0.1098545137145126
        ],
        [
            -0.023176165173379948,
            -0.9726714811968207,
            -0.6961614744133675
        ]
    ],
    "biasesFive": [
        0.6828204254740515,
        -0.32935592326262864
    ],
    "fitnessValue": 0.0
}