{
    "weightsOne": [
        [
            -0.33313082774805136,
            -0.18175577507067575,
            -0.9141334820544298,
            -0.6057709256624049,
            0.8303253966431599,
            0.28489543560004926,
            -0.9569656556914774,
            -0.9334365202022195,
            0.34762071249220705,
            0.37801693746150344
        ],
        [
            -0.9301734596850797,
            -0.4650344634241055,
            -0.26780798407570905,
            -0.24466159626514283,
            -0.6812991041252321,
            0.7893764262429901,
            -0.4775798087444314,
            -0.4994496338873169,
            -0.7501866037316653,
            -0.14838870003690996
        ],
        [
            0.36849459035964216,
            0.024494435113678437,
            0.3840981055694017,
            -0.19039276473453115,
            0.3848718278179284,
            -0.7545807157636195,
            0.28193868339829997,
            -0.7256166748775166,
            0.7473763404563498,
            0.7288723355657036
        ],
        [
            0.265042378095687,
            0.5356915517401355,
            0.5364494092419021,
            -0.4622836574929894,
            -0.552115228593212,
            -0.26244665121647737,
            0.8957247236387089,
            0.6744598360938829,
            -0.0009391899113551094,
            0.9235830234987488
        ],
        [
            0.1897331290660802,
            -0.24824172484448592,
            -0.381714309244084,
            0.09983743342882612,
            -0.24988972418705346,
            -0.7416799989074547,
            -0.501501721462688,
            0.7443894596314167,
            -0.3377429483725838,
            -0.631325192940253
        ],
        [
            0.8049884458985284,
            0.4528575987609422,
            0.6584994647342148,
            -0.25515982304608475,
            -0.9189274639326039,
            -0.21981397707849437,
            -0.8143566853966298,
            -0.1196027073062853,
            0.5172911322044984,
            0.21096774072876867
        ],
        [
            -0.5542583939753734,
            -0.6860346422546888,
            0.46352231204203087,
            0.5009017663293143,
            -0.8516203039327581,
            -0.6119788575346987,
            0.13903347984205605,
            0.48085075962224755,
            -0.702667643365934,
            0.6947326055131027
        ],
        [
            -0.29147189639237125,
            0.10898183764660652,
            0.449015900119893,
            0.8165409185237849,
            0.8941933529116588,
            0.8071614361787782,
            0.3124849717317608,
            0.4643350773107482,
            -0.6759078748952636,
            -0.36190638452304835
        ],
        [
            0.5559605099278728,
            0.004490858511300155,
            0.9751342669025791,
            -0.30395639891299275,
            -0.6520773034500285,
            0.6848617680196205,
            -0.5356476790720812,
            -0.9729757511014803,
            0.4768370916558611,
            0.8942953109520306
        ],
        [
            -0.4115189387661038,
            0.8117611316210029,
            -0.4164278699973214,
            -0.6647012650972688,
            0.7214920130193843,
            -0.5785312480638325,
            0.5283039879154188,
            -0.2702794225620837,
            -0.5435252734344567,
            -0.7960724688368515
        ]
    ],
    "biasesOne": [
        0.2620385149087492,
        0.5903803606430882,
        -0.46323057641146037,
        -0.21420759410236068,
        -0.969466440008397,
        0.11880719374706028,
        0.5400554116834835,
        -0.18549880484998482,
        -0.4509104162510682,
        -0.5540798994893048
    ],
    "weightsTwo": [
        [
            0.4035270432393727,
            -0.9842189857561259,
            -0.47394605050265093,
            -0.009188396898148765,
            -0.8112927481796406,
            -0.5809132395574808,
            -0.6100568460485363,
            -0.5265455881097791,
            -0.57663043344205,
            0.8966750762475382
        ],
        [
            -0.1396321324550247,
            -0.8183708176655609,
            0.7904255017648891,
            0.4332099281439341,
            -0.2932060164513277,
            0.6807450989307906,
            0.1320372093544795,
            -0.01229959593211949,
            0.30454486624766974,
            0.51228119563216
        ],
        [
            -0.9445487463101123,
            0.28621735426938266,
            -0.8322643223888733,
            0.16325914818368914,
            -0.6843838924637025,
            -0.4200994428916869,
            -0.16901030981501908,
            0.40968337195750726,
            0.9522873964984899,
            0.6461217089129969
        ],
        [
            -0.7333428034767775,
            -0.5063907466293438,
            -0.4928668633871498,
            0.14796749144761545,
            0.13474589675890503,
            -0.17443349977663458,
            0.42640238179878076,
            0.7731255221752358,
            -0.0812056724902237,
            -0.9101693727385332
        ],
        [
            0.2417133413091428,
            -0.8316624401659631,
            -0.178531836860379,
            -0.5815901120752762,
            0.4450546472303354,
            -0.8501090286445423,
            -0.6142220517855386,
            -0.46687418539627723,
            0.5311199220424772,
            0.022110985710517728
        ],
        [
            0.8447138640558169,
            0.9915014706373557,
            0.782154949208568,
            0.7162526864362573,
            0.3354541467418082,
            -0.9247309995787762,
            0.7859876104027981,
            0.7523896198144819,
            -0.5460738841362442,
            -0.426416714387889
        ],
        [
            -0.26967255789101596,
            0.7853586099621972,
            0.18147528792553103,
            0.5736158128433544,
            -0.5246810504133574,
            0.45188264808290524,
            -0.12317469533512382,
            0.00019116650774475552,
            -0.395848822999322,
            -0.2946795726259841
        ]
    ],
    "biasesTwo": [
        0.9926367866416994,
        -0.7448767832430097,
        -0.2617788180728633,
        -0.5760483823459179,
        -0.32598845019829636,
        -0.9316283754396826,
        0.8734499997786545
    ],
    "weightsThree": [
        [
            0.5496532185148324,
            -0.9936476645310113,
            -0.958946629268002,
            0.5500548711978657,
            0.25297216057584837,
            -0.21200715342441323,
            0.7154905362071053
        ],
        [
            0.4164169187445197,
            -0.4641644039964774,
            -0.4980560557856446,
            -0.6028659990281979,
            -0.9020716483280007,
            -0.020117822595520973,
            -0.37207561306208947
        ],
        [
            0.4469493016504258,
            0.6375190051059914,
            0.9378745327432694,
            -0.9690868496663316,
            -0.49596720917642045,
            0.4376513463499818,
            0.12195593433620888
        ],
        [
            -0.444994679272501,
            -0.08350544376095903,
            0.5610618070794777,
            -0.7520314240565431,
            0.38792155205767753,
            0.5864682077472256,
            0.8554003608682423
        ],
        [
            -0.5512272808163499,
            -0.18529943950858896,
            0.5004745328501252,
            -0.9272153570470993,
            0.5332552778877859,
            0.22685585351566329,
            0.025783022579135118
        ]
    ],
    "biasesThree": [
        -0.9986499633710633,
        0.25638257031997114,
        -0.41903516160918164,
        0.38912356658485603,
        -0.049446951743437495
    ],
    "weightsFour": [
        [
            -0.9039434588785056,
            0.040419100541407404,
            0.9585640777603754,
            0.9439907686141948,
            -0.997053644784051
        ],
        [
            -0.8587624410608083,
            0.2759331081480887,
            -0.819942164233777,
            -0.8037344186476907,
            0.13044507040324915
        ],
        [
            -0.6616216860517765,
            0.0336544778866279,
            -0.6957627072663783,
            -0.6251171577924282,
            0.09665369910096788
        ]
    ],
    "biasesFour": [
        0.3373444830245864,
        -0.014671081628118143,
        -0.5048738803758714
    ],
    "weightsFive": [
        [
            0.8310281140339928,
            0.6775966747754059,
            0.5669328737982888
        ],
        [
            0.4151026269325895,
            -0.8011151152528282,
            0.6903940653439384
        ]
    ],
    "biasesFive": [
        -0.5699280169022904,
        -0.2725829718990178
    ],
    "fitnessValue": 0.0
}