{
    "weightsOne": [
        [
            0.9629386306488612,
            -0.8050076647996816,
            -0.7771332263908897,
            -0.06348960892184907,
            -0.6445962127285141,
            -0.5497241883891308,
            -0.5066213840313079,
            -0.32763605487626024,
            -0.07781599356209146,
            -0.45610327611913326
        ],
        [
            0.6654658967885849,
            -0.7059105547366107,
            0.32608808403331024,
            -0.9359130317902253,
            0.037366423382656944,
            0.43825428873143046,
            0.11807769404179491,
            -0.2894636972111586,
            0.04640438465282637,
            -0.26771319644954317
        ],
        [
            -0.21704542795230308,
            -0.5220096811281201,
            0.9299121230813314,
            0.468179818520964,
            -0.3717475606606646,
            0.878645698040992,
            -0.9481385548211541,
            -0.2341719472073609,
            0.5100132705435385,
            0.6825653160595522
        ],
        [
            -0.41071530801151024,
            0.14129190693583404,
            -0.7634518575311038,
            -0.4143914451115007,
            -0.7881662884038247,
            0.4313759197417053,
            -0.6015975302784331,
            0.4142737390904221,
            -0.5868469729418995,
            -0.5950073673710172
        ],
        [
            0.09651461106085879,
            0.33495588767771434,
            -0.027934969569725965,
            -0.36054524510979724,
            0.7133952375272508,
            -0.012128406134786163,
            -0.8035660826179367,
            -0.24952276204746004,
            -0.6903602408894256,
            0.34639790726690234
        ],
        [
            0.16921266529076284,
            -0.8908049043704538,
            0.8245519481747601,
            -0.21293894951766146,
            0.9229334084314829,
            -0.5737296242581422,
            -0.5493015877653342,
            0.2728238881945688,
            0.5403866660862442,
            0.12712578508159078
        ],
        [
            -0.13210404573273737,
            0.43455019879457324,
            -0.28210744081546824,
            -0.43215104917543345,
            0.5596585992330314,
            -0.10890316153217205,
            0.9959931280198258,
            0.4166700148310192,
            0.47900614406958897,
            -0.46875012233928337
        ],
        [
            0.05493087886699222,
            0.39557513248846066,
            -0.45380560113413604,
            -0.4730132204169193,
            0.4201783563753596,
            0.5410309930195614,
            -0.03702397202245322,
            -0.6870526072387708,
            -0.9154693917808234,
            -0.939698944227424
        ],
        [
            -0.3808801329309397,
            -0.15260102552333543,
            -0.9635051279586295,
            -0.4724253406337693,
            0.4956729097982875,
            0.8046316944144232,
            0.20931430085303204,
            -0.07429098001039303,
            -0.7294483955242006,
            0.33830035104598544
        ],
        [
            -0.21809795399793064,
            -0.24012814183857745,
            -0.7512414607126914,
            -0.3967160356600503,
            0.4701727544923531,
            -0.46985744954790487,
            0.9782488162361769,
            0.5980330507900511,
            0.02071670483085475,
            0.8935413348333168
        ]
    ],
    "biasesOne": [
        0.5858155896728034,
        -0.39849176291145105,
        -0.07260881837303468,
        0.8753923528091145,
        -0.3064676460518383,
        -0.10926332966485108,
        -0.5739449045688001,
        -0.08974495774503177,
        -0.8585985778607359,
        -0.02626515630449533
    ],
    "weightsTwo": [
        [
            0.014998544906691613,
            0.31981146844907626,
            0.4550990133247088,
            -0.7608331866679185,
            0.39595248186830734,
            0.035904988799793536,
            0.07140827771024183,
            0.47936518756718316,
            0.9251081920661715,
            -0.14195553318575893
        ],
        [
            -0.9371054624976964,
            -0.16025032094372094,
            -0.6715598116135455,
            -0.7763615699432693,
            0.18665200697734563,
            -0.08233195795115544,
            0.24267873540324758,
            0.258392082652271,
            -0.05638544243356125,
            0.7651072820650657
        ],
        [
            0.0418517210460021,
            -0.5101360084200974,
            0.7381871126230009,
            0.0670543399965211,
            0.4093658338557771,
            0.47582062429407856,
            0.6255395927083656,
            0.44749997012124765,
            0.956745789264589,
            -0.15630498639423407
        ],
        [
            0.44830789407900795,
            -0.2628081353483238,
            0.48251542565882133,
            -0.888781038353921,
            0.7333544723914518,
            0.23692374594179766,
            0.8515743377754001,
            -0.8586865984567416,
            0.9845702578335016,
            0.19279111515261516
        ],
        [
            0.021468065907269684,
            0.20837453723918786,
            0.9525986901098269,
            0.2677204642991895,
            0.9862045256255341,
            0.050079418558202526,
            0.5358948490685469,
            -0.5632355804549547,
            -0.3767349103862847,
            -0.4267515251977494
        ],
        [
            -0.8523501666424178,
            -0.8518088243842485,
            -0.828216857447547,
            -0.32693525908154286,
            -0.7171193823435362,
            0.7945633919142314,
            -0.7289448016327644,
            0.2769734695295074,
            0.7809552689781114,
            0.7448400381811402
        ],
        [
            -0.07906739324400203,
            -0.22303435475277533,
            0.0707690352277226,
            -0.9552059048720842,
            -0.44494367858941275,
            0.602119181226449,
            0.4478049199434926,
            0.5005208881318601,
            0.7944985177097317,
            0.4242288123412954
        ]
    ],
    "biasesTwo": [
        0.7903269797450558,
        -0.7935592383207641,
        -0.2803041728859923,
        0.19820520520828966,
        0.2194597833439551,
        -0.7047292642481668,
        0.9337455644585957
    ],
    "weightsThree": [
        [
            -0.15558688923748898,
            -0.5125387999193367,
            -0.05144469250366357,
            0.12358651326898218,
            -0.025130596916794756,
            0.8038020589779435,
            -0.7311598799222034
        ],
        [
            0.8868676472057242,
            -0.41020949914479776,
            0.30677189228524715,
            0.01083528146156687,
            -0.1782615886980201,
            -0.7837032832897421,
            0.7847677018398596
        ],
        [
            -0.5954330716909269,
            0.805734173840372,
            -0.8102181454089772,
            -0.5004227881344814,
            0.7750765775594379,
            -0.5579753220123624,
            0.7873273339677496
        ],
        [
            0.04127681900718039,
            0.7854339271884152,
            -0.6847563790353932,
            -0.7599256875125449,
            -0.9242545554754626,
            -0.6408505993662286,
            -0.04937426885852192
        ],
        [
            0.4291818043689333,
            0.7216015614477018,
            -0.19193239880078616,
            0.2828760451502257,
            -0.9839411833794691,
            0.2158908542496092,
            0.8243812063097595
        ]
    ],
    "biasesThree": [
        0.9870967409878428,
        -0.4098109705077646,
        0.13186182098416133,
        0.7736877572286025,
        0.43855966154184456
    ],
    "weightsFour": [
        [
            0.8391387494680418,
            -0.44879833558100213,
            0.9903920320743496,
            -0.16691132541460285,
            0.6898518878624271
        ],
        [
            -0.04537007188177533,
            0.19908065706474187,
            -0.6876859154151362,
            -0.10685385896023636,
            -0.37731170877177056
        ],
        [
            0.189830523217831,
            -0.23405051007588895,
            0.15817035057505624,
            -0.9678315457393243,
            -0.3466724538450947
        ]
    ],
    "biasesFour": [
        -0.22981751129724493,
        -0.6477146027173923,
        0.6147276188744619
    ],
    "weightsFive": [
        [
            -0.14698191617842005,
            0.4695606533243062,
            -0.1665481153498698
        ],
        [
            0.25755615591733494,
            -0.5311883400091084,
            -0.5040280540569206
        ]
    ],
    "biasesFive": [
        -0.49680513373149715,
        0.5840334666484339
    ],
    "fitnessValue": 0.0
}