{
    "weightsOne": [
        [
            0.6678093894366806,
            0.35345466020764493,
            0.14842555522166068,
            -0.41036693903734256,
            -0.3358421993440692,
            0.690934347260822,
            0.40315153912030777,
            0.1356676067156919,
            0.8474286133043027,
            0.8982362899991811
        ],
        [
            0.4455339346822471,
            0.7236655719511131,
            0.7406229416137753,
            -0.1044640887522359,
            -0.19548104085127482,
            0.7734638929250885,
            0.6327562520983514,
            -0.3126138738655244,
            -0.16174308452028408,
            0.7706107824523989
        ],
        [
            0.7410792151256267,
            0.9892292288691955,
            -0.9005273082609282,
            -0.9092558848106542,
            -0.3368104358395416,
            -0.3010684180849783,
            0.359445847854851,
            0.754454174526842,
            -0.3274882856977126,
            -0.9829161095852166
        ],
        [
            -0.16130981659914911,
            -0.8131647073136283,
            -0.8826071011124701,
            0.39342881649546113,
            -0.23509420100394318,
            0.15352396330479934,
            0.4905041174314997,
            -0.7394894266711158,
            0.22041813114947573,
            -0.6041911059584655
        ],
        [
            0.19291545380852004,
            0.26981449949141667,
            -0.9844992314506469,
            -0.2413435550004992,
            -0.6419447271815288,
            0.1197577930560374,
            -0.8212262835137547,
            -0.1625456966846457,
            0.3993760437228602,
            0.22322329423476583
        ],
        [
            0.13535251752543576,
            -0.9480937690239675,
            -0.31284168120937017,
            0.20243992987961779,
            0.9178813634593901,
            -0.19078944470817372,
            -0.7387362004917828,
            -0.8981278212827046,
            0.7837797852105504,
            -0.7879096142055355
        ],
        [
            -0.6262741484552561,
            -0.8436501584831553,
            0.27323445189575124,
            0.761267729738466,
            0.7118323449446902,
            -0.41007424556292915,
            -0.2781412327173556,
            0.4634308988645861,
            -0.8831612373614277,
            -0.30024655361870844
        ],
        [
            0.28383759821522103,
            0.8776544082399762,
            -0.4937308276615662,
            -0.3566730967238798,
            -0.7234807380450716,
            0.7690095940446777,
            -0.2727452119970255,
            0.25613844974091093,
            -0.7619978959877667,
            0.17504983911030303
        ],
        [
            -0.6309232834750298,
            0.5226768622200775,
            -0.9773686843246221,
            -0.1532517682691077,
            0.5330040275759655,
            0.971088846746154,
            0.06463171669247902,
            -0.49103714628161765,
            0.9949397771676622,
            0.9774671926227365
        ],
        [
            -0.2666206599792176,
            -0.41749253419688803,
            0.8157413431661034,
            -0.08419311997890389,
            -0.25554691268648333,
            -0.3148278656455952,
            -0.9604929107130076,
            -0.30473430293739767,
            -0.5475386690053774,
            0.7365975207654629
        ]
    ],
    "biasesOne": [
        -0.1914012894751862,
        -0.29890629316307127,
        -0.3385844374211133,
        -0.06349414807529707,
        0.13819028232567465,
        -0.5749347587844065,
        0.8182992984994188,
        0.2513739912192361,
        0.7121643113905054,
        0.2432471271209633
    ],
    "weightsTwo": [
        [
            -0.7102876570924388,
            0.5949327843746348,
            0.8777590750760662,
            -0.3110060225160276,
            0.16062754223062736,
            -0.14034324519115926,
            0.901700315678609,
            -0.2439058203423763,
            0.6310103082274394,
            0.3814253781797543
        ],
        [
            -0.08964666579347025,
            -0.15277450173354756,
            -0.41629062705073183,
            0.35360790483385585,
            -0.5522456391406538,
            -0.10180255712177466,
            -0.0837662752547712,
            0.511363503005547,
            -0.5461691546410508,
            -0.7489913036770062
        ],
        [
            -0.32660949470295497,
            -0.2973303661432347,
            -0.1845494066256541,
            0.1522925162439286,
            0.39791659579597716,
            -0.07239367119873696,
            0.9460229138989704,
            -0.758539822538689,
            0.38703035988362156,
            0.293328227059781
        ],
        [
            0.41276122372649793,
            -0.46808046626405475,
            -0.42253341127821686,
            0.587585353324594,
            0.3446247653011021,
            0.333531056777707,
            0.640750465035792,
            0.020921114491317283,
            -0.2661876412165025,
            -0.37819978669072674
        ],
        [
            -0.7797182945686176,
            -0.2183418553519525,
            -0.6592145831373128,
            0.519327552340912,
            -0.14390308367222815,
            -0.9533390227757459,
            0.4625110796467511,
            -0.2352935465921806,
            0.07660413660238774,
            0.22241831974111892
        ],
        [
            -0.3726280638573882,
            0.1835967103164342,
            0.28940710447338436,
            0.9384092145189755,
            0.10375826766521667,
            -0.09321107859738054,
            -0.41471060546496274,
            -0.39695131939625017,
            0.9158597771549877,
            -0.1794496262160934
        ],
        [
            0.21148830826841625,
            -0.22102406390421225,
            -0.26417335660070473,
            0.12949869224460175,
            0.8050853688208057,
            0.33016777237537753,
            0.494413799430264,
            0.47121634818681435,
            0.699713601778998,
            0.7019256078193286
        ]
    ],
    "biasesTwo": [
        0.18712641333090518,
        0.1455218804969063,
        -0.07885451574017077,
        -0.4074737653562144,
        -0.4966042878365986,
        -0.6260959443677603,
        -0.784783258565962
    ],
    "weightsThree": [
        [
            -0.25716465182694215,
            0.6438274996334685,
            -0.6301505663597591,
            -0.8253944683751688,
            0.5657915380351395,
            -0.8231446000418632,
            0.047119648402276004
        ],
        [
            0.5968376558625257,
            0.84372117109604,
            -0.9021279895894141,
            -0.1834583627603661,
            0.9465828058220442,
            0.023472947531228305,
            -0.758023798698942
        ],
        [
            0.5594240172984071,
            -0.5523942836863753,
            0.7954309373605466,
            -0.1142477749288795,
            -0.7020123679363917,
            -0.8555242621878514,
            -0.5217408001926958
        ],
        [
            -0.43447570731736107,
            0.9156729957400136,
            -0.0770235295294015,
            0.8029068190773125,
            -0.1390602911870289,
            0.3440079720949081,
            -0.9342997376744084
        ],
        [
            -0.5494657833337484,
            -0.8332242735514652,
            -0.6290372892840819,
            -0.5407767642976538,
            -0.7903234079597687,
            0.6239774704388377,
            -0.7569830239734263
        ]
    ],
    "biasesThree": [
        0.0031322968507470073,
        0.4736199846885736,
        0.2561608670243505,
        -0.4658193587477044,
        -0.025457338710982214
    ],
    "weightsFour": [
        [
            0.17724677570535285,
            -0.9183332472630334,
            -0.7151935490882437,
            -0.47079753821474846,
            0.7886966109370881
        ],
        [
            0.9177474762892686,
            -0.518117023535789,
            0.6958155157047099,
            -0.9600702983628813,
            -0.8425414485518969
        ],
        [
            -0.8222017896499989,
            0.6529126899926281,
            0.24970500137511742,
            -0.8034849132973101,
            0.2883062973487738
        ]
    ],
    "biasesFour": [
        0.3175347773649042,
        -0.6837565420777174,
        0.937486527527283
    ],
    "weightsFive": [
        [
            0.4582497172825357,
            -0.2606627739188119,
            -0.47106703406788797
        ],
        [
            -0.9744773242632478,
            0.02222643915857092,
            0.04400946660688332
        ]
    ],
    "biasesFive": [
        0.8369554109033164,
        -0.5270536108662383
    ],
    "fitnessValue": 0.0
}