{
    "weightsOne": [
        [
            0.8324795047071263,
            0.36784361891068396,
            -0.7132378179184102,
            0.08684647314189942,
            -0.30043597661492516,
            -0.8132515333224895,
            -0.827893408695217,
            0.7140672009523821,
            -0.8128861860770917,
            0.04878313262204936
        ],
        [
            0.012811647791462821,
            0.6492821089017404,
            -0.9425251070275353,
            0.6544929811173461,
            -0.7457140680394627,
            -0.6173548167457856,
            0.3965563368714178,
            0.0764503496561788,
            0.9535612501798674,
            -0.39948130700805806
        ],
        [
            -0.1135882254193381,
            0.24447724113606473,
            -0.6930187062199449,
            0.669057924486939,
            -0.6804090923179469,
            -0.9842068839114182,
            -0.5241513814732293,
            0.13285506327567953,
            -0.8641529153727807,
            -0.335605938569848
        ],
        [
            0.4211303506084989,
            -0.08577027666684645,
            0.8427514134323713,
            0.3191777338451127,
            0.3945678057404607,
            -0.6241918830477129,
            -0.4232115197604831,
            -0.1810212354511762,
            0.021951263198128457,
            0.5990902054987439
        ],
        [
            -0.1746052136363565,
            -0.8311190430185811,
            -0.6261752628214816,
            -0.03554359562768705,
            -0.8069085717783258,
            0.056801181755150365,
            0.9870756664128912,
            0.8283491918728583,
            -0.8141476584037997,
            -0.7835965757777428
        ],
        [
            0.6409734802713418,
            0.3686605767689728,
            0.15205189866945124,
            0.4067915122448591,
            0.9135469236094838,
            0.4742741035185314,
            0.0018317406926784408,
            -0.08451691130703676,
            0.5853778414072663,
            0.37138601213743483
        ],
        [
            -0.38355288679096167,
            -0.6013179696865676,
            -0.1527787911081131,
            -0.3267350710847208,
            -0.9422322960330929,
            0.3408558474475285,
            0.288186331216165,
            0.41685026115933743,
            0.30223342420638666,
            0.8964375495061581
        ],
        [
            -0.8734852692784854,
            -0.4611400191519719,
            -0.0030640481514918605,
            -0.92161249958322,
            -0.9896373008810262,
            0.9990902302397977,
            0.6247024839625688,
            -0.6252937156077629,
            0.2811212875994684,
            -0.19834387186666413
        ],
        [
            -0.5540416159979429,
            -0.1347698324233615,
            -0.6716772211146642,
            0.4282068152897138,
            -0.6508155098814024,
            0.818699024724219,
            -0.7773321730179152,
            -0.9545099389730034,
            -0.355910817627467,
            0.03363786378658151
        ],
        [
            -0.5331459180336899,
            0.9807270977815261,
            0.11048727398031999,
            0.23011103458548732,
            0.6031630598841276,
            -0.06957526337169462,
            0.014870011882043066,
            -0.3203137525027935,
            0.41028140117193446,
            0.6922453124501773
        ]
    ],
    "biasesOne": [
        -0.22955752996887946,
        0.5676661290378466,
        0.612854379217727,
        0.4634756273724203,
        -0.8865639759253467,
        0.21000993534249135,
        -0.4484598156106725,
        0.6147773071441245,
        0.799090872208815,
        -0.1002008489685875
    ],
    "weightsTwo": [
        [
            -0.6920016633258128,
            0.737943803064014,
            -0.9868233934325756,
            -0.9151737327618785,
            -0.9657000593310023,
            0.5565575275579249,
            0.7212415265696173,
            0.7216621224847743,
            -0.45428413089725583,
            0.5151611532691538
        ],
        [
            0.7800202609186595,
            -0.5656569957729336,
            -0.135464468388097,
            0.6510153829790424,
            -0.009747831239803606,
            -0.05626667901076399,
            -0.10604384936989786,
            -0.19312481381112234,
            0.4088970045386926,
            0.14526533533433916
        ],
        [
            -0.6618407642585191,
            0.42668353192352937,
            -0.9941389625858517,
            -0.6608636926394298,
            0.7518288633607015,
            -0.8335062361242898,
            0.8634809656933653,
            -0.4182858924635964,
            -0.028809296175902555,
            -0.5361304943663927
        ],
        [
            0.7471403011903928,
            0.2516052048100905,
            0.7109122723717427,
            0.04114578324678253,
            -0.7155728139120971,
            -0.638119149316861,
            0.9719806418932084,
            -0.5169146812065109,
            0.6492298627403228,
            -0.8736281867393529
        ],
        [
            0.20290035237256077,
            0.8284753073105862,
            0.9609919425429425,
            -0.13437823926019266,
            0.73933221014714,
            0.6978834186813854,
            0.887959987972059,
            0.812086757109451,
            -0.390182773008408,
            -0.8314697208333872
        ],
        [
            -0.6980506695574615,
            0.6389516656698431,
            0.7797970662540361,
            0.5908016124505817,
            0.15858767067983148,
            -0.8386580811378532,
            0.7795268185767774,
            -0.809527248350929,
            -0.3187391238045063,
            0.970862283345465
        ],
        [
            -0.07272196818608756,
            -0.4715152442874795,
            -0.4994226300455218,
            0.211826897660081,
            -0.008703683381440452,
            -0.1385867167087893,
            -0.1167417330040168,
            0.8500483479132777,
            -0.730722994750673,
            -0.04064129495882862
        ]
    ],
    "biasesTwo": [
        -0.28770975574684843,
        0.48043852828408173,
        -0.12107621928895607,
        0.5182348852999674,
        0.5623478081121402,
        -0.6919877981802729,
        -0.4666401763485104
    ],
    "weightsThree": [
        [
            0.16612337408147404,
            -0.08006416700969354,
            -0.8470642207648653,
            -0.8314019390936156,
            -0.4126594468653939,
            -0.699554246544601,
            -0.2896590373192016
        ],
        [
            -0.6006337912759183,
            -0.09624428292055831,
            -0.45340395897199404,
            0.30012437426169103,
            -0.9782928307110499,
            0.8527238103379009,
            0.3097159190621541
        ],
        [
            0.921080462948425,
            0.8487315066159775,
            -0.40475509916039787,
            0.32577598930126883,
            -0.4826160182288961,
            -0.8334829061944844,
            -0.39752168888441575
        ],
        [
            0.5632767598342852,
            0.2992380476830916,
            0.5404274659557158,
            -0.418649861086843,
            -0.09730935306790922,
            0.5629416000221465,
            -0.9163818053128245
        ],
        [
            -0.45798087288855305,
            0.8155335360559435,
            -0.53125202332505,
            -0.8678817147270133,
            -0.4473633130883865,
            -0.04155884464123205,
            0.25437562171008055
        ]
    ],
    "biasesThree": [
        -0.6221648361449634,
        -0.24229418417948745,
        0.3629603248803577,
        -0.20289732254322757,
        0.4070407062028192
    ],
    "weightsFour": [
        [
            -0.953007085119209,
            0.35765260899563756,
            0.31090655062789097,
            -0.38602481350875584,
            -0.12263137569477123
        ],
        [
            -0.27276055407678146,
            0.13144083840389564,
            0.9128826303210278,
            -0.6421053164888313,
            -0.23373677680578542
        ],
        [
            -0.6296087210048475,
            -0.44708106072714604,
            0.6162499538340247,
            0.6738617958606887,
            -0.827990629570339
        ]
    ],
    "biasesFour": [
        -0.4363017910209255,
        0.42316135355758155,
        0.6732676237644977
    ],
    "weightsFive": [
        [
            0.10288518865662466,
            -0.5346100578037005,
            0.6090867766484802
        ],
        [
            -0.9277784085001968,
            0.9152640855377105,
            -0.2190756314492821
        ]
    ],
    "biasesFive": [
        -0.7190722650277948,
        0.6733035998501056
    ],
    "fitnessValue": 0
}