{
    "weightsOne": [
        [
            -0.9058154005483858,
            0.2767129118717433,
            0.48702476675134543,
            -0.3964739936821169,
            -0.14718753188397748,
            0.576666948053105,
            0.5273246298457612,
            -0.40832843925188267,
            0.12161976112352235,
            0.9510787913423207
        ],
        [
            -0.6627126199327116,
            -0.6029939507457149,
            -0.17613452942300478,
            -0.13835787412672262,
            0.7033139663143715,
            -0.5347906596231324,
            -0.7925383901640028,
            0.0006959473625964829,
            -0.5715313723368696,
            -0.535502581962576
        ],
        [
            0.6353357367003585,
            0.5450960567715815,
            0.9925167189870985,
            -0.9154187776490781,
            0.569819628831258,
            -0.8837020569480398,
            0.39514495154170026,
            0.968519667074951,
            0.43545558241319426,
            -0.8110971692067277
        ],
        [
            -0.06554510071224717,
            0.4059464525603116,
            0.18601357749498848,
            0.8491774594395518,
            -0.13017799295204746,
            -0.31684301300637574,
            0.2497358705798125,
            -0.3531758234053497,
            0.36968882288793115,
            -0.9404958491670563
        ],
        [
            0.26690080849384734,
            -0.6107850560561696,
            -0.33277148420965874,
            0.05892658951659868,
            -0.044057912756803486,
            -0.697511033676365,
            0.6078290036649343,
            -0.902080741572709,
            -0.6401547288671092,
            -0.5947222883279035
        ],
        [
            0.25816465840903824,
            0.7874592561289071,
            -0.38340078093309216,
            -0.41196337867788646,
            -0.28366976238909625,
            -0.09759570278271057,
            -0.6472745342778052,
            -0.27323641571513724,
            -0.3762828207116191,
            0.3483137019225928
        ],
        [
            -0.0038831011846223173,
            0.47040554942540647,
            -0.3302072618406182,
            0.12817611712434496,
            0.17124804394437887,
            0.7491122465976998,
            0.9094187452221647,
            0.31315260066011996,
            -0.3981708761098479,
            -0.3304748601388072
        ],
        [
            -0.7923719171996895,
            -0.25416914614222885,
            -0.2966494751125912,
            0.4713810980741229,
            -0.566441118907032,
            -0.003640583655543983,
            0.283313709278632,
            -0.8182105879787007,
            0.9073615252444156,
            -0.06147008985327895
        ],
        [
            -0.8569853238743781,
            0.6238793532519058,
            0.3368468615681923,
            0.798881281621717,
            0.4445279726289506,
            0.7346728041834005,
            -0.7648935723262313,
            -0.140843842966339,
            0.9175556366153546,
            -0.7410535936055349
        ],
        [
            0.07604357807981721,
            -0.026285858747198798,
            -0.19729565025274054,
            0.8870197342753345,
            -0.5583156907356,
            -0.048146805145324434,
            -0.8968715511949574,
            0.3098441792021933,
            0.014315071586960881,
            -0.8624302213752617
        ]
    ],
    "biasesOne": [
        0.537239798562436,
        -0.6122707854186935,
        0.04478402413639859,
        -0.051511856275796575,
        0.08630718100376278,
        0.9152587349996153,
        0.05945068583246926,
        0.7219680617797646,
        0.11122937885770834,
        -0.5058284917561808
    ],
    "weightsTwo": [
        [
            0.25278553997169984,
            0.519743617983657,
            -0.12566266034787854,
            0.7510347579872749,
            0.25741509201135604,
            0.34238135634637246,
            -0.5851263305337147,
            -0.8298902331447404,
            -0.12026502524822935,
            -0.37855306614708617
        ],
        [
            -0.9146371739185781,
            0.5087473727056457,
            0.23980293310794742,
            -0.2402443319298173,
            -0.10617408956089869,
            -0.24457305356740533,
            0.5541987167150564,
            -0.9025159376050862,
            -0.7701416155450791,
            -0.25339225445455527
        ],
        [
            -0.20238897319120142,
            0.5364017194858928,
            -0.04397133833328781,
            0.5083332988676674,
            -0.7346973254777658,
            0.5838416792947152,
            -0.7999383076564996,
            0.02455223079562363,
            0.684882468426609,
            -0.4475506873503543
        ],
        [
            0.5602866708038872,
            -0.568944615925786,
            0.93601577910569,
            -0.030782197681746393,
            0.6318228949242024,
            -0.12928517327360534,
            0.08379903516734521,
            0.8895173956080156,
            0.28875441131268076,
            0.14044710245899283
        ],
        [
            0.08849117034086551,
            0.9889374329171783,
            -0.38165666017518185,
            -0.5469375246362587,
            0.845182122572256,
            -0.5476189502985045,
            0.5597875866101594,
            0.6816609033242327,
            -0.5718311417028856,
            0.7762516581458261
        ],
        [
            0.15154612437553205,
            0.7260274819872417,
            -0.5795582747744676,
            0.6112219019838461,
            -0.4681452221867195,
            -0.8028985496131025,
            -0.7437670495104534,
            0.24444081498226322,
            -0.8185291823545746,
            -0.382902480455257
        ],
        [
            0.4053393479445022,
            0.5223707307916372,
            0.1347688689816544,
            -0.26108635770657473,
            0.22854475979384126,
            -0.2166410596997217,
            0.27426109042444335,
            -0.4546015569764428,
            -0.2428488768690742,
            0.5760650481380134
        ]
    ],
    "biasesTwo": [
        0.8243023373135483,
        0.7342402983232317,
        -0.27793545288022625,
        0.7504534166149233,
        -0.6405830526982756,
        0.018454124130947713,
        0.0729963038328294
    ],
    "weightsThree": [
        [
            0.47284563002971725,
            -0.40661681048880927,
            -0.3429991481129433,
            0.8423834845783222,
            -0.8978518157335271,
            0.013863569921586105,
            0.4978014976648646
        ],
        [
            -0.407373344895962,
            0.3787477930081573,
            -0.8537261786366019,
            0.2647657007082256,
            -0.04417604120482754,
            -0.1867884011181249,
            0.625737312189256
        ],
        [
            -0.7909426664940489,
            -0.36660632001133897,
            -0.48901708535202637,
            -0.9977023003852512,
            -0.04662731794600483,
            -0.5740385267722223,
            -0.32495880909726416
        ],
        [
            0.8170491932743402,
            0.8970812927234457,
            -0.6067896319367425,
            0.35892296825084125,
            -0.9436680297838054,
            -0.23581557592305757,
            0.953379219145355
        ],
        [
            -0.9204338715487383,
            -0.2355786484366984,
            0.12059066316942446,
            0.8971747269595243,
            0.05040245428009826,
            0.5257208537526414,
            -0.6366794874027597
        ]
    ],
    "biasesThree": [
        -0.6032728790277742,
        0.20093623849104514,
        0.5563037241523527,
        0.5648963526935116,
        -0.5079019697924398
    ],
    "weightsFour": [
        [
            0.011227114074295219,
            0.3969642566869107,
            -0.10263870506071338,
            0.573061321212099,
            0.5177514325690977
        ],
        [
            -0.029034247162001536,
            -0.31047386361190465,
            0.8118208408798753,
            0.4929683873159638,
            -0.17642313423669176
        ],
        [
            -0.8806240887904999,
            -0.9245191802577646,
            0.10002848568946177,
            -0.09805529862862072,
            0.38932382064008153
        ]
    ],
    "biasesFour": [
        0.9272781058931325,
        -0.6958104224980008,
        0.9251782198043141
    ],
    "weightsFive": [
        [
            -0.6720093655660955,
            0.5456155738768729,
            0.999257158608607
        ],
        [
            -0.8711273206492005,
            0.5144715284324346,
            0.1059466945276013
        ]
    ],
    "biasesFive": [
        0.37629558908458316,
        0.6102856218815662
    ],
    "fitnessValue": 13.94710081242562
}