{
    "weightsOne": [
        [
            0.4446135527885753,
            0.05096706082131841,
            -0.2614072514808883,
            -0.42071849271465256,
            0.07363872691400042,
            -0.13287461960113744,
            -0.2676554166883387,
            -0.38756874263755137,
            0.9618000250585126,
            0.7640832007466956
        ],
        [
            0.3063182662239292,
            0.81166081811081,
            0.9184956680606207,
            -0.830908581385897,
            -0.3548614283468763,
            -0.10622404379501904,
            0.48048527158657905,
            0.0036697114134389697,
            -0.5363194177824469,
            0.973816328034673
        ],
        [
            -0.2052610636378962,
            -0.5557216464412835,
            -0.19392723250816668,
            0.641661358277841,
            -0.36052979491423875,
            -0.4401567696731674,
            0.6138340124321471,
            -0.673126057700481,
            0.4737814108715601,
            -0.8112333178005637
        ],
        [
            -0.3293098875596685,
            -0.750422998008879,
            -0.02847296258546561,
            -0.8493020283341666,
            -0.3094241471790653,
            0.2130967323230042,
            0.8828873930109105,
            0.18868384780984004,
            -0.7273833055569929,
            -0.8167021892454847
        ],
        [
            0.4835093026084982,
            0.06772597553513848,
            -0.28312190974611573,
            0.4431969616256657,
            0.8697511838043208,
            0.12913263342572523,
            -0.7424640735423229,
            -0.5998679765235653,
            -0.15306641928762432,
            0.4564364123474631
        ],
        [
            0.07295667961984242,
            -0.8395624714155707,
            -0.8697437618153354,
            -0.4892938025937319,
            0.39925076067102583,
            -0.754633787711602,
            -0.4499093398193692,
            0.746488210671836,
            0.39491879901102256,
            0.4263687465598416
        ],
        [
            -0.19475527307089235,
            0.2917764861858123,
            0.12555556680352487,
            -0.8846303443892323,
            -0.7658348968615469,
            -0.8332719926594883,
            -0.8435183457405961,
            0.5612692394904788,
            -0.21285716184750836,
            -0.8860756307291315
        ],
        [
            0.2912889294084964,
            -0.9942350717845296,
            0.6581023012456269,
            0.9454679588452999,
            -0.05468193060337456,
            -0.35697433798487865,
            -0.051357982072088415,
            -0.8429372799175401,
            0.6567951202350755,
            0.4366748175518471
        ],
        [
            0.7722531687178567,
            -0.5160044038257503,
            -0.9661568592903345,
            -0.6084502474264228,
            -0.23383806959597497,
            0.22729196851381372,
            0.6677786799129446,
            -0.7814149697984476,
            -0.5154002092132424,
            -0.8483233024966974
        ],
        [
            -0.696384098042413,
            0.9949568059165825,
            -0.5747934520973237,
            -0.9188496002026962,
            -0.3419273242414975,
            0.0750459494229796,
            -0.04975879918182047,
            0.3290598461678005,
            -0.568386644179663,
            0.5312802094668663
        ]
    ],
    "biasesOne": [
        0.7104901665398986,
        0.7950242878225191,
        -0.1747414378094727,
        -0.48548963723261385,
        -0.20965345031908167,
        -0.3613148438823792,
        0.9803780099449633,
        -0.8643042569529371,
        0.8116803896447577,
        -0.2595934077241777
    ],
    "weightsTwo": [
        [
            0.6179389787831819,
            -0.3213504838241379,
            0.9571658371216576,
            0.5805937824279668,
            0.6072076612136101,
            0.8491553300559445,
            -0.7455056432330742,
            0.48915653409215243,
            0.49545543930922076,
            -0.3859273223826334
        ],
        [
            -0.8328060637518009,
            -0.8862304021612764,
            0.42641412668780276,
            0.300532811481907,
            0.4581534969609724,
            0.3789681504229305,
            -0.41385060563042986,
            -0.7948859681879927,
            0.19230711738636086,
            0.16089994253760787
        ],
        [
            0.6946175705356514,
            0.8029865125167399,
            -0.694393324159899,
            0.4933486362381765,
            -0.2921070834280364,
            0.26178623518204325,
            -0.397532396812039,
            0.5631404833222144,
            -0.03599282413855476,
            -0.36710566424365565
        ],
        [
            -0.35285830727680656,
            -0.25078640923161677,
            0.7707270658850851,
            -0.6609438626638127,
            0.3789741662868491,
            -0.17282877365102656,
            -0.8683842539250872,
            0.901280268322959,
            0.5978428825981248,
            0.07967787306324237
        ],
        [
            0.9327008204418987,
            -0.25993921162761535,
            0.19778719393353228,
            -0.3814895123908755,
            0.01133534209269027,
            0.5106309554592454,
            -0.4694864455315979,
            -0.8756889682166955,
            0.09133471167407725,
            -0.7430481154745421
        ],
        [
            -0.29602974114079594,
            0.8621921870628193,
            -0.9950728233103234,
            -0.9679364418616898,
            0.4014980158353916,
            -0.27685894042503856,
            -0.12010125360714574,
            0.39500897060544915,
            0.9498553376440038,
            0.821689531659624
        ],
        [
            -0.483498000389081,
            -0.13999909831936197,
            0.8197295391859658,
            -0.4834395476423101,
            -0.12085145357305249,
            -0.6025605807990555,
            -0.07937417816656422,
            0.10222207948568052,
            -0.035974589216262176,
            -0.40827926615723853
        ]
    ],
    "biasesTwo": [
        -0.9474765149529505,
        -0.5466958767308949,
        0.37697658405879975,
        -0.52282661503148,
        0.27742575105829004,
        0.8538730589293682,
        0.5318335852709362
    ],
    "weightsThree": [
        [
            0.4136789183356131,
            0.6839407138609859,
            -0.0032761752493313256,
            0.751836451912113,
            0.2183690673188623,
            0.29442593233251735,
            0.5946907619305486
        ],
        [
            -0.4848890802191961,
            -0.29044868461722984,
            0.12717097852984005,
            0.7375537788091444,
            -0.2242023625535461,
            0.7675830599406694,
            0.917286643182393
        ],
        [
            0.6338148037868265,
            -0.8672389998139634,
            -0.5286252915377541,
            0.5101622336233751,
            -0.6476490474358036,
            -0.4627049262148133,
            -0.6419883004422229
        ],
        [
            0.6683968061034906,
            -0.720580480787397,
            -0.30277491056662487,
            0.1256805523346125,
            0.2855467836405787,
            -0.5282167616636664,
            -0.3729433393649899
        ],
        [
            0.13451322931393217,
            -0.9789615325017904,
            0.5893852745711381,
            -0.6581327282811895,
            0.7479408628480464,
            -0.42092089251552856,
            -0.4631994842194058
        ]
    ],
    "biasesThree": [
        0.3872686117504498,
        0.2334243461047567,
        0.5888609520201751,
        0.09891997695808685,
        0.4164262228909852
    ],
    "weightsFour": [
        [
            0.8107142036778663,
            -0.6278585456272114,
            -0.7110190505746581,
            0.46314165088267933,
            0.5756073532668535
        ],
        [
            0.13710073254201216,
            0.24609874354229055,
            -0.960929001563191,
            -0.47170495054844586,
            -0.07687373882066484
        ],
        [
            -0.8670852903514461,
            0.09775816836445617,
            0.8104517229408599,
            0.2487979231393791,
            0.5690892630768765
        ]
    ],
    "biasesFour": [
        0.40979632448523384,
        -0.7729144921590312,
        -0.49545571504693986
    ],
    "weightsFive": [
        [
            0.47977226914081594,
            0.6985205881216856,
            0.6168968443308369
        ],
        [
            -0.1665306686729906,
            -0.3461439272115423,
            0.12804505173588354
        ]
    ],
    "biasesFive": [
        -0.46844556797521664,
        0.3209736849919784
    ],
    "fitnessValue": 0.0
}