{
    "weightsOne": [
        [
            -3.3083609247790946,
            -1.506463713932046,
            3.7326218669470315,
            0.4476415660714146,
            0.551538883552475,
            -2.115465685638646,
            -1.1435506883147974,
            0.044301386923616626,
            -0.635915762680398,
            -0.050950772164080504
        ],
        [
            3.2801234083075776,
            -3.8497115271981674,
            4.7423330461903035,
            3.1889349866991594,
            2.7956115728579984,
            -2.195805322741504,
            -4.8538079534168945,
            -1.0439856366665157,
            3.429206113156372,
            3.812446150153413
        ],
        [
            -4.121670668916764,
            -2.2748446231351913,
            2.7213615500455006,
            -4.300807503125935,
            3.2147080859213233,
            -4.760251385585179,
            2.588361350900879,
            -0.9617452960762605,
            2.269668958476153,
            2.3791837406157947
        ],
        [
            0.8533181294267611,
            -1.2309890464369353,
            -0.08911521511289511,
            -2.5551761976935907,
            4.770433605243731,
            0.8253354597862641,
            -0.9533535055706768,
            -1.1453983010888988,
            0.1191820643292143,
            2.071969905136214
        ],
        [
            1.048788569016982,
            2.6794294552980533,
            4.229344390357532,
            1.5132035873635523,
            1.4445071463314338,
            -1.735358990920707,
            -4.833075023142469,
            -1.7627296063733198,
            -0.23409261071656395,
            -1.0776259699672464
        ],
        [
            -0.10151938419251039,
            4.202668564123272,
            -0.12276626953533487,
            -2.754659495377817,
            -0.9529166081492848,
            -1.5199741619709295,
            -2.9846432521266744,
            -0.8338838442751777,
            -0.903481502241231,
            -0.6545498626537691
        ],
        [
            -1.0129806093451355,
            -1.3310150816860675,
            0.7929001860032123,
            0.4963994822926887,
            -3.1215422565384667,
            3.6833087737937404,
            0.5882620840008563,
            2.7157162791281824,
            0.725724459383513,
            2.2654545993051878
        ],
        [
            -3.625158635086504,
            -1.8059699508096339,
            1.0853254855434713,
            2.7033041950655203,
            -0.923150506444383,
            2.8042090653578278,
            4.42803561139147,
            -3.5467116051353518,
            -1.1909560435882316,
            0.4977347279063278
        ],
        [
            2.6251470354240922,
            2.247473798487613,
            2.2744023582260118,
            -0.16520428896824768,
            4.616679797606119,
            -4.463514831322658,
            -0.536637237113391,
            -1.6718344592524872,
            -3.9025708807798845,
            3.963023493579435
        ],
        [
            -3.714057626033882,
            -0.8363002992732522,
            -0.205792421188292,
            3.46622721064308,
            -3.4780196886080903,
            1.8243791176204578,
            0.1998225317098994,
            0.8640967520586162,
            -0.7552887792444567,
            4.560825749083458
        ]
    ],
    "biasesOne": [
        -0.4982273736295024,
        3.3717862373090224,
        3.786548656854645,
        -0.21863032392055448,
        -4.019548271661786,
        -1.1778931709817666,
        1.190580508426792,
        3.7212421428681264,
        -0.6757190957761097,
        2.775890857713975
    ],
    "weightsTwo": [
        [
            -0.4695058078539711,
            4.001764398830833,
            2.7639675999633626,
            -1.5244658201107253,
            0.28092719958456724,
            -0.41750547612079103,
            4.921971964083108,
            1.6048568660991087,
            0.19752234665019763,
            0.0003767020842884161
        ],
        [
            0.735801909808881,
            4.7457350198606125,
            3.709218493295852,
            2.397204143811847,
            -4.750871889182959,
            -0.9338155423910415,
            0.49577874757086704,
            -4.353066697316482,
            1.8399781963222406,
            0.0145190952324592
        ]
    ],
    "biasesTwo": [
        0.8116937933979589,
        1.6866296994599992
    ],
    "fitnessValue": 35.58268413674714
}