{
    "weightsOne": [
        [
            -0.6354667540778802,
            -0.9911720549946366,
            0.2279877956380616,
            -0.6837201883099042,
            0.18053144440410152,
            0.7972494194081543,
            0.9704203055595881,
            -0.5340766126829828,
            -0.49578521294902966,
            -0.23442177311959234
        ],
        [
            0.7750745435548796,
            0.2672148138743462,
            0.22725278246895808,
            0.325162693996198,
            -0.8799601216446196,
            0.37879131495903295,
            0.9923068940318731,
            -0.08871547505346333,
            0.2925902208179867,
            0.46608896736350935
        ],
        [
            -0.7723679271786055,
            0.38572109904044005,
            -0.5114900790603452,
            0.23374102386351803,
            -0.8194094655475797,
            -0.718007252449592,
            0.05465286087925114,
            -0.7039418343079868,
            0.22011951274399655,
            0.5248161251961818
        ],
        [
            -0.49632283273693445,
            0.004730737736039714,
            -0.1191211637448728,
            -0.2913497212990892,
            -0.20780802379851693,
            -0.22612118645408996,
            -0.17427458813224672,
            -0.6109057869745329,
            0.35267319872982705,
            0.7482785442572566
        ],
        [
            -0.6293618984246225,
            0.8187651659898718,
            -0.883911339112089,
            0.3991505387337,
            -0.6724751869329466,
            0.007433142077535981,
            0.3620605684438243,
            -0.936547877224545,
            0.6331881384881353,
            0.13242734793048427
        ],
        [
            -0.2061198831281068,
            -0.5743566338284862,
            -0.9714968233494354,
            -0.6566123969640998,
            -0.47371013055028777,
            0.13422566005047454,
            -0.03203937045470262,
            -0.35706169635999263,
            -0.24857888828959673,
            -0.43474285929928347
        ],
        [
            0.2519173826801804,
            0.1971223249053966,
            -0.28614627912480994,
            -0.7847646944439732,
            0.5697267646955104,
            0.31785667167509435,
            0.18654227034899296,
            0.9516556786660264,
            0.2965623750434607,
            -0.289203279391953
        ],
        [
            0.1400126153744743,
            0.07405411922303551,
            0.24637726868157328,
            0.6659832908634307,
            -0.3300326443809718,
            -0.944307505220989,
            -0.6161715635531813,
            0.9215343631165824,
            0.0018049882445505538,
            -0.24507062601298468
        ],
        [
            0.28185051200522615,
            -0.1953490813718719,
            -0.8499612911555787,
            -0.41973520423973687,
            0.2771416746661113,
            0.7854742580492693,
            0.7283480916029956,
            -0.77274660254752,
            -0.7702714480752133,
            -0.5248881555523264
        ],
        [
            0.96371047116002,
            0.9202985291853591,
            -0.7507145882536426,
            0.5078293796146318,
            -0.3162845977389337,
            0.028039703230207325,
            -0.39269603450738777,
            -0.6252250695683101,
            0.5097582037694186,
            0.5816756264528642
        ]
    ],
    "biasesOne": [
        0.7155719468107238,
        0.11885977280763793,
        0.682252404094192,
        0.015575203993036135,
        -0.023493549437204386,
        0.39148943648137613,
        -0.39868005760097436,
        -0.1914272811368587,
        0.05691917069569663,
        0.5712160606127323
    ],
    "weightsTwo": [
        [
            -0.1402476944606501,
            0.5957332030015057,
            -0.20014437379653582,
            0.29934558308924064,
            -0.7158182754357345,
            -0.9259956355421473,
            0.63318851244203,
            0.11471382470762981,
            0.9907309190008917,
            -0.7293355768611862
        ],
        [
            0.6643708093018654,
            0.6826264978316079,
            -0.9590777669659492,
            0.986860872361397,
            0.12629308999360367,
            0.8524664247310032,
            0.9876985140988797,
            0.169583408539141,
            0.4736489088813993,
            0.33180770111124125
        ],
        [
            0.15498657751936262,
            0.7883706262463084,
            -0.8865202271231374,
            -0.6112458630185793,
            -0.3509483087967964,
            0.49941116282177833,
            -0.6517544388979921,
            -0.186398064368277,
            0.4301326185586163,
            0.6143529287844103
        ],
        [
            0.954318870430154,
            0.8103497632260932,
            -0.4291600254707719,
            -0.9542043652507761,
            0.7934801469011696,
            0.2450772735532072,
            -0.6300014369842599,
            0.4542963535490916,
            -0.4827677474417684,
            0.968128359767445
        ],
        [
            0.6623965744439058,
            -0.3708290662810907,
            0.21866162499988118,
            0.04278960291911349,
            0.11315120559418523,
            0.6783991172748987,
            0.12882203367793466,
            0.08829962373615907,
            -0.7975891411524587,
            0.5892084532394011
        ],
        [
            -0.4400643982651127,
            0.3855372584532222,
            0.027529418736335742,
            -0.5303995160061179,
            -0.7738567918176886,
            -0.09942354935236608,
            -0.5498136033066494,
            -0.931301903564131,
            0.5921393530615207,
            -0.7066776316995729
        ],
        [
            -0.2323469010713255,
            0.08061620782835388,
            -0.9489935507742064,
            0.5354714414482045,
            -0.7549921868696385,
            -0.9176082356688595,
            -0.5303826625440717,
            0.7185509321840842,
            0.3561631401159657,
            0.2300207757534165
        ]
    ],
    "biasesTwo": [
        0.405706028675072,
        -0.32572350576478226,
        -0.17779809368041533,
        0.9152553483607635,
        0.33049837280587413,
        0.5795811565291746,
        0.06982599665113054
    ],
    "weightsThree": [
        [
            -0.4657030618891673,
            -0.6337046325237048,
            0.5200322413183258,
            -0.7499429193091531,
            -0.23899249123147093,
            -0.33961210858189084,
            0.14860547354107356
        ],
        [
            -0.8383482445237194,
            0.6033685671015172,
            0.0972636189474283,
            0.5768134987297684,
            -0.7103399368566197,
            -0.4560978606013615,
            -0.0008839941244849214
        ],
        [
            0.1776227987504193,
            -0.7424522416248707,
            0.2646251404122577,
            0.6352237562314276,
            -0.3164093391863918,
            0.8894570814471359,
            -0.8249018125089789
        ],
        [
            0.5706925705360733,
            0.5207770952344164,
            -0.3525800792566989,
            0.48404443563609556,
            -0.7867224018020178,
            -0.16003546457116102,
            0.4032372215268609
        ],
        [
            -0.42666592054221697,
            -0.7452489237782791,
            0.7818562181427908,
            -0.7911355190007427,
            -0.11096062045526889,
            -0.8450918779722345,
            0.5620504104611244
        ]
    ],
    "biasesThree": [
        0.04450574965061893,
        -0.5129080981487819,
        -0.15048642225435427,
        -0.1717247617424411,
        -0.2648085571239993
    ],
    "weightsFour": [
        [
            0.17409394294770286,
            0.588912957390386,
            -0.6897762646600425,
            -0.9470395608597624,
            -0.6704146518279321
        ],
        [
            0.2768812255876638,
            0.9733989941683772,
            -0.5271143559608127,
            -0.00703762850961942,
            0.7703418619152951
        ],
        [
            -0.19000443399751443,
            -0.34757368963800483,
            0.7861540684717052,
            0.8384101603352065,
            -0.058921488387671195
        ]
    ],
    "biasesFour": [
        0.9475507085674986,
        0.17383645546340687,
        -0.8717864976800664
    ],
    "weightsFive": [
        [
            -0.16256357304057123,
            -0.10574750167107028,
            0.9068387012946366
        ],
        [
            0.19970964523745383,
            -0.6531747845347888,
            0.6865597966093584
        ]
    ],
    "biasesFive": [
        0.6381893996367576,
        -0.7089125499724702
    ],
    "fitnessValue": 0
}