{
    "weightsOne": [
        [
            0.03851751333463849,
            -0.17023873575802306,
            -0.06387401047214314,
            -0.17173275295998636,
            -0.5944028956522651,
            0.5501260695813277,
            0.24953094301004652,
            0.9610272289456014,
            -0.7239712612761426,
            0.46652617850882305
        ],
        [
            0.5969564834200929,
            -0.43634257065420323,
            -0.7815775184730731,
            0.9302356354955674,
            0.6435953205515794,
            0.19658173930334844,
            0.5735158230247601,
            0.686526666390401,
            -0.8090780350576705,
            0.9839273926074978
        ],
        [
            -0.5566047239040377,
            -0.2974461668306634,
            0.17034026379683298,
            0.7964758402404142,
            -0.4244506221906217,
            -0.3195346055831072,
            0.6538973596416815,
            -0.9199660676446373,
            -0.3019067575084604,
            -0.2538263869253403
        ],
        [
            0.5308420255198969,
            -0.2380349915435236,
            -0.7725455402894459,
            -0.5503484796356306,
            -0.7789694379769541,
            0.36691710840104697,
            -0.9459756264874972,
            -0.5131690383090555,
            -0.7364981710661787,
            -0.15284373966225484
        ],
        [
            0.14385316761244216,
            -0.46990969242388125,
            -0.0874480857458253,
            0.6640320765312577,
            -0.9520083603535945,
            -0.5439001371259082,
            -0.2661028783102084,
            0.3797346246273665,
            0.8642421521962773,
            -0.7979378290898043
        ],
        [
            -0.1584292606288742,
            0.6919643024588107,
            0.6435863107692374,
            -0.4244786307732673,
            -0.606508004545292,
            -0.3229885054643018,
            0.6800719676104205,
            -0.7168708824841712,
            -0.6046063152579269,
            -0.7279547379403373
        ],
        [
            -0.8611796755900512,
            0.6844178396665264,
            0.2887391603481808,
            0.05850825760933365,
            -0.7067969658679194,
            -0.03438109420277269,
            -0.19575743301632142,
            0.2943954627184615,
            0.4800720704803232,
            0.8568421150992904
        ],
        [
            0.6179698335719934,
            -0.9374266791014634,
            0.17449602764634875,
            0.477405737778561,
            -0.4482439214348306,
            -0.5537308198219686,
            -0.3540846606372656,
            0.8598295002676386,
            -0.3532672642930248,
            -0.14155222853242933
        ],
        [
            -0.6184341577133603,
            0.09124591994509901,
            -0.5521335736872868,
            0.547607699491591,
            -0.708728049963103,
            -0.08874867434830258,
            -0.9866932980155003,
            -0.9904779293604693,
            0.09172229907938112,
            -0.3537966546288158
        ],
        [
            0.6397302360311732,
            -0.7041580321466641,
            -0.5343961957971246,
            -0.6954036522433986,
            -0.6427797749028643,
            -0.5035302447369747,
            -0.36457557414529584,
            0.8355390861356431,
            0.6143334474113338,
            -0.15099344476433063
        ]
    ],
    "biasesOne": [
        0.43049606119615125,
        0.6551162529178829,
        -0.057408953109091554,
        0.07553693528470018,
        0.8154049773762782,
        0.5092407590407766,
        0.7481838170634925,
        -0.39976016399826353,
        -0.9384301528237391,
        -0.2621622702102644
    ],
    "weightsTwo": [
        [
            0.28233427935864563,
            0.7548331238809198,
            -0.015879040287733792,
            -0.06566386772471056,
            -0.06746897227044801,
            0.5672519206530191,
            0.5315175008604098,
            0.3789511484900967,
            0.4483751650458512,
            0.36744372319739127
        ],
        [
            0.13713277467729346,
            0.7552148645203991,
            -0.12975659082793234,
            -0.6078413486274408,
            0.6977205669399404,
            -0.37976717080960287,
            0.47494980583487467,
            0.1146734076565259,
            -0.5083188925652211,
            0.4197519603958315
        ],
        [
            0.7544156798403683,
            -0.9627735774123045,
            0.8587031613192486,
            0.17030295341144197,
            -0.8838247123083471,
            0.02985266805334663,
            0.9391300220098915,
            -0.585643098501375,
            -0.8820171329295952,
            0.6533349547621947
        ],
        [
            0.01666405664677817,
            -0.46901252276226124,
            0.03654063197842161,
            -0.06137989122372689,
            -0.9827992274919095,
            -0.08054880116546803,
            0.6276880934650817,
            0.6853886402197735,
            0.04355870013798313,
            -0.36316570349895216
        ],
        [
            -0.2864631780508413,
            0.7789193188853558,
            -0.46865877815171886,
            0.1418162512964416,
            -0.27069533421038416,
            0.15904384285196493,
            0.38365907691630574,
            -0.6208527111778688,
            0.010529308494634293,
            -0.7102108730614392
        ],
        [
            -0.780457074070444,
            -0.7388111457240742,
            0.9285480785251692,
            -0.8280726433721113,
            0.9351734893393855,
            0.028613396701951066,
            -0.9869752998901629,
            -0.7400901147852903,
            -0.6198301697205146,
            -0.2865640490673327
        ],
        [
            0.7101578831687203,
            0.2641713484211663,
            -0.14408557154422352,
            0.5595744502999875,
            -0.6836388585036688,
            0.6537652001945091,
            -0.8156745766993145,
            -0.45993202934671307,
            0.6126842508726837,
            -0.9773599004006324
        ]
    ],
    "biasesTwo": [
        0.7351471825100144,
        -0.7647652375402287,
        -0.28682253765035304,
        -0.5527941555371161,
        0.14265291573236638,
        -0.2481097380470343,
        0.6477860173165026
    ],
    "weightsThree": [
        [
            0.5492522206234574,
            -0.7650017062015875,
            0.5322729496640575,
            -0.11446803805292705,
            -0.48484330860328906,
            -0.9919914807591004,
            -0.20829457519489059
        ],
        [
            0.8020567786382695,
            -0.2162182421423804,
            -0.20917454503953814,
            -0.3488266344615991,
            0.6524397556382016,
            0.26286791407520815,
            -0.15192040039167165
        ],
        [
            -0.18849636955671212,
            0.9760186440478558,
            0.6793941900695744,
            -0.48438664549038357,
            -0.48494375952885926,
            0.26885625687905956,
            -0.050015067816335135
        ],
        [
            0.6264420914909905,
            0.8325213055635348,
            0.7660367771590411,
            -0.12228304804342938,
            -0.7104553785281278,
            -0.7078463058403366,
            -0.9343248972995344
        ],
        [
            -0.7864885869320972,
            0.13522044328149008,
            0.5811126694296309,
            0.979255163790945,
            0.07378495716375655,
            0.2542178799762431,
            -0.28468971039611346
        ]
    ],
    "biasesThree": [
        -0.9467511251132168,
        -0.0013513644105096478,
        0.7876499656515095,
        0.7599831079420241,
        -0.4609377598863802
    ],
    "weightsFour": [
        [
            0.15276204248052094,
            -0.6867420766579497,
            -0.2338027772834923,
            -0.9759598562738303,
            -0.2217589688382584
        ],
        [
            0.5168210407205784,
            -0.4465087304554334,
            0.9871028770694292,
            0.32641798868659433,
            -0.9420861877738367
        ],
        [
            -0.2479071816977001,
            0.33124482934773236,
            -0.7753058827923553,
            -0.46994982848441347,
            0.07967268892765511
        ]
    ],
    "biasesFour": [
        0.09674350159138956,
        0.2688654487816018,
        -0.291550935469963
    ],
    "weightsFive": [
        [
            -0.30189984749105125,
            0.9645148331996549,
            0.6555593294029147
        ],
        [
            -0.21058964958484405,
            -0.5481539885530793,
            0.7919373216583383
        ]
    ],
    "biasesFive": [
        0.8439636154434678,
        -0.7942278313143523
    ],
    "fitnessValue": 63.2323290215387
}