{
    "weightsOne": [
        [
            -0.4958732367888541,
            -0.7378006702563751,
            -0.1552997054738634,
            -0.3483223615245452,
            0.28528736422903456,
            0.43834487526972277,
            0.15330631272023498,
            -0.4423971604699697,
            0.5598612129945622,
            0.7235732921594276
        ],
        [
            -0.2371579801901713,
            -0.6544973700787706,
            0.8061653954450221,
            0.20019607782398663,
            0.10561863364203261,
            -0.024815583756587545,
            -0.8654388149712262,
            0.9343823843960875,
            -0.7692203256068537,
            -0.09519292725256379
        ],
        [
            -0.2661510293106206,
            -0.7481302591746979,
            0.3438647791694156,
            -0.34158907660854343,
            0.1723526020843127,
            -0.2407432682283368,
            -0.24610442021558532,
            -0.4769294641282491,
            -0.6184894831113017,
            0.3106067265366783
        ],
        [
            0.19625281189187183,
            0.4540851825700729,
            0.28222165860365767,
            0.40505664985797374,
            0.37590421279330943,
            0.10233577187377652,
            0.44769416214817714,
            0.19778642526213064,
            -0.6995041616884277,
            0.8482208889029217
        ],
        [
            -0.27632180944174545,
            0.4893756893200667,
            0.8578847325808807,
            -0.26126647409145476,
            -0.7516400576975948,
            -0.5804554408341058,
            0.9217888251585244,
            -0.9385757546938203,
            -0.7917472321163403,
            -0.8692056038330791
        ],
        [
            0.9935866094813153,
            0.48317753447671175,
            0.5296818590557986,
            0.8008765584225725,
            0.6289898835093752,
            -0.38066558639234516,
            -0.5309454109082075,
            -0.6430199777868841,
            0.7104040458508274,
            -0.7266859253724911
        ],
        [
            0.2602181353263924,
            0.1506501513381493,
            -0.18743652734800498,
            0.1952462834635189,
            0.27552598444432563,
            -0.19678427202688598,
            0.7011441630407036,
            -0.8357383057880301,
            0.5235407529875535,
            -0.5183077304446404
        ],
        [
            0.6967109929731916,
            0.031230817520410792,
            0.022356943748103264,
            -0.38222861914824646,
            -0.01269303326032456,
            -0.23919345713799012,
            0.051976112441088906,
            0.8104572661947809,
            0.6449844022827851,
            0.9218117686498895
        ],
        [
            -0.6204088689605127,
            0.12446240666113129,
            0.7947593021753159,
            -0.96399560291541,
            0.6384911715854225,
            -0.19169257243461812,
            0.16222599300470741,
            0.4198541958884099,
            -0.7791326299423449,
            -0.4101672412974764
        ],
        [
            -0.8429873510996373,
            0.025323705042136657,
            -0.7347722622587682,
            0.8939857011296406,
            -0.01836180039080526,
            -0.8301362164508714,
            0.6918165101572402,
            0.5144608781734648,
            0.9195352657005613,
            0.21083128053005118
        ]
    ],
    "biasesOne": [
        -0.8963731122150891,
        -0.16931046433926045,
        0.2732919000722063,
        -0.6419663804769908,
        0.44415493775483594,
        -0.8658864544186906,
        0.6991821431015808,
        -0.6736299449756351,
        0.056744526769073156,
        -0.3775850772954912
    ],
    "weightsTwo": [
        [
            0.2689930246685266,
            -0.5257726218546048,
            -0.40787570027337083,
            -0.8449431822830238,
            0.015838787559806278,
            -0.584215872660969,
            -0.39783726287063637,
            -0.34079546743785794,
            -0.2790588942624641,
            0.7182934098422571
        ],
        [
            0.7549009240509912,
            -0.07568190783920214,
            -0.48114898871323364,
            0.5657256609979757,
            -0.25694213481558337,
            0.10647372210898953,
            -0.6987965284551318,
            -0.3460102077152398,
            -0.20240283718077823,
            -0.8358296556834985
        ],
        [
            -0.42267267178629586,
            0.42954153269513173,
            0.15535124928967958,
            0.8817199114930185,
            -0.8164876500402474,
            -0.6214594897815298,
            -0.50570423648414,
            -0.5068601845518017,
            -0.2109367896594352,
            -0.19537938646802666
        ],
        [
            -0.5808322621445634,
            0.6106244395569507,
            -0.5411621968254268,
            -0.8337212869578554,
            -0.5589422068359313,
            -0.3899986813791476,
            -0.21266873693999866,
            -0.4924052623055537,
            -0.829948137624954,
            0.6147971641883538
        ],
        [
            0.7335247708397015,
            -0.23044717722050367,
            0.21484964361760595,
            -0.7709914544839878,
            0.18301157370136645,
            0.21241406777281968,
            0.2851878332339013,
            -0.048687355617320405,
            -0.5646241224360498,
            0.8447967782620387
        ],
        [
            -0.4182568073517756,
            -0.8131153557058521,
            0.7772543790898085,
            0.7525502332590022,
            -0.795439827231496,
            0.18381072868580528,
            -0.17833848042552614,
            0.5057113342088382,
            0.838493699669971,
            0.3315653512702408
        ],
        [
            -0.5828862885961883,
            -0.2182488801875877,
            -0.1119044593893197,
            0.0026397325792577586,
            -0.05252032183498079,
            0.8202034106820066,
            0.7173822768099745,
            -0.02689570701287436,
            0.5649473400866263,
            0.8878091000868
        ]
    ],
    "biasesTwo": [
        0.0963385137631747,
        0.8023924105911364,
        -0.9942285486649542,
        0.047419312211119946,
        -0.15534639996836552,
        -0.47793131511688736,
        0.6745240176529992
    ],
    "weightsThree": [
        [
            -0.12553208483455314,
            0.025339129563073604,
            -0.5329724659035249,
            0.3106380733787024,
            -0.993014255390285,
            -0.31593629923873157,
            0.3508945852458909
        ],
        [
            -0.3968474489133005,
            -0.25053293020173517,
            0.2608292977480229,
            -0.4922531664028884,
            0.4420718341397747,
            -0.1094632355373586,
            0.049787283290830375
        ],
        [
            0.8096567131824166,
            -0.6701079474776592,
            -0.9000783935451007,
            0.8081315689838182,
            -0.6015090644120553,
            -0.8208879402115841,
            0.3043537721647449
        ],
        [
            -0.9801072007561711,
            -0.32601744756323736,
            -0.8882081616665054,
            0.5779746437897575,
            -0.41627843289971644,
            0.5159183653190273,
            0.33109690008478987
        ],
        [
            -0.48832692543603584,
            -0.08079591619200177,
            0.7037567526722315,
            0.12504801687003786,
            -0.2869042225195886,
            -0.16167621018810485,
            -0.2810495708784686
        ]
    ],
    "biasesThree": [
        0.01675759781200492,
        -0.7006611485814145,
        0.19661367089765203,
        -0.5104773911313709,
        -0.9317249366583951
    ],
    "weightsFour": [
        [
            -0.4950621209124506,
            0.15626717693312542,
            0.9552192367536232,
            0.7325511059163079,
            -0.6469179364791882
        ],
        [
            0.10122407200792716,
            -0.3498314625128722,
            -0.32471998390701584,
            -0.09582639189619413,
            -0.8315485967380225
        ],
        [
            -0.5671690693702709,
            0.45303383147213494,
            -0.6564476544025049,
            -0.3144861460678685,
            0.10837317237796085
        ]
    ],
    "biasesFour": [
        0.9607129494842477,
        -0.30913987201262283,
        0.4616474840825793
    ],
    "weightsFive": [
        [
            -0.2670111154172181,
            -0.7969057113954703,
            0.3536521253071121
        ],
        [
            -0.769345747663686,
            0.23753612640592614,
            -0.10295030235934344
        ]
    ],
    "biasesFive": [
        -0.6694953296506241,
        -0.4647971767627579
    ],
    "fitnessValue": 0
}