{
    "weightsOne": [
        [
            0.03826627336021682,
            0.2196798513827023,
            0.0925944804954133,
            0.28925644913538817,
            -0.82035323743998,
            -0.2733273509254819,
            0.8525562586166682,
            -0.37858175549370077,
            -0.5102566133252773,
            -0.25843177972573494
        ],
        [
            0.4205742626366158,
            0.6453968982817038,
            0.4536394597239568,
            0.0037033728074489236,
            0.6923898584710855,
            -0.23358351277054168,
            0.671855960360856,
            -0.15618914816540896,
            -0.03919580705927883,
            -0.9029481725421957
        ],
        [
            -0.4908672525497184,
            0.694210846413267,
            -0.4883909582809678,
            0.7754010442411265,
            0.21515572147729545,
            0.578939976897527,
            0.5602268606683076,
            -0.3462429720381677,
            0.4456098611242185,
            0.46424586394229705
        ],
        [
            0.5370733456993584,
            -0.7841582101310289,
            0.8840070683949632,
            -0.9467227468023232,
            0.11916939756571399,
            0.19929957221016736,
            -0.4418655484987448,
            -0.4559931864458029,
            -0.23510523486461565,
            -0.7751726939121151
        ],
        [
            0.6400305844735079,
            0.6920501945201656,
            -0.7231473503062686,
            0.3333487187041424,
            -0.8956414030938056,
            -0.11113326915793986,
            -0.3214294646993401,
            0.6196181291161327,
            0.44777443573138975,
            -0.4887135886253091
        ],
        [
            0.9028125145992825,
            0.6360590464171272,
            -0.5109841031867517,
            -0.25487569492322515,
            0.5768985044589807,
            -0.17006795133713437,
            -0.8203705726510864,
            -0.39090188215813426,
            -0.521454630995114,
            0.008638768879352776
        ],
        [
            -0.9083711641262979,
            0.771864702054752,
            0.03898701826799833,
            -0.33712189624881583,
            0.9136788314704414,
            -0.3151001548853052,
            0.11968944061505415,
            -0.5983216304453571,
            -0.3185533134145604,
            -0.03378273947497146
        ],
        [
            -0.427004985581511,
            0.9907434455547668,
            0.7416717867191798,
            0.9204609386773539,
            0.5978936307726521,
            -0.433485584247997,
            -0.05800753913651002,
            0.08296235372615146,
            -0.3611685422719906,
            -0.7725555540644724
        ],
        [
            -0.2803013243944781,
            0.07913835112995704,
            -0.6369262373173696,
            0.6903394593870562,
            0.4128693562351877,
            0.26077853494518966,
            0.6673555229020749,
            -0.842947869610901,
            0.5938965068755624,
            0.3300258251938606
        ],
        [
            0.46600761676644886,
            0.375171046953106,
            0.46260086456147675,
            0.3834003003204671,
            -0.6989039348580268,
            -0.7890500851877174,
            -0.021723085336586623,
            0.3923886165935584,
            0.36643083708918,
            0.05214667045704591
        ]
    ],
    "biasesOne": [
        0.6434137938344697,
        -0.6245075611868522,
        0.09340366455806759,
        -0.6820537091996215,
        -0.13497416227887604,
        -0.1322526228435219,
        -0.7014913716252447,
        -0.13427490059242397,
        0.9260647108120241,
        -0.5242379561795356
    ],
    "weightsTwo": [
        [
            -0.5921547793505093,
            -0.0031504279665710566,
            -0.16681441896429572,
            -0.8499092759533711,
            0.9997301149186049,
            -0.28549311230771757,
            0.3381595272078102,
            0.9206198017250593,
            -0.5841203846575469,
            0.7672762739825387
        ],
        [
            0.6663439553050916,
            0.5423196248791993,
            -0.034302540874568965,
            0.6196520721673113,
            0.2185851416128166,
            0.9794815173311298,
            0.9058561751109793,
            0.17687318371489846,
            0.11237082246997776,
            0.25649814566940154
        ],
        [
            -0.09385349767850659,
            -0.44262032383354266,
            -0.469813288321943,
            -0.034976093005356645,
            0.5279188464074394,
            0.4921999885750348,
            0.7030679745044288,
            0.45928343940793925,
            -0.09044812477111752,
            0.8132841130672135
        ],
        [
            -0.2953145980423515,
            0.1338815557347477,
            -0.7994058973648577,
            0.5893540517632734,
            0.492225478764029,
            -0.2709038071300818,
            -0.44277289574988354,
            0.9161242872281496,
            -0.6858895452960323,
            -0.15724104885773205
        ],
        [
            0.8174758274981662,
            -0.6504853202102538,
            0.6640897185867618,
            0.22463701676271985,
            -0.7122415897294339,
            -0.6991984124361639,
            0.11847395594124377,
            0.9275850185381245,
            -0.39894579140297104,
            0.9854737127223558
        ],
        [
            0.24188764215358738,
            0.5274994963456514,
            0.543681297170076,
            0.37808677974364224,
            0.8987258135204488,
            -0.5839950498987614,
            -0.27491610750243556,
            0.8253440835180801,
            0.13368348923866558,
            -0.5507348700363781
        ],
        [
            -0.5443986450880076,
            -0.5306116094962785,
            -0.9479815042970545,
            -0.036937419736586374,
            0.4006956419332819,
            -0.8503743072603702,
            0.17499155377108644,
            0.3006456356425251,
            0.5977196365293316,
            0.2512979156926243
        ]
    ],
    "biasesTwo": [
        0.07688137278797957,
        -0.6396903488006882,
        0.8786285360461172,
        0.9742247512472131,
        0.9747567786174005,
        0.5395202865954185,
        0.9800930169566486
    ],
    "weightsThree": [
        [
            -0.6097734930440362,
            -0.10095190642856222,
            -0.7780190705049614,
            -0.5515806265106551,
            -0.651707242850486,
            0.9318190179298405,
            -0.5520730276443035
        ],
        [
            -0.631585833198357,
            -0.24210976351314217,
            0.1948457224525788,
            0.8859559013163998,
            -0.23635292233805205,
            -0.8457600620513002,
            -0.981047089435441
        ],
        [
            0.605482112394746,
            0.9246430308291491,
            -0.8405485516542335,
            -0.09508154392056056,
            0.275612399726074,
            0.4010722968544276,
            0.35211515305075514
        ],
        [
            -0.37762350853138593,
            -0.9214272817016369,
            0.28359057332070026,
            -0.23063177598126705,
            -0.7636495502679892,
            -0.17286494294461074,
            -0.5344427448696134
        ],
        [
            -0.005957029564692906,
            -0.38008714680222155,
            0.6753730581354105,
            0.4670796655028535,
            -0.6564784045259942,
            -0.8807834973543629,
            -0.280162038736093
        ]
    ],
    "biasesThree": [
        0.08672615640848247,
        0.41612053979925223,
        -0.7090740501267139,
        -0.39222542516537007,
        0.5217440725196665
    ],
    "weightsFour": [
        [
            -0.1448420456812347,
            0.9907103181371812,
            0.6095410758865973,
            -0.03868535109752469,
            0.14388369029313908
        ],
        [
            -0.72799108636898,
            -0.12048671050406257,
            -0.3903136321793814,
            0.5908457425160973,
            0.8877235309439953
        ],
        [
            0.5992345452402763,
            0.01603889007115389,
            0.6224666168634136,
            -0.1685529157411214,
            -0.4025170566984193
        ]
    ],
    "biasesFour": [
        -0.43713960106603067,
        -0.08383918356721676,
        0.35898068645750203
    ],
    "weightsFive": [
        [
            -0.07137248253319273,
            0.7458196924563751,
            0.6631910958351497
        ],
        [
            -0.4072688088293688,
            0.12662088993393117,
            0.47126692694855055
        ]
    ],
    "biasesFive": [
        0.10864513539117993,
        0.8470347027559251
    ],
    "fitnessValue": 0
}