{
    "weightsOne": [
        [
            0.764383342394793,
            0.5109398899596576,
            -0.9006381921506204,
            0.17393287568877258,
            -0.7969459196282016,
            -0.8939859128037408,
            0.1799198380026874,
            -0.09280877530815701,
            -0.958601047291485,
            -0.25610932633483174
        ],
        [
            -0.16947671541209886,
            -0.8888847788555523,
            -0.6776532642715669,
            0.17149350899483795,
            0.060460779277995425,
            0.08765386861435487,
            -0.12615407828768466,
            0.3173140600175697,
            0.18499298762678595,
            -0.402590253746409
        ],
        [
            0.24760492053839234,
            -0.20873330922045152,
            -0.44959318746506005,
            -0.22803546769225003,
            0.7936343573954201,
            0.9121572863386598,
            0.8507691530420658,
            -0.9690361503565301,
            0.14519714896550218,
            -0.20546222360817712
        ],
        [
            -0.8171547626470328,
            0.46973223824982546,
            -0.9157645487106787,
            -0.27857052772061497,
            0.896477559972148,
            0.1866365340696725,
            -0.33632572818735174,
            -0.9285222374670132,
            -0.2637251396505109,
            0.5302708564768246
        ],
        [
            0.6400011980784035,
            -0.34395160279154635,
            0.30965088821879494,
            -0.9704234276360737,
            -0.35383594202789825,
            0.6115086429161061,
            -0.9999680382686651,
            -0.2515276158692994,
            0.32038981110762754,
            -0.25687382324400354
        ],
        [
            -0.7374070902119305,
            0.7126435618072737,
            0.2749621659901238,
            -0.6732320190426242,
            0.18123607031217315,
            0.09258426287886001,
            0.7002994927656545,
            -0.8776078671361041,
            0.37940653750295694,
            0.39919200378709174
        ],
        [
            0.5375626336141017,
            0.7444511314134874,
            0.4402437261732479,
            -0.20750243795504542,
            0.47305120553566193,
            -0.6741425228114206,
            0.05651997738811865,
            -0.5488235054910908,
            -0.018252931761457925,
            -0.5029442625079585
        ],
        [
            -0.6280399489680162,
            -0.8039129383134402,
            0.09905077722940603,
            -0.26492177691077035,
            -0.9277885764207041,
            0.542725134248079,
            -0.6016225815267182,
            -0.4144732666017439,
            -0.1727649759340133,
            -0.06704239040041182
        ],
        [
            0.5751373046898767,
            -0.12130405038240721,
            -0.9596675968251793,
            0.9170259884334406,
            0.34016193746105294,
            -0.3074696793356084,
            0.8269755521884248,
            0.6846652038407559,
            0.11433400356741541,
            -0.67037020603401
        ],
        [
            0.8865127088771738,
            -0.8403159018399007,
            0.19423044499657904,
            -0.5103660873508071,
            0.38209235904038685,
            0.7041619572627571,
            0.6993993855816782,
            0.3408957454473329,
            -0.08699151847141251,
            -0.4067464468147919
        ]
    ],
    "biasesOne": [
        0.02576406793859931,
        0.7407621722827569,
        -0.9761220858177759,
        0.869876142607827,
        -0.5744304135142284,
        -0.4333195177143023,
        0.5720501787892427,
        0.33960096390145855,
        -0.8908953586954365,
        -0.2160559441620047
    ],
    "weightsTwo": [
        [
            0.8795516935092356,
            -0.7295339562683651,
            -0.7284626041196249,
            -0.09545856549488607,
            -0.3789409925029217,
            -0.7783803594100565,
            0.66807621995398,
            -0.7034152298532219,
            -0.0945784531697329,
            -0.5534271306418255
        ],
        [
            0.3621389071466088,
            0.19308076532211116,
            0.26034566315394514,
            0.5363363462793798,
            -0.469947081591952,
            0.46618482256799587,
            -0.7619868547912279,
            -0.9632524808577512,
            0.2114108306325595,
            0.7056195071161127
        ],
        [
            -0.4142102066009281,
            -0.5673558668869203,
            0.2886057381889038,
            -0.9874856795555891,
            0.3806347667556562,
            0.6947622483900175,
            0.4186928654813744,
            -0.5281690856066323,
            0.48999092073475325,
            0.41004009211051007
        ],
        [
            -0.5764864730952421,
            -0.8684399214381975,
            0.40939186243125225,
            0.1635687883313206,
            -0.8329344413918529,
            -0.9514029793687504,
            0.3834202237375899,
            0.008887337710715482,
            -0.4813281632257316,
            -0.04172171880409592
        ],
        [
            -0.4072897559775488,
            -0.9235024559978569,
            0.8569602839308037,
            -0.7494011689909899,
            0.8059313393661698,
            -0.4303530428121156,
            -0.7753248748060573,
            -0.8802223687353943,
            -0.7386197299096611,
            -0.3018951695477834
        ],
        [
            -0.985692501943801,
            -0.28533121797723604,
            -0.31709548951815525,
            -0.5784645273299152,
            -0.307941696903844,
            -0.8975327289598363,
            0.7608099928811811,
            0.5648575066224597,
            -0.6096881968651671,
            -0.3405896698503712
        ],
        [
            -0.19601605315714243,
            0.27958552223883815,
            0.0971406794286458,
            0.45147720397906665,
            0.6712111046521447,
            -0.08245082468626652,
            -0.4388351252032092,
            -0.052423082870181714,
            0.32976568596064415,
            -0.42477027462637396
        ]
    ],
    "biasesTwo": [
        -0.44088743494041505,
        -0.39197872898277564,
        -0.22583780000100262,
        -0.340749249392305,
        0.14256159133211033,
        0.0007073104753652082,
        0.4844033373298511
    ],
    "weightsThree": [
        [
            -0.6991346920204078,
            0.8907977952857693,
            -0.916292166658744,
            0.1287076525156048,
            0.9781806646407214,
            0.11224765933464975,
            0.7872381232377763
        ],
        [
            -0.14710709622486595,
            -0.5297500498503345,
            -0.9397371553600491,
            0.7693528822378775,
            -0.8219853228740162,
            -0.6177499439718315,
            -0.32032002365967993
        ],
        [
            -0.12965920331498415,
            -0.31816885979979026,
            0.9520753855985564,
            0.6792268612233159,
            0.286935838720936,
            0.6423070302614524,
            0.109388726196193
        ],
        [
            -0.9413923011446561,
            -0.25717049036398576,
            -0.7316180831018646,
            0.3709425047382142,
            0.25734803294723374,
            -0.3351385768352233,
            0.16782787795667686
        ],
        [
            -0.6163324094580593,
            0.2703155493772058,
            -0.618379109143544,
            -0.17925884604124276,
            -0.8333567361546166,
            -0.9099329893012249,
            -0.24070973946608043
        ]
    ],
    "biasesThree": [
        0.18750827394652747,
        -0.04965178338250076,
        0.42219327826039654,
        -0.39546106859966224,
        0.6650401845855549
    ],
    "weightsFour": [
        [
            0.10701673298556624,
            0.18553204414136437,
            0.060791551378539754,
            -0.07383482153781973,
            -0.007439161636193958
        ],
        [
            0.30903995405353313,
            0.23391096485524154,
            -0.7811514022568813,
            -0.623717700651532,
            0.9383991572905506
        ],
        [
            -0.6255951155875588,
            0.5843392041541426,
            0.991423870891198,
            0.11259471298309354,
            0.08998029285047848
        ]
    ],
    "biasesFour": [
        -0.912882009587954,
        -0.6948874372332807,
        0.37168046797569443
    ],
    "weightsFive": [
        [
            0.3354829358348461,
            -0.08045328566820498,
            0.02325477598845649
        ],
        [
            -0.3544251579417297,
            -0.8842204428176221,
            0.6845588687123434
        ]
    ],
    "biasesFive": [
        -0.8049110140220348,
        -0.6046756693247264
    ],
    "fitnessValue": 0
}