{
    "weightsOne": [
        [
            -3.3083609247790946,
            -1.506463713932046,
            3.7326218669470315,
            0.4476415660714146,
            -4.702638571776201,
            -2.115465685638646,
            -1.1435506883147974,
            0.044301386923616626,
            -4.210241716808236,
            -0.5760112891931923
        ],
        [
            3.2801234083075776,
            -3.8497115271981674,
            4.7423330461903035,
            -0.14730070932231953,
            2.7956115728579984,
            -2.195805322741504,
            -0.512866526903025,
            -0.33254907233038544,
            -0.6133943366163681,
            -0.23284844821919348
        ],
        [
            -4.121670668916764,
            -2.2748446231351913,
            2.7213615500455006,
            4.350775613930953,
            3.2147080859213233,
            -4.760251385585179,
            0.4642845939571689,
            3.0255070740388295,
            2.269668958476153,
            2.3791837406157947
        ],
        [
            3.5009886155739984,
            -1.2309890464369353,
            -0.08911521511289511,
            -2.5551761976935907,
            4.770433605243731,
            0.8253354597862641,
            -0.9533535055706768,
            -1.1453983010888988,
            -0.20748636114459984,
            2.071969905136214
        ],
        [
            0.9001567236197914,
            2.6794294552980533,
            4.229344390357532,
            1.5132035873635523,
            1.4445071463314338,
            4.913030903755919,
            -4.833075023142469,
            -1.7627296063733198,
            -0.23409261071656395,
            -0.5935652872271122
        ],
        [
            -0.10151938419251039,
            4.202668564123272,
            -0.12276626953533487,
            -1.3305567219038625,
            -0.9529166081492848,
            -1.5199741619709295,
            -4.730441718246451,
            -1.686291836225331,
            -0.903481502241231,
            -0.6545498626537691
        ],
        [
            -1.0129806093451355,
            -1.3310150816860675,
            4.781451543967886,
            0.4963994822926887,
            -3.1215422565384667,
            3.6833087737937404,
            0.5882620840008563,
            2.7157162791281824,
            0.725724459383513,
            2.2654545993051878
        ],
        [
            -0.6551806062915624,
            -1.8059699508096339,
            1.0853254855434713,
            -0.7463900487408457,
            -0.2915815371404189,
            2.8042090653578278,
            4.42803561139147,
            -3.5467116051353518,
            -1.1909560435882316,
            -2.726144489116493
        ],
        [
            -0.3526574518415284,
            2.247473798487613,
            2.2744023582260118,
            -0.16520428896824768,
            -4.165326570263917,
            -4.463514831322658,
            -0.536637237113391,
            -4.10994549860434,
            -3.9025708807798845,
            3.963023493579435
        ],
        [
            -3.714057626033882,
            -0.8363002992732522,
            -0.205792421188292,
            3.46622721064308,
            -3.4780196886080903,
            1.8243791176204578,
            3.6573511679854516,
            0.8640967520586162,
            -3.2000403981580194,
            4.560825749083458
        ]
    ],
    "biasesOne": [
        3.964088995472812,
        3.3717862373090224,
        3.786548656854645,
        -0.21863032392055448,
        -4.019548271661786,
        -1.1778931709817666,
        1.190580508426792,
        3.7212421428681264,
        4.610902136818849,
        2.775890857713975
    ],
    "weightsTwo": [
        [
            0.6836371531455778,
            4.001764398830833,
            2.7639675999633626,
            -1.5244658201107253,
            0.11655762484632604,
            0.4085441612964731,
            4.921971964083108,
            -0.5821719693604928,
            0.19752234665019763,
            -1.5393501389447426
        ],
        [
            0.735801909808881,
            -4.6682434061053915,
            3.709218493295852,
            4.523922799136557,
            -4.750871889182959,
            -0.9338155423910415,
            0.49577874757086704,
            -4.353066697316482,
            1.8399781963222406,
            0.0145190952324592
        ]
    ],
    "biasesTwo": [
        0.8116937933979589,
        -1.634248750522672
    ],
    "fitnessValue": 100.15302796820293
}