{
    "weightsOne": [
        [
            -0.9896736667575068,
            -0.053723029052001214,
            -0.5880877169317154,
            -0.6579209639127539,
            -0.6347448904590793,
            -0.3310400318390949,
            -0.057178425056297666,
            -0.5973862477659324,
            -0.02222248085554268,
            0.760676271944837
        ],
        [
            0.6369054471794193,
            0.07423714764456224,
            -0.7107344355341356,
            0.11623520012624344,
            -0.3358973728662731,
            -0.2238253898774405,
            0.9975655790089486,
            -0.2436468774947551,
            -0.5870332407830725,
            0.7693543309316855
        ],
        [
            -0.9479878010203471,
            -0.9033541962799623,
            -0.43260825481055165,
            0.10710108540572327,
            0.2686086944607333,
            0.26262437507815783,
            -0.9803470599604744,
            0.8382727185426002,
            0.3031794975721478,
            0.05125644703023191
        ],
        [
            0.21520784522362768,
            -0.5029440587516556,
            -0.8984479823085509,
            -0.7911624618323765,
            0.696373185004447,
            -0.13110250786538202,
            -0.04886032012890418,
            -0.7277424029224242,
            -0.04551177279144003,
            -0.18395116420811486
        ],
        [
            0.18491614144584645,
            0.5532840368368674,
            -0.8862121303899566,
            -0.24156274965410973,
            0.19708567116205455,
            -0.6826356951142942,
            0.7411377460909712,
            0.9206158812557301,
            0.9511192929436003,
            0.6788372278413763
        ],
        [
            -0.40556964159921205,
            0.010142626093740947,
            0.5008318475881204,
            0.7245325372599507,
            -0.21327342345754663,
            0.6505910051817922,
            -0.10496908873291089,
            -0.04720132262360699,
            0.85525906557793,
            -0.4811946166485941
        ],
        [
            0.109437962773699,
            0.33117445936247947,
            -0.20956296598003288,
            -0.5299818755101913,
            0.09790719384501756,
            0.7382575442499937,
            0.4618371842528919,
            -0.17867379237662884,
            -0.36007594896020323,
            0.582439088443927
        ],
        [
            0.8330365626382921,
            0.8929215776316486,
            0.7621183802293476,
            -0.6743476483042017,
            -0.26879643518072127,
            -0.008371454878599138,
            0.12303536631974255,
            -0.02626655765093866,
            -0.8761959381192919,
            0.683420963104979
        ],
        [
            -0.017326937599010384,
            -0.92405149462369,
            0.65680830062707,
            0.3277681211420558,
            -0.2687360048506089,
            -0.9739969914665529,
            0.7191362947575579,
            -0.7577306812984228,
            -0.6071810004154343,
            -0.5584371913339472
        ],
        [
            0.22013886403289296,
            0.4339343216751166,
            0.06527084245693882,
            -0.10937998354542211,
            0.8233428411104957,
            -0.6816900910991193,
            0.20082371517401443,
            -0.11861536681049123,
            -0.44724306275868964,
            0.8830875354685039
        ]
    ],
    "biasesOne": [
        0.9081276957119055,
        0.7706582528308767,
        -0.6417178625975113,
        -0.18013354774821,
        0.0980090474099613,
        -0.520451676472163,
        0.513410946468198,
        -0.06428053395513045,
        0.7453473505918684,
        -0.5406075483706321
    ],
    "weightsTwo": [
        [
            0.41603641676980496,
            0.2992528066594857,
            0.015556507486737647,
            0.7296720777655998,
            -0.7875106367069253,
            0.7002272519570085,
            0.775869493089562,
            -0.236611473232766,
            -0.07612715931681802,
            -0.25914841162295144
        ],
        [
            0.34961884633599394,
            0.33021356316525763,
            0.17070492246202384,
            -0.4480600360172817,
            0.9493890365465165,
            0.9717488864271389,
            0.33957797459768213,
            -0.9182551638734575,
            -0.5513697716550312,
            -0.33607649710729226
        ],
        [
            -0.5254793630526011,
            0.36282841674477906,
            0.9771967926448526,
            -0.4500190582544019,
            -0.7468465101707804,
            0.20555925005822062,
            -0.7409550453649008,
            0.2054815075136498,
            0.06193822338576149,
            0.9445315339495504
        ],
        [
            0.34683568074082904,
            -0.38123241897529203,
            -0.5569429278715328,
            -0.1561256586412607,
            -0.6679519468613109,
            0.9646122131464514,
            -0.40258085769080276,
            -0.9421477947531733,
            -0.3639941022576081,
            -0.6128704333435726
        ],
        [
            0.6697707005539892,
            0.4265071684589543,
            -0.37332790856766307,
            -0.11841430649131213,
            -0.7191072903835116,
            0.10224581980828829,
            -0.7595982241443482,
            0.3083211188978703,
            -0.09806961463145036,
            -0.9482556402586189
        ],
        [
            0.9264253495291501,
            0.8072777397342352,
            0.8652757445214585,
            -0.4157443134170764,
            -0.0989533770794706,
            0.6283685084137294,
            0.554983851552445,
            0.49187668602661905,
            -0.3913113086717921,
            -0.3573410097716079
        ],
        [
            0.6352656605716134,
            -0.16720435874595818,
            0.9174855590120887,
            0.5078903600708509,
            -0.46576714288299415,
            -0.3895683816553359,
            0.04647250607700659,
            0.7875264943251317,
            0.6931162604518639,
            -0.7180940234940423
        ]
    ],
    "biasesTwo": [
        0.8769481620713591,
        0.9561053689270829,
        -0.891513673487673,
        0.2078647121283328,
        -0.9109771166989173,
        -0.29112737881253725,
        -0.8200707414623722
    ],
    "weightsThree": [
        [
            -0.23671092793376847,
            -0.585210565355468,
            -0.9451008078419605,
            -0.3705715824476119,
            -0.9970832203342597,
            0.3182959304375448,
            0.7753756308289632
        ],
        [
            0.0649971082466887,
            0.6834420192208295,
            0.4966432849670448,
            0.8201826904546585,
            0.5798112072286623,
            0.19541402276711128,
            0.24934924288417926
        ],
        [
            -0.301495447422117,
            0.31290407433585177,
            0.11661838495760657,
            -0.7239964181518699,
            -0.17008175655787316,
            -0.9739645940034336,
            0.8574199271756102
        ],
        [
            -0.2320754641685978,
            -0.18326385804099243,
            -0.9427020995684203,
            0.17617449914715544,
            0.977404255585463,
            -0.8416683316513878,
            0.5953855014537632
        ],
        [
            0.16563836062495363,
            -0.05829591049531313,
            -0.10782700390827715,
            -0.09747533373941253,
            -0.0634984198922608,
            -0.16755488898013526,
            -0.31249509698950484
        ]
    ],
    "biasesThree": [
        -0.2835294945549591,
        -0.9734157953650189,
        -0.5575665053053405,
        -0.8363438524486368,
        0.6866390995772691
    ],
    "weightsFour": [
        [
            0.16274069256867763,
            -0.840027777307629,
            -0.4939991829431487,
            0.6174503385962624,
            -0.6259812380025831
        ],
        [
            -0.13391786712084408,
            -0.37848306817982436,
            -0.4944543962005654,
            -0.5595871137994608,
            -0.7340949976607078
        ],
        [
            0.011809867482390546,
            -0.42326075089431936,
            -0.013473859513866593,
            -0.20145545917701657,
            0.9490782908364737
        ]
    ],
    "biasesFour": [
        0.9134602238906451,
        -0.8782793946533773,
        0.30515142882631485
    ],
    "weightsFive": [
        [
            -0.7931134392466377,
            0.5955726523367162,
            -0.9576076327021374
        ],
        [
            0.6193594171331558,
            -0.8046748926892531,
            -0.581877056759446
        ]
    ],
    "biasesFive": [
        0.3902999858991367,
        -0.761116357558071
    ],
    "fitnessValue": 0.0
}