{
    "weightsOne": [
        [
            -0.492303774639572,
            0.5246149927176704,
            0.2110355441895162,
            0.9325098163573309,
            -0.8637872123929,
            0.22224799701612175,
            -0.06839188329750678,
            0.06147812181258283,
            -0.5684813267968758,
            -0.4773674151251055
        ],
        [
            0.5569746706329826,
            -0.323759744227901,
            -0.16888633078603776,
            -0.7555330929278894,
            -0.9824407216695601,
            0.41728460783291443,
            -0.5569872515142533,
            -0.6705654260378411,
            -0.5983455432951443,
            -0.4013241428336438
        ],
        [
            -0.9483618332806001,
            0.950972201457633,
            0.6810550501918651,
            -0.3696942100525207,
            0.9242521865413671,
            0.15467890200854995,
            -0.9271581590261417,
            -0.034314269057682756,
            -0.5615575073180756,
            0.41697814748212303
        ],
        [
            -0.579644065814308,
            -0.26505116084886127,
            -0.4936728942483015,
            0.043837951649406515,
            -0.37368219329753094,
            0.10571965967539443,
            0.787970986691348,
            0.49295226037358364,
            0.06393926683629769,
            0.858719415295117
        ],
        [
            0.044711412199582856,
            0.07707921735059298,
            0.14435532854136124,
            0.2564062375090246,
            0.43578249272094594,
            0.18121201845982182,
            0.4061023132925894,
            0.48858064705780024,
            -0.12933039330825213,
            0.15824937126522687
        ],
        [
            -0.4776788088523565,
            0.8440368192973713,
            -0.4466661662555462,
            0.5902373942085062,
            0.1314797099018994,
            0.7010626393060848,
            0.6058588922857937,
            -0.3030072288892689,
            -0.7325717418507605,
            0.06585707372678407
        ],
        [
            0.8204833456964926,
            -0.9546714879472966,
            -0.9638750260540954,
            -0.08346055761223514,
            -0.062436997380160175,
            -0.15701887405507287,
            -0.2680413180880108,
            0.025078853838855775,
            0.3131255090652345,
            -0.6186000745419369
        ],
        [
            0.38471276450881464,
            -0.799057004947102,
            0.7856767969927909,
            -0.8100500762621077,
            0.8218922320997382,
            -0.24436437467841543,
            -0.6726843155098787,
            -0.3145819959667684,
            -0.8955841756878473,
            0.29155917278007304
        ],
        [
            0.49093390305551643,
            0.7527842088316896,
            0.9116730785343445,
            -0.3345473758441413,
            0.9204322044057354,
            0.9302485172653931,
            -0.8791623328183504,
            0.3496542250198309,
            0.4494259069333917,
            0.25658645507317335
        ],
        [
            -0.13791472836189334,
            -0.7870477746797073,
            0.37661328262641525,
            0.48166157023334244,
            0.613704239918083,
            -0.9905855803841541,
            -0.26589275380173816,
            0.9033505918047477,
            -0.010893095208244441,
            -0.5903650305447128
        ]
    ],
    "biasesOne": [
        -0.36892256608204854,
        -0.78954691955134,
        -0.8567184227489526,
        0.4675907368553993,
        -0.6346838615850972,
        -0.36023929566386914,
        0.4285684379761434,
        0.020347673289413226,
        0.7458994932232819,
        -0.13313307107085492
    ],
    "weightsTwo": [
        [
            -0.5759222357024829,
            -0.2366424998512291,
            0.13178523841292877,
            -0.7180287159533636,
            0.028855598451072106,
            0.7738468275349353,
            0.03681756214412424,
            -0.37417692515532686,
            -0.9963511078940521,
            -0.36812886002049994
        ],
        [
            0.47048283574697725,
            -0.9710629197125002,
            -0.5233594719124175,
            -0.3686151350257778,
            0.34317464021577204,
            0.8652542068801523,
            0.3925020038086766,
            0.5660723986433831,
            0.36368991221430647,
            0.21549528314881816
        ],
        [
            0.5406883905209761,
            0.44993072330935013,
            -0.9552392333849637,
            0.5902636594764075,
            0.980308753703399,
            0.9346369462639024,
            -0.48700240969524833,
            0.5342943005965566,
            0.17313895793718825,
            -0.10745728847397018
        ],
        [
            -0.23848204006754625,
            0.2370854354159322,
            0.6700175124971481,
            -0.21459983204590616,
            0.006328372444292185,
            0.23317069817275748,
            -0.7499337585201882,
            -0.9040827479301536,
            0.7687740453778535,
            -0.6575059950154547
        ],
        [
            -0.18174828359242579,
            -0.2754388396238858,
            -0.534762735719734,
            -0.6108582452600133,
            -0.36018659043807943,
            0.0805128793462011,
            -0.8306736634963185,
            -0.9052863863396345,
            0.8143822871174593,
            -0.5476068529828659
        ],
        [
            0.22321620118353414,
            0.5093042062333963,
            0.6270576398559011,
            0.28493184232553714,
            0.3258883466141025,
            0.923943066120938,
            -0.0029453201789664263,
            0.9369489146580701,
            0.08953356238849808,
            0.38810454252115356
        ],
        [
            0.10229939948043287,
            0.5568254021045878,
            0.5764709755106552,
            0.7721595859931742,
            0.9496441380970326,
            -0.35163421806314665,
            -0.7578625105771029,
            0.04838415926526074,
            0.024386820515014396,
            -0.8974044105354897
        ]
    ],
    "biasesTwo": [
        0.5489043291501714,
        0.7849415134472086,
        -0.07330987101774933,
        -0.8605202006464638,
        -0.8296873203913473,
        -0.2143110208236163,
        -0.9917159131783264
    ],
    "weightsThree": [
        [
            0.5252026159009111,
            -0.1918255992789093,
            -0.7615725007779284,
            0.5405923492442435,
            0.29858039906587375,
            -0.40959477027075986,
            -0.7384143649338388
        ],
        [
            -0.5624580775803723,
            -0.5536457554135596,
            -0.5437066334143135,
            0.3384947370579414,
            -0.5362900178817753,
            0.5761388331631347,
            0.9327572535129782
        ],
        [
            0.008117373550127649,
            -0.5078374437943254,
            -0.2892651747848265,
            -0.9855567355807957,
            -0.12771817438158894,
            -0.7815715871764044,
            0.8996242784975466
        ],
        [
            0.18958369266353325,
            0.6803742026462027,
            0.8914838009565205,
            0.12875352457652678,
            -0.7381769360376904,
            -0.9546242662887512,
            0.5156171287621831
        ],
        [
            0.6059887201786038,
            -0.49185049584786555,
            0.14572365586716485,
            -0.3180395391913544,
            -0.7612142091470497,
            0.43897549708795225,
            -0.8657639710829286
        ]
    ],
    "biasesThree": [
        -0.7581327742715112,
        -0.546722673500377,
        0.08077589724223899,
        -0.972541067309993,
        0.4438458183786911
    ],
    "weightsFour": [
        [
            0.7750758604302135,
            0.3106635419439916,
            -0.03864402843943693,
            0.3637600961235219,
            0.18589195919854684
        ],
        [
            0.609316325393906,
            0.6556446845726696,
            0.323365600331623,
            -0.2734785423475694,
            0.9428157562422033
        ],
        [
            0.7121613442225936,
            -0.552583867311883,
            0.29937228032808094,
            0.09835589415832047,
            0.006938485043894715
        ]
    ],
    "biasesFour": [
        0.5701205479499212,
        0.6451878867551608,
        0.0556345470139159
    ],
    "weightsFive": [
        [
            0.9939988826944932,
            -0.6422640817026992,
            -0.03624212618951406
        ],
        [
            0.3914991459907464,
            0.576252426007676,
            0.6643224578598315
        ]
    ],
    "biasesFive": [
        0.4177980397274246,
        -0.8672903994632246
    ],
    "fitnessValue": 0
}