{
    "weightsOne": [
        [
            -0.7588974839375187,
            -0.8635745566054358,
            -0.9473497082861431,
            -0.4407393258374097,
            -0.5735940429217559,
            0.6258836442881728,
            -0.19829421521395485,
            0.9620134121226422,
            0.5009942073731466,
            -0.6501828976768382
        ],
        [
            0.7949158137239289,
            0.9446612082281223,
            0.10049441260576208,
            0.21127537585209777,
            0.7967489723080305,
            0.19428623710051163,
            -0.10028767521071891,
            -0.35674638046821494,
            -0.03165607526815739,
            0.5661068421962672
        ],
        [
            0.5115032307559935,
            0.5338925340593399,
            0.011193249054548327,
            0.17669646995057597,
            -0.20995955425742485,
            0.5169576381651362,
            -0.8791785105017211,
            -0.06311104826376734,
            0.020647623441684138,
            0.18648171913213485
        ],
        [
            -0.2365265501369438,
            0.9867440586753637,
            0.398255584617619,
            -0.4806174511757093,
            0.6872308718669446,
            0.6612852952288424,
            -0.13798723798735635,
            -0.9819823576839037,
            -0.01947004694822363,
            -0.36860624182830626
        ],
        [
            -0.8206388986346143,
            0.14484185727582388,
            -0.5416817129825473,
            0.20117726145548365,
            -0.3379266504064422,
            0.12107141972962498,
            -0.16104824691703534,
            -0.06141049380976593,
            0.648514596646798,
            -0.5620273684063157
        ],
        [
            0.14659743451359764,
            -0.2754533507930579,
            -0.367076813347903,
            -0.036921585398197454,
            -0.22990417329532709,
            0.1618918266698255,
            -0.32584934403323507,
            -0.9831285868589588,
            0.874726950100849,
            0.0031394152083619176
        ],
        [
            -0.2079983841228763,
            -0.7305697091892427,
            -0.3068682286494069,
            0.43179826531385834,
            0.5803404044239542,
            0.24816667614308563,
            -0.11249812360969758,
            0.0793529756016691,
            0.4651434191899686,
            0.6156061060568891
        ],
        [
            0.77305211281761,
            -0.5231144362749585,
            -0.9937316114959047,
            -0.46761261526837683,
            0.9674184059713105,
            -0.1535578206032513,
            -0.9672136278621639,
            0.9610599564392761,
            0.3992306038757205,
            -0.19263712160052182
        ],
        [
            -0.33652309487995646,
            -0.8301603742850083,
            -0.46032564058235637,
            -0.31522736832004505,
            0.30764925497328655,
            0.3524399717382587,
            -0.42626025560741754,
            -0.6505441785814792,
            -0.0023860475878030307,
            -0.2667793698920502
        ],
        [
            0.18394075258133724,
            0.08730061028260727,
            0.0032377849870819375,
            0.8973818454229852,
            0.5807937756829926,
            -0.17763925263441416,
            -0.6283416231577461,
            0.12446956000548415,
            -0.4117777547142132,
            0.9610220758832022
        ]
    ],
    "biasesOne": [
        0.5935118080724748,
        -0.7137199619875367,
        -0.7304768082975699,
        -0.9728478423938307,
        -0.2905104618306804,
        -0.6080943427431453,
        -0.19979121807902023,
        0.21145453809167947,
        0.291937648683372,
        -0.7132139124458552
    ],
    "weightsTwo": [
        [
            -0.8615930686504825,
            -0.7723791299730518,
            -0.41820670501093526,
            -0.47918475421063267,
            0.37170090749339013,
            0.32686677813396714,
            0.2153507534988397,
            0.03175886742913492,
            -0.06334772689427393,
            0.7464591280656143
        ],
        [
            -0.7921164646213226,
            -0.8281543709591357,
            0.8923910588398465,
            -0.6180370453856592,
            0.3194307774862839,
            -0.4886274761306424,
            -0.2155715151476263,
            0.575826476920813,
            -0.6391971438582633,
            -0.023282028423484258
        ],
        [
            0.23691259119968877,
            -0.9546098819486519,
            0.8663159937184606,
            0.08777739383934358,
            0.8923534330112548,
            -0.46402522509143673,
            0.844350676785854,
            -0.7166339567402897,
            0.1741569878720013,
            0.21414808668602814
        ],
        [
            -0.24521909371468076,
            0.8936757657455687,
            0.8726011287739144,
            0.6602572132978017,
            0.015514934455410412,
            0.09691270465596857,
            -0.4633008134312131,
            0.8461297559986833,
            -0.16670697002433132,
            0.9306846175250869
        ],
        [
            -0.5378051605610632,
            -0.37224622156613174,
            -0.9264653544308883,
            0.5201885842251313,
            -0.21360456816804207,
            0.9778321676751169,
            -0.02031332065947522,
            0.5422117904854407,
            0.3083016454260781,
            -0.33436083439631625
        ],
        [
            0.6424815910531565,
            0.7351240374545651,
            -0.9927219027475984,
            -0.6218352692910687,
            0.7363695571651125,
            -0.13520022977031942,
            -0.9989557343447735,
            -0.03839415503965182,
            0.8513463178019982,
            0.26453756728793065
        ],
        [
            -0.4962878828632411,
            -0.06413532809170674,
            -0.5694749018728897,
            -0.404784901968962,
            0.6782484827204593,
            -0.9399056802089782,
            0.25104118435994693,
            -0.6367179426270941,
            -0.6608965499374975,
            0.21520054083148654
        ]
    ],
    "biasesTwo": [
        0.771287279810716,
        0.6114483942562499,
        -0.09665242555696185,
        0.400600562397718,
        0.9850735056278006,
        0.5105527147321733,
        0.5328662508787967
    ],
    "weightsThree": [
        [
            -0.6026451829986936,
            0.8388359634695302,
            -0.07431815970339506,
            -0.25912084205192265,
            -0.9772366428487418,
            -0.7201689980263222,
            0.7143838272831546
        ],
        [
            -0.8009871815462393,
            0.3168843895724971,
            -0.42940238231607175,
            -0.8714033322108878,
            -0.02129379962557265,
            0.48105922188449934,
            0.17171455603106311
        ],
        [
            0.6934128997380395,
            0.8937759088663235,
            -0.26761304558182375,
            0.6867811716745515,
            -0.47428923262578415,
            0.8010111509842279,
            0.09952110571437145
        ],
        [
            0.37355508987804953,
            0.9498595788520097,
            0.03591379125884808,
            0.8288496635305995,
            -0.043639963024043604,
            0.8010442322303628,
            0.8685542044559105
        ],
        [
            -0.3452102551233702,
            0.24133718201799903,
            0.004097685237983262,
            0.21001292178078357,
            -0.44135470563850454,
            0.09286669429453065,
            0.5718970349913313
        ]
    ],
    "biasesThree": [
        0.05319053981782229,
        -0.068157210137052,
        -0.5595988007026751,
        0.5547165587766287,
        -0.7312517100770093
    ],
    "weightsFour": [
        [
            0.08603911669543374,
            -0.46101530965396,
            0.6529727288036808,
            -0.05291164847747343,
            0.8104831063052882
        ],
        [
            -0.8450037311836383,
            0.2059829811370304,
            0.8496764676279704,
            0.43051007989404355,
            0.7682020160077407
        ],
        [
            0.4148838170459612,
            0.4399020941040883,
            -0.7160905621889595,
            -0.1256876788727177,
            -0.6127170519506777
        ]
    ],
    "biasesFour": [
        0.4696710374545554,
        0.8942992269520007,
        0.4465543181957523
    ],
    "weightsFive": [
        [
            0.3913114873789276,
            0.3641656888327214,
            -0.8324429181578166
        ],
        [
            -0.4932232438840374,
            -0.3885922924325087,
            -0.951162234470085
        ]
    ],
    "biasesFive": [
        -0.24769836370720255,
        0.5121354639723723
    ],
    "fitnessValue": 0.0
}