{
    "weightsOne": [
        [
            -0.9391778245153481,
            -0.013076698770445594,
            -0.36650996418536796,
            -0.787453932380515,
            -0.8819234542703762,
            0.031089728322082344,
            0.8118221865728523,
            0.09059772812917655,
            -0.05435810742477942,
            -0.5985358622669847
        ],
        [
            -0.2919425374336164,
            0.6829289120003972,
            -0.18783945525753065,
            0.15121576982353924,
            -0.8541821581387812,
            -0.8606689157466672,
            -0.7565372751390191,
            -0.06740708545048757,
            -0.9081603250401427,
            0.8518904599955677
        ],
        [
            -0.6316644641170484,
            0.5463401233101852,
            -0.5061603191681492,
            0.4946005799475879,
            0.4441408963972402,
            -0.41406490083658176,
            0.1351629869455655,
            0.9563045116690334,
            -0.7303641847755928,
            0.5140849509738583
        ],
        [
            -0.6554199861822676,
            0.9187509148998876,
            -0.6268663351024744,
            0.3768947154069169,
            0.12826977181679,
            -0.23623411618777812,
            0.5899360173102597,
            -0.47407898372527457,
            -0.45238919687880697,
            0.5049641646344782
        ],
        [
            -0.3836942748324501,
            -0.26865567389773504,
            -0.9416242465770186,
            -0.07829411787106144,
            0.9597180520280826,
            0.4190814544361765,
            -0.9545048917571479,
            -0.6097202486088218,
            -0.9478211299974586,
            -0.21348244162257135
        ],
        [
            -0.2626657226119091,
            0.8255362825422221,
            0.7590568365431789,
            -0.721890000035079,
            -0.11315862646187469,
            -0.9446063336071389,
            -0.1736341665983514,
            0.7896595860680893,
            -0.6988605877489271,
            -0.4341595122992885
        ],
        [
            -0.41123920933089697,
            0.9748714484147019,
            -0.6430811303788957,
            0.4152622941612216,
            0.1735596745242345,
            0.4414181962516188,
            -0.2067578746590093,
            0.34241964743612985,
            0.02615061540224528,
            0.22228617788919625
        ],
        [
            -0.43410498275066356,
            0.6717579299947405,
            -0.6853939580460431,
            0.9931091558105076,
            -0.6674862794956529,
            0.40847599522556566,
            -0.05763844314631461,
            -0.7602403298256839,
            -0.40488539867435214,
            0.13253799577440462
        ],
        [
            0.07989823227765536,
            -0.2938998578922274,
            0.5751015957742478,
            0.5106778974248407,
            0.8472667189523182,
            -0.9195527168931468,
            0.09420184254911024,
            0.7801747437915982,
            0.8532056421859429,
            0.9330668363909072
        ],
        [
            0.39544836938917927,
            -0.37795144881301734,
            0.5397732750131103,
            0.5855434046298209,
            -0.8541966635117386,
            0.23942132329537413,
            0.6399546032683245,
            -0.7602203489938555,
            0.5385795166893403,
            0.42967102916008626
        ]
    ],
    "biasesOne": [
        0.10306406580344585,
        -0.7209082055821052,
        0.11659292716919278,
        0.30914504983820135,
        -0.8132121005058279,
        -0.930760185319808,
        0.4711546841816492,
        -0.6608533436967847,
        0.7413943598766817,
        0.621527564395113
    ],
    "weightsTwo": [
        [
            0.8124687895924834,
            0.05047383583245768,
            -0.4156096854587372,
            0.6975072251371783,
            -0.6930683036668717,
            0.5499156412166564,
            -0.824538090535708,
            -0.9274047938628991,
            -0.6186223447404038,
            0.8134348313001678
        ],
        [
            0.553895467321565,
            -0.2649182344259442,
            0.843400811921424,
            -0.8487946268288558,
            -0.9766458633853763,
            -0.8489712223127353,
            -0.4703769994805904,
            -0.8974319216849391,
            0.8032452331073339,
            -0.032972522801604676
        ],
        [
            -0.4407206108805304,
            0.7413668715588209,
            -0.03954532934919386,
            -0.5719116761997982,
            0.8875671081609076,
            0.39528230530354347,
            0.7220779742225674,
            -0.9850815973235252,
            -0.6579267273803218,
            0.3767767611348647
        ],
        [
            0.5951006808599519,
            0.9939007542801446,
            -0.9731345717666937,
            -0.45133336626112786,
            -0.001875165041056892,
            0.4935378166209081,
            0.2851191193017697,
            0.382195579152137,
            0.0643170325440019,
            0.8060259189671299
        ],
        [
            0.9615638459726237,
            -0.24263024951534828,
            0.44439028082204923,
            -0.8733705800231883,
            -0.5717138154481509,
            -0.7196140975595848,
            0.46245900445780674,
            0.8199732298199824,
            -0.5457355795872043,
            -0.19288066098529644
        ],
        [
            -0.16674044453364623,
            0.5053311386493713,
            0.08049360655087834,
            0.4329355272183051,
            0.4270426811733452,
            0.23743843688417288,
            0.5578002698619831,
            0.02481395207017001,
            0.7049422845404709,
            -0.6380869825940498
        ],
        [
            -0.47450381201289416,
            0.8926399049777582,
            0.5279957666288235,
            0.021436288365042078,
            0.30575962791356015,
            -0.9716790745875383,
            -0.817655948507392,
            -0.840031240575962,
            -0.08233574470491667,
            0.5886151814327139
        ]
    ],
    "biasesTwo": [
        0.07905598722707396,
        -0.23546621402830903,
        0.9210218237599543,
        0.07850562066133993,
        0.9052772391149384,
        -0.5333192803296141,
        -0.19785219445848434
    ],
    "weightsThree": [
        [
            -0.6363594239342847,
            0.5101531631398732,
            -0.31741747183617663,
            0.594580038694591,
            0.810614476047455,
            0.4093153180564364,
            -0.6173976715139247
        ],
        [
            -0.09805296910558314,
            0.5813392902246308,
            0.6220980175670823,
            0.604950451461141,
            0.8404584347485906,
            0.8060004110707404,
            -0.21929778075577366
        ],
        [
            0.5241549002125654,
            -0.9526902732390323,
            0.9325563477553145,
            0.9761867261640866,
            -0.744359549591852,
            0.13417447137313698,
            0.309643784248397
        ],
        [
            -0.03705104560006167,
            -0.2845733953614171,
            -0.036628313186135575,
            0.025615659984503436,
            0.944117412939639,
            -0.8645917430631183,
            0.4578436701064068
        ],
        [
            0.7986205121778462,
            0.4813169112585065,
            0.14752616364621285,
            -0.3060183890105992,
            -0.5621399434463408,
            0.14144991100523452,
            -0.5664297764306152
        ]
    ],
    "biasesThree": [
        0.6121836256372084,
        -0.40170643243967685,
        0.7910644254496908,
        0.7277953797457879,
        -0.9472628176305746
    ],
    "weightsFour": [
        [
            0.9857697474937932,
            0.6796508610789855,
            0.4775925140745476,
            0.4516426607244297,
            0.7495330349913769
        ],
        [
            -0.08171525195469109,
            0.2940155030078626,
            -0.9357083098797818,
            -0.8234567999397233,
            0.4114473807977175
        ],
        [
            0.09565383667100114,
            0.3610518798738862,
            0.7953608803990442,
            0.04767820948577284,
            0.36036036705859664
        ]
    ],
    "biasesFour": [
        -0.25886007356246155,
        -0.27000574429567936,
        0.5318376663459783
    ],
    "weightsFive": [
        [
            0.1468160376357983,
            0.20935662725088444,
            0.04367682338372858
        ],
        [
            -0.023031056914466275,
            -0.20889277867774192,
            -0.500731967518578
        ]
    ],
    "biasesFive": [
        -0.37883592945666034,
        -0.09774381420910738
    ],
    "fitnessValue": 0
}