{
    "weightsOne": [
        [
            0.37110152593079637,
            0.5712286454198245,
            0.3387349800597128,
            0.6789102236472058,
            -0.4637054360344566,
            0.8971907821228893,
            -0.42948225413037533,
            0.36004082631914835,
            -0.34975822626136077,
            0.28778990650889535
        ],
        [
            -0.24647910870777356,
            -0.48570971226613247,
            0.5421930673284185,
            -0.41831096843559923,
            -0.8672469732427395,
            -0.022390560260125758,
            -0.45287241785350596,
            -0.9627091837151356,
            0.08488624534961775,
            0.7810047298962544
        ],
        [
            -0.7725473789828192,
            -0.7412546194953176,
            0.43697574822548035,
            -0.7851072180027359,
            -0.5695584706774077,
            -0.5364134713317632,
            -0.46688850548769567,
            0.18147400413182901,
            -0.6357790689674692,
            0.8911693487750267
        ],
        [
            0.06556487735024463,
            0.6112511042881321,
            0.09621108838406278,
            -0.48922130083945436,
            -0.31342875318136376,
            -0.01669947662615079,
            -0.38892462941791295,
            -0.3278979777033535,
            0.05192484317360235,
            0.08686735863138506
        ],
        [
            -0.29589186115559407,
            -0.338003167045422,
            -0.09616789473221532,
            -0.08919979160039682,
            -0.31963584447232796,
            -0.8709572667717782,
            -0.7276324270599617,
            -0.10025025134494037,
            -0.0353356937734175,
            -0.19196770504117588
        ],
        [
            0.06556077820503603,
            0.7303875742819026,
            -0.6736225251329697,
            0.6279812349039815,
            0.13832564162215566,
            -0.12916839814016656,
            -0.4336861809624617,
            -0.17857602398650374,
            -0.48052744023971594,
            -0.577836697267728
        ],
        [
            0.2937769903436962,
            -0.1936258664363335,
            -0.5938909262339449,
            -0.2148683518279817,
            -0.4315118866629988,
            0.25502722436180747,
            -0.6986440806785266,
            0.6774685976160155,
            -0.8101539422303685,
            0.9248700837433517
        ],
        [
            -0.9638171840013774,
            0.4623951420601866,
            0.12271898506159462,
            -0.8423866378522946,
            -0.7874124178649595,
            0.7760934685571264,
            0.6402117180850457,
            0.7589683863641274,
            -0.09146039794584992,
            -0.30043530877141733
        ],
        [
            0.8162642174152039,
            -0.9135315234370613,
            -0.27492466459011666,
            -0.7211915275210987,
            0.04679357659359629,
            0.8335921861338398,
            0.008257071343904299,
            0.6649446765628211,
            -0.18594656542166899,
            0.19367478946698946
        ],
        [
            0.6481980859765943,
            -0.6445154542995508,
            0.3097508675133305,
            0.23984344172407557,
            -0.09184601796399794,
            -0.13079109337594086,
            -0.4264165860466629,
            -0.29144273033221846,
            0.9887573864171186,
            0.27901033973803213
        ]
    ],
    "biasesOne": [
        -0.3089381260326183,
        -0.8358839270792351,
        0.7020129866804703,
        -0.16504226862690086,
        0.5206356480455092,
        -0.6485988792427744,
        -0.03409081213423071,
        0.350373154853987,
        -0.7455088166967108,
        0.09646206280868896
    ],
    "weightsTwo": [
        [
            0.41749507993660706,
            0.7294643534034468,
            0.12393402626854044,
            0.11843404534721502,
            -0.8416942473460867,
            0.5155128021982744,
            -0.5206213327202167,
            -0.3954091200937795,
            -0.047403266965418966,
            -0.11912682841806799
        ],
        [
            -0.5311359727807408,
            0.09755081806732924,
            -0.7481039864543932,
            -0.5938965850951967,
            -0.9745293441761238,
            0.9111301358118142,
            0.6039746134848616,
            -0.24114765925212578,
            -0.8086896618924051,
            0.11155379057815806
        ],
        [
            -0.7955353179230331,
            0.39070309693395777,
            -0.007581407772639048,
            0.468468594151475,
            0.6542796291419177,
            0.7836024963447124,
            -0.369216960945423,
            0.8960293999593631,
            -0.339456618405078,
            0.2955891365705279
        ],
        [
            0.8378003051559058,
            -0.7313837510160115,
            -0.3155339320773056,
            -0.9074342428249116,
            -0.9650931667570612,
            -0.08901951403753716,
            0.5190009148726955,
            -0.8896801747347876,
            0.18404513642130427,
            0.6659773230012318
        ],
        [
            0.3337720468439078,
            0.43832591476592553,
            0.3091144745266641,
            0.3391721763519764,
            -0.13178904617456566,
            -0.44576177948693907,
            0.1702143413348245,
            0.6405927183869762,
            -0.9672750425444334,
            0.5179920595491725
        ],
        [
            -0.3683650959846023,
            -0.11647976962045004,
            0.7646093733403116,
            -0.40307690812679176,
            0.3638488231641377,
            0.41740836822150484,
            -0.28987635379688426,
            0.932798789846742,
            -0.003390846084057708,
            0.36129239429975657
        ],
        [
            -0.6087599876321552,
            -0.5361175462304735,
            -0.5170300559274297,
            -0.4201981943554449,
            -0.4692291001447073,
            -0.5010970467751164,
            -0.6690856414330735,
            0.7859582231056181,
            0.23344412240093093,
            -0.29478196460005646
        ]
    ],
    "biasesTwo": [
        0.19278958719815464,
        0.11750428554121806,
        0.46657865296431633,
        -0.19655565620722304,
        -0.221641858461201,
        0.7733759459038514,
        0.5740759407132394
    ],
    "weightsThree": [
        [
            0.5014728818867578,
            -0.6656483432683751,
            -0.5125899948685975,
            0.5418342096424669,
            -0.44559188128388216,
            -0.20766560735207884,
            -0.5342994338032103
        ],
        [
            0.034501266768846905,
            0.022689699907877392,
            -0.35655111798639894,
            0.6498604258412117,
            -0.37003680961709895,
            -0.6732040008798001,
            -0.27642299236146384
        ],
        [
            0.06556196148245985,
            -0.02823337780342028,
            0.4341772211915933,
            -0.1721342037247402,
            -0.6901864889040099,
            0.2253489973180023,
            0.6376277144922635
        ],
        [
            0.4201603180347333,
            -0.020775347435828984,
            0.40317200709945866,
            -0.7739162862642142,
            -0.0393884386943526,
            -0.9272025259965644,
            -0.1390109124970691
        ],
        [
            -0.07566471790597507,
            -0.9433484537358456,
            0.07561658358314349,
            -0.9745547740282672,
            0.4740273683630758,
            0.03780830196516227,
            -0.7267236888188522
        ]
    ],
    "biasesThree": [
        -0.9041199759641887,
        -0.8978323676658722,
        -0.9997912599402088,
        0.9900252093905191,
        -0.1967849334900924
    ],
    "weightsFour": [
        [
            0.0025481319924898216,
            0.3425698563448498,
            -0.19524549144067094,
            0.7150368245555061,
            0.6306676092231471
        ],
        [
            -0.18765461900766822,
            -0.5685209168906269,
            -0.03650564763621933,
            -0.09292372551884909,
            0.9829352747984625
        ],
        [
            0.8145612909356936,
            -0.035511413159145855,
            -0.08497959665453259,
            -0.5607554318305505,
            0.15870824805642791
        ]
    ],
    "biasesFour": [
        0.9949571252940188,
        0.8005970797337354,
        0.7838425377727758
    ],
    "weightsFive": [
        [
            0.45421512421253607,
            0.12147594273930817,
            0.6571249880166843
        ],
        [
            0.9964238091059956,
            -0.4409974534046359,
            -0.5750763953819287
        ]
    ],
    "biasesFive": [
        -0.6252419564402054,
        0.22737751413905394
    ],
    "fitnessValue": 0
}