{
    "weightsOne": [
        [
            -0.6901085397664954,
            0.128332504064383,
            0.6056709353416578,
            -0.48971934516122406,
            1.974117744304749,
            1.9343486369056442,
            -1.5082865063262907,
            0.805550892539685,
            1.0541847653516725,
            -0.6544770316497113
        ],
        [
            -1.303400269990067,
            -0.4252880421357772,
            -0.8722804040490062,
            1.246549005864992,
            0.6279475462884787,
            0.29292378501401783,
            -1.2514980510503766,
            1.6576257968851693,
            0.7634381072923153,
            0.24962995659582443
        ],
        [
            1.680002959155713,
            -0.36389120507660344,
            -1.8619628986288164,
            0.642948735814826,
            1.562047617965109,
            1.8991033543404194,
            -0.9277110683888412,
            -0.8750691048443588,
            -0.9349694509069693,
            -1.3303469524309754
        ],
        [
            1.412948204023591,
            -1.7713594359404636,
            -1.1845165217020184,
            -0.07417379584947392,
            1.442628456793202,
            -1.7085190340708798,
            1.9759271380624437,
            -1.7568206359825913,
            -1.2627273734925284,
            0.027818671420457797
        ],
        [
            -0.6415470275625017,
            1.2518518502788574,
            -0.011622743851857908,
            0.20088112693716242,
            -0.7003640219736709,
            1.8054690242832172,
            -1.173584636052711,
            1.5289294151296744,
            0.057317333133423354,
            0.10183265674810604
        ],
        [
            1.4193562780589413,
            1.0035773924725095,
            1.823416736821636,
            -0.3891563613942992,
            1.9126888440883758,
            1.026827691820487,
            0.9986434249352802,
            0.0029636644735995255,
            0.029786754464673937,
            1.8497608535742036
        ],
        [
            -1.9433211655499472,
            1.9420837465049678,
            0.7413305596387696,
            1.8012600494034947,
            -1.3761560112247917,
            1.6584567656107625,
            -0.0995871142250433,
            -0.05656840031566279,
            -0.07788669558712868,
            -0.25310011437881963
        ],
        [
            0.026009469648163197,
            0.40440171324800733,
            1.1925830991268032,
            0.06721643279876321,
            -1.2053885424478716,
            -1.8010339992402171,
            -1.4318145752689522,
            -1.9397318356017856,
            -0.6495154676353727,
            -1.4436199682823463
        ],
        [
            -0.35606105050861414,
            1.1422428858892513,
            1.5134519734157812,
            1.7075911861707032,
            -1.3488856281251813,
            0.8287941885707273,
            -1.0603932778631613,
            -1.4313970909669518,
            0.6648053339077649,
            -0.5257858145390673
        ],
        [
            -0.16459398714065188,
            -1.6917116264291714,
            1.8202119389604738,
            -0.11667326822019763,
            1.6795720215599794,
            -0.1366516111687024,
            1.5566090065671565,
            -1.0766049248483456,
            -0.5873191986075867,
            1.8503153647820665
        ]
    ],
    "biasesOne": [
        -1.9365206608725685,
        -1.5847489401120698,
        -1.6522881385272767,
        -1.3683181405062883,
        -0.25837958021614904,
        1.1546306616352586,
        -0.7403535300160726,
        1.7110188932348875,
        1.1699106167014142,
        0.9035404850441169
    ],
    "weightsTwo": [
        [
            1.1904642841951585,
            1.355687537923321,
            -1.2663995806680304,
            0.0034396398161096187,
            1.333837483838889,
            -0.964277106196489,
            1.6907694950712808,
            -0.0617364145698307,
            0.465324198044621,
            0.8915930920046669
        ],
        [
            0.8642064030445296,
            -1.0546486149848784,
            1.7261155359930385,
            -0.9999183724743776,
            -1.3297027027358177,
            0.6276884897948416,
            -1.1296245087125962,
            1.3108587499384616,
            -1.143597978802474,
            -0.9051549533888972
        ],
        [
            -0.8610462053249273,
            -0.22166581045735478,
            1.7530843752469343,
            0.7887754419675779,
            0.5377007762354724,
            1.4897189104905793,
            0.12078221447309367,
            -0.3699376880021572,
            -1.697381362131169,
            -1.6769705224204858
        ],
        [
            -1.8610495407698302,
            0.3403704938147869,
            1.5359137050690892,
            -0.1175265512328112,
            -0.8258079704537451,
            0.6936277718587864,
            -0.37635771791182915,
            -0.5569254988864341,
            0.29826235069206186,
            -1.1103757261317875
        ],
        [
            -0.1303029026964193,
            0.33586478278154885,
            -1.2114421238759858,
            0.3885895911828521,
            0.003625047721189212,
            -0.62094381161186,
            0.9669086232693735,
            -1.3499492092595502,
            -1.9725191459685383,
            -0.04898017414627631
        ],
        [
            0.7570522272598392,
            -1.0775139710125337,
            -1.4808212136870273,
            -0.4488589938607519,
            -1.9950167273666626,
            0.9032547883102309,
            0.7242780866676899,
            -0.2466200856699592,
            0.36410853572035506,
            0.32379015204069317
        ],
        [
            -0.9040121764963152,
            -1.0869382803899477,
            -1.0816015086586637,
            1.2221575150739938,
            1.2075338711114476,
            0.2320609632444417,
            1.3913269313008731,
            -0.3829455913131907,
            -1.7264161479411353,
            -1.722656700979892
        ]
    ],
    "biasesTwo": [
        -0.8782885516951793,
        -1.791100720678644,
        1.9071449206523976,
        -0.7861132168744462,
        0.1387444475553865,
        0.538458565380477,
        1.6400690502576767
    ],
    "weightsThree": [
        [
            0.7516013888471531,
            -1.1534948306670239,
            -1.5118674734841142,
            -1.0050730932140408,
            -0.0772866142439459,
            -0.4568968812726797,
            1.484501570519781
        ],
        [
            0.4836270616573941,
            -0.18103942446728238,
            1.9829632764704548,
            -0.6396542468251645,
            1.5567729801468566,
            0.12840551079382578,
            1.8305380256007515
        ],
        [
            1.810851797738124,
            0.2839544018046616,
            0.09672472051989445,
            0.7741302446704204,
            -1.810533257390842,
            -1.984533526240106,
            0.3835300051367918
        ],
        [
            1.3139820417092785,
            -0.3715667555095967,
            0.15416664223667498,
            -1.9028815550791212,
            0.7241843986443204,
            -0.40290647403901936,
            -1.728509007335925
        ]
    ],
    "biasesThree": [
        -1.5843231367380182,
        0.908553114587181,
        -1.644717604666726,
        -0.9885018075914886
    ],
    "weightsFour": [
        [
            0.892368241796063,
            0.8889820044387498,
            -1.505662697858845,
            1.8273433705900115
        ],
        [
            -1.0284176797992544,
            1.1770847412305407,
            -1.554490773553788,
            0.9992381876560623
        ]
    ],
    "biasesFour": [
        0.8610491847386248,
        -0.98859147054449
    ],
    "fitnessValue": 0
}