{
    "weightsOne": [
        [
            -0.4724578105636179,
            0.8164368207205126,
            0.14757633879658716,
            0.38148314949837325,
            0.1976877850797063,
            -0.22370260477431425,
            -0.895278681001322,
            0.9725922374014431,
            -0.35602956113510986,
            -0.2552721349106948
        ],
        [
            0.20502022211736537,
            -0.21972659798403682,
            0.9889042072786094,
            0.6173268924951352,
            -0.11020613626583242,
            -0.38875600349880135,
            -0.5856335269278303,
            0.2660386172691538,
            -0.13010670382305878,
            -0.7353208836206366
        ],
        [
            0.7878473458138313,
            -0.46586326293798797,
            -0.06776625988525242,
            0.7897013129245516,
            0.8732541674603811,
            -0.4845047551867123,
            0.6098954388635975,
            0.776711284580786,
            0.9668833736074023,
            -0.9683294211173543
        ],
        [
            -0.3880224532369503,
            -0.5169726008702389,
            0.3861746641479804,
            -0.5247303320709709,
            0.8107045735574536,
            0.28081073329359185,
            -0.19946436956393643,
            0.010255672880561839,
            -0.0721832390631929,
            -0.4116298643722023
        ],
        [
            -0.7930086107616392,
            0.3191266818513112,
            -0.8026335050706448,
            -0.7569941345750224,
            0.947672896710847,
            -0.16607902684172027,
            0.6655079773960191,
            -0.41213837298677425,
            0.43355585902302685,
            -0.44578292925782215
        ],
        [
            0.002974454620009226,
            -0.7680108053880963,
            0.2245438693684363,
            0.02809693387824086,
            -0.2745607485731192,
            -0.48992053092509025,
            -0.5022096622831493,
            0.47544935774855634,
            0.7129285496074056,
            -0.8260725969656406
        ],
        [
            -0.9317612354333455,
            -0.4528552170853668,
            -0.7494485298201354,
            -0.3315677353068853,
            -0.7719011048306479,
            0.6700073238645285,
            -0.7541690145257465,
            0.8463316830255974,
            -0.7175767345279154,
            0.018706276982282333
        ],
        [
            -0.9970204712360244,
            0.6668026642815459,
            0.7851162847998421,
            0.6821313757658654,
            -0.5380212375311415,
            -0.16781844111503008,
            -0.5246309794270276,
            -0.38165687881376487,
            0.36905425813165715,
            -0.2163678231352073
        ],
        [
            0.78784223174282,
            -0.0015209761059176152,
            0.10102122587834983,
            -0.06769647390491107,
            0.9879144853765403,
            -0.19158471883319894,
            0.8755593301025482,
            0.17806605132684705,
            0.807694375284931,
            -0.33561784038630216
        ],
        [
            -0.5293211760332135,
            0.14083251269458796,
            0.21743430655717133,
            -0.612710689695829,
            -0.020382627757860483,
            0.18464665885132736,
            -0.873704371298776,
            0.9042603054738254,
            -0.8638969725049084,
            0.4731104941755597
        ]
    ],
    "biasesOne": [
        0.8757939352035715,
        -0.3982957804381586,
        -0.8076864743103382,
        0.9394006843885923,
        0.4424647842321765,
        -0.04862531064079234,
        -0.5002967271828673,
        0.5738698351727698,
        0.12882460538237295,
        -0.0385599795072884
    ],
    "weightsTwo": [
        [
            -0.4559118349078408,
            -0.8914682791647648,
            0.3405792663113216,
            -0.1528702184702817,
            -0.9145563646233077,
            0.08331982890291578,
            0.24362375481705967,
            -0.5638091012673843,
            -0.13247622397182335,
            0.6937466595935569
        ],
        [
            0.6352244624480305,
            0.7291705322465318,
            -0.5238939725136786,
            -0.2722162207367307,
            -0.12454108514323159,
            0.5305535486176025,
            -0.8895491585322515,
            0.2588298335769721,
            0.49544184870666097,
            0.3778496479551865
        ],
        [
            -0.3325682166305477,
            -0.7599145103653313,
            -0.436578786219211,
            -0.016749541798027012,
            -0.5797490461326509,
            -0.9935858124043497,
            0.6767522699889295,
            -0.18299820917943244,
            -0.2717117968888372,
            0.4455938180672243
        ],
        [
            -0.8381920477611973,
            0.1740597040844114,
            -0.7522088801558584,
            -0.5168836093656235,
            -0.7963726339675867,
            0.40301475432976464,
            -0.4870695539127037,
            -0.27829815154552695,
            0.10535043411623435,
            0.31284316286165925
        ],
        [
            -0.023264972648128435,
            -0.8062778502615016,
            -0.6620279255273198,
            0.10523389334643651,
            0.5235613189677328,
            0.2058120811503268,
            0.46775274721844773,
            0.3895432004885542,
            0.38794816622338835,
            0.7308394235425628
        ],
        [
            0.8158718655385555,
            0.6469886227656452,
            0.9294957946852569,
            0.7555671139892461,
            0.5540876215745061,
            -0.10490596659918228,
            0.37835954775644565,
            0.41622141175044036,
            0.8341265925103714,
            0.5502724709730022
        ],
        [
            0.3775526674584291,
            -0.5113276480574587,
            0.5687991663047469,
            0.5629903354685197,
            -0.4644490487999584,
            0.5480862329944745,
            -0.6349119315614398,
            0.13943608352123382,
            -0.8776686132635121,
            -0.3989964770652672
        ]
    ],
    "biasesTwo": [
        0.06064400471854414,
        0.14916990291367926,
        -0.8549035415858841,
        0.9742226337315312,
        -0.4037525173289267,
        -0.8948112538589399,
        0.9768791073805339
    ],
    "weightsThree": [
        [
            -0.8642985669243961,
            -0.39136384215996034,
            -0.8471134827256777,
            -0.8095080597260162,
            -0.0059757162932891905,
            0.4870649146084711,
            -0.4890028339526413
        ],
        [
            -0.395467843295882,
            0.925712997894784,
            -0.3717343877554389,
            0.3277362578980876,
            -0.4725593707270741,
            0.6703462706842871,
            -0.41018468146112474
        ],
        [
            -0.4469003552979307,
            -0.04302296008382811,
            -0.9778959160464513,
            -0.7337188162507939,
            -0.24798920626198817,
            -0.2484353214395889,
            -0.22562697192756254
        ],
        [
            -0.7713814859923787,
            0.6508396850950864,
            0.1863135941863452,
            0.9912488470020855,
            -0.45583129831755387,
            -0.6669749650057566,
            -0.635900497448074
        ],
        [
            -0.18211693046069777,
            0.2107765021239949,
            -0.6586720442288747,
            -0.5532003800863559,
            0.26300485401131324,
            -0.8335951592964823,
            0.9451486838764012
        ]
    ],
    "biasesThree": [
        -0.6323209254330775,
        -0.7603763301397732,
        -0.5169432038720796,
        0.7246008691792176,
        0.08959909260131971
    ],
    "weightsFour": [
        [
            0.507451478243226,
            0.8133760249774826,
            -0.6143321269685424,
            0.9921926610757585,
            -0.756060779454363
        ],
        [
            0.22660499403943435,
            -0.15761151028124365,
            -0.07238789057175121,
            -0.4061894905926704,
            0.3835932785559708
        ],
        [
            0.7738335078247749,
            0.1853297213970011,
            0.04477238399696182,
            0.26350794062056604,
            0.7912388764185792
        ]
    ],
    "biasesFour": [
        -0.7509139211481444,
        -0.7407010411739599,
        -0.4528561585506312
    ],
    "weightsFive": [
        [
            0.11424617849714913,
            0.20161565190330255,
            0.7329204669923506
        ],
        [
            -0.2848861310933619,
            0.8325138440191306,
            0.5568162152093354
        ]
    ],
    "biasesFive": [
        0.840278302228445,
        -0.010776449774914099
    ],
    "fitnessValue": 0
}