{
    "weightsOne": [
        [
            -0.17817091240443328,
            0.9136644528680409,
            -0.0979654766677589,
            -0.17274062124360134,
            0.052380540422146016,
            -0.14080092628055207,
            -0.8617152871052158,
            0.7397915532799852,
            0.816247219277801,
            0.025625602956810045
        ],
        [
            -0.0438380072205693,
            -0.7405422794009109,
            -0.6175124059619101,
            -0.10006141541905023,
            0.6836265166565345,
            0.22306316723117514,
            -0.6572285175546977,
            0.19971769582742538,
            0.2528969058628734,
            0.11634332523865165
        ],
        [
            -0.29215446537261314,
            0.23386048753701294,
            0.3916208726978754,
            -0.9723152349286242,
            0.7669379710599717,
            -0.9543474755389854,
            0.46837622877759766,
            -0.19061773594700493,
            0.9990268858079867,
            0.24390485583408572
        ],
        [
            -0.4262475806902162,
            -0.7500170997139406,
            -0.5502863369576017,
            -0.5715600540067569,
            0.2282427327570964,
            0.9981966515455318,
            0.36380711721293446,
            0.07876467512851781,
            -0.9232982676774872,
            -0.8596403428024171
        ],
        [
            -0.1185527544106757,
            0.17264709162858383,
            -0.6147237658098961,
            -0.95393354625755,
            -0.10590463777032899,
            -0.3088892307807649,
            -0.9960377548076398,
            -0.8932301313773854,
            -0.8528688205442421,
            -0.85056081236719
        ],
        [
            0.968252559856138,
            -0.5962771677714382,
            0.6765749049455072,
            0.22936451766494548,
            -0.2422376740907659,
            0.11948682663403853,
            -0.2762612349373168,
            0.5350965662518277,
            0.5740305105641648,
            -0.5699189283170429
        ],
        [
            0.422800566640108,
            -0.41457989339771406,
            -0.656033993620291,
            0.7305118863823501,
            0.696786991124883,
            -0.5714029722130367,
            -0.8689725430328707,
            0.3360168055232997,
            0.3856421543889481,
            -0.12469249311322406
        ],
        [
            -0.6701178339815499,
            -0.24716855575552632,
            0.9225012225675051,
            0.41685800666485706,
            -0.26421680320943786,
            0.20407354445036163,
            0.07262404475784856,
            -0.263349982227451,
            -0.9616458668867203,
            0.49374281642736406
        ],
        [
            -0.3799254348481036,
            0.4547196242989049,
            0.5555858813299834,
            -0.39224777674351285,
            -0.7079467414497882,
            -0.49707609707268974,
            0.07262287343761797,
            -0.39292719490548045,
            0.42348177070664583,
            0.6860465468400547
        ],
        [
            0.7136734658063613,
            -0.9007159699626279,
            -0.8882076779443349,
            -0.9594239628881005,
            0.9273558365432077,
            0.9575797235832131,
            -0.9674630336054131,
            0.9452462361869542,
            -0.6738659887332508,
            -0.7018560787776111
        ]
    ],
    "biasesOne": [
        0.662489647427364,
        0.3701666063969895,
        -0.9928677427467354,
        0.3431070696070435,
        0.7886678368632627,
        -0.6874707905561241,
        0.710554924753886,
        -0.8123514153681488,
        0.7181823919423602,
        -0.9406434458907678
    ],
    "weightsTwo": [
        [
            0.3314713839274588,
            -0.3377111721245061,
            0.4025517860610146,
            -0.5814424443122737,
            -0.228037117971861,
            0.6691522036432358,
            -0.30671254635432366,
            0.5835417445351907,
            0.9641974660495605,
            -0.4897594992188068
        ],
        [
            0.2653000305867368,
            0.916225985596774,
            -0.5628628018809811,
            -0.046463291379631455,
            0.9237194239290643,
            0.28057649041820554,
            -0.14759355403005125,
            0.7970919809074308,
            0.08246907973093243,
            -0.35047236044978813
        ],
        [
            -0.5752683052167908,
            0.9028861441140787,
            -0.21594270989837216,
            0.3611225620584919,
            0.6104945050175725,
            0.4381273474805292,
            -0.533393616322525,
            0.39365808714860595,
            0.9269915282662498,
            -0.7757454707659128
        ],
        [
            -0.5731580440504382,
            -0.2859399442612127,
            0.6604295282294275,
            0.32237736598693667,
            0.8847007644246607,
            0.5144614935973719,
            0.684376532558979,
            -0.05864058454280996,
            -0.6370222903725578,
            -0.7868037414723128
        ],
        [
            0.7718123295991111,
            0.7418086317601094,
            -0.926409689945298,
            0.7150480324420545,
            -0.8151079510129242,
            -0.7603873887235191,
            0.46124779149355843,
            -0.544916372771828,
            -0.9386366012470262,
            -0.681224088184395
        ],
        [
            -0.613090203056208,
            0.0451036185531446,
            -0.9333018874017094,
            -0.28013562314097906,
            -0.2055987561046222,
            -0.20202612821644994,
            0.8785928107673793,
            -0.13592860485050307,
            -0.018585933797917065,
            0.7450792912997222
        ],
        [
            -0.40851221417333283,
            -0.12148833187301733,
            -0.7280097180722738,
            -0.6222526040618488,
            -0.6570296564575873,
            0.5375820069239579,
            0.1072730425600592,
            0.7559517740248884,
            -0.8157075135695604,
            0.9524721938146876
        ]
    ],
    "biasesTwo": [
        -0.16517439612410567,
        -0.8943273565669558,
        0.6502461924934277,
        0.23877195683036812,
        0.21954444538101847,
        0.43419796605403227,
        0.1969782864594085
    ],
    "weightsThree": [
        [
            -0.5312434496956608,
            -0.7906756798721573,
            -0.7741249609917549,
            -0.33350150768331677,
            -0.4665250061403141,
            -0.4608345278062709,
            0.018849593907235507
        ],
        [
            -0.165311508319975,
            -0.6087623925755916,
            -0.9253395617514335,
            0.07853584512046763,
            0.17358171742050899,
            0.8967936387293569,
            -0.033590654222377614
        ],
        [
            -0.27324640777794595,
            0.5409762475335058,
            0.06936440048068238,
            0.4732132129921933,
            -0.2662888996148225,
            -0.04612518208101002,
            0.13273416604867116
        ],
        [
            -0.38291657888097497,
            -0.8656464471494296,
            -0.30118394982850893,
            0.2521811248209669,
            -0.4908119942069662,
            0.12569133281310996,
            -0.5524494823540811
        ],
        [
            -0.9879248011323944,
            -0.92824425305539,
            0.287786866996776,
            -0.498245756792683,
            0.2826077488821026,
            -0.27888487888281266,
            0.029265556120009473
        ]
    ],
    "biasesThree": [
        0.3272651050566393,
        0.36010056373779453,
        0.11815725131487276,
        -0.3997680694812211,
        0.673861312035914
    ],
    "weightsFour": [
        [
            -0.5227652607413582,
            -0.5798164272738633,
            -0.7103673544788298,
            -0.12599770786358344,
            -0.5684815764381437
        ],
        [
            0.25540648755097384,
            -0.3656248901013648,
            -0.33085590636821616,
            0.28024601169999475,
            -0.4254407906905284
        ],
        [
            -0.16648683088933436,
            -0.409994275678776,
            0.07758642871640165,
            -0.037616363086677485,
            -0.7524837744542712
        ]
    ],
    "biasesFour": [
        -0.9023636907058596,
        0.31073593852491554,
        -0.2605777131743263
    ],
    "weightsFive": [
        [
            0.009172542208105039,
            0.7032420555774899,
            -0.10627114658820291
        ],
        [
            -0.19080148446776257,
            0.8417134736969962,
            -0.8908272559032919
        ]
    ],
    "biasesFive": [
        -0.12271688323809671,
        0.4862028525414728
    ],
    "fitnessValue": 0
}