{
    "weightsOne": [
        [
            -0.8457561045224262,
            0.7764183750212104,
            0.7505300329835813,
            -0.9126253303956962,
            0.583919123077201,
            -0.6446090641177744,
            -0.08994200874557778,
            -0.9400366546946306,
            0.9815661594156408,
            -0.977721766651034
        ],
        [
            0.17672722676452346,
            -0.2504558302626807,
            -0.3787259531941216,
            0.878649704237872,
            -0.5701053879713178,
            -0.2850023872032803,
            -0.9520423175080273,
            0.7474121923997554,
            0.8786156150918707,
            -0.18848606453535077
        ],
        [
            -0.32008084898237366,
            -0.58856957427981,
            -0.3554510721173374,
            0.5949063085465067,
            -0.26892461177134175,
            0.9261855300379378,
            -0.8712822352150076,
            0.10490649763112758,
            -0.4780714279077707,
            0.2056495421951927
        ],
        [
            -0.011911209571825232,
            -0.598649806433319,
            0.12397697258048868,
            -0.557434558596156,
            -0.7211215762890602,
            -0.8467177670204049,
            0.6037060832379828,
            -0.4692643790584641,
            0.884790696967714,
            -0.6761327011047613
        ],
        [
            0.38083206493297084,
            -0.1981798087289428,
            0.18834192350504542,
            -0.7919873107767403,
            -0.09315551805309696,
            -0.7827678420096833,
            0.8093254509224335,
            -0.8873077293622089,
            0.02335718834942635,
            -0.9734076092161694
        ],
        [
            -0.6192149283157271,
            -0.2749234652010566,
            0.4725331858808035,
            0.6305877256132411,
            -0.757500309331218,
            -0.09136927074960388,
            0.09334515460348003,
            0.581089901049078,
            -0.5824903744994259,
            -0.6059808200298613
        ],
        [
            -0.15948502251282926,
            -0.6554127935389185,
            0.9818131136741917,
            -0.27679393774354066,
            -0.0931276705935482,
            -0.1954245188339625,
            0.15534430305099178,
            -0.0030983455645614555,
            0.0838421772810447,
            -0.18461182308737945
        ],
        [
            -0.07477311832776956,
            0.2882379732704907,
            -0.5124157911570402,
            0.8172059375465675,
            -0.9059602264050095,
            -0.580120151055679,
            0.6686013693491186,
            0.6287694259729764,
            0.0881006496829615,
            0.9796558088241387
        ],
        [
            -0.14481268649873003,
            0.1847131892054681,
            -0.8557143068822837,
            -0.03421724105928048,
            0.3061281366377322,
            -0.5902825103307905,
            0.2979388285615483,
            0.5282815854774572,
            0.3175493635097506,
            -0.9796808556127405
        ],
        [
            0.01489156610079001,
            0.9799931829911923,
            -0.7690281243693808,
            -0.2821346144186019,
            -0.42463136073149443,
            -0.8881974858560442,
            0.4212142872910416,
            0.9045693467050677,
            0.7227941453602513,
            -0.22798351551586404
        ]
    ],
    "biasesOne": [
        0.295672583459913,
        -0.9164031926375806,
        0.5260663187331847,
        -0.9140670705875611,
        -0.6111234670395767,
        -0.9586089067970218,
        -0.7400702701915691,
        0.2913291665658029,
        -0.758479962930181,
        -0.6744171156682754
    ],
    "weightsTwo": [
        [
            0.051601235229193465,
            0.2291205180260223,
            -0.520852403434114,
            -0.16533710098740295,
            -0.8271435478779063,
            -0.19607368548198312,
            0.8223711111223007,
            0.615539306262509,
            -0.9270287118839986,
            -0.5442914274458717
        ],
        [
            0.6791418307102786,
            -0.6249511214073056,
            -0.5478484946467137,
            -0.014986057923566332,
            -0.4359086532492391,
            -0.2589651392475272,
            -0.4318136106872117,
            -0.5457331583670944,
            0.8254909619939728,
            -0.2678849613511616
        ],
        [
            0.059908112609294406,
            -0.5892997551143033,
            -0.46650056721264277,
            0.5000883044158133,
            -0.20038469292229588,
            0.5150018543162247,
            -0.4719636179981952,
            0.3203080444009401,
            0.8370473434363894,
            -0.716470075354984
        ],
        [
            -0.8136124248350707,
            0.27284293860638176,
            0.9653587424255161,
            -0.0695869531736526,
            0.05646395111940494,
            0.31955750036176034,
            0.9585895710002827,
            -0.023340906964685715,
            0.9300653686851859,
            -0.5489668160028285
        ],
        [
            -0.503240411643193,
            -0.24006545494912435,
            -0.7200461727516556,
            0.7476122644644592,
            -0.9550655065062925,
            -0.46879296240886936,
            0.5356711940764678,
            0.43844305999600164,
            -0.4229832778618343,
            0.2803150573122244
        ],
        [
            -0.5682119349075496,
            -0.2661663128441698,
            -0.3379069298134776,
            -0.8934255352404374,
            -0.6580908957319049,
            -0.09640925570712544,
            -0.3942707723566272,
            -0.33606483481295757,
            0.0056365221301770685,
            -0.2737409792555128
        ],
        [
            0.3854869681900941,
            0.4010764277022054,
            0.09788684163030426,
            -0.905259076385456,
            -0.16902259666388764,
            -0.27060916665046686,
            0.3430746063246859,
            -0.7851295562771388,
            0.3089927678661888,
            -0.36985657655304394
        ]
    ],
    "biasesTwo": [
        -0.8819710150509803,
        0.04106803775821111,
        -0.8802879843071865,
        0.1688195988145158,
        0.4771989461026025,
        -0.1664564447774448,
        0.4151209279059491
    ],
    "weightsThree": [
        [
            -0.14641644106541563,
            0.5821268141484348,
            -0.9641872405520289,
            -0.6779577987540726,
            0.4559223694086878,
            0.6779015464687437,
            0.3132589777163717
        ],
        [
            -0.06714745934457089,
            -0.21557727925228365,
            -0.11174153727690017,
            -0.9752051678973546,
            -0.9429426628301367,
            -0.5419897397272271,
            0.07243286151723072
        ],
        [
            -0.18542045357445036,
            -0.9951305699991482,
            -0.07737961534854931,
            0.8569708470479076,
            -0.7712101763414139,
            0.35714765946829186,
            0.8311785261268763
        ],
        [
            -0.7761913520511499,
            -0.9340674246132212,
            -0.7309563751110548,
            0.898306407184037,
            0.9944100662804931,
            -0.9328249235997186,
            0.5776129861682011
        ],
        [
            -0.771241832167398,
            -0.1397457872419421,
            -0.2965044208236851,
            0.9720073888528524,
            -0.8801531073855136,
            0.22449205672210093,
            -0.01098746926869465
        ]
    ],
    "biasesThree": [
        -0.8951909045937538,
        -0.6924319826279963,
        -0.2771970091807563,
        -0.09053224547823757,
        -0.7653361200329452
    ],
    "weightsFour": [
        [
            0.4176409431174666,
            0.4957519628506395,
            0.5505540171265308,
            0.37781328199002373,
            -0.17148152732678001
        ],
        [
            -0.6464727510702806,
            -0.35225221100271975,
            -0.7897194545705211,
            -0.7013012861277752,
            -0.09936562243053149
        ],
        [
            0.049527921765329275,
            -0.38833900475131045,
            -0.6717688960945947,
            0.29294218038146247,
            0.7117994021209895
        ]
    ],
    "biasesFour": [
        -0.8576013176677868,
        -0.4972207046169317,
        0.37657643382032924
    ],
    "weightsFive": [
        [
            -0.7675323230452256,
            -0.8366982713110109,
            -0.3414953658932445
        ],
        [
            -0.32754233908754804,
            0.4685213767658645,
            -0.039677021864676476
        ]
    ],
    "biasesFive": [
        -0.022348711220663287,
        -0.6807993925442999
    ],
    "fitnessValue": 0
}