{
    "weightsOne": [
        [
            -0.7068999936356966,
            0.9151668506531954,
            -0.9918697263415657,
            0.8715346060753624,
            0.3829532422328288,
            -0.9734954130751083,
            0.9133109909448889,
            -0.8262611270268072,
            -0.774454899616281,
            -0.5623943474016673
        ],
        [
            -0.0728018305711815,
            0.45666402583355525,
            -0.9132148793197687,
            0.043877496748723877,
            0.9111443899628748,
            -0.7002593353078581,
            0.30042676318805017,
            0.865178076862438,
            -0.6561776741964693,
            0.8533535691356493
        ],
        [
            0.9435591623061681,
            0.7479850676683235,
            0.5148173170993919,
            0.34311535012245087,
            -0.45009106672826693,
            0.9453377582818012,
            0.9631713630560383,
            0.2731534164198284,
            -0.27034200584193546,
            0.23128580959411127
        ],
        [
            0.9737632620155587,
            -0.5497475065902522,
            -0.3173135385170456,
            0.000969311109990656,
            0.3519266120940856,
            -0.6171208465233529,
            0.37849429749597263,
            0.7021987069287414,
            -0.4033173850120142,
            0.31995377910069944
        ],
        [
            -0.6413463780564865,
            -0.14816006929929615,
            -0.7514793284599899,
            0.28780873582414523,
            -0.1930594240528769,
            -0.3661350563199326,
            0.8039588373275597,
            0.32229148960498444,
            -0.09151329097334049,
            0.5714468923543488
        ],
        [
            -0.724574416946983,
            -0.5162330146470322,
            0.9832641760377938,
            -0.41122789913333024,
            -0.8910464631390569,
            -0.9043916307737816,
            -0.7926033298317106,
            0.7834638314738993,
            -0.0515200408447658,
            0.10004999502183765
        ],
        [
            0.2378866096295118,
            -0.048054626047497884,
            -0.8806970981363837,
            -0.2801447264386949,
            0.020634721198856676,
            0.06624289826282381,
            -0.7797471466973702,
            0.11805354642162946,
            -0.2503672681259186,
            0.22287342373744412
        ],
        [
            -0.9149268323265125,
            0.7306804453163831,
            -0.1647434055374255,
            -0.966330974371487,
            -0.012475262818709476,
            0.46685296225936934,
            0.762700638969972,
            -0.6094621042571731,
            0.4640965294625494,
            -0.23909913777758773
        ],
        [
            -0.9695797059553153,
            -0.37878167305029264,
            -0.31753967957185925,
            0.10046705795657584,
            0.7566838661080075,
            -0.38691864764992334,
            -0.589559489570685,
            0.5021483006114527,
            -0.23798356639646712,
            0.49011726531297195
        ],
        [
            0.9250281319838671,
            0.0398375434664342,
            0.04442893549481952,
            -0.7860224142417307,
            0.3043605922738537,
            -0.57042896684893,
            -0.05620088881985952,
            0.007333708617419443,
            0.7058822702653111,
            0.2471884278987475
        ]
    ],
    "biasesOne": [
        -0.75325894379821,
        -0.5384389312685609,
        0.138419454596584,
        -0.08824056031163363,
        -0.9884365716212145,
        0.9510726389815032,
        0.26607184526074357,
        -0.6854314843787592,
        0.6340102056729913,
        -0.8879674617883802
    ],
    "weightsTwo": [
        [
            -0.32322342574225216,
            0.08385851338317551,
            -0.9337216784807743,
            -0.6288441853169258,
            -0.17239933168761445,
            -0.3413581560068315,
            -0.5146442293900417,
            -0.2285926657893924,
            0.08893093219271364,
            0.3272063538269283
        ],
        [
            -0.594893633359628,
            -0.16796983882148053,
            0.8896004612702779,
            0.20521436967990003,
            -0.5484414134238162,
            -0.5612058179310215,
            -0.002781576001112507,
            -0.8912635900632029,
            -0.8081473456729036,
            0.5614963753714519
        ],
        [
            0.9661677172676406,
            -0.45945498994331824,
            -0.9302939408702233,
            0.03928483500831681,
            -0.3800313607556074,
            -0.749425444836695,
            -0.09099238211692029,
            0.9695889385481244,
            -0.6975695610787149,
            -0.9511259685653444
        ],
        [
            0.6380422611580814,
            -0.5902592905892854,
            0.860984231121992,
            -0.6603663412624707,
            0.393030864681835,
            0.013205752057585896,
            0.9970709360548324,
            -0.7221653224551947,
            -0.8081445173259991,
            0.8795023619077538
        ],
        [
            -0.3195371406437597,
            -0.8590278054360498,
            0.28771391540857594,
            -0.24657282758293264,
            0.15185137575189,
            0.33406164155273443,
            0.6425531259534298,
            -0.7981530145150213,
            -0.928028899363913,
            0.184863808833851
        ],
        [
            -0.30902009625554694,
            -0.6882484288378874,
            -0.5551238950323794,
            0.7484958463722038,
            -0.9164519601264316,
            0.044852617602077816,
            -0.7782857672600512,
            -0.7158301988155413,
            0.2155977486092655,
            -0.3233841891136786
        ],
        [
            -0.8397368481569194,
            -0.7370571359419922,
            -0.3800904370811782,
            0.846292067782018,
            -0.8135077002071298,
            -0.32893866773630354,
            0.3400899830056521,
            -0.05868401989504379,
            0.11099532088365427,
            0.2982497986699564
        ]
    ],
    "biasesTwo": [
        0.010548115164992211,
        -0.03647791065886308,
        -0.41648690720635617,
        -0.9619748694503836,
        -0.020644571934179012,
        -0.42091574002546417,
        0.6002165360606908
    ],
    "weightsThree": [
        [
            0.46326324265296326,
            -0.19681687482892762,
            -0.5644495938290708,
            0.7962241647284607,
            0.4605220214109633,
            0.29658464026014264,
            0.5009995323048348
        ],
        [
            -0.7238690356225623,
            -0.9442930949880561,
            0.6693376310555745,
            -0.8286421618538446,
            -0.6937077256383235,
            -0.12083244693705875,
            -0.44057401849687094
        ],
        [
            -0.7148737321180232,
            -0.9245788483224076,
            -0.26913945486584834,
            0.8068965245572257,
            0.9391603115109257,
            0.2959579683867106,
            -0.05243470477120882
        ],
        [
            0.8974933073690656,
            0.15390366992130522,
            0.28965345019947586,
            0.5148906756994236,
            0.03850367678781508,
            0.821162386177668,
            -0.5795556589525863
        ],
        [
            -0.8612172840953458,
            -0.0460790223994092,
            0.4626287704186305,
            -0.8160990927737224,
            0.6954070518225293,
            0.20888534131892422,
            -0.9859770571249713
        ]
    ],
    "biasesThree": [
        -0.9758360037869478,
        -0.5639396732718553,
        -0.35876783044460003,
        -0.5363592943382021,
        -0.8293231222940511
    ],
    "weightsFour": [
        [
            0.6891613558370642,
            0.3482139954467871,
            -0.17498372219062408,
            0.12419648599405608,
            -0.8866018431461897
        ],
        [
            0.18529122127026065,
            0.18208008549975307,
            0.812172032330464,
            -0.34709470844348567,
            -0.8035505817765598
        ],
        [
            -0.8377043241325146,
            0.8543539675245091,
            0.013362460701642265,
            -0.25803479873108337,
            0.5380388736222339
        ]
    ],
    "biasesFour": [
        -0.6204273186116545,
        0.5749047659022322,
        -0.3134626104012781
    ],
    "weightsFive": [
        [
            -0.6808021864308604,
            0.6945316149072092,
            0.006762327447200178
        ],
        [
            0.9121755873376292,
            -0.3597667933219246,
            0.45227811653433325
        ]
    ],
    "biasesFive": [
        0.08997066520808827,
        -0.7949185422964391
    ],
    "fitnessValue": 1.8339160558151002
}