{
    "weightsOne": [
        [
            -0.5635675552108632,
            -0.031632011045916286,
            0.14868447597647605,
            -0.13506280524071834,
            0.5688661801300945,
            -0.927798193727094,
            -0.30054295864508807,
            0.8782664289072375,
            -0.21029103276106853,
            0.9442071569156285
        ],
        [
            0.21642471446246114,
            -0.7292018652116992,
            -0.2678924072267028,
            -0.5502141323912113,
            -0.8410962995397093,
            0.23041603823655743,
            -0.8397628756899294,
            -0.5719171307606752,
            -0.6654694339784022,
            -0.8660957392501818
        ],
        [
            0.6684297105997545,
            -0.06251936582232553,
            0.4621886142541445,
            -0.9959879901281965,
            0.9615434265060767,
            -0.24250727511662062,
            0.853937226726974,
            -0.9896947946122936,
            -0.34250137939654945,
            -0.3099882514199954
        ],
        [
            0.3878225076776245,
            -0.9482649299457295,
            -0.43521801812011596,
            0.04102494835765125,
            0.41903839603000326,
            0.6810508387190546,
            0.6046952523945952,
            -0.5928560313010041,
            -0.18285732378546782,
            -0.9599429118257683
        ],
        [
            -0.41592860522054553,
            0.17235055340683925,
            -0.27744100271254135,
            0.5415579603164984,
            -0.7871816624869754,
            -0.0895337515826935,
            -0.759078891352329,
            -0.897485845392763,
            -0.6486686431330402,
            0.633916885215059
        ],
        [
            -0.9557904922818703,
            -0.9802252440304502,
            0.5432049515486326,
            -0.9923018400506349,
            0.30930334824865935,
            -0.9344931536634404,
            -0.6839274410252956,
            0.37911727029660414,
            -0.028811274385257768,
            -0.6307469394750584
        ],
        [
            -0.3594636630299093,
            -0.8223003170533962,
            -0.24217589805113837,
            0.10568427549547454,
            -0.731004030720068,
            0.5550440991411572,
            0.13287283366224223,
            -0.7599042709807711,
            0.6138061333831524,
            0.20031318958982958
        ],
        [
            0.8015889802666909,
            0.9183184353162408,
            0.29103862458103147,
            -0.7443932956324721,
            -0.9858729806761184,
            0.7168273426858798,
            -0.24296672809584985,
            0.42670495885055826,
            -0.1645834221462137,
            -0.9284919140244945
        ],
        [
            0.15583976972127833,
            -0.9357753099891561,
            0.47964365465555314,
            -0.36602860872948884,
            0.676974376556202,
            -0.8813776903955053,
            -0.2583668140799027,
            0.865509463497586,
            0.30129236500394163,
            0.20237550160273
        ],
        [
            0.5479559657664563,
            0.5180229881558274,
            0.24989746783718436,
            -0.7126923536862988,
            0.7321219990703285,
            -0.19563499222014769,
            0.637441221751889,
            0.6513317238580385,
            -0.4197406219382196,
            -0.10149071643449781
        ]
    ],
    "biasesOne": [
        -0.8333036615903353,
        -0.5843617047966434,
        0.4399588074619232,
        0.9654919437912628,
        -0.06960316096258912,
        0.5068279675823968,
        0.9058576045589353,
        -0.46560262378095674,
        0.4691571614733485,
        -0.5618076012293622
    ],
    "weightsTwo": [
        [
            0.5910949501081064,
            0.8976892304339035,
            0.4707503537753368,
            -0.24284433053366383,
            -0.5611304237901393,
            0.3606744096511394,
            -0.29355247103298665,
            0.4094712688487847,
            -0.9656836686285106,
            -0.8654002515388663
        ],
        [
            0.13225244555825566,
            -0.6433874513748057,
            0.08079234953801051,
            -0.06013115690208193,
            -0.1832329002738884,
            -0.03272453533478692,
            0.05693890173954075,
            0.7520960940616221,
            -0.2192548682398756,
            0.30114997095988927
        ],
        [
            0.6048390454712598,
            0.366102630655901,
            -0.9082004878658017,
            -0.8557907285344399,
            0.9124475967485166,
            0.3819226889694791,
            -0.9430182928602271,
            0.3071426912199775,
            -0.15968066950789472,
            -0.384577242873809
        ],
        [
            -0.23799417221387165,
            -0.5537775686421402,
            0.15323253621075628,
            0.033209075927030485,
            0.9170676067088814,
            0.43971612175708485,
            -0.3819893909218668,
            -0.3020347664851375,
            0.7766171183193493,
            0.9257519293472778
        ],
        [
            0.29516133018461965,
            -0.43135910742215144,
            -0.5453744051543608,
            0.6614022607322965,
            -0.5658873215241864,
            0.27486318130166465,
            0.1705360267784135,
            0.8295602393768295,
            -0.4442183404532585,
            0.6468989302217274
        ],
        [
            -0.7168811203422887,
            0.47548954695925083,
            -0.7137411084418925,
            -0.11259238836145169,
            -0.5746798816995666,
            0.960921496392076,
            -0.8588156283923638,
            0.31641092280722405,
            -0.40977806183440335,
            0.26429529628847437
        ],
        [
            0.5806366551338897,
            0.3707682462648625,
            0.7398216311883936,
            0.11139663184061299,
            0.07264513562222663,
            0.9378008677224263,
            0.04144087045936029,
            -0.14824415956811698,
            0.4670842514885891,
            -0.9548871912439256
        ]
    ],
    "biasesTwo": [
        -0.2867261501923186,
        -0.09182391295135317,
        -0.9700666540246865,
        -0.3759218746929496,
        0.607566354411941,
        0.5496872572327967,
        0.7359711207132209
    ],
    "weightsThree": [
        [
            -0.2649685263105386,
            -0.6877261122494169,
            -0.8033643161106074,
            0.019257386341921423,
            0.8248300389284857,
            0.4506028325141713,
            0.640420204015004
        ],
        [
            -0.1814412012575468,
            -0.6651394756032967,
            -0.23679496512032383,
            -0.7471198864511204,
            -0.6523801833146277,
            -0.7901242128801089,
            -0.7359965053338453
        ],
        [
            -0.7566004267435271,
            0.19214739669470204,
            -0.8147547400022939,
            0.971814912317766,
            0.2658887902536071,
            0.44788003638017204,
            -0.6877348962417404
        ],
        [
            0.8293226877297344,
            0.19592446881800485,
            0.36733762923744306,
            -0.001496756480803496,
            0.18676527214659888,
            0.1686102787781012,
            0.3555430493503602
        ],
        [
            0.39898863112970506,
            0.8600131243118789,
            0.037771365939689217,
            0.19499311153380106,
            0.09748540423022423,
            -0.28580852643778676,
            -0.3435168653534568
        ]
    ],
    "biasesThree": [
        0.5157114832683118,
        -0.7505657064111508,
        0.6784710724649976,
        -0.8495284154106577,
        0.8094882967129216
    ],
    "weightsFour": [
        [
            -0.493749664678341,
            -0.45121150789221454,
            -0.34443618339294835,
            0.4397093774751426,
            0.7024062832848745
        ],
        [
            0.1936629550163882,
            -0.017927496839202695,
            0.9459619969173334,
            0.5447205946112148,
            0.833650927256977
        ],
        [
            -0.1294090561033756,
            -0.6225021771815307,
            0.11209851288454775,
            0.3481894083278638,
            0.7688443780194403
        ]
    ],
    "biasesFour": [
        -0.01622740206254214,
        0.6014332606747173,
        -0.7896234973715492
    ],
    "weightsFive": [
        [
            0.4233471291277944,
            -0.8173310820372153,
            0.6062432492867285
        ],
        [
            0.8201783678048806,
            0.6240352694966913,
            -0.766360157810738
        ]
    ],
    "biasesFive": [
        -0.04700388584199211,
        -0.07746825799734669
    ],
    "fitnessValue": 0
}