{
    "weightsOne": [
        [
            0.6741747913910889,
            -0.4906114502548675,
            0.5556659048634742,
            -0.2670787449793959,
            -0.6941994407584686,
            -0.07209223271567144,
            0.7773535491472148,
            0.139233657026969,
            0.6370458203681686,
            -0.5420226295189259
        ],
        [
            -0.5981492503875858,
            -0.3307818887687912,
            -0.7695427605550271,
            0.9302697125246715,
            -0.2795307743856914,
            0.12507072764504024,
            0.8661636633132539,
            -0.13188307448568404,
            0.9262266226308127,
            -0.7600513732769232
        ],
        [
            -0.5086230394107865,
            0.033066207822668,
            -0.018499735337484724,
            -0.43550347105424647,
            0.8905070508358306,
            0.3727921542692332,
            0.45177473185438566,
            -0.8301180383671931,
            0.2623276621351456,
            0.8204418206778354
        ],
        [
            -0.9292883632602584,
            -0.7613190587314911,
            0.8867710737561401,
            -0.10185802233295416,
            -0.5556769219724349,
            0.0910978977354,
            0.11104429944612892,
            -0.10790082321876282,
            -0.2148555547966906,
            0.5208025738698236
        ],
        [
            0.0972830981603765,
            -0.7273744832057418,
            -0.42153426265876326,
            0.5810151085214337,
            -0.07651254950361053,
            0.7688739697517324,
            -0.41790172317982877,
            0.20435159960154614,
            0.9692516803299163,
            -0.10430681217697368
        ],
        [
            -0.5025846565183856,
            0.41395668391552976,
            -0.21269197833936038,
            0.03354841207747805,
            -0.3313485330736994,
            0.8076074904841846,
            -0.8793951168228313,
            0.3352627402290327,
            0.8741719236512124,
            -0.28208330807618043
        ],
        [
            -0.5280323423116593,
            -0.8289428740958831,
            0.5091488163996098,
            0.5219319678266097,
            -0.5145077078643325,
            0.6818018778595436,
            -0.4349138436698392,
            0.5531344233011897,
            -0.002761520520677685,
            -0.46278780719818924
        ],
        [
            0.8734402944420572,
            -0.3506785642801378,
            -0.11238424571551042,
            0.0751802460085711,
            -0.5335329865581939,
            -0.5656546236757474,
            0.237147896497508,
            0.6893351404738557,
            -0.20691046459064966,
            0.16514731890430112
        ],
        [
            -0.7728631917651474,
            -0.7326095156179888,
            0.29970082129566755,
            -0.22882181979282423,
            -0.7921448278049847,
            -0.07008777025019008,
            -0.3136991550409851,
            0.8798078211317852,
            -0.3500861845876966,
            0.7653248320850916
        ],
        [
            -0.37169721134623757,
            -0.0200422857836704,
            0.24618039031264338,
            -0.6004115921224102,
            -0.2908497220225845,
            -0.04427925315746317,
            -0.7155299205426349,
            -0.8992805473995225,
            0.7294838781574866,
            0.5848546024222179
        ]
    ],
    "biasesOne": [
        -0.1785385212763948,
        -0.33524526580134517,
        0.7085120528578064,
        0.15811177803665877,
        -0.1378048007283894,
        0.7694351898924949,
        -0.16533202393875546,
        0.8879065871989653,
        -0.6061656139876044,
        0.04340864579595061
    ],
    "weightsTwo": [
        [
            -0.2885861596866275,
            0.6019978371473904,
            -0.056515973406203734,
            0.48492449030053697,
            0.6962594483897515,
            -0.0707949882551191,
            0.40154367904892063,
            0.35401428257880996,
            -0.539619667833062,
            0.12282001145104449
        ],
        [
            0.9266681609037242,
            -0.41963020664425277,
            0.23063140972774399,
            -0.8450905918410412,
            0.6953932907994185,
            -0.7046510285823275,
            0.47956211897406065,
            -0.6209217255688266,
            0.3101898570647501,
            -0.7706494273447915
        ],
        [
            0.053687739812858126,
            0.21797652319362415,
            0.11667487639336027,
            -0.020599315143383867,
            0.12367086572657726,
            0.8364833801391587,
            -0.18000913534349627,
            -0.43354751126517943,
            0.08220571034252644,
            0.7994131734921344
        ],
        [
            0.44148494423198525,
            0.14778788957501843,
            -0.726273499678898,
            -0.14121081795775403,
            0.6761903804649863,
            -0.20743266887495238,
            -0.7392728579347785,
            0.36958631463088776,
            -0.9353652958904615,
            -0.08449428677314885
        ],
        [
            -0.4301645497488291,
            -0.6761802223208575,
            -0.3350005034552619,
            -0.2010905909020515,
            0.40507330001865616,
            0.19751040222036753,
            -0.6994899541874602,
            0.32796006522239907,
            0.42177411138212295,
            -0.9037929303913887
        ],
        [
            -0.7551724172447138,
            -0.8626134682076296,
            -0.16289814681687198,
            -0.40167845883205433,
            0.6891324493634083,
            0.5858633755505889,
            -0.6639549177251411,
            0.7991287233173723,
            0.6919099941382163,
            -0.879505574911889
        ],
        [
            -0.1459512599319046,
            -0.631127787742056,
            0.9010664435435678,
            -0.8810278550668844,
            0.623399493531626,
            -0.6183079938647909,
            0.7943881753062623,
            0.7127120317216926,
            0.6977488528656621,
            0.21788741124485256
        ]
    ],
    "biasesTwo": [
        0.39221989136204005,
        -0.1679117976322264,
        0.13746478835058995,
        0.08689627469642369,
        -0.09595811915281827,
        0.00467629490048127,
        -0.39943118720476756
    ],
    "weightsThree": [
        [
            0.6507004548534852,
            -0.7081988820457805,
            -0.023713060025803534,
            -0.3986455512682989,
            -0.21671664696917747,
            0.4513242059537155,
            0.7061065863679179
        ],
        [
            0.04594100882350771,
            0.6107537977661173,
            0.36647178213157794,
            -0.15147174894828908,
            -0.33639391863291124,
            0.8755212409102073,
            0.6869709193761053
        ],
        [
            0.20775667712147583,
            -0.396824555145328,
            0.024369062729531876,
            -0.7616579220680306,
            0.7134556679886712,
            -0.5419540565589012,
            0.8425042817995121
        ],
        [
            0.6283907413865604,
            -0.8364336122027354,
            0.5057754933647942,
            -0.39636178677797096,
            0.7056796028108385,
            0.6191045501496502,
            -0.9879232291621405
        ],
        [
            0.045262126878301556,
            0.9409126310917004,
            0.6777796224516668,
            0.4277761409780645,
            -0.10357631411122026,
            0.841574820820445,
            0.3191598930261763
        ]
    ],
    "biasesThree": [
        -0.9237151800550762,
        -0.974318565986882,
        0.9411397038336458,
        0.6459913871942591,
        0.08664363012336307
    ],
    "weightsFour": [
        [
            0.19169770238381867,
            0.15504987853062646,
            -0.9306504750455842,
            -0.580171216048224,
            0.715199454161038
        ],
        [
            -0.9836215164275517,
            0.25378866721963544,
            0.5523905300205751,
            0.9720732444527806,
            0.9840107132016664
        ],
        [
            0.8356680585805927,
            -0.5776873980036132,
            -0.06995626685821765,
            -0.18997007108576658,
            -0.294914378343647
        ]
    ],
    "biasesFour": [
        -0.45260334806110136,
        0.42977422480635297,
        0.15847874010068663
    ],
    "weightsFive": [
        [
            -0.513778271336149,
            0.6593684935429822,
            0.691263564697
        ],
        [
            -0.46876505476269403,
            -0.3086765672230327,
            -0.8961950775961403
        ]
    ],
    "biasesFive": [
        0.7027705626359046,
        -0.16023849321465167
    ],
    "fitnessValue": 46.592806538824625
}