{
    "weightsOne": [
        [
            0.36203038772963825,
            0.23914193262360262,
            0.41856934913114086,
            0.7911475815555618,
            -0.3219650562088119,
            0.9250041072968211,
            -0.8883507556716959,
            0.5485947230249488,
            -0.2538648592031718,
            -0.430103574280877
        ],
        [
            0.7002240471406904,
            -0.5160452701355205,
            -0.4468894645474166,
            -0.5299562931341666,
            -0.5063143507040835,
            0.07156108091117641,
            -0.3363901962673501,
            -0.24814692525783766,
            -0.291733403708875,
            -0.19074979680783288
        ],
        [
            0.4807434901507217,
            0.738657076822484,
            0.8185475693763444,
            0.034083707861899626,
            -0.43555096267977134,
            -0.8399897987150062,
            0.1367528333316581,
            -0.775350672294544,
            0.31411927596889844,
            -0.8272625737312758
        ],
        [
            0.5165589346538351,
            -0.2426731595900975,
            0.9101645162120793,
            0.5190093803027294,
            0.036284787950652264,
            0.28082709658881444,
            -0.3027570280672569,
            0.18867030236651727,
            0.6767827900626469,
            0.2825454815889765
        ],
        [
            0.3625807176327953,
            -0.03763389465820732,
            -0.6982715119473741,
            0.0037215828409427054,
            -0.08467530379252253,
            0.9396517394753345,
            0.40137144521153756,
            -0.4274675148842293,
            0.2504343825366113,
            0.7710009810640011
        ],
        [
            -0.896578696876793,
            -0.5168904614215581,
            -0.6536378061726085,
            0.9681442488225225,
            0.7409959210178738,
            0.5582224061314962,
            0.8819289456122825,
            0.5887816463238624,
            -0.5351051415563228,
            -0.8197618854186237
        ],
        [
            -0.24281008732421627,
            0.9161540906554182,
            0.8813515378078121,
            0.4426998901645751,
            -0.142035175690578,
            -0.6550295404129147,
            -0.9877355248080109,
            0.8797610542857188,
            -0.6085387784030842,
            0.0419710862599163
        ],
        [
            0.6235625535785532,
            0.0251793986135731,
            0.8913624833655234,
            -0.5109752288973415,
            -0.7410244586438783,
            0.9315945934655965,
            0.7411934850338988,
            -0.6283117428280631,
            0.036475329991606076,
            -0.25713794931833434
        ],
        [
            0.407429195591519,
            -0.03297840202439528,
            -0.09854290519046116,
            -0.6930256058949384,
            0.0014462320466264167,
            -0.16637535826682415,
            -0.8357727825870118,
            -0.5896535492689079,
            -0.027418108261812124,
            -0.0846175977729966
        ],
        [
            0.571129337257706,
            -0.1085447957903829,
            -0.45615679351594274,
            -0.6414601305437104,
            0.024504882451988674,
            -0.56033175941043,
            -0.012551313167734168,
            -0.8768491178752544,
            -0.29908011820154656,
            0.5063465207878373
        ]
    ],
    "biasesOne": [
        -0.6889711166145478,
        -0.9919758157228726,
        0.11113689105802482,
        0.6912928280465465,
        0.6248745250085324,
        0.35632030456256003,
        -0.16523191145814664,
        -0.6878442887712759,
        -0.00973452285617138,
        -0.1633044627710274
    ],
    "weightsTwo": [
        [
            0.6207450706619604,
            0.7601269079397535,
            0.586112066755339,
            -0.10738643910743995,
            0.9242963446947086,
            0.7008598730252795,
            -0.20001540719015498,
            -0.9528562678221102,
            0.6165069322607415,
            0.3202903282967613
        ],
        [
            -0.6514780235917981,
            -0.001961228746184096,
            0.5900712393900598,
            -0.8389192820609783,
            -0.2728395421379941,
            0.4623180171679657,
            0.2542368729956379,
            0.6421798185509271,
            -0.7627164633384809,
            0.8536871854442865
        ],
        [
            -0.5390948260608917,
            -0.24973265746455442,
            -0.07873541785166083,
            -0.0699918194450162,
            0.025464952862089607,
            0.4320704222612193,
            -0.9758553894349822,
            0.983365961103613,
            0.4365650857649084,
            0.49733828614312703
        ],
        [
            0.7657214297047246,
            0.3272670327690643,
            -0.49971748449271325,
            0.4902831871329676,
            -0.8011662531453081,
            -0.3730466444871525,
            -0.3038540228556992,
            0.6981260798750462,
            -0.26690693060275206,
            -0.2826741871367535
        ],
        [
            0.330592095281389,
            -0.7551731678770208,
            -0.7064898903731247,
            0.1033587266816074,
            0.9510924045846361,
            -0.9426609149183394,
            0.9571253546488925,
            0.4323963748238284,
            -0.39847883612466894,
            -0.12767503096459
        ],
        [
            0.48521210807786797,
            0.9457502267102775,
            0.4975519482966759,
            -0.49412942740852484,
            0.6511529838626393,
            -0.5222359860688726,
            0.9457770811955521,
            0.4658788986563853,
            0.42745615970931095,
            0.5529941945214538
        ],
        [
            -0.6014379164443715,
            -0.33916602312681343,
            -0.46780194860231905,
            0.23406306481247352,
            0.4831474645406011,
            0.50794908807803,
            -0.1971515145822469,
            -0.4670566960736249,
            0.9076359448019142,
            -0.7978104285946068
        ]
    ],
    "biasesTwo": [
        -0.4947782015755511,
        0.635872966912844,
        -0.9235494142102698,
        0.08188093446871703,
        -0.8086755483693187,
        0.6156908993121732,
        -0.07344052664980505
    ],
    "weightsThree": [
        [
            -0.9507346604796143,
            -0.5273120070016495,
            -0.4970691363777051,
            -0.6620718155539755,
            -0.5108948227180778,
            -0.8778731135142992,
            -0.4765811074817965
        ],
        [
            -0.7365263968224451,
            -0.9104840503219767,
            -0.06173119040920971,
            -0.2148342806273602,
            -0.19065732310141437,
            -0.6421608090072823,
            0.2534800256736054
        ],
        [
            -0.43720081941440814,
            0.957325373657655,
            -0.928788572981631,
            0.9913826828387444,
            0.2802304954330881,
            0.9887206315365513,
            0.3404568563659718
        ],
        [
            -0.9605053076136356,
            0.5923609667288059,
            -0.721334567583761,
            -0.5494067081424079,
            -0.08209139760476858,
            0.37325945913933545,
            0.7044492728117138
        ],
        [
            0.26515800484613883,
            -0.49953296274547054,
            -0.681400931805312,
            0.4171131755320545,
            -0.49341988967283346,
            0.9361844593018094,
            0.7734530565046676
        ]
    ],
    "biasesThree": [
        -0.7060429669144388,
        0.11937997127034872,
        0.7275861739055014,
        0.08051418509093944,
        0.611485958340048
    ],
    "weightsFour": [
        [
            0.20938864935503232,
            -0.03606058778124677,
            0.44590320916158355,
            0.8615907773821985,
            0.6511527911073371
        ],
        [
            -0.2087369477559402,
            0.7259906623451702,
            0.8248150826498719,
            -0.6543090752640874,
            0.6242960440852945
        ],
        [
            0.3954945522599782,
            0.6354426277068457,
            0.5094753278781106,
            -0.3640018930123603,
            -0.40934928014660676
        ]
    ],
    "biasesFour": [
        -0.4903875747588555,
        0.3287827827867762,
        0.7564355913354883
    ],
    "weightsFive": [
        [
            -0.1302726130521774,
            -0.00983123283854681,
            -0.6837986487542858
        ],
        [
            -0.759320304376349,
            0.33590052879089116,
            0.5406652768510192
        ]
    ],
    "biasesFive": [
        0.829684211257655,
        0.7671611495734689
    ],
    "fitnessValue": 0.0
}