{
    "weightsOne": [
        [
            0.706922801437631,
            0.8447194736554651,
            0.2570380905229188,
            0.3176046715241436,
            -0.9191611132831592,
            0.8484865360957425,
            -0.7613697154736672,
            0.3749555433022287,
            0.3134697564675428,
            -0.7911608982163958
        ],
        [
            0.6157982061530307,
            -0.8125938082732831,
            -0.7783582728794045,
            0.653195601658016,
            0.629489672760025,
            -0.1317511614080582,
            -0.4407029376086806,
            0.6011898036181786,
            0.6533261119621727,
            -0.32919654943091636
        ],
        [
            -0.6911855119324661,
            -0.19730239341791456,
            -0.4489688661525688,
            -0.5880349754816914,
            0.14750169497826793,
            0.27896066444687917,
            0.12884683985429768,
            -0.7336895791386033,
            0.3629826165237229,
            -0.011436927164372612
        ],
        [
            -0.13638982003221045,
            0.3240732709950187,
            -0.3455263471165264,
            0.5074611510572231,
            -0.5632649594567061,
            0.16087535311506507,
            -0.7318585531649859,
            0.8217891477745349,
            -0.35327597876347516,
            0.23883713736759038
        ],
        [
            -0.4195925187119678,
            0.04511260618965385,
            -0.9174239637167447,
            -0.7898034350459875,
            -0.3188448824369905,
            -0.25557627657246096,
            0.12274512204514987,
            -0.6974422663432727,
            -0.4609112568345475,
            -0.9090588281989334
        ],
        [
            -0.5372519482825318,
            -0.5921962039803288,
            0.6499062800913702,
            -0.24528486942113248,
            -0.39240045568050874,
            0.7576375628076975,
            0.7665320070866457,
            -0.5719029265404965,
            -0.15095338766150435,
            0.5918007731296959
        ],
        [
            -0.11963355090380845,
            0.1934674072672995,
            0.44295748383640676,
            -0.9906895832430533,
            -0.42713908533613565,
            -0.8304587581429945,
            -0.32970806579788636,
            -0.5111725757145269,
            -0.41561757303577807,
            -0.2850461960229471
        ],
        [
            -0.2575905505724967,
            -0.8871514189681171,
            0.07993835520413328,
            0.689002657062399,
            0.4205578034968902,
            -0.3962469194680105,
            0.7381972378975548,
            -0.23629972897093232,
            0.3360458895673275,
            -0.7019307407064517
        ],
        [
            0.5844113617499842,
            -0.27586662447219457,
            -0.9925945409362944,
            -0.6590633292289252,
            0.9381744998201882,
            -0.33185197955983314,
            -0.6148612412529737,
            -0.7444211070893574,
            0.23092016440653862,
            -0.14711084401586927
        ],
        [
            0.43728969889540936,
            0.6094053696021515,
            -0.9683268886190131,
            -0.920482280944338,
            -0.703270359546772,
            0.366773784691635,
            -0.13442868784191075,
            -0.20561997996916426,
            -0.42166533576342635,
            -0.487296881796895
        ]
    ],
    "biasesOne": [
        -0.5531419514339297,
        -0.28233202503767263,
        0.30764807751127554,
        -0.2139603760051505,
        0.36917293613083424,
        -0.12481451524950637,
        0.9148552692808385,
        0.34763667277333954,
        0.5295386735067771,
        -0.13138430658459876
    ],
    "weightsTwo": [
        [
            0.718827427380069,
            -0.16164871774449607,
            -0.40690584896223747,
            0.3638230165033596,
            -0.9934835402673454,
            0.9656309962625635,
            0.19329671598995812,
            0.0010506470673008472,
            0.28018705765872287,
            0.4427132785858292
        ],
        [
            -0.5167465941396419,
            0.7411495811566962,
            -0.4535836305304981,
            -0.2997432585663713,
            0.8080638734610799,
            0.3232095596400377,
            -0.26547708897261013,
            -0.03759658356675377,
            -0.6696502737014771,
            0.15632443570910315
        ],
        [
            -0.9754249490876064,
            0.5916851725608294,
            0.5523005371942895,
            -0.997754951564364,
            -0.8071361695873174,
            -0.051544937779191446,
            -0.620079045488438,
            0.8810687869895772,
            0.5546131330184965,
            -0.801156698495419
        ],
        [
            0.5660964317308435,
            -0.23446566300265093,
            0.32499898544345607,
            -0.4016205776248345,
            -0.34033840230737833,
            -0.05114477378929183,
            -0.8532172089074574,
            -0.6757820989052552,
            0.9714265920719156,
            0.3820714651207213
        ],
        [
            -0.4627862936707756,
            0.27477570301358467,
            0.7032943893219354,
            -0.054916472506146397,
            0.11647707882304825,
            0.4602980499718037,
            -0.20854103717308292,
            0.6046470515200157,
            -0.859115531004299,
            0.685962488170438
        ],
        [
            -0.9264295112037639,
            -0.46220444355138524,
            -0.7829353174785225,
            -0.9597689033591923,
            0.18952397264735055,
            -0.5117532774363638,
            0.5996202804150965,
            0.9500678155629898,
            0.3242392608584024,
            0.37114074635151595
        ],
        [
            0.5379379143731313,
            0.9886617877430115,
            0.3846560558237688,
            0.6575883999671972,
            -0.5306970813704357,
            -0.5839086557387829,
            0.7907505728185846,
            -0.9441518810405978,
            0.7373940257544058,
            -0.9962527077650227
        ]
    ],
    "biasesTwo": [
        0.9689666093850291,
        0.3902042814732123,
        0.08569436576238143,
        -0.7668562748960372,
        -0.2522338383524829,
        -0.31478522474655435,
        0.0931012550504382
    ],
    "weightsThree": [
        [
            -0.9562562311489224,
            -0.9437532360960894,
            0.2927907764548676,
            -0.8654402097855145,
            -0.7650460464446271,
            0.9476601586242062,
            -0.38950175373551676
        ],
        [
            -0.8444194820800601,
            0.7546952150074859,
            -0.9067557530782544,
            0.3596391074753391,
            0.1373506664427473,
            0.3932072656135688,
            -0.7551041998152843
        ],
        [
            0.9110810409301764,
            0.055984203109025854,
            -0.805381339742528,
            0.06475220111335145,
            -0.20511100586076148,
            -0.5006020482971782,
            -0.30819277526071676
        ],
        [
            0.9404927395997829,
            0.9888971593303857,
            -0.9688981975441466,
            -0.7943008230113195,
            -0.7063212879390972,
            0.10396608588532774,
            0.36278592660380626
        ],
        [
            0.2362494417577785,
            0.9955240132527763,
            -0.7560187478522682,
            -0.17639017635103738,
            -0.12103663621409577,
            0.3930865134261299,
            0.06703303980356479
        ]
    ],
    "biasesThree": [
        0.29390929032388,
        0.5762390114317246,
        -0.4748108891716589,
        0.2464080331585521,
        0.9073063832951127
    ],
    "weightsFour": [
        [
            -0.1951916381810439,
            -0.22346414059562503,
            0.026120600152276463,
            -0.8756950394788743,
            0.0946205255222956
        ],
        [
            0.2803161218806576,
            -0.15753694909989857,
            -0.5715314082123892,
            0.8067032382859025,
            -0.12038536240375941
        ],
        [
            -0.10049828431139973,
            -0.048972887447144675,
            -0.1365895934307897,
            -0.7032416156500465,
            0.477857575540936
        ]
    ],
    "biasesFour": [
        -0.5528758029837837,
        -0.0006052935788072311,
        -0.8762212155001383
    ],
    "weightsFive": [
        [
            0.12099897806207305,
            0.6583380549335132,
            0.15872547839718698
        ],
        [
            0.39758072599168903,
            -0.9966217780857336,
            -0.10102242375330883
        ]
    ],
    "biasesFive": [
        -0.22646167708909748,
        0.973914668413139
    ],
    "fitnessValue": 0
}