{
    "weightsOne": [
        [
            -0.18167321883789556,
            -0.3434012244748277,
            -0.9354036773545016,
            0.4503810020171257,
            0.9368353916158765,
            0.940440047806512,
            0.6021239072245432,
            -0.009111721360821168,
            -0.48059592016005226,
            -0.2741714342487209
        ],
        [
            -0.7430107020811927,
            0.8145403561400639,
            -0.43617615416166133,
            -0.7790738027300321,
            -0.7316229990499323,
            0.07833324253008156,
            0.35947119546040107,
            -0.10005090237272896,
            -0.554333220784724,
            -0.30816810370450143
        ],
        [
            -0.19000439380699907,
            -0.870157821842712,
            -0.6819743001492389,
            -0.5688949365923224,
            -0.37062952176919217,
            -0.34400069574131176,
            -0.5466679995685704,
            0.8697494275747821,
            0.2801543631538439,
            -0.5094051957107364
        ],
        [
            0.1003179110992709,
            0.16982484916005447,
            0.7806926917658552,
            0.9254882190213978,
            0.4588682094664518,
            -0.5010195440493688,
            0.3918806854578518,
            0.8063570806441571,
            -0.24353679689113483,
            -0.04302211266329614
        ],
        [
            -0.9282557764024828,
            0.2809050248641056,
            0.8406736379451976,
            0.7014797885592683,
            0.19931163974442856,
            0.6134781845798438,
            -0.8754102442459439,
            0.32119289914914173,
            0.5126065483107822,
            0.17274810217910153
        ],
        [
            -0.06751447103747776,
            0.619099653737404,
            -0.5859390140262706,
            0.6988724127568995,
            0.862593920237976,
            0.8905991498793833,
            0.47990571600575294,
            0.6725869304605598,
            0.0271794657479123,
            0.8154818334383744
        ],
        [
            0.8515180166583731,
            -0.5842185828807325,
            -0.9148267243231607,
            -0.6424838219730846,
            -0.9470533620605652,
            -0.8660899386398377,
            0.7959919944753941,
            0.07122466623294499,
            -0.6929010564614622,
            0.315347562514702
        ],
        [
            0.4190257882218502,
            0.2950354523133576,
            -0.6331391405097675,
            0.5571655886137588,
            -0.884864572179785,
            -0.19057390041984967,
            0.18535444218380714,
            0.5027367211968949,
            0.739580346641757,
            0.7188055837707243
        ],
        [
            0.12844642562270492,
            -0.8455588791082189,
            -0.9818814078094145,
            -0.8687701468005427,
            0.3083845765765092,
            0.3972872453937284,
            0.3330738532692874,
            0.849715691404781,
            -0.807919442754605,
            -0.11213681226334948
        ],
        [
            -0.7907098564860084,
            0.24028228066215251,
            0.6146951590225287,
            0.5244373928911028,
            0.8159594209504812,
            -0.5157112101945645,
            0.9138797689492892,
            -0.17017964912821526,
            0.5244614167761128,
            -0.7383551053801349
        ]
    ],
    "biasesOne": [
        -0.2516469300896913,
        -0.24913784381809823,
        0.08125706472017535,
        0.12334013028310409,
        0.4070595394653098,
        0.1960627535701016,
        -0.4919760007972429,
        0.4175665664068977,
        0.32669223308670614,
        -0.27572049976355917
    ],
    "weightsTwo": [
        [
            -0.6366063685869714,
            -0.2549100848039694,
            0.8968165625189275,
            -0.11099341740479551,
            0.8337416004371021,
            -0.40994544394628485,
            -0.23473321030853977,
            -0.1161865302890992,
            -0.6991550314400099,
            0.41477704695964035
        ],
        [
            0.030788025250716444,
            0.29221699252052513,
            -0.4505637978660131,
            0.65783149366085,
            0.8017449563082142,
            0.4129714011421115,
            0.1859352574754325,
            0.513134404207616,
            -0.316810704209725,
            -0.7757480359231188
        ],
        [
            0.46752223627445755,
            -0.2704982205317581,
            0.5004129446865568,
            0.8786807351950787,
            0.5289333351889973,
            0.3523605489761954,
            -0.4450176077838568,
            -0.6274109283273142,
            0.8859712939310078,
            -0.186097296751895
        ],
        [
            -0.16940064100210606,
            0.365247246282582,
            0.7406783129470254,
            -0.6990266212628993,
            0.15431552175112606,
            -0.43098894734792337,
            0.28513324310057087,
            -0.8362473650495654,
            -0.05513039160120914,
            0.6313521551032069
        ],
        [
            -0.4321315808364856,
            0.9269465295000341,
            0.33974090849573124,
            -0.5309991116697925,
            0.11247287827038654,
            -0.5179784065357811,
            -0.6115448122725875,
            -0.7181079743110881,
            -0.49405581231835116,
            -0.6939215295932715
        ],
        [
            -0.3312146459659995,
            -0.08609157646091403,
            -0.5742971756500814,
            -0.25530632458263836,
            0.3407255431195624,
            0.3033785873477517,
            0.528364802884959,
            -0.4873135248856868,
            0.6869941968138469,
            -0.2132589176207076
        ],
        [
            -0.438707008455423,
            0.18029128731246535,
            0.5902307529594255,
            0.9685566034309925,
            0.8480416067412806,
            -0.13783496904930104,
            -0.18043531289092773,
            -0.9008167616868394,
            0.14500155392681302,
            0.6769344344662671
        ]
    ],
    "biasesTwo": [
        0.9725980513679438,
        0.12201468107226043,
        0.5840213560438396,
        -0.1256605444710448,
        0.5060436362268299,
        -0.21461670008096756,
        0.8958534165356367
    ],
    "weightsThree": [
        [
            0.08812083205462362,
            0.7270675879034045,
            0.9005654581244145,
            -0.8832493710331786,
            -0.4162225330248326,
            -0.5284692704748639,
            0.877825147902138
        ],
        [
            0.23640889396046005,
            -0.7717116006718738,
            -0.8831765058193011,
            0.8265318901373289,
            -0.5852157524200303,
            0.9439949046517095,
            0.5488041820880865
        ],
        [
            0.5697945625328498,
            0.472901576949335,
            0.9285664588643563,
            -0.43369812830301124,
            -0.8791579028834173,
            -0.7514109486508318,
            -0.24664548668422226
        ],
        [
            -0.5328865392995217,
            0.7875752440431734,
            0.5837585773605727,
            0.8184700885879206,
            -0.9890996180245062,
            -0.040036450162385995,
            -0.14966259237365298
        ],
        [
            0.8740762701133866,
            -0.2747397981627113,
            0.19736939125964592,
            -0.340390400065683,
            0.05293751594979712,
            0.8085548498743045,
            -0.8375361239831913
        ]
    ],
    "biasesThree": [
        -0.01986752757426169,
        -0.49825954558682994,
        0.8538841769205296,
        -0.8324968371382591,
        -0.8907110699184517
    ],
    "weightsFour": [
        [
            -0.2769499144284857,
            -0.6051794991358985,
            -0.6662779197153403,
            -0.6240297815163349,
            0.9352703624651586
        ],
        [
            -0.3628272312854881,
            0.18034831247387606,
            0.5908427226021198,
            0.8611874776464417,
            0.5749671160605814
        ],
        [
            -0.22749451244991725,
            0.3319967778862245,
            0.11078435953263566,
            0.7385925924072507,
            0.6527753332323301
        ]
    ],
    "biasesFour": [
        0.4882121949169027,
        0.532222903497402,
        -0.4781933910295848
    ],
    "weightsFive": [
        [
            0.4633746370819056,
            -0.4776460091855175,
            -0.15527383329240507
        ],
        [
            0.8765322196303329,
            0.07168978210708632,
            0.5229394963362572
        ]
    ],
    "biasesFive": [
        -0.3724848790378803,
        0.31835583854631566
    ],
    "fitnessValue": 0
}