{
    "weightsOne": [
        [
            -0.773533433435472,
            -0.06791094844452483,
            -0.36643267900873444,
            -0.5081185870523404,
            -0.7966924862344393,
            -0.8033372596279045,
            -0.9124842197306964,
            0.5728283381036978,
            0.5608911084175021,
            0.46041107751234955
        ],
        [
            -0.1139260018042969,
            0.6727082583043842,
            0.2668441255436318,
            -0.1814046640167093,
            -0.6181073500775593,
            -0.22226641576777806,
            0.6478379101546006,
            -0.804048910258979,
            -0.30684420875535134,
            0.15417847595321477
        ],
        [
            0.9942585231920338,
            -0.8494027814974376,
            0.5394140218502432,
            -0.11890282513683537,
            0.673305140819709,
            -0.6437175211413033,
            -0.46059888856655573,
            -0.6239657503580747,
            -0.7079275912349223,
            -0.26188509824101747
        ],
        [
            0.8283597251179584,
            -0.12570477873402996,
            -0.9192865664859067,
            0.5711386375978598,
            -0.9035333389579092,
            -0.6850217661088691,
            0.35914710609054934,
            -0.5058610606267477,
            -0.7167920866846618,
            -0.5267149130011064
        ],
        [
            0.5375151603977684,
            0.797076611304478,
            0.20055425864320364,
            0.26353266061876135,
            -0.8110241193258672,
            0.7544470137952717,
            -0.18651337757649178,
            0.43545435432066526,
            0.90408494727039,
            -0.9792836586442815
        ],
        [
            0.05619608552327593,
            -0.03640490443242794,
            0.5393074924057493,
            -0.7323592956421789,
            0.9862644868353492,
            -0.9704703251324098,
            0.4971578346459544,
            0.6683428223081886,
            -0.31135854986819944,
            0.7681508513164799
        ],
        [
            0.27443419446485984,
            -0.15467688155583215,
            0.9708315595823576,
            -0.8846158148477552,
            0.20058110802763096,
            -0.20537674116837867,
            0.28948844071582647,
            -0.2283093022002074,
            -0.38870865099367813,
            0.5783470225044403
        ],
        [
            0.1127405467086815,
            0.7731500267860691,
            -0.7395748632822927,
            -0.03916831509613461,
            -0.8424179959436573,
            0.5573061968819655,
            -0.8574608406335147,
            -0.151471260542835,
            -0.06809041016908712,
            0.46686586124866003
        ],
        [
            0.0022907191696994733,
            0.8909675252841456,
            -0.8883319179469304,
            0.7705276574797468,
            0.46921968241484024,
            -0.7123973739129932,
            0.061183330660432134,
            0.9448567326908943,
            -0.48369341743381766,
            -0.14615130621860106
        ],
        [
            -0.3492924590023021,
            0.41011528842979317,
            -0.5987909326462073,
            -0.5151118692962406,
            -0.7179027836950473,
            -0.8578790288978604,
            -0.5599683420542687,
            -0.38518002236405136,
            -0.5623873020325836,
            -0.8715221172686431
        ]
    ],
    "biasesOne": [
        0.7102969852093672,
        0.7292236763698074,
        -0.4582696496946128,
        -0.6946421999927765,
        -0.8240098106392781,
        -0.06545853844967353,
        -0.6548262420803732,
        0.41218362681591847,
        0.38018644346205055,
        -0.6843047588846856
    ],
    "weightsTwo": [
        [
            -0.19721242345438705,
            -0.5423460227232135,
            0.13986704625932678,
            0.11481422165132371,
            -0.29221056870274853,
            -0.3842130583728698,
            -0.09144606139524947,
            0.45072979605701313,
            -0.8197086625232697,
            -0.8142055599727396
        ],
        [
            0.9522277421133594,
            0.5984893397984679,
            -0.39849392928970206,
            0.15630853687419055,
            -0.4821615862875548,
            -0.9639604093561731,
            -0.5796270788845337,
            0.3120426931503195,
            -0.11284068916348033,
            -0.02739719808365182
        ],
        [
            -0.30018296835292446,
            0.7985655349206471,
            -0.41873899430584327,
            0.9057906924567429,
            0.1422875470532332,
            -0.8545971858733503,
            -0.7828001868395313,
            0.7992251650466706,
            0.4397793438273041,
            0.4003424558035391
        ],
        [
            0.5152828946878236,
            0.4620186576744991,
            0.97597504222555,
            0.3884920552116935,
            -0.5181985760387171,
            -0.9829911471326058,
            0.01457271959878148,
            -0.9308290998204045,
            0.30781427229704716,
            0.9471876042626284
        ],
        [
            -0.5752483289990948,
            0.8515692897291616,
            -0.44267049090143296,
            0.1004477871876237,
            0.9508874833579011,
            0.6118771706613904,
            0.2509144493581863,
            -0.23883429891979513,
            0.2820865476589347,
            -0.6920637588302956
        ],
        [
            -0.7082931350889716,
            0.4869896957587263,
            -0.17028522959840298,
            -0.033839913645793196,
            -0.9455253211401933,
            0.29337188022633853,
            0.5711577960892908,
            0.7414166400342921,
            -0.1391231584942938,
            -0.6046318376872413
        ],
        [
            -0.5444025415107296,
            0.6952225942651318,
            0.1185931423243789,
            0.5199152166100718,
            -0.08111225325152205,
            0.9992228916951138,
            0.8757229075769137,
            0.9856045559453188,
            0.33753140035214724,
            -0.26663704196374627
        ]
    ],
    "biasesTwo": [
        -0.13241448209343143,
        -0.15702376654527583,
        -0.8321288169904424,
        -0.15024880118857098,
        -0.7982134161463099,
        0.550036946680736,
        -0.12237954075170698
    ],
    "weightsThree": [
        [
            -0.3678528796168845,
            0.4463816729193153,
            0.885410911221721,
            0.3739136469254867,
            -0.8652650929265011,
            -0.7889495370621991,
            0.08431123492080239
        ],
        [
            0.6967840317890395,
            0.44485060054250836,
            0.047601372583605306,
            -0.8839771417182769,
            -0.886670317886783,
            -0.28202517559826146,
            -0.8110294237857951
        ],
        [
            -0.4491487205455251,
            0.5079195680404602,
            0.3750707511237068,
            -0.28286827315845486,
            -0.5419353649167733,
            0.124293195842345,
            0.9508816934733513
        ],
        [
            -0.1864274693995267,
            0.9860981461439347,
            -0.4736426946344958,
            0.7583200177452705,
            0.05256126656488824,
            -0.868001029388956,
            -0.6038705791009216
        ],
        [
            -0.7193778850715533,
            -0.8211333111622072,
            0.6562286801905397,
            -0.37054269350888136,
            0.3838538624829071,
            -0.8262021506803612,
            -0.031081184169091003
        ]
    ],
    "biasesThree": [
        -0.9554026719594781,
        0.7705256200855064,
        0.16498311278950895,
        0.8928074882361157,
        0.2533513699639891
    ],
    "weightsFour": [
        [
            -0.7889296280943048,
            0.46520979363546267,
            0.7067501079952128,
            0.6392399630589936,
            0.2537311309286978
        ],
        [
            -0.9215942545729836,
            -0.6565976900799384,
            0.35712485994929954,
            -0.23632210487817296,
            -0.6638081259600972
        ],
        [
            -0.22982180727538082,
            -0.15267588133661936,
            -0.5932548897735008,
            0.34039675937623803,
            -0.47252257593112956
        ]
    ],
    "biasesFour": [
        -0.8438512762645636,
        0.3685189442265653,
        0.42524673052876616
    ],
    "weightsFive": [
        [
            -0.2076567448431963,
            -0.0467352709718134,
            -0.6757278614704714
        ],
        [
            0.16054294538261038,
            -0.40964623937375033,
            -0.050662017999497655
        ]
    ],
    "biasesFive": [
        -0.849297165764177,
        -0.21029490637866255
    ],
    "fitnessValue": 0
}