{
    "weightsOne": [
        [
            -0.5622345610777184,
            -0.1347374654893938,
            0.9750348250190894,
            0.6785353400399754,
            -0.32462019844080636,
            0.4952471802920462,
            -0.0846482875107668,
            0.8174644032651728,
            0.7850885873431273,
            -0.18607707086048664
        ],
        [
            -0.8217358079323516,
            -0.6934547569416565,
            -0.8898315689775516,
            0.7923140038847136,
            -0.8611451189630659,
            -0.04684593954894578,
            -0.15828251774644797,
            0.15570674578774368,
            0.9629342581120719,
            -0.5901494024040961
        ],
        [
            -0.3997078646344321,
            0.5423758400733325,
            0.21244722740686184,
            0.2017235607617942,
            0.5667908124030352,
            0.2103163355099329,
            0.519162832337885,
            -0.8263190950700121,
            0.6399812979132573,
            -0.04271864777835854
        ],
        [
            -0.4158675812264476,
            -0.38598735951520036,
            -0.5246734684189212,
            0.7577446072859675,
            0.9065736668525903,
            0.06988763240909734,
            -0.30318911094035905,
            -0.8711440108816242,
            -0.6862376487715882,
            0.25613043560899507
        ],
        [
            0.8012800358331655,
            -0.26106849640976426,
            -0.013007461230919892,
            0.3076287352621463,
            0.2622915278953035,
            0.6943373118919471,
            0.43262756938740066,
            0.894597842426019,
            -0.9542405334846717,
            0.7538562242327431
        ],
        [
            -0.9783518481490947,
            0.04937859128676059,
            0.010147199122833017,
            0.29897063243158284,
            0.5411654241226351,
            0.590175499394229,
            0.6320403512437118,
            -0.7033390619156048,
            -0.4570470926076524,
            0.371195038948692
        ],
        [
            0.026369514168801178,
            0.22567464113717794,
            0.849359779695561,
            -0.052905861127563014,
            0.20728838824302298,
            -0.9816646143449286,
            0.4188236464571238,
            -0.8239801589437232,
            -0.1676160561226181,
            -0.5096640790532834
        ],
        [
            0.08416588503151634,
            -0.3844952968124393,
            -0.8489835438280351,
            -0.31457141092023444,
            -0.8023038876363016,
            -0.8539343108411119,
            -0.040071654567602755,
            -0.18362699002576877,
            0.3040654961738809,
            0.6037987347600215
        ],
        [
            -0.7258337270898818,
            0.6466447967142046,
            -0.024663096346636326,
            -0.8890619797462818,
            0.09074963639129585,
            -0.07502339163828853,
            -0.5822081321787425,
            0.8577901175771314,
            -0.7830234546568193,
            -0.6685213331384741
        ],
        [
            -0.617599184196113,
            -0.3738520254390538,
            0.9886104501121915,
            0.6533170376594521,
            -0.40692491017973076,
            -0.363084847748413,
            -0.9048453523452067,
            -0.40954836190417954,
            -0.06806860053830621,
            -0.5232659951481662
        ]
    ],
    "biasesOne": [
        -0.5522753658030639,
        -0.211074038773305,
        -0.6703417273351628,
        -0.7369114391060398,
        -0.9420144884806834,
        -0.4386675931399939,
        0.21383454604882046,
        0.6420003854119203,
        0.9328211739510333,
        -0.6687277906778477
    ],
    "weightsTwo": [
        [
            0.9801897492901273,
            0.7800932220595849,
            0.3897986610531101,
            -0.24503405189000294,
            -0.16752776649783407,
            -0.3462649117699981,
            0.9022850428482299,
            -0.7239597497042141,
            0.8371572054055756,
            -0.8980411728178093
        ],
        [
            -0.7287765523943122,
            0.017975618311015795,
            -0.9587610136990994,
            0.06393408833914505,
            -0.04940739017183593,
            -0.030148119795691652,
            -0.4581913555711543,
            -0.761735564582906,
            -0.9301322972882191,
            -0.9238070527575717
        ],
        [
            0.6005747932651957,
            0.22883873286086098,
            -0.2269965798891007,
            -0.4237775624094342,
            -0.13687572063251552,
            -0.9375159409115978,
            -0.657099710510364,
            0.14915024763612972,
            -0.8122283072809491,
            -0.6795689700092602
        ],
        [
            -0.2115270204534212,
            0.4354536184806863,
            0.5979603630642787,
            0.08286641857737509,
            -0.10674307722574494,
            -0.15173026137061862,
            -0.6190366702784331,
            -0.09815546226172822,
            -0.19651638099783209,
            -0.4132116903519374
        ],
        [
            0.7369020882562156,
            0.9495434099309639,
            0.42371921456810013,
            -0.5029011109043406,
            0.08692208180893068,
            0.1293027166572771,
            0.8146341977738731,
            0.7255221747135072,
            0.6485389633131968,
            0.554439365497472
        ],
        [
            -0.34338730189386557,
            0.287318573479292,
            -0.7742420226755671,
            -0.8686352767899181,
            0.015139041629963046,
            -0.14984750123849921,
            0.8577682749728561,
            0.3088869564446681,
            0.860899243115677,
            0.04869604378402781
        ],
        [
            0.9238790025377377,
            0.048206395293820314,
            0.4279477123046944,
            -0.020681965500265242,
            0.6325772657192328,
            -0.7689995095746285,
            0.44285701351933326,
            0.6577443420922868,
            0.02631373941710602,
            -0.9469575392964407
        ]
    ],
    "biasesTwo": [
        0.5364314351472919,
        -0.2863423432796508,
        0.8993523061454916,
        0.7733701092121197,
        -0.15059268009168614,
        -0.7678296305339514,
        0.8856426918909972
    ],
    "weightsThree": [
        [
            -0.32221951847993546,
            -0.06127400694676055,
            0.2542385045892983,
            0.888016965681067,
            0.7139036691861018,
            0.5637163451040303,
            0.45856283704180667
        ],
        [
            0.24591521267616878,
            -0.48306639597332124,
            -0.1272999758745077,
            -0.46447321586473933,
            -0.2573117379453793,
            0.8610196153306444,
            0.20310216324334762
        ],
        [
            -0.3160529142188151,
            -0.990414990099451,
            0.04326549293275894,
            -0.8701371445404524,
            -0.3133163373900514,
            0.14879713329370947,
            -0.9652626267667526
        ],
        [
            -0.869979682877901,
            0.6961839871383033,
            -0.29761227064512874,
            -0.6902105522277717,
            -0.8551797960449652,
            0.7679031913881784,
            0.694483111977684
        ],
        [
            0.8161448807963847,
            0.14906133711924907,
            -0.23116963386752176,
            -0.9664261532253631,
            -0.9118807873944113,
            -0.29378588115881055,
            -0.1749608928601991
        ]
    ],
    "biasesThree": [
        -0.6699114945771685,
        0.9041216200745905,
        -0.04449727052276509,
        0.16696367030279058,
        0.774187088027154
    ],
    "weightsFour": [
        [
            -0.3399066695953201,
            0.5650375326756596,
            0.7299126970940224,
            -0.4755672651007363,
            0.4939946767170562
        ],
        [
            0.4596146419471623,
            0.9560578061341511,
            -0.5795810902788192,
            0.2549524458685286,
            -0.5297799467861253
        ],
        [
            -0.5086270238110773,
            0.5397187300080424,
            0.7327048571601182,
            -0.9908148139675315,
            0.6371512856067545
        ]
    ],
    "biasesFour": [
        -0.6502868656413687,
        0.5590535887928985,
        0.7962454012378541
    ],
    "weightsFive": [
        [
            -0.2498789336306908,
            -0.70045915112476,
            0.8000922105654613
        ],
        [
            0.23153074904613735,
            0.8094757105925487,
            0.9382160402232937
        ]
    ],
    "biasesFive": [
        0.3662784384357347,
        -0.48837775307279907
    ],
    "fitnessValue": 0
}