{
    "weightsOne": [
        [
            -0.5725118492115964,
            0.8470301281103878,
            -0.13772567194351915,
            0.6781303428079164,
            -0.9098392242074416,
            0.970497736349931,
            -0.8371250215958059,
            0.8025987798710787,
            0.5342112456605572,
            0.670593236033862
        ],
        [
            -0.15414580192673233,
            -0.020951138762424604,
            0.8130524704477087,
            0.37641902801931004,
            0.498695963494046,
            -0.06883490951230131,
            -0.6525211166378131,
            0.046416219589940244,
            -0.471099991589762,
            -0.4278839595232009
        ],
        [
            -0.5968772120905614,
            0.9588405466303795,
            0.362672501257294,
            0.33619025427142746,
            -0.225114649117109,
            -0.4527438408636215,
            -0.9946309888384024,
            -0.3310499773394253,
            0.0023912572716724423,
            0.8243977646163978
        ],
        [
            0.6947044953736778,
            -0.8590663595443746,
            0.8720361373206107,
            -0.36952277117458343,
            -0.4814009805954582,
            -0.3946119345497976,
            0.09803664233048126,
            0.1420943492191844,
            -0.653614623272345,
            0.48145714509323567
        ],
        [
            -0.09988703443312752,
            0.7993806282418963,
            0.7761676289366661,
            -0.3798040379304908,
            0.6139269391562567,
            -0.8487862269719648,
            0.5613611486169321,
            -0.9118574428095243,
            0.5789280208443863,
            0.17676729005195257
        ],
        [
            0.4806261553372928,
            0.23486969499596566,
            -0.8180830133197006,
            0.9260079162985169,
            -0.18661476979313285,
            0.4427718034908117,
            -0.8676707265764996,
            -0.9851126096515401,
            0.24570166751577238,
            0.40151736139269945
        ],
        [
            -0.5620773453007759,
            0.08229925022114193,
            -0.41752933034600725,
            0.9384857557374315,
            -0.6459062406602512,
            0.545004666553853,
            0.6419195654235446,
            -0.05550587125876194,
            -0.837998443512112,
            0.1430927924167935
        ],
        [
            0.7770702640355027,
            -0.059842699085076445,
            0.19326836213206988,
            -0.5176030608775073,
            0.06508923620843654,
            -0.3613638949319764,
            -0.3767122683533002,
            -0.8009645095592917,
            0.5074077591335417,
            0.8107229996995293
        ],
        [
            0.03667857384731921,
            -0.3137796125448795,
            -0.25103108767006876,
            0.8020670010746758,
            -0.37867000009798213,
            0.70039036167306,
            0.6648920267156646,
            -0.5974206228806029,
            -0.05938947858857779,
            0.6316128742008682
        ],
        [
            0.8146502547952439,
            -0.23864165374400792,
            -0.3920770204492168,
            0.1829003461016585,
            0.20843504029692883,
            0.6951714011519718,
            -0.21674123837007864,
            -0.33854134176159256,
            0.2623864629874655,
            0.27341712748950786
        ]
    ],
    "biasesOne": [
        -0.7433366682941114,
        0.638376475452511,
        -0.5837484883002424,
        -0.28899123354720113,
        -0.4282777019788999,
        0.3640326534127405,
        -0.6381193049150677,
        -0.21950518891924253,
        -0.6836495264364113,
        -0.5872639235329034
    ],
    "weightsTwo": [
        [
            0.2749629537343987,
            0.24597038658938275,
            0.6070224215904219,
            0.25050858800693154,
            0.5768330584308645,
            0.1237741406759294,
            0.08412972202452806,
            0.24243581631250888,
            -0.1175297864293785,
            0.6783732969863017
        ],
        [
            -0.15597090966016136,
            0.011759437648084736,
            0.6257438542509088,
            -0.664323439117916,
            0.6266004937156551,
            -0.5074889805731946,
            0.39555908202510026,
            -0.7982081521161588,
            -0.22379570583315211,
            -0.41727327873892817
        ],
        [
            -0.05340696315504445,
            0.8594888005307795,
            -0.7357400401407066,
            0.03544868268889223,
            -0.6363793369465847,
            0.021935286277129595,
            -0.27048091031525145,
            0.39298967043979727,
            0.18081659507491787,
            -0.6099450539607543
        ],
        [
            -0.3601706989746767,
            0.8195910554787353,
            0.556321797730458,
            -0.8783896692439968,
            0.8263565962622514,
            -0.6911515935481085,
            -0.9067948146448426,
            0.5151039827343014,
            -0.9399671654939403,
            0.3989485924313356
        ],
        [
            -0.6077318641615364,
            0.6101260567719982,
            0.6357566390242222,
            -0.45636571435832063,
            0.7691280040418571,
            0.051513672847911085,
            -0.26141507805063324,
            -0.8386638427510706,
            0.22536253221617786,
            0.13551456254529737
        ],
        [
            0.16034873309663378,
            -0.4002217305807583,
            0.9318909542990994,
            0.12345265001892858,
            0.736047877875559,
            -0.4622142683397479,
            0.019263532702515906,
            -0.27828646370266763,
            -0.5177216696237465,
            -0.8793605462408824
        ],
        [
            0.2601716586832048,
            -0.9295920101497743,
            0.314354663779953,
            0.771882485609523,
            0.03090194871330687,
            -0.4484042416932992,
            -0.3556395191319133,
            0.28257320006861164,
            -0.4123031480317043,
            0.44719935981617365
        ]
    ],
    "biasesTwo": [
        -0.7996842597908154,
        -0.38856397838759116,
        -0.6056871834061299,
        -0.43551368458161344,
        0.855891056579335,
        -0.5508210196768704,
        -0.7033436712908636
    ],
    "weightsThree": [
        [
            0.36206119077419663,
            0.8672213498775325,
            0.969745013743017,
            -0.9652869656088108,
            0.11587003086631942,
            -0.420705481537043,
            -0.8995205722589372
        ],
        [
            0.9978149989700948,
            -0.04422214090164034,
            0.028397383073419658,
            -0.7395165057597517,
            0.6887096815724436,
            -0.9332460075677718,
            -0.44324752968825165
        ],
        [
            -0.3006195476107658,
            0.18808489976035458,
            -0.829415784205777,
            0.5037042664529854,
            0.15892578398010881,
            0.8909927685757011,
            0.10979566014951025
        ],
        [
            -0.7822207976348512,
            0.2039863686569292,
            -0.9734506351834507,
            0.7135045536929394,
            -0.684635549076162,
            0.768664865360444,
            -0.5896878877628353
        ],
        [
            -0.8988017960159453,
            -0.9743319595286377,
            -0.06166185272950875,
            0.11764351539841922,
            0.1005599791909193,
            0.6369372685839914,
            -0.44130240954568656
        ]
    ],
    "biasesThree": [
        -0.9732968462904446,
        0.8471990245377155,
        -0.03466401447453782,
        -0.9252611253115401,
        0.9653486718280182
    ],
    "weightsFour": [
        [
            -0.3864362826433314,
            0.754217006140051,
            0.2524728894446835,
            -0.49853431576502794,
            0.6156981920043163
        ],
        [
            -0.5877861612732549,
            0.5130437062588928,
            0.010910544029798963,
            -0.9202477839055117,
            0.4531721525406831
        ],
        [
            0.31708187089145556,
            0.7443254438922229,
            -0.7820567032256884,
            0.3198097328927172,
            0.496831380918729
        ]
    ],
    "biasesFour": [
        0.11773690971600614,
        0.14635597294607483,
        -0.10284946996479949
    ],
    "weightsFive": [
        [
            0.9887708471752692,
            -0.24301717317789495,
            -0.6837913378856133
        ],
        [
            0.8034094136327299,
            -0.07862998309736136,
            -0.9002947860293673
        ]
    ],
    "biasesFive": [
        -0.024146176762556815,
        -0.9149320366779659
    ],
    "fitnessValue": 0
}