{
    "weightsOne": [
        [
            -0.8034871807739401,
            -0.6758716741731701,
            0.9690094034131873,
            -0.03210424226062991,
            0.9218926628028736,
            0.4052141100268072,
            0.7994297286315919,
            0.7861324296666177,
            0.6732983733053428,
            -0.20727062068378022
        ],
        [
            -0.9147316732024118,
            0.718722559840657,
            -0.15851215598593638,
            0.008808798699093012,
            0.6925013621219995,
            -0.2426888382676795,
            -0.6263658255261619,
            -0.964312322331595,
            0.4617923132713808,
            0.1463348870479464
        ],
        [
            0.029611214363406413,
            0.2002154976319268,
            0.4254659726092187,
            -0.044592721329301366,
            0.8335245118231309,
            0.9515443596771249,
            0.9117585084844211,
            -0.07296576330010929,
            -0.10848723625140044,
            0.3740124157215563
        ],
        [
            -0.813801149122231,
            0.2813519477740898,
            0.15381720717846292,
            -0.6509636779489225,
            -0.1973956943644295,
            0.20187012674850702,
            -0.7146812448524311,
            0.616870105319816,
            -0.003465922620115247,
            0.4006605803366985
        ],
        [
            -0.12760548789726633,
            -0.9420560028195335,
            -0.22801837220263965,
            0.41739598655813936,
            0.4117441728636211,
            -0.8932550907112748,
            -0.28908227687423693,
            -0.9721175343810489,
            -0.7746582699783939,
            -0.13799649578045736
        ],
        [
            0.11066465187934815,
            -0.6935156399787334,
            -0.3142089958744845,
            0.7353341814765006,
            0.7026716657002621,
            -0.15169846925082764,
            0.41428195833844805,
            -0.34842750636057773,
            0.20521280879090065,
            0.7864567057627208
        ],
        [
            0.9217640424141964,
            -0.2816323613678995,
            0.07328758333194552,
            0.17955636211788395,
            0.9575905265843638,
            -0.08787270976108297,
            0.776491900525567,
            -0.4674247876449009,
            0.14898056937129,
            -0.662612589034518
        ],
        [
            0.4782214183622213,
            0.18568056129014776,
            0.6751121036327763,
            -0.3009015166217832,
            -0.7828750170892469,
            0.04614800814447695,
            0.0721839420880861,
            -0.5389395907055876,
            0.6209730670241389,
            0.33320872685325953
        ],
        [
            -0.5454446189474631,
            -0.9809640167733744,
            0.955300147414881,
            0.46837622810376933,
            -0.6223724782599234,
            0.5475932813618631,
            0.9122337915111294,
            0.88325238603371,
            0.13045837038207186,
            0.839719729904185
        ],
        [
            0.6369643278120107,
            -0.45051652215490634,
            -0.05317580642463238,
            0.4102634320745637,
            -0.9311363191702995,
            0.4092882672240188,
            0.8282017940750315,
            -0.12850788954793702,
            0.007159473539977812,
            0.9753621664550534
        ]
    ],
    "biasesOne": [
        0.7459522769973466,
        0.8102171276204495,
        0.6828467410874659,
        0.9274138657969295,
        0.06338043687398032,
        -0.0886204582595389,
        0.9550958914689383,
        0.46552622686895084,
        0.8392739091111012,
        0.23439346530884997
    ],
    "weightsTwo": [
        [
            -0.84468161730728,
            0.6889343312417384,
            0.31095499589911735,
            -0.9085630026684737,
            -0.09232031623726034,
            -0.04534176522299216,
            -0.6499390558953204,
            -0.8600813258354072,
            -0.5209419406860214,
            -0.5090784794815615
        ],
        [
            0.3164965561350468,
            0.7944833990508522,
            -0.8703763195951668,
            0.8927828559030895,
            0.3734516742111764,
            -0.3497388255517464,
            -0.6867450617408988,
            -0.7151106058765582,
            0.2756211628956684,
            -0.8419749778475427
        ],
        [
            -0.575328036179585,
            0.49184377740516494,
            -0.8389834043286462,
            0.923235418255903,
            -0.4940428459290054,
            -0.6650368218103195,
            -0.4315028118319928,
            -0.593274076415657,
            -0.26352740779721096,
            0.04336346094289745
        ],
        [
            0.807714333564651,
            0.06523438688795302,
            0.8137705920184031,
            0.11064839833192597,
            0.3639531915441492,
            -0.22570685386848832,
            -0.21455014406744777,
            0.7063835992171856,
            0.24783706924979554,
            -0.7147480707232081
        ],
        [
            0.9620844252507441,
            -0.37973943266737953,
            -0.2658650104888265,
            0.9646818081267963,
            -0.8995515366433127,
            -0.7997598585360637,
            -0.34935036385161156,
            -0.9227800570864342,
            -0.5451987357015193,
            0.02680486044980257
        ],
        [
            -0.13014691394498645,
            -0.10647672468920799,
            -0.8198868027051469,
            -0.4232195602743134,
            0.1638963159948852,
            0.1541128904520832,
            0.06381210477431831,
            0.07660445400959337,
            -0.8778466209811635,
            -0.8705661447112476
        ],
        [
            0.5005690647484298,
            0.10837218180851149,
            -0.051436150902987476,
            -0.5879639615661727,
            0.4395955706678776,
            -0.5310660387143311,
            0.5674344860695988,
            -0.03424834679156574,
            0.1719250271730577,
            -0.9126366300837798
        ]
    ],
    "biasesTwo": [
        -0.08432517763552849,
        -0.22291613014919864,
        0.2989510605783767,
        -0.8579351736902809,
        0.6662850619855609,
        0.4346582485886743,
        -0.5685503004758106
    ],
    "weightsThree": [
        [
            -0.2269723901488414,
            -0.5188813059274757,
            0.2018995422392147,
            -0.6814679422211956,
            -0.5177202457937475,
            0.854974149430473,
            -0.4349229604181728
        ],
        [
            -0.9554070630357874,
            -0.1921909810929474,
            -0.6211428755865416,
            0.07655417142943888,
            0.22850379089492034,
            -0.5427053716913206,
            0.11143310809279106
        ],
        [
            -0.9299823711655475,
            -0.41804991812993797,
            -0.38981107939269055,
            -0.3627065019693363,
            -0.7205460853476597,
            -0.4545322326042449,
            -0.924212484710272
        ],
        [
            0.27069822357562545,
            0.21607141033259114,
            0.597492675780267,
            -0.18074135197987284,
            0.8065720588547525,
            0.29095063585678993,
            -0.9175501422413928
        ],
        [
            -0.6096977160095483,
            -0.501610902103897,
            0.3211147075704721,
            -0.6172947242878077,
            0.8470227928797687,
            0.44881041742263106,
            0.18861870520940505
        ]
    ],
    "biasesThree": [
        -0.37050573943683274,
        -0.5438565609819503,
        0.5842331896672308,
        -0.45729674480401306,
        -0.44107700886712986
    ],
    "weightsFour": [
        [
            -0.1365985522339892,
            -0.39599563066114074,
            0.9754590646408907,
            0.968266804446742,
            -0.21535665749112365
        ],
        [
            -0.540193310113946,
            0.8153534804924516,
            0.044951863892829236,
            0.3075746199699614,
            0.16101472580028964
        ],
        [
            -0.5147899807954428,
            0.882299287714801,
            -0.8589543987057604,
            0.4248875565485801,
            -0.9438348352616184
        ]
    ],
    "biasesFour": [
        0.547464541324628,
        0.4149813266262363,
        0.9471586242676338
    ],
    "weightsFive": [
        [
            -0.8213580543048811,
            -0.909944146585544,
            0.08858105413118178
        ],
        [
            0.30071315994542025,
            0.39244761739280776,
            -0.25989948230583515
        ]
    ],
    "biasesFive": [
        0.38809127329314164,
        -0.35446470712319655
    ],
    "fitnessValue": 0.0
}