{
    "weightsOne": [
        [
            0.9758385544684103,
            0.4023032037336214,
            0.9946297219020106,
            -0.9370134322645383,
            -0.11929063668717488,
            0.7054228574849621,
            -0.7925322198679194,
            0.16235954642747186,
            0.39530020965832047,
            0.6949040073482169
        ],
        [
            0.6755032230149352,
            0.07475237255965084,
            0.5786617670063559,
            -0.20712992569861988,
            0.9189233715368494,
            0.07932974927378345,
            -0.6571018847197048,
            0.5556676928513129,
            0.18112787625198634,
            -0.5403387238355413
        ],
        [
            0.22175347539064294,
            -0.28872140164776017,
            -0.239136205886318,
            -0.1365024362099312,
            0.5681803055725376,
            -0.08993027744757076,
            0.09289898647341954,
            -0.794466278682598,
            -0.06834147058526541,
            -0.44648171425836547
        ],
        [
            0.9258819580523978,
            0.8991263659145465,
            0.543870981977064,
            0.7405792510650793,
            -0.9758351095917164,
            0.13337265039063007,
            -0.17494830658721394,
            -0.12208482129687304,
            -0.3613493803384351,
            0.058973708983923734
        ],
        [
            0.45939218465091103,
            0.5478790672210014,
            -0.6535175704546234,
            0.5582206884661525,
            0.7473031754803909,
            0.23863797089823424,
            -0.26467256621691626,
            -0.785982571496419,
            -0.8693819363532478,
            -0.7336864539195112
        ],
        [
            -0.02797075171540353,
            0.8664885679463157,
            0.8319291451393862,
            -0.5013197504629567,
            -0.2906312730578793,
            0.0855846409927481,
            0.5668689703100978,
            0.4324935449555669,
            0.15113311654179795,
            0.32353824758362926
        ],
        [
            0.01654342280659904,
            0.9156358293866664,
            0.026722669405185195,
            -0.48019064544066525,
            -0.9090592011686647,
            -0.375724537691867,
            0.45221522229106936,
            0.8322978932710903,
            -0.282457888938217,
            -0.2676310940554889
        ],
        [
            0.0740615259700701,
            -0.5715519501890671,
            0.7286676438101687,
            0.40486598229701376,
            0.2589454092278478,
            -0.9451728920185314,
            -0.8060550870163532,
            -0.4178019538690809,
            -0.12792602131691422,
            -0.5344767542761215
        ],
        [
            -0.25008829645118746,
            0.922752496905352,
            -0.28354463495701054,
            0.6368647117861785,
            0.1292611746518344,
            -0.2065350220961477,
            -0.671296064571224,
            0.10301746661835365,
            -0.6088767214188455,
            0.005531800730646186
        ],
        [
            -0.13009073163398654,
            -0.6431324819956361,
            0.8295359753975098,
            -0.018803886149130644,
            0.8685493060231082,
            -0.39028534784639546,
            -0.7511469509741351,
            0.8959103053647854,
            0.27776972320088067,
            -0.9928936747707364
        ]
    ],
    "biasesOne": [
        -0.2185167948210558,
        -0.5671506025485262,
        0.9816377262819416,
        -0.22240767620140356,
        -0.3544889701587284,
        0.03641609170538662,
        -0.9796914416320661,
        0.31851980499653165,
        -0.8988504218982658,
        0.581467772568298
    ],
    "weightsTwo": [
        [
            -0.05731019516856284,
            0.5571869364658215,
            0.44216437795138397,
            -0.9121000227144407,
            0.311568832314316,
            0.36737901035903286,
            0.25624688143563557,
            0.7888114981506227,
            -0.9188028409256537,
            0.6190820813257427
        ],
        [
            -0.8724781846509839,
            0.07752900673220764,
            -0.47208309216116073,
            0.6024717001354791,
            -0.859303480624541,
            0.043720289987969396,
            -0.21992270084620946,
            0.8009786407155541,
            -0.0898791792429976,
            0.999882878796372
        ],
        [
            -0.9678445265621682,
            -0.015908290701916572,
            -0.1113537553406847,
            -0.8540733522075088,
            -0.33542887343467354,
            0.23091745503682315,
            -0.5276084712948728,
            -0.3390723888067315,
            -0.3485808105815842,
            0.8328150081956036
        ],
        [
            -0.08255437238103602,
            -0.8372786395584855,
            -0.4094582741639159,
            -0.5805183212714002,
            -0.6484570623848152,
            -0.7583814168677041,
            0.9704191428971087,
            0.3896139088968482,
            -0.8359682881732817,
            -0.2153205712848154
        ],
        [
            0.9033551785277263,
            0.13458935775807546,
            -0.8847232924478909,
            0.40531040895616743,
            0.856019432387285,
            -0.4114718021699051,
            0.833599911099624,
            -0.5114359261742565,
            -0.9604455950243294,
            -0.2981935529682851
        ],
        [
            -0.772078418164178,
            0.19302293892609357,
            0.9906860960832149,
            0.0763456020223785,
            -0.9053550708173748,
            0.7252640245852553,
            -0.14367707251491768,
            0.9522085289015854,
            -0.13444607215322568,
            -0.5748212129616272
        ],
        [
            0.15732085933252105,
            0.12282797826926894,
            -0.35014398862681806,
            0.33046928988668833,
            -0.7995317067666301,
            -0.7962433069473134,
            -0.01696753143802865,
            -0.7953579130297108,
            -0.9833256765253051,
            0.8362281258036417
        ]
    ],
    "biasesTwo": [
        -0.3635729338384299,
        -0.1770480004433761,
        0.11950280924132128,
        -0.6988914066660457,
        0.018160859338095303,
        -0.856408311519292,
        -0.5010381097037258
    ],
    "weightsThree": [
        [
            -0.17547440902218026,
            -0.0052990312744409795,
            0.009827961262119489,
            0.868323657633332,
            0.0857345668346674,
            0.7941527646920044,
            0.03981512566933376
        ],
        [
            0.6300823261097075,
            -0.8983625606975516,
            -0.2078241028907717,
            -0.9611068406749264,
            -0.7331197732221395,
            0.006535761839325804,
            -0.623832086859424
        ],
        [
            -0.7332196795957937,
            -0.060477270990086485,
            -0.7308165691776976,
            -0.24643218673282496,
            -0.7549244462460434,
            0.10037803407068258,
            0.6941884391239934
        ],
        [
            -0.6921031645715114,
            0.3619947386215032,
            -0.6047887176622446,
            0.47698728455727046,
            -0.057358212701974054,
            0.5479285575131791,
            -0.8939368727959827
        ],
        [
            0.29854713060166715,
            -0.7163152616259136,
            0.6549438233669296,
            0.5694712758806681,
            -0.7066464537061339,
            -0.3174506493720781,
            0.9700902872237651
        ]
    ],
    "biasesThree": [
        -0.8484964011615315,
        0.34653577944371006,
        0.5018882634175343,
        0.9015374619424521,
        -0.04993829624085344
    ],
    "weightsFour": [
        [
            -0.9717665610674269,
            0.6463602500502064,
            0.9206377701404511,
            -0.6749021812775635,
            -0.45374908798697167
        ],
        [
            0.19528597497951816,
            -0.34235887281571076,
            0.27221771642117787,
            0.11213822550990304,
            0.46758975152125304
        ],
        [
            -0.06971858268254993,
            0.15076334409098524,
            -0.2398080478727469,
            0.6461474514026115,
            0.7147991237068072
        ]
    ],
    "biasesFour": [
        -0.3399322601211072,
        -0.7918894309595037,
        -0.07085768004762527
    ],
    "weightsFive": [
        [
            -0.9814989166323869,
            0.41463479424402583,
            -0.7580451702816915
        ],
        [
            -0.21050568767914402,
            -0.1532978968661194,
            0.4891055888542639
        ]
    ],
    "biasesFive": [
        0.23835322145440951,
        0.7940953054218161
    ],
    "fitnessValue": 0.0
}