{
    "weightsOne": [
        [
            0.9594236041142732,
            0.37230430874416864,
            -0.8512974151413175,
            0.31891823474162684,
            0.2101509321593873,
            0.2522068445481034,
            0.39880630627450864,
            -0.4217482694671659,
            -0.6835110254675134,
            0.9786723393463594
        ],
        [
            -0.04201237950312975,
            0.03278272554409645,
            -0.5778370649021671,
            0.37502708695687414,
            -0.36496404616685196,
            -0.13108410612390853,
            -0.8949937604900495,
            -0.6055347657372745,
            0.5733137878790633,
            0.628768238098665
        ],
        [
            0.8637148889266317,
            -0.2207378857505915,
            -0.36856121977267,
            0.03390661268024431,
            -0.9307747591893707,
            0.35637117830000364,
            -0.010151106942117627,
            0.3406990949972222,
            -0.597734754848827,
            -0.6978899563230911
        ],
        [
            0.5292935699059025,
            -0.8519321449124009,
            0.2639423215495138,
            -0.000923336241970274,
            -0.23695075962077983,
            -0.016052425233067824,
            -0.7575377040156901,
            -0.22398664458138295,
            -0.92876504865487,
            0.594261532097538
        ],
        [
            0.12977725879487823,
            -0.6153983429648111,
            0.2630570778518706,
            -0.9570368435644656,
            -0.4956377557654572,
            0.600306244400372,
            0.023119509213202605,
            -0.44865722229332583,
            0.31496372305165266,
            -0.7827689650848124
        ],
        [
            0.10062380962486928,
            -0.825424758691697,
            0.235521186243433,
            -0.9450740840938192,
            -0.10617810458590915,
            0.9865249598064298,
            -0.08282104660976786,
            -0.024106037653396806,
            0.5508358378463469,
            0.8317822708049696
        ],
        [
            0.561001449861841,
            -0.7796416386995382,
            -0.8186557900513989,
            0.5150285512668804,
            0.5840841988120522,
            -0.3468291130996233,
            -0.1785237707728593,
            0.40709525409819736,
            -0.5008278279610414,
            -0.22830898624567197
        ],
        [
            0.01880943124600143,
            0.2520784481326277,
            -0.0024423190277889084,
            0.24160166173469833,
            0.6363016151429499,
            0.7008033807446417,
            0.01901710898220088,
            0.5806166478074481,
            0.11564287405808304,
            -0.4758987065144471
        ],
        [
            -0.8733173192775692,
            -0.26395088820543244,
            0.40290779922568287,
            0.6537597131473236,
            -0.6052100042784487,
            -0.319364848741315,
            0.36919277729255606,
            0.661201172066014,
            -0.12762701833886658,
            -0.396840277158373
        ],
        [
            -0.7986859969869349,
            -0.662796638190319,
            -0.531277916859139,
            0.7196785386159217,
            0.14687109333387194,
            0.544348480640926,
            0.5835091039707696,
            0.057233104953953395,
            0.03576044528088107,
            0.12623017616852006
        ]
    ],
    "biasesOne": [
        0.5927687434334743,
        -0.9972659211753232,
        0.6953682594052939,
        -0.7684405036532742,
        -0.053844990302565954,
        0.8292449734867819,
        -0.8707432597335925,
        0.2626914836897156,
        -0.7148662406505502,
        -0.5957963012524563
    ],
    "weightsTwo": [
        [
            0.03537685893424225,
            -0.32733438347783705,
            -0.26100981320750205,
            0.1061139547186698,
            0.05998602570401568,
            -0.8481181261246395,
            0.9211865556729322,
            0.03846189852132387,
            0.9346483197232245,
            0.6675656939434502
        ],
        [
            -0.13589405166206303,
            0.69008330434958,
            -0.2097703692676498,
            0.938553793508579,
            0.5557661624440982,
            -0.0179621538024759,
            0.27643884345662406,
            -0.2979379787653995,
            -0.5937225319685835,
            -0.1624515390753125
        ],
        [
            0.8122428247300644,
            0.5113082518478005,
            -0.15816328449469008,
            0.09158220886077406,
            -0.5714666366214931,
            0.3287503806452874,
            -0.2346587891921197,
            -0.18859164733799338,
            -0.8966026564181804,
            0.20281336805991912
        ],
        [
            -0.2487630761403572,
            -0.946993189669231,
            -0.965222212923736,
            0.7489789448883728,
            -0.1577976592238013,
            -0.8048883724423366,
            0.7823672785082816,
            -0.06203168183041252,
            0.941915668390529,
            0.780796939259125
        ],
        [
            -0.42402684166699633,
            0.344404094738882,
            0.8732377888751888,
            0.5251109732321411,
            -0.570466187008619,
            -0.5697960825527877,
            0.16404677601130002,
            0.976706250740571,
            -0.8432839815510274,
            -0.32884128438898785
        ],
        [
            -0.9513513846406254,
            -0.8049563592434568,
            -0.6237839992857903,
            0.09506233371764083,
            -0.6608036054512636,
            0.19303694458400633,
            0.26595340884097385,
            0.564731138236432,
            -0.7243167941504667,
            -0.5234387714767674
        ],
        [
            -0.34143840271993464,
            0.6201422788224942,
            -0.30951421922627653,
            -0.7105374229929566,
            -0.26444386153196064,
            0.42630462276738346,
            -0.7305860469971885,
            0.9220822845697096,
            -0.22371429099606277,
            0.188073936784521
        ]
    ],
    "biasesTwo": [
        -0.7496497788247778,
        0.47867550037093265,
        -0.6435971992916949,
        -0.507452031523185,
        -0.2597017264234702,
        -0.10587485004519226,
        -0.605268901766973
    ],
    "weightsThree": [
        [
            -0.08732383767503116,
            -0.6172613880256308,
            -0.2415281168973593,
            -0.4971980273154384,
            -0.40126409938851415,
            -0.8751580158545982,
            -0.7045960084690193
        ],
        [
            0.9666204214990739,
            0.42772814180647534,
            0.4449028570040614,
            -0.9087565336793002,
            -0.8068420734317605,
            0.7325260998399843,
            -0.4062106594112376
        ],
        [
            0.6204074832352215,
            0.17065565359914636,
            -0.9297928200217025,
            0.5903602961508136,
            -0.44964352955657616,
            0.34422214085368363,
            0.8135875257009368
        ],
        [
            0.36608941404432804,
            -0.4033215063404869,
            -0.28104353107077085,
            0.7016456545596246,
            -0.003718117878747984,
            0.3577207423896973,
            -0.4010417461496152
        ],
        [
            0.1668662505729388,
            0.9292790168804992,
            -0.44821950321629567,
            0.22703111825024047,
            -0.9199836797541168,
            0.6209206533982667,
            -0.7193261504088044
        ]
    ],
    "biasesThree": [
        -0.1035716385221408,
        0.9922176743267315,
        0.47557381397835385,
        0.8517494854212095,
        -0.37921277926670816
    ],
    "weightsFour": [
        [
            -0.16590610566775066,
            -0.4750851262730982,
            0.8648284013121608,
            0.4474476481320737,
            0.19765481045266853
        ],
        [
            0.5781312552740225,
            -0.16196997673994473,
            -0.6556829786555152,
            0.44235973184648336,
            0.6846328257550862
        ],
        [
            -0.5720643800737377,
            -0.7670955230629515,
            -0.595891156192166,
            0.3432814781367308,
            0.17397481885863297
        ]
    ],
    "biasesFour": [
        0.7706748414253737,
        0.306155449719149,
        0.37420460988857607
    ],
    "weightsFive": [
        [
            0.2052788914839283,
            -0.2052689263775893,
            0.7390116022410242
        ],
        [
            -0.6499112866948531,
            -0.402732333905504,
            0.1600796991694633
        ]
    ],
    "biasesFive": [
        0.5141816933845051,
        0.8529546237523491
    ],
    "fitnessValue": 19.399966927135065
}