{
    "weightsOne": [
        [
            -0.42401116854527987,
            0.9899490868674572,
            0.5994094986944425,
            0.6836437888961218,
            0.38416757083968633,
            0.41648362051569543,
            -0.6001568962827608,
            0.25278165367811334,
            -0.9368171286296094,
            0.1181948681540459
        ],
        [
            0.339430200288402,
            0.955575790805538,
            0.3138759582909276,
            0.2878606162191557,
            -0.6033456977042286,
            -0.8374797455774969,
            -0.09643467763309,
            0.5470877337473521,
            0.46972781302267275,
            0.9447973165788084
        ],
        [
            -0.3846314033120992,
            0.6746456114479276,
            -0.3824892095012309,
            -0.42860101480545465,
            0.47785279411636084,
            0.6633318759643445,
            -0.8962969598412183,
            -0.2644064319627262,
            -0.3982011619938606,
            0.40718326545921557
        ],
        [
            0.7645512232763847,
            -0.5232830399113819,
            0.6363677798460168,
            -0.24972399762653552,
            0.9866384224480096,
            -0.29208505280571084,
            -0.654948947718522,
            0.08748903092357296,
            -0.9222102627846591,
            0.6170070798045355
        ],
        [
            0.6273240963090612,
            -0.4888937019467472,
            0.9315703301974649,
            -0.5689517795208228,
            -0.8010144677521458,
            0.4078779040810807,
            0.465598524272163,
            0.9958141850923339,
            -0.29867333321691647,
            -0.4139796906743627
        ],
        [
            -0.02230036584919093,
            0.1332999211731698,
            0.6866167432582839,
            0.2728292769752636,
            0.17597160615374063,
            -0.37782017462066775,
            -0.6282463651939456,
            -0.6787398327974123,
            0.801887216960069,
            -0.8955432085395516
        ],
        [
            -0.04058309787761605,
            0.8269227744275163,
            0.04873393351551569,
            -0.20485246158014458,
            -0.8500614706362242,
            -0.662306052521525,
            0.7688390638179363,
            -0.7729492923019505,
            0.02470995411748822,
            0.6163042994449306
        ],
        [
            0.09581707718615107,
            -0.8222119749596604,
            0.13058439106271802,
            0.6911195434407706,
            -0.2335219723843296,
            0.08809575387964008,
            0.4033158567592128,
            0.40413882312570704,
            0.8332922546617831,
            0.15810539341653107
        ],
        [
            -0.07792692240680466,
            -0.561129914844551,
            0.4469021719601065,
            -0.48728776095556303,
            0.09632818294092083,
            0.5481269310136958,
            -0.9665370408205323,
            -0.7536407994116645,
            0.693721497604338,
            0.7828527511100996
        ],
        [
            0.48422042418057765,
            -0.6198190832920376,
            -0.18093741151604625,
            0.9708128479940508,
            -0.4871362017994827,
            -0.6150318724846717,
            0.402660937383851,
            -0.1243010721442781,
            0.7649175032895359,
            0.330511282914145
        ]
    ],
    "biasesOne": [
        -0.35799092626006646,
        0.02062953867164463,
        0.07316384121062725,
        0.5134397278999234,
        -0.36018667310399577,
        -0.5648268145415607,
        -0.26601065164859206,
        -0.40803926895203513,
        0.11796119746093936,
        0.004513419716170031
    ],
    "weightsTwo": [
        [
            -0.8956909636973711,
            -0.1394779295670181,
            -0.43686149846536204,
            0.9422507626619312,
            -0.7257364797896289,
            -0.023069636365426582,
            -0.42281785728872134,
            0.2794453788895206,
            -0.5623066941208195,
            -0.8770927117105376
        ],
        [
            0.8667948281016831,
            -0.7127044715850797,
            -0.01818307771818639,
            0.7720266077813698,
            0.9841821124932817,
            0.7842622737528089,
            0.516606805297585,
            0.261566065216587,
            -0.7087531849069162,
            0.698271070901535
        ],
        [
            -0.8054981885727366,
            0.8776036754166077,
            -0.4071678216430117,
            0.4229044640231201,
            -0.058372861884814276,
            -0.5663020191344597,
            -0.030332100082040236,
            -0.5398070242690505,
            0.4653998776961781,
            -0.7506152810376054
        ],
        [
            -0.39592622975731406,
            -0.7846647035597087,
            -0.21435610045317355,
            -0.6144330259295507,
            -0.6550229646925796,
            0.9237665342607235,
            0.48546041980356724,
            -0.8974900552138612,
            0.4138622300385395,
            -0.8034622075309457
        ],
        [
            -0.8726971616817667,
            -0.03973571529587616,
            -0.08547227314650563,
            0.08656353918344917,
            0.23692153436644037,
            0.8727185913603919,
            -0.8393603407372772,
            -0.2834747663318897,
            -0.17019894374436317,
            -0.8855127128128744
        ],
        [
            -0.31994828418411725,
            0.0014677404697502894,
            0.2626041129711427,
            0.6325656466897407,
            -0.6589413533160591,
            0.49159732142564283,
            0.5153245659497394,
            -0.7036600450137231,
            -0.7390920862819732,
            0.38963467682125197
        ],
        [
            -0.001587796281645515,
            -0.9154249899556004,
            0.009913655131546628,
            0.03202988929417239,
            -0.8227614199920876,
            0.6785055341643993,
            0.472932130607703,
            0.007769056845028377,
            -0.02963625276007864,
            -0.4168629917524247
        ]
    ],
    "biasesTwo": [
        -0.5032117972541137,
        -0.9290806444880022,
        0.0034726454122415706,
        0.28343729767003145,
        0.02024682103484965,
        -0.9085595318500912,
        0.43998657515006
    ],
    "weightsThree": [
        [
            -0.8748034947973731,
            -0.4877330995268381,
            -0.3125925473599711,
            0.1354457803533473,
            -0.48899800270880056,
            0.8368483025864135,
            -0.9253079084225013
        ],
        [
            -0.008784007621169598,
            0.572361830640008,
            0.6413864929272199,
            -0.43362100232743295,
            0.9693777628306155,
            -0.7352901747831444,
            0.9276542157313812
        ],
        [
            -0.24369231362068455,
            0.015984027213668428,
            -0.6992343426790959,
            0.3510769150496247,
            -0.583942843129913,
            -0.11529113629903431,
            -0.18097796785841003
        ],
        [
            0.7589649921994854,
            -0.6213721195119444,
            0.6342850741350323,
            0.8007703527684997,
            -0.2731265031476049,
            0.9280012191906544,
            0.614222555721414
        ],
        [
            0.4761212979055329,
            0.8896085754446443,
            0.6101925569419062,
            -0.03308851101758026,
            0.053939938656137,
            -0.9732884956928096,
            0.9712009807214808
        ]
    ],
    "biasesThree": [
        0.5666836760401244,
        -0.6141918670552229,
        0.5532708681777239,
        -0.20587925007247376,
        -0.08422278742077416
    ],
    "weightsFour": [
        [
            0.33945561717848327,
            0.36858417918049247,
            0.1675230004582069,
            -0.1799934927944693,
            -0.9654632790094351
        ],
        [
            -0.38043611127391097,
            0.48201465876206306,
            -0.4185775449676723,
            0.35025793924872994,
            -0.05481076439278065
        ],
        [
            0.3635157296389795,
            -0.5200111403621506,
            -0.07926130344004356,
            -0.9755468246108978,
            -0.475403936905314
        ]
    ],
    "biasesFour": [
        -0.7704088587147977,
        -0.47070841187060153,
        -0.5961438946241526
    ],
    "weightsFive": [
        [
            -0.32518422981985196,
            0.18552928572034055,
            0.498105917677653
        ],
        [
            0.8077487621526493,
            -0.25053853168643037,
            0.42765922612817175
        ]
    ],
    "biasesFive": [
        -0.681051760271808,
        -0.5656834828949664
    ],
    "fitnessValue": 0.0
}