{
    "weightsOne": [
        [
            -0.3624653449977495,
            0.41002729090647105,
            0.6336731954193939,
            -0.32689918206373836,
            0.598454003075052,
            0.9192454116317363,
            -0.07392328616110588,
            0.6970628234584697,
            0.6702797898945321,
            -0.3038233795155034
        ],
        [
            0.3576875438545186,
            -0.5261378836817092,
            -0.7553218758994282,
            0.29900910557794647,
            -0.599652053554065,
            0.7698804501694121,
            0.9800053058550584,
            -0.38217981961121117,
            -0.42460824619724247,
            -0.6496334269545785
        ],
        [
            0.7298078022410488,
            -0.8414695079061203,
            0.48364162682906864,
            -0.26496142291729563,
            -0.9260239702137099,
            -0.9077659765760897,
            0.67122736796813,
            -0.7683990747416252,
            -0.8844205377638816,
            -0.013829125258266739
        ],
        [
            -0.6094317207376305,
            -0.7382450756266552,
            -0.6160731690052619,
            0.36736543196164084,
            0.03651291662612599,
            0.7093286854552969,
            -0.36284240886612307,
            0.6336256640442683,
            0.7100173045029701,
            -0.5526188293373924
        ],
        [
            0.0028903134789555196,
            0.502216133170966,
            0.37053855171048156,
            0.1263394360566803,
            -0.6380289870515632,
            -0.9669422104845391,
            0.023556576467496093,
            0.377733094486407,
            -0.20197115132486543,
            0.21186121094053423
        ],
        [
            0.36438812933241915,
            0.2496653300364271,
            0.5307539571391333,
            -0.641032221033077,
            0.5102867014817163,
            -0.8909679421042402,
            0.6216168474273105,
            0.43853929134370806,
            -0.35751819587396216,
            0.8312849260425508
        ],
        [
            -0.7573801259318687,
            0.006060935309175619,
            0.756929371548565,
            -0.5554376455988288,
            0.7105766172886161,
            -0.4857814705589749,
            0.2889446668138158,
            -0.4872410788979771,
            0.25321159160195306,
            0.6809191081414778
        ],
        [
            0.3841430338005076,
            0.8006624597827354,
            -0.6868062403759871,
            -0.3548487870744659,
            0.8000413413777245,
            0.14280775700996617,
            -0.8240498317749769,
            0.5953636905391526,
            0.8355169677427527,
            -0.06931665336188964
        ],
        [
            -0.05991269841118596,
            -0.2642959914825034,
            0.6359630741935338,
            0.8062565324030566,
            0.8185781118512765,
            0.3846353646935363,
            -0.9227704341730216,
            -0.8066318560052965,
            -0.7776673788404407,
            -0.6291031749974609
        ],
        [
            0.1905683895278385,
            -0.2080276817397897,
            0.2763804940511838,
            -0.8547464501936526,
            -0.3278058686025773,
            -0.6896894715229209,
            0.17774171562365781,
            0.44401400155729087,
            -0.9652610586128789,
            0.5647603685024176
        ]
    ],
    "biasesOne": [
        -0.9564216461773765,
        -0.3444757537172085,
        -0.630734784744921,
        -0.41546880961747856,
        -0.6161651663921535,
        -0.3524110142914676,
        0.6286743953612708,
        0.729336121825602,
        -0.32414968867518956,
        0.34668514788318117
    ],
    "weightsTwo": [
        [
            -0.4336797381166624,
            -0.38685164167902575,
            0.31432326200902394,
            0.8165963351058529,
            0.9127813637016597,
            -0.7333408600838887,
            -0.946326699546322,
            0.4513394233373287,
            -0.32218446704883874,
            -0.8191457854706345
        ],
        [
            -0.000628664842936999,
            -0.1580252313069861,
            -0.060751662294433295,
            0.23819985179329484,
            0.11621105798306597,
            -0.6464454942880717,
            -0.3295774535600682,
            -0.7641701728643879,
            0.9819125593333882,
            -0.8011216203616767
        ],
        [
            0.1799081787041681,
            -0.9916525409136396,
            0.03580468962029082,
            0.8530071236089716,
            -0.6611386189010073,
            0.4626748681957995,
            -0.8734133184067334,
            0.14281762501229966,
            -0.9165245720466053,
            0.260271678003579
        ],
        [
            -0.011767399990656457,
            -0.02482745088686067,
            -0.40334794569336463,
            -0.46944677685495195,
            0.6568740838648319,
            0.5367774225725994,
            -0.5759650267051306,
            -0.6266952685530234,
            0.6540837346963011,
            0.2565093174912465
        ],
        [
            -0.43859637734785095,
            -0.8772810770177648,
            0.08392471363045395,
            -0.0630452306533118,
            -0.8381161557101642,
            0.04806393480499982,
            -0.7020798613784596,
            -0.19347097820568293,
            -0.22415599020234223,
            0.41385590946608364
        ],
        [
            -0.5230878111291388,
            -0.9011371442223761,
            -0.9986238024961631,
            -0.5968667591763719,
            0.786155650982161,
            0.21533440305188178,
            0.2808093137826009,
            0.5257268377080924,
            0.2651683040335169,
            0.7575453740962736
        ],
        [
            -0.6975723132675837,
            0.3755087149416245,
            -0.28570474621632913,
            -0.2822479389374586,
            0.6865369902887826,
            -0.4277536925038268,
            -0.26322310060344023,
            0.4895282591274239,
            -0.5826537452939045,
            -0.2227228254044109
        ]
    ],
    "biasesTwo": [
        -0.40469652514091714,
        -0.9172550485547051,
        -0.3072593352798225,
        -0.13564432602873389,
        -0.814478539197437,
        0.6648672524477739,
        0.9108374390663108
    ],
    "weightsThree": [
        [
            0.9127770754121427,
            0.7482847491578608,
            0.382760981633645,
            0.006241751766278725,
            0.33574886062681863,
            0.9718667931169316,
            -0.7640078164612276
        ],
        [
            -0.3274511273870613,
            0.48164119722489485,
            0.3613869059552075,
            -0.8069345704929494,
            0.8147641443558273,
            0.8629025498357996,
            0.6417479484955269
        ],
        [
            0.3409188314631526,
            0.9939070993814476,
            -0.27209630464882184,
            0.5012772037041597,
            -0.6324654217095542,
            -0.4666893561636698,
            -0.8191582056498237
        ],
        [
            0.44301451703094985,
            -0.4325647089299134,
            -0.026963756809771144,
            -0.2495141044653848,
            0.8081591720376333,
            0.437971822292218,
            -0.025218272440305833
        ],
        [
            0.9974712077616801,
            0.9631092593568988,
            0.06568114636266142,
            -0.8050707963646468,
            -0.43081630589631925,
            -0.3791612616829454,
            -0.3109908788875164
        ]
    ],
    "biasesThree": [
        -0.6178659519413852,
        -0.00019435873432338546,
        -0.5605447299883928,
        -0.8409794457504476,
        0.05932496335266535
    ],
    "weightsFour": [
        [
            0.02744734459668363,
            0.7861219261706109,
            0.7424105002297836,
            0.316564203406025,
            -0.6603406116621269
        ],
        [
            0.5779415749214223,
            0.20952519103517964,
            -0.5689502625801328,
            0.33307868438547406,
            0.31179380246812993
        ],
        [
            -0.39458223771104284,
            0.22779613089946138,
            0.639952248810457,
            -0.8598313515718936,
            -0.4492842611832175
        ]
    ],
    "biasesFour": [
        -0.7770185122638276,
        -0.7993762609924071,
        -0.01388160873462052
    ],
    "weightsFive": [
        [
            0.28648262317433737,
            -0.41420112365208483,
            0.33775149575571084
        ],
        [
            -0.4070791838032042,
            0.9907295181487425,
            -0.7465968778921128
        ]
    ],
    "biasesFive": [
        0.708403826733158,
        0.6976875774355622
    ],
    "fitnessValue": 0
}