{
    "weightsOne": [
        [
            -0.048716777261307964,
            0.3193271970153566,
            -0.6872109971451099,
            -0.8867080052166836,
            0.543116459371332,
            -0.3661632105400152,
            0.4885070322531071,
            -0.7993568099409687,
            0.2314327177181612,
            -0.9499831862193755
        ],
        [
            0.41680323306832423,
            -0.08544044922640825,
            0.07876709532968729,
            -0.20198838855007084,
            -0.638096557835601,
            -0.2685597481119719,
            -0.054098450793882646,
            -0.21901639795816497,
            0.2086842536835174,
            0.6184547504100104
        ],
        [
            -0.01063335801153098,
            0.5245168186323252,
            0.42398014474284973,
            -0.024334643847676807,
            -0.07672247856676528,
            0.9044073277540494,
            -0.8238137460126074,
            -0.43443579622797057,
            0.7396879005058137,
            -0.5719031922783295
        ],
        [
            -0.16085737837710834,
            -0.5388854219186558,
            0.25522577271719316,
            0.05721384343365998,
            -0.3483195033475355,
            0.8628973438813796,
            -0.5533502545545206,
            -0.8289172003427425,
            0.42929564985587865,
            0.2392164205023679
        ],
        [
            0.2678230534170789,
            0.7111938473539507,
            -0.7634669514960448,
            -0.5153536525801983,
            -0.9277460189182811,
            0.9083340806933846,
            0.6224285572036701,
            -0.9212830322236698,
            -0.41062672089416896,
            0.18182838117151445
        ],
        [
            0.15589992748230608,
            0.0860299866274481,
            -0.5916566350349979,
            -0.017602110251002445,
            -0.4141242479985683,
            -0.4823784676196796,
            0.9691092165809674,
            -0.8013870832581504,
            0.443390223201944,
            -0.14845800400691433
        ],
        [
            -0.629862114071158,
            0.14657688093855192,
            0.3461602964255388,
            0.43147815044049476,
            0.9363440938773238,
            0.8169821446096388,
            -0.9520363683471671,
            0.4733604001605878,
            0.23003635176608372,
            0.5732069673128803
        ],
        [
            -0.8827117886067697,
            0.005269180441864307,
            -0.04822941520473045,
            -0.49081942824455704,
            -0.16643082917332142,
            -0.6595813654577016,
            0.7399457443149913,
            0.5045843275461033,
            0.9644304099194103,
            0.6754429304763048
        ],
        [
            -0.27319960333745974,
            -0.9308313040252998,
            -0.08601174867533601,
            0.9126622231181691,
            -0.5778126371517653,
            -0.20138002871719451,
            -0.787994806720254,
            0.8208584638926326,
            -0.1781677531750001,
            0.04601422141973899
        ],
        [
            0.971776339211162,
            0.03192262674409063,
            0.45253160575274176,
            0.1688575069845839,
            -0.5470829512170956,
            -0.6479362667533051,
            -0.411297096096811,
            -0.9762495768513684,
            0.06293517050164055,
            0.45516856313583
        ]
    ],
    "biasesOne": [
        0.09471206117803943,
        -0.21491729782259616,
        -0.05357403883000322,
        -0.4051457687355495,
        0.994007346764626,
        -0.4021784454876449,
        -0.016275135700364096,
        -0.437290289678103,
        0.39934222841957134,
        0.9106667534178041
    ],
    "weightsTwo": [
        [
            0.10540574189082341,
            0.8425603174650005,
            -0.6615385237357414,
            0.2505845851763533,
            -0.25867441456400275,
            -0.9546089050200603,
            0.39001490132260463,
            0.2761360276693492,
            -0.9143386507869029,
            0.5605440621247384
        ],
        [
            0.8813094141209128,
            -0.19506122608897902,
            -0.056589602257492544,
            0.37615015418599373,
            0.09493346100422562,
            0.9818517735519763,
            0.7901714813952596,
            0.5264310313778597,
            -0.14068330275205554,
            -0.2803003171563123
        ],
        [
            -0.2064513778117556,
            -0.7037613798536597,
            0.9508441563060284,
            -0.9284248101731973,
            0.380844276692595,
            0.9641973917817415,
            0.3598169501239801,
            0.4838201939895663,
            0.8650023066270633,
            -0.2499928554260269
        ],
        [
            -0.9868073323476758,
            0.7922052586170123,
            0.8306367582233072,
            -0.8027157899549213,
            -0.9716104537746786,
            0.7686833895032055,
            -0.7101605927536616,
            -0.05545922894311328,
            0.7469649640025171,
            0.3597572545851053
        ],
        [
            -0.6726371095624173,
            0.7933633076944699,
            -0.995098737281549,
            -0.7773707619347501,
            -0.36238809229225866,
            0.06086847544494933,
            -0.664864768723695,
            -0.34716073131044456,
            0.1631083267260054,
            -0.9977850423024213
        ],
        [
            0.14557598088640988,
            0.025625236023299136,
            0.3839829759544424,
            0.3170648941324494,
            0.23124740038044522,
            -0.557076212362889,
            0.914740402077562,
            0.514823809076669,
            0.8718937231607289,
            -0.038675157320595455
        ],
        [
            -0.5937346388769311,
            -0.6056175353662492,
            0.3656281609140757,
            0.029630395213767757,
            -0.09539626209060525,
            -0.604136841805718,
            -0.5524639242700684,
            0.23271264365148503,
            -0.123361307350496,
            0.6526712234842578
        ]
    ],
    "biasesTwo": [
        -0.14879812051216534,
        0.449024754157449,
        -0.987656956064924,
        0.8567228365912436,
        0.9624052068643081,
        0.0024978412160829855,
        -0.9785214791989114
    ],
    "weightsThree": [
        [
            0.780179522713806,
            0.9319386816267321,
            0.09489313662715948,
            -0.7205108362101271,
            -0.47832630611347215,
            0.46453399935328155,
            -0.9175936397744013
        ],
        [
            0.3010426576183962,
            -0.9964305978784878,
            -0.3577513162450985,
            -0.11159631334637932,
            -0.9916080591431757,
            -0.5552489220207288,
            0.11162178840428161
        ],
        [
            0.6146260227960765,
            0.8560450205629233,
            0.35420189505319866,
            0.8584603599931637,
            0.3166001937694827,
            -0.29779113157319226,
            0.6731162583423012
        ],
        [
            0.7984624825624116,
            0.4426767598052166,
            0.11581791124720531,
            0.5547870781072048,
            -0.5229346256286167,
            0.7618544457959466,
            -0.6454049389377849
        ],
        [
            -0.18794207995525025,
            -0.45807861526876237,
            0.15715920125944471,
            -0.4344324078707853,
            -0.13357481557977824,
            0.66979892570902,
            -0.43337743552156205
        ]
    ],
    "biasesThree": [
        0.769946773632705,
        0.8936533672662559,
        -0.6328780783805754,
        0.9439434711599641,
        0.3011686788902681
    ],
    "weightsFour": [
        [
            -0.6693393514295958,
            0.9609888179990076,
            0.10853022162074821,
            -0.17841128621395375,
            0.5490088209824793
        ],
        [
            0.8367666660005346,
            0.8583752534369722,
            -0.4282137742954748,
            0.8029751151819426,
            0.8434770424035158
        ],
        [
            -0.6553011993254532,
            -0.7052610668028967,
            -0.29140736567803693,
            0.1723083516530055,
            0.997750475849809
        ]
    ],
    "biasesFour": [
        -0.8926339410489823,
        -0.8672975713567759,
        0.34063569275145333
    ],
    "weightsFive": [
        [
            -0.16675439561097538,
            -0.32318386887155004,
            0.9524007247090369
        ],
        [
            0.887611916214232,
            -0.22029349232348805,
            0.09470656591590942
        ]
    ],
    "biasesFive": [
        0.5615797814523624,
        0.6050312643272147
    ],
    "fitnessValue": 0
}