{
    "weightsOne": [
        [
            -3.3083609247790946,
            -1.506463713932046,
            3.7326218669470315,
            0.4476415660714146,
            -4.817999164061693,
            -2.115465685638646,
            -1.1435506883147974,
            0.044301386923616626,
            -4.210241716808236,
            3.051770944644499
        ],
        [
            3.2801234083075776,
            -3.8497115271981674,
            4.7423330461903035,
            -0.14730070932231953,
            2.7956115728579984,
            -2.195805322741504,
            -0.512866526903025,
            -0.08167315748395643,
            0.28656649841164583,
            3.812446150153413
        ],
        [
            0.7500698698810366,
            3.7273658888402785,
            0.008548050224797876,
            -4.300807503125935,
            3.2147080859213233,
            -4.760251385585179,
            2.588361350900879,
            -0.9617452960762605,
            2.269668958476153,
            2.3791837406157947
        ],
        [
            0.8533181294267611,
            -1.2309890464369353,
            -0.08911521511289511,
            -2.5551761976935907,
            0.6117448249648103,
            -0.9912329884900308,
            -0.9533535055706768,
            -1.1453983010888988,
            0.1191820643292143,
            -0.4811014067806676
        ],
        [
            0.9001567236197914,
            4.989182804219096,
            4.229344390357532,
            1.5132035873635523,
            1.4445071463314338,
            -1.735358990920707,
            -0.28269030275591445,
            -1.7627296063733198,
            -0.23409261071656395,
            -1.0776259699672464
        ],
        [
            0.93508684085296,
            -0.32949882223457316,
            -0.12276626953533487,
            -1.3305567219038625,
            -0.9529166081492848,
            1.279007315182822,
            -2.9846432521266744,
            -0.8338838442751777,
            -0.903481502241231,
            -0.7900628482044154
        ],
        [
            -1.0129806093451355,
            -1.3310150816860675,
            4.781451543967886,
            0.4963994822926887,
            -3.1215422565384667,
            3.6833087737937404,
            0.5882620840008563,
            -0.8062167591647482,
            0.725724459383513,
            2.2654545993051878
        ],
        [
            -3.625158635086504,
            -1.8059699508096339,
            1.0853254855434713,
            -0.7463900487408457,
            -0.923150506444383,
            2.8042090653578278,
            4.42803561139147,
            -3.5467116051353518,
            -1.1909560435882316,
            -2.726144489116493
        ],
        [
            -0.3526574518415284,
            2.247473798487613,
            2.2744023582260118,
            -0.16520428896824768,
            -4.165326570263917,
            -1.6471738306179553,
            -0.536637237113391,
            -4.10994549860434,
            -3.9025708807798845,
            3.963023493579435
        ],
        [
            -3.714057626033882,
            -0.8363002992732522,
            -0.205792421188292,
            3.46622721064308,
            -3.4780196886080903,
            1.8243791176204578,
            3.6573511679854516,
            -0.5352025560595264,
            -3.2000403981580194,
            -2.2797902768378098
        ]
    ],
    "biasesOne": [
        -0.4982273736295024,
        -0.5913541985222017,
        3.786548656854645,
        -0.21863032392055448,
        -0.9166550090146801,
        -1.1778931709817666,
        1.190580508426792,
        3.7212421428681264,
        4.610902136818849,
        2.775890857713975
    ],
    "weightsTwo": [
        [
            -0.4695058078539711,
            4.001764398830833,
            2.7639675999633626,
            -1.5244658201107253,
            0.11655762484632604,
            -0.41750547612079103,
            4.921971964083108,
            2.7009889885969702,
            0.19752234665019763,
            -1.8485574673275629
        ],
        [
            0.735801909808881,
            -4.6682434061053915,
            3.709218493295852,
            2.397204143811847,
            -4.750871889182959,
            -0.9338155423910415,
            0.49577874757086704,
            -4.353066697316482,
            1.8399781963222406,
            0.0145190952324592
        ]
    ],
    "biasesTwo": [
        0.8116937933979589,
        -1.634248750522672
    ],
    "fitnessValue": 462.7794485588144
}