{
    "weightsOne": [
        [
            -0.40456862901587454,
            -0.08749758771831306,
            -0.17991847555254203,
            0.08733141657232202,
            -0.09605666879429231,
            -0.5576593845405577,
            -0.5106519011952282,
            -0.2102615405081545,
            0.6112084169195475,
            -0.2506159711634699
        ],
        [
            -0.5467984490473852,
            -0.19608638440631165,
            0.32522871634593997,
            0.1699766866120005,
            0.6266181512014521,
            0.16384734850656368,
            0.2023735607414292,
            0.9702195180498738,
            0.826932627840061,
            -0.5750416618587719
        ],
        [
            0.5607527422179712,
            0.8647609502838824,
            0.711355885551987,
            -0.7780914505057459,
            -0.3299610718074997,
            0.16041494850376847,
            0.29133291597283506,
            -0.38565970141594375,
            -0.6433620390404806,
            0.6823103479597894
        ],
        [
            -0.3981603195704786,
            -0.061185158941657436,
            0.25995251276078046,
            0.5902001934240233,
            0.2386569464682038,
            0.8777792475716977,
            -0.23063216256877506,
            0.6409743054771277,
            0.6532088638682052,
            -0.04444891467381784
        ],
        [
            0.8072521719878367,
            0.8416461473788361,
            -0.8285415231572408,
            0.9501412477193627,
            0.8812123030507859,
            -0.640294698668995,
            0.5533927224035555,
            -0.7929640628489574,
            -0.5205373680812553,
            0.40508077710282797
        ],
        [
            -0.5400886397544362,
            0.2449628696753292,
            -0.19249514743315377,
            0.0894484665982711,
            -0.06840469661505089,
            0.752771981817681,
            -0.3117844902667213,
            -0.4397322605532257,
            0.49050315549761025,
            -0.6312590494562442
        ],
        [
            -0.458079752210788,
            -0.37747719990468576,
            -0.6078373512841797,
            0.7180533046558906,
            0.2494392734053008,
            0.08018808589481496,
            0.1084247354453387,
            0.19552541923462385,
            -0.7248972995180056,
            -0.1834245731036277
        ],
        [
            0.2975387767452162,
            0.21921519792841115,
            0.7017874915209401,
            -0.22743964326941413,
            0.6133980034643445,
            -0.4197032471026929,
            -0.3482367869349907,
            -0.5115652246330387,
            -0.26820372020547834,
            -0.17271834643545114
        ],
        [
            -0.5421971911163288,
            -0.37494649965667093,
            0.8215719625032583,
            -0.2276090730432545,
            0.6638147620253174,
            -0.00806154738099063,
            -0.9640296795189551,
            -0.656101908383955,
            0.9160464446080292,
            0.06904146607834805
        ],
        [
            0.603980210696919,
            0.6397255178569223,
            0.760543825335485,
            -0.46070867385470415,
            0.07492711042761524,
            0.04617208451895416,
            -0.9778741039490404,
            0.4287865725040496,
            -0.37921382628647127,
            0.8600065577960743
        ]
    ],
    "biasesOne": [
        0.5131862995157794,
        0.5115303019611028,
        0.8917839469376092,
        -0.4233737875460246,
        0.5037899708103344,
        0.3404397564045689,
        -0.5163455968313118,
        -0.06691617121334481,
        -0.269390559254,
        0.37925896336663256
    ],
    "weightsTwo": [
        [
            -0.279105925770615,
            0.8501497708907864,
            -0.7459389347150851,
            -0.6158023949024569,
            0.3941468154966603,
            -0.9072260404929497,
            -0.04742261241189971,
            -0.04009790853845807,
            -0.8658647412148381,
            -0.35995770473766364
        ],
        [
            -0.3294846302889989,
            -0.6972064542848848,
            -0.8326619093496781,
            -0.6025077617808836,
            -0.0021982331223686646,
            -0.5648314866447472,
            0.2921870781275633,
            0.9426887267202968,
            0.09341213281510874,
            -0.36980941639511555
        ],
        [
            -0.10392137969663118,
            -0.026965377984276673,
            0.6218277015698139,
            -0.5500349693625999,
            0.4426478986712614,
            0.7624659863566432,
            -0.3716562294815493,
            -0.7763071051035977,
            -0.3807723739425284,
            0.2855820563644351
        ],
        [
            0.13673668940300487,
            -0.18680512943593963,
            0.2624437732874221,
            -0.8320731958180634,
            0.6686138198824634,
            0.3100841147160043,
            0.6813239322111642,
            -0.1426353646165619,
            0.1028463616305142,
            -0.6262448989738261
        ],
        [
            0.41375255733749783,
            -0.36439551192610264,
            0.3370711919571445,
            -0.6502976623938101,
            0.7949521078634809,
            0.7536781035395799,
            0.47420598938386993,
            0.444440463411786,
            0.9341473067696198,
            -0.1549539360678336
        ],
        [
            -0.10093622381972289,
            0.7545634647386474,
            0.9726782509238527,
            0.07790885080499588,
            -0.9121180110240934,
            0.7744898757145602,
            0.5618625156352306,
            -0.585526685331248,
            -0.3972012727807579,
            0.43755171380193825
        ],
        [
            0.3034608053645176,
            -0.8766279758777351,
            -0.05165004742152357,
            0.41621116804061,
            -0.14810130336918803,
            0.13963914508057274,
            0.04769734905336587,
            0.3504152249831678,
            -0.6803886250673756,
            -0.34398041517802036
        ]
    ],
    "biasesTwo": [
        -0.8249513741870298,
        0.09798609803339309,
        0.3000463232139321,
        0.3471471500851613,
        -0.8827523909741655,
        0.6554978852310362,
        -0.3254222422938118
    ],
    "weightsThree": [
        [
            0.9182107853880472,
            -0.12133446392137426,
            0.5734730122404601,
            0.35161481223336,
            -0.9886037535317613,
            0.5723435831663428,
            0.5631145346014228
        ],
        [
            0.6619630063993074,
            -0.16295206384908623,
            0.8874800803441929,
            -0.6999687254598213,
            0.5552319378172179,
            -0.8846540968987526,
            0.46474863549539025
        ],
        [
            0.8818979277388046,
            -0.07277923233498251,
            0.24792995486464942,
            0.8502324169138733,
            -0.49364884543122445,
            0.6071597595293048,
            0.9667220467490125
        ],
        [
            0.5855194961011665,
            0.12271788685723384,
            0.38559452609925504,
            0.7149560368874721,
            -0.768140924590351,
            0.3817056358321016,
            0.8450444473844461
        ],
        [
            0.24961260844725075,
            0.7867448516986679,
            0.2550719814895017,
            0.20310848808467297,
            0.5361116608956591,
            0.4776985448629667,
            -0.027763276467152487
        ]
    ],
    "biasesThree": [
        0.9636710214361703,
        -0.9623724175180599,
        -0.21657852605159933,
        0.3507759324466533,
        -0.9880804238310887
    ],
    "weightsFour": [
        [
            0.18489363339514764,
            -0.17449599727599963,
            0.8454473994490881,
            0.23887249675932387,
            -0.8873326732700686
        ],
        [
            0.845588496052861,
            0.21929738559653877,
            -0.5394253604769967,
            -0.73688526541606,
            -0.6313933594821819
        ],
        [
            0.7170145333216591,
            -0.7746539019723375,
            -0.2847309641439677,
            -0.8972909363936652,
            0.3927411542885515
        ]
    ],
    "biasesFour": [
        0.6744973272859072,
        -0.25579189050451734,
        0.44948489636670885
    ],
    "weightsFive": [
        [
            0.7327184050054376,
            -0.4645786879466154,
            0.5190750132472375
        ],
        [
            -0.5648230934442049,
            -0.14620411439271108,
            0.7663689846231776
        ]
    ],
    "biasesFive": [
        -0.9846753561389716,
        -0.1431370453344678
    ],
    "fitnessValue": 0
}