{
    "weightsOne": [
        [
            -3.3083609247790946,
            -1.506463713932046,
            3.7326218669470315,
            0.4476415660714146,
            -4.702638571776201,
            -2.115465685638646,
            -1.1435506883147974,
            0.044301386923616626,
            -4.210241716808236,
            -4.818509282490898
        ],
        [
            3.2801234083075776,
            -3.957975441197499,
            4.7423330461903035,
            3.1889349866991594,
            2.7956115728579984,
            3.1752914365632225,
            -0.512866526903025,
            -0.08167315748395643,
            0.28656649841164583,
            3.812446150153413
        ],
        [
            -4.121670668916764,
            0.16105246989609956,
            -0.5096385949946376,
            4.350775613930953,
            0.06975463911227653,
            -4.760251385585179,
            2.588361350900879,
            3.0255070740388295,
            2.269668958476153,
            2.3791837406157947
        ],
        [
            0.8533181294267611,
            -1.2309890464369353,
            -0.08911521511289511,
            -2.5551761976935907,
            4.770433605243731,
            0.8253354597862641,
            -0.9533535055706768,
            -1.1453983010888988,
            0.1191820643292143,
            2.071969905136214
        ],
        [
            1.048788569016982,
            4.989182804219096,
            4.229344390357532,
            1.5132035873635523,
            1.4445071463314338,
            -1.735358990920707,
            -0.13336431166397023,
            -0.32041605604260326,
            -0.23409261071656395,
            -1.0776259699672464
        ],
        [
            -0.10151938419251039,
            4.202668564123272,
            -0.12276626953533487,
            -1.3305567219038625,
            -0.9235759836923998,
            0.07720441556467028,
            -2.9846432521266744,
            -0.8338838442751777,
            -0.903481502241231,
            -0.6545498626537691
        ],
        [
            -1.0129806093451355,
            -1.3310150816860675,
            -0.12937366393297767,
            0.4963994822926887,
            -3.1215422565384667,
            3.6833087737937404,
            0.5882620840008563,
            -0.8062167591647482,
            0.725724459383513,
            2.2654545993051878
        ],
        [
            -3.625158635086504,
            -1.8059699508096339,
            1.0853254855434713,
            -0.7463900487408457,
            -0.923150506444383,
            2.8042090653578278,
            4.42803561139147,
            -3.5467116051353518,
            -1.1909560435882316,
            -2.726144489116493
        ],
        [
            2.6251470354240922,
            2.247473798487613,
            2.2744023582260118,
            -0.16520428896824768,
            -4.165326570263917,
            -1.6471738306179553,
            -0.536637237113391,
            -1.6718344592524872,
            -3.9025708807798845,
            3.963023493579435
        ],
        [
            -3.714057626033882,
            -0.8363002992732522,
            -0.205792421188292,
            3.46622721064308,
            -0.28838231679921034,
            1.8243791176204578,
            0.1998225317098994,
            0.8640967520586162,
            -3.2000403981580194,
            0.07769430702567881
        ]
    ],
    "biasesOne": [
        -0.4982273736295024,
        3.3717862373090224,
        3.786548656854645,
        -0.21863032392055448,
        -4.019548271661786,
        -1.1778931709817666,
        1.190580508426792,
        3.7212421428681264,
        4.610902136818849,
        2.775890857713975
    ],
    "weightsTwo": [
        [
            0.6836371531455778,
            4.001764398830833,
            2.7639675999633626,
            0.644125488449814,
            -0.17446513229350202,
            -0.41750547612079103,
            4.921971964083108,
            2.7009889885969702,
            0.19752234665019763,
            0.802082586145529
        ],
        [
            0.735801909808881,
            4.7457350198606125,
            3.709218493295852,
            4.523922799136557,
            4.252715345578721,
            -0.9338155423910415,
            0.49577874757086704,
            -4.353066697316482,
            1.8399781963222406,
            0.0145190952324592
        ]
    ],
    "biasesTwo": [
        0.8116937933979589,
        -1.634248750522672
    ],
    "fitnessValue": 27.404136147619344
}