{
    "weightsOne": [
        [
            -0.3151640813177079,
            -0.2265758322529008,
            0.025065522204595903,
            0.21330108978608364,
            0.3624520491963914,
            -0.3639360693008822,
            -0.9773688099490634,
            0.28558373960167227,
            -0.48204346255805386,
            0.6263010756104996
        ],
        [
            -0.07228875521301714,
            0.9921172455608191,
            -0.30519914900535516,
            0.8906860724652539,
            -0.9627669304039486,
            -0.2706229466090888,
            0.3754763142996358,
            -0.6560255835632112,
            0.8648356565562361,
            -0.6319338536799182
        ],
        [
            0.5343169287795315,
            0.689970829005476,
            0.5872026946603417,
            0.3144336296059993,
            -0.22882412926452833,
            0.24817508197647387,
            0.4207404508978956,
            0.33071207841414174,
            0.8773723233296218,
            0.8384966862572834
        ],
        [
            -0.0015450968915287078,
            -0.006853724082719559,
            0.5387195194000467,
            -0.8765532775978404,
            -0.774677978204003,
            -0.15559215046464425,
            0.5893855100781646,
            0.31794028633276494,
            -0.8674436827216445,
            0.7700555757746732
        ],
        [
            -0.146225804789486,
            0.8839834391810968,
            0.8940954051590573,
            0.4933292179469497,
            0.5065322268550552,
            0.6026604533108235,
            -0.32076649740301,
            0.06301467463481392,
            -0.3581656694913846,
            -0.9071479407636205
        ],
        [
            -0.9980611189022468,
            0.005462024909725249,
            0.46542959403538675,
            0.3052518067204695,
            0.5893398057315842,
            0.44598536773401176,
            -0.39862394209129604,
            -0.4572434840985189,
            -0.8282701145495452,
            -0.2899264521079401
        ],
        [
            -0.18393005868960643,
            -0.8942714450250075,
            -0.1908974542741393,
            -0.3395663394012285,
            -0.14767397584887276,
            -0.8101946104430873,
            0.7464571410523893,
            0.9358336011570734,
            0.05099152784706673,
            -0.0032228571264378836
        ],
        [
            -0.5176992847072766,
            0.2577374662395282,
            -0.9850770009950216,
            -0.23514144008019322,
            0.2958882073928082,
            -0.5575018451568514,
            -0.4860720088131607,
            -0.28709881998729925,
            0.5173846743561648,
            0.9439313290632045
        ],
        [
            0.7925316144740189,
            -0.3099503121814495,
            -0.8442288182695503,
            0.8276744267012113,
            -0.8702963815652018,
            0.6355728725583558,
            0.7123102077516716,
            0.2676375716963164,
            0.3429232480120994,
            -0.07544741284175194
        ],
        [
            0.6364059241641358,
            0.3857045523564042,
            -0.9010518451149951,
            -0.7016891502434466,
            -0.17828179051246362,
            -0.7621041507095001,
            -0.38048257367604665,
            -0.9394602988209817,
            -0.0961021495291865,
            -0.13357717872800134
        ]
    ],
    "biasesOne": [
        -0.15908064829820634,
        -0.3223432925297387,
        0.3666304753673779,
        -0.3289628861620921,
        -0.16712845816404664,
        -0.2207917752059827,
        -0.6049688083336555,
        -0.23432263610197146,
        -0.9017670464599408,
        0.5414743084278184
    ],
    "weightsTwo": [
        [
            -0.49214237345239886,
            0.41193468510095954,
            -0.44480375332679656,
            -0.45161720479730016,
            -0.2972133528846266,
            0.9714494316815097,
            0.5657165807642497,
            -0.4538302753768495,
            0.4485420956091255,
            0.01872905297416283
        ],
        [
            -0.9262467777679557,
            0.6673317220877568,
            -0.015184573891632303,
            -0.25677835266988125,
            -0.31513957650124946,
            -0.0825758763732527,
            0.9732297102359839,
            -0.6546919918964966,
            -0.856334857139569,
            -0.29041588113335215
        ],
        [
            -0.7346289461572943,
            -0.6183173393793666,
            0.9236510661577,
            -0.4897274107422185,
            -0.5926367341622285,
            0.08820490906392742,
            -0.8960966854727339,
            0.8903891446898131,
            0.6154255340869319,
            -0.297142382752835
        ],
        [
            0.6026809360372738,
            -0.4616992069921151,
            -0.8161553337047538,
            0.3838147368231568,
            0.6456737026543036,
            -0.5338018681965855,
            0.09540737172580394,
            0.46371119001217354,
            0.7572301578187037,
            0.7438539360980805
        ],
        [
            0.8558696429110557,
            0.6313462012050759,
            -0.15370724686232373,
            -0.37777158306878,
            -0.13070411100316237,
            0.2933479468600839,
            -0.8334648869204797,
            0.4614403720875291,
            0.8965910236825907,
            0.7622798322777082
        ],
        [
            -0.8763028375935384,
            0.5527607595609096,
            0.9132796395268858,
            0.19940754008036188,
            -0.780894499931718,
            -0.019958801167380136,
            0.006771105860885918,
            0.27763944296744847,
            0.38592326088573725,
            0.36322217208353114
        ],
        [
            -0.5037759732367375,
            -0.37078012433578467,
            -0.9313827219639008,
            0.3770423037269519,
            -0.9907837844095881,
            -0.43255161531608577,
            0.5805876670276642,
            0.5422881642086448,
            0.8181370751773132,
            -0.38555967899699084
        ]
    ],
    "biasesTwo": [
        0.6187202076983804,
        0.9356258738703422,
        0.4977217747501945,
        -0.5592617257325321,
        -0.29017653398147436,
        -0.2517957001523403,
        0.18084144759235854
    ],
    "weightsThree": [
        [
            0.25764428365459,
            0.5453101196285886,
            -0.28753239255275065,
            -0.46259193403536814,
            -0.9422661782503083,
            0.24930879623105073,
            -0.757953721213007
        ],
        [
            -0.37522073773158326,
            -0.8283126401030418,
            0.6732237407061521,
            -0.6270742623598364,
            0.5016524598106935,
            0.6762011201849805,
            0.8522928810395831
        ],
        [
            0.2209895323146689,
            0.13734680176879266,
            0.2353695469164654,
            0.15462643239678098,
            0.6165326515184819,
            0.6239333305782022,
            0.7940789476076522
        ],
        [
            -0.4709075792612478,
            0.4262874249508839,
            0.30622747285037755,
            0.4499146220154415,
            -0.5878526146708594,
            0.23781453312928336,
            0.7358954168686926
        ],
        [
            -0.19990531137550183,
            -0.633184338740882,
            -0.2480041755476552,
            0.03377420946370813,
            0.5291607027899523,
            -0.8767775095671309,
            -0.696069809485079
        ]
    ],
    "biasesThree": [
        0.07754129956754263,
        -0.017359741199565182,
        0.9847685730128628,
        -0.7703456372384485,
        -0.7189423884851154
    ],
    "weightsFour": [
        [
            0.31606750715469767,
            0.7160043991362552,
            -0.6484466658834942,
            0.24206923833160876,
            -0.012288838040647398
        ],
        [
            0.8744885066717467,
            -0.19106391892597063,
            0.41659592460028305,
            -0.09244744652598436,
            -0.46503336544648666
        ],
        [
            -0.49636141468262696,
            0.2168518453352748,
            0.9999645369898347,
            0.1754937057224546,
            0.5128312315675703
        ]
    ],
    "biasesFour": [
        -0.6035263158193731,
        0.553488727589895,
        -0.33198102348313707
    ],
    "weightsFive": [
        [
            0.9456705081630912,
            -0.48168094703897757,
            0.2956755899501191
        ],
        [
            0.19763343098370534,
            0.09578250868327687,
            0.2870797036807686
        ]
    ],
    "biasesFive": [
        0.27725909804215854,
        -0.7323548775798445
    ],
    "fitnessValue": 17.31970264372535
}