{
    "weightsOne": [
        [
            0.7262891140019898,
            -0.8750081819271041,
            0.6342948302962399,
            0.34215151543313804,
            0.12414746026467771,
            0.0653325014194388,
            -0.9245551092176909,
            0.8065586028834866,
            0.8831899414465982,
            0.6081970471590024
        ],
        [
            0.7976293254198077,
            0.4128591228215388,
            0.6023702476333355,
            0.3855140106170907,
            -0.041436064906687164,
            0.8393164553869219,
            0.03311486292885424,
            0.8773376093242595,
            0.9910642570889292,
            0.04545716143960665
        ],
        [
            -0.43701206596998565,
            0.4688589086645576,
            -0.4133121021937616,
            -0.9058817747699748,
            -0.8371449760460599,
            -0.7532755956366033,
            -0.28004842701892274,
            -0.84892885138668,
            -0.4221600134115375,
            -0.5635592509182061
        ],
        [
            0.34117415837831166,
            -0.2606385984698216,
            0.6166908443734875,
            0.1152625760749002,
            0.0720244906991705,
            -0.8071797310402584,
            0.2680349856938895,
            0.6997203137727004,
            -0.2672876610668715,
            0.39343356443597255
        ],
        [
            0.14978269781978049,
            0.19188859770592304,
            -0.8099568196899116,
            0.7360042970403848,
            0.8763978621301203,
            -0.9945242066166491,
            0.27231059110711153,
            -0.9534262370255884,
            -0.3748855368494899,
            0.9016600312353591
        ],
        [
            -0.19940080837699137,
            -0.11647237011981137,
            -0.24708566741497928,
            -0.11815290733528139,
            -0.9686624547681826,
            0.8111809516182802,
            0.2657343838002495,
            0.3604630031432685,
            0.9478197318847748,
            -0.399317705095398
        ],
        [
            -0.5753800999370529,
            0.8983865342241064,
            -0.9815573623429716,
            0.307088735888992,
            -0.5947904882984225,
            -0.6753786238746264,
            0.3308211491521098,
            -0.25318557764319904,
            0.5578859310312114,
            -0.27438271992296626
        ],
        [
            0.6950343250261197,
            0.17124440860485945,
            0.136792570265879,
            0.38606119143396067,
            -0.958630480736105,
            -0.1790608032684149,
            -0.5415368027365168,
            0.9986459679003092,
            0.3391989946067584,
            -0.1225538338478449
        ],
        [
            0.8118094890487897,
            -0.935853327090616,
            -0.01950305992260959,
            0.20938432189403655,
            0.9648132989240212,
            -0.9412732041239313,
            0.5616735811898355,
            -0.021723021034471657,
            -0.2649896975641972,
            0.7877223737778922
        ],
        [
            0.8503576634591832,
            -0.09179342275613211,
            -0.616512902498265,
            -0.6900590927785555,
            -0.7330081845784888,
            0.9105144292214129,
            -0.9287762304060152,
            -0.8507490474775319,
            -0.8607088540577919,
            0.6451369571258172
        ]
    ],
    "biasesOne": [
        0.9563104647029395,
        -0.09364240180139549,
        -0.8508976268240873,
        0.5710890864488687,
        0.8647963769182521,
        -0.09670760523210764,
        0.1390477741180287,
        0.012793562737167807,
        -0.38057853994480473,
        0.7244065861425535
    ],
    "weightsTwo": [
        [
            0.25076732988911354,
            0.38799573642560903,
            -0.1591695671946758,
            0.8533651750929072,
            0.7294107420086988,
            0.5119720694683672,
            0.21773744793202,
            -0.2602656662319984,
            0.7030054644434243,
            -0.3071026542777002
        ],
        [
            -0.12012259781084489,
            -0.05869073708393402,
            0.9061432821043001,
            -0.2317731627182411,
            -0.935376820213309,
            0.46673529574068007,
            -0.14835053217755512,
            0.0961198813482953,
            0.06610572436277695,
            -0.4594774334680929
        ],
        [
            -0.9948291967795668,
            0.7436042958786588,
            -0.9261756027374377,
            -0.19657400996179075,
            0.5022284951822176,
            0.3533323120297429,
            -0.7639029647971447,
            -0.41154893303481055,
            0.18265408699764385,
            -0.5435180573479623
        ],
        [
            -0.8130923991053187,
            0.2514268234866399,
            -0.5170669102211369,
            -0.5276148500695081,
            0.08202917801198506,
            0.8782203958870971,
            -0.6297085468268224,
            0.6784683494910253,
            -0.07005870381341239,
            -0.4992786133620877
        ],
        [
            -0.008654919194003075,
            -0.04440378077186091,
            0.02426054633814889,
            -0.6053959484800993,
            0.7245185657948838,
            -0.6596279334378867,
            0.880472467859996,
            -0.6973218690287797,
            -0.38926544171415123,
            -0.01044800539151125
        ],
        [
            0.803479299230432,
            -0.4804230237212479,
            0.6580665886788815,
            -0.10737461600184117,
            -0.02746308554366861,
            0.2592932046529537,
            0.5909095601260024,
            0.3349264169590067,
            -0.027978636148528357,
            0.12273063412164298
        ],
        [
            0.9691369152035709,
            -0.03494916461111042,
            0.73057649246535,
            -0.21363409161794467,
            -0.35712894333717093,
            -0.2774509479913325,
            0.7576257237071928,
            0.17407163165865258,
            0.3941746996137463,
            0.8261646273838197
        ]
    ],
    "biasesTwo": [
        -0.03482012241298138,
        0.229113819833759,
        0.7081153319597451,
        0.7982760873347123,
        -0.4521201333254201,
        -0.29626826479771995,
        -0.5319989946202983
    ],
    "weightsThree": [
        [
            -0.4811320740970766,
            0.8003981235303024,
            -0.6484304496741411,
            0.39526073363457015,
            -0.053011406881275036,
            -0.5303259865509333,
            -0.6285081181673153
        ],
        [
            -0.8053948254201135,
            0.26474405758976194,
            -0.2615886041345612,
            -0.5839080080802785,
            0.6386653880733628,
            -0.912754686814204,
            -0.6832394918541571
        ],
        [
            0.6533689257287687,
            0.20073298085050117,
            -0.6772043972154393,
            -0.4380175471035421,
            0.6004424076921295,
            0.40324051851533627,
            -0.007243436634562839
        ],
        [
            0.3359833821373279,
            0.3226287749592609,
            -0.4386756651844419,
            -0.6438365737187097,
            0.3622514376336823,
            0.5638640443183294,
            -0.18730983731149853
        ],
        [
            0.6318777787103189,
            -0.5824686194864455,
            0.08255313411416187,
            -0.11123769549722629,
            -0.9734488569988105,
            -0.11116005669744067,
            0.2285949362944526
        ]
    ],
    "biasesThree": [
        0.4826354956139818,
        -0.03804407837580048,
        0.7332658182620881,
        -0.9769964064906558,
        -0.5969066060594408
    ],
    "weightsFour": [
        [
            -0.8965921949705873,
            -0.8374157637772299,
            0.6426959750898691,
            0.35369407870538616,
            -0.9386002501573119
        ],
        [
            -0.1301306749818938,
            -0.9420365231476144,
            0.18163485340830232,
            -0.12025199947186405,
            0.4586483707971474
        ],
        [
            0.7160783830967263,
            0.0353906953934191,
            0.32770924143524405,
            0.40287078157432066,
            0.3247535300785558
        ]
    ],
    "biasesFour": [
        -0.870066545038243,
        -0.18743346000337624,
        -0.3260968808553786
    ],
    "weightsFive": [
        [
            0.9006551592888945,
            0.24874576052425335,
            0.7112696287676143
        ],
        [
            -0.7219761428803388,
            -0.7398385037477764,
            0.5372243240739305
        ]
    ],
    "biasesFive": [
        0.5224021149807392,
        0.6246314563068791
    ],
    "fitnessValue": 0
}