{
    "weightsOne": [
        [
            0.321288283326562,
            -0.7112429012237016,
            -0.6152825076618031,
            -0.4587310585268478,
            -0.5254164292813561,
            -0.16981262876174763,
            0.34121938945141506,
            0.7348585776836802,
            0.26485519557066084,
            0.20642134098489384
        ],
        [
            -0.9226314188495433,
            -0.18188462310100095,
            -0.7061213280779808,
            0.5596771704397683,
            -0.6431220402045847,
            -0.021789025736038692,
            -0.474760916538133,
            0.955491844822618,
            -0.9966467178287799,
            0.14850849117095732
        ],
        [
            -0.35291281114986917,
            -0.4503494776984096,
            -0.7662800318591976,
            0.6373045204961403,
            0.036899814332292724,
            0.4256228745377024,
            0.6330894815607249,
            0.9906265918724315,
            -0.5242927404080451,
            0.8327338718228787
        ],
        [
            -0.9996192876041614,
            0.9513354241672094,
            -0.4514130082598371,
            0.7589272064867187,
            0.4813827914225808,
            0.7830168611678259,
            0.9859346456438234,
            0.023646193354849965,
            0.7833910942700992,
            0.8806108759419482
        ],
        [
            -0.981502769691156,
            -0.4269561605670138,
            0.004435426115421359,
            0.5215229524966021,
            0.9501650875443339,
            -0.5165702738494957,
            0.7884681489469172,
            0.932557244294735,
            0.659814150405535,
            0.12206372911179719
        ],
        [
            -0.3180194741905491,
            -0.8460757033544686,
            0.1570298210663168,
            -0.2636156471524409,
            0.5636583064473197,
            -0.8610515839979009,
            0.5584629177241547,
            -0.9349935539644829,
            0.7907441537604247,
            -0.9073376121108927
        ],
        [
            -0.618544729151929,
            0.6802625307424404,
            0.6722966571379383,
            -0.27521478077084005,
            -0.8397444002995773,
            -0.4869472147462246,
            0.46133786306466984,
            0.05744362476528275,
            0.18706000823635383,
            0.543936745020126
        ],
        [
            -0.03144888635859244,
            -0.879539077711555,
            0.41285880448572443,
            -0.3951246544245266,
            -0.4640729167546289,
            -0.27140646216149267,
            -0.7711831504011786,
            -0.30420461673639254,
            -0.862893291689798,
            0.9609341270431004
        ],
        [
            -0.2480204364789229,
            0.9498164811150585,
            0.33181755633315935,
            -0.689311191427413,
            0.9786719129114851,
            -0.9795945260936179,
            0.6422676141878474,
            0.27334643860573005,
            0.6598153659443722,
            0.1479532226940652
        ],
        [
            -0.35786883103575273,
            0.19913856775135663,
            -0.3737876380013345,
            -0.8222190619457657,
            -0.4124200335847099,
            -0.1789331457541945,
            0.11351546756730535,
            0.5276283265835011,
            -0.03462527805917803,
            -0.5509421298736445
        ]
    ],
    "biasesOne": [
        0.4756114047342288,
        0.5323978676885879,
        -0.6000157853916601,
        -0.3419688287389828,
        -0.7340621203171025,
        0.5611898398476334,
        0.8449838470418289,
        -0.04106723078653762,
        -0.2710822367306882,
        0.4176440513755675
    ],
    "weightsTwo": [
        [
            -0.15218906029982016,
            -0.4999678576728075,
            -0.07517704422628668,
            0.4366080027361052,
            0.5388342689433139,
            0.2838202117212236,
            -0.5778163592656351,
            -0.05684675771000647,
            -0.5492837020163936,
            0.9959927273795732
        ],
        [
            0.44418167683318455,
            -0.5544255123075195,
            0.333840825079015,
            -0.5593282803848674,
            -0.9652925532425631,
            0.35893929826752347,
            0.05725610409042514,
            0.3129242577759843,
            -0.8840226649017844,
            0.687905622840282
        ],
        [
            -0.3868228621940428,
            -0.33229268583849825,
            0.6495390886238046,
            -0.4111353522437824,
            0.11289509215916249,
            -0.5116891824500518,
            0.5488511117671298,
            -0.9736280468958762,
            0.4275209483858864,
            0.01409183539692549
        ],
        [
            0.7239693812410395,
            -0.29159873430728855,
            -0.0607921609498554,
            -0.7355633713801957,
            -0.33104577789427014,
            0.8256193181716436,
            0.8096935893636645,
            -0.7758214013098206,
            -0.010016405869528455,
            0.8693816753059478
        ],
        [
            -0.9007530012380807,
            -0.6201150805152078,
            0.6244622638024591,
            -0.36243054285534426,
            -0.9734140692139126,
            -0.35294925021924795,
            -0.2782729039530931,
            0.8237011606684763,
            0.8485347933665843,
            0.6764767796307452
        ],
        [
            0.6502794789626043,
            -0.43727062013089757,
            0.16803860982899943,
            -0.4750299148901551,
            0.23300297737065856,
            0.8060002108431918,
            -0.9193766489513926,
            0.6322180315034371,
            -0.7740249431756117,
            0.6059851876668767
        ],
        [
            0.3595140651292077,
            -0.6887686727538807,
            0.5838292464133659,
            -0.17083210400081228,
            -0.8330916609813039,
            -0.14586089460862905,
            0.4677366775905827,
            -0.5212796343018902,
            0.45542824287565953,
            0.6278767400678205
        ]
    ],
    "biasesTwo": [
        -0.49870475308645124,
        -0.0895237251644947,
        -0.29907409900785686,
        -0.8788652474505605,
        0.4208356297064193,
        0.5250578087760134,
        0.4370041796547206
    ],
    "weightsThree": [
        [
            0.7120811279341723,
            0.6629941015079657,
            -0.05344453267946392,
            0.5516690769460169,
            0.6333724175527933,
            0.10558539382798515,
            0.3064450139882935
        ],
        [
            -0.36106295330273674,
            0.9894793291117583,
            0.9835832372359763,
            0.8023897709705095,
            -0.8913163380129103,
            -0.03599817529902416,
            -0.9964090583294571
        ],
        [
            0.6586021251562477,
            -0.8916368736466853,
            -0.3874192007335868,
            -0.8792406823042278,
            -0.2794924629449016,
            -0.34471678617533663,
            0.3459958294815897
        ],
        [
            -0.4676425191017539,
            0.13198960319682418,
            -0.5583663109435846,
            -0.009908231800837886,
            0.8539872028104989,
            -0.8935022056388731,
            -0.8873834349301968
        ],
        [
            0.8979141949215876,
            0.868539604341632,
            0.6533101288566954,
            0.11246955955003823,
            0.022823713720149685,
            -0.9276746537336782,
            0.9092645617320083
        ]
    ],
    "biasesThree": [
        0.12938369844591513,
        -0.5051737302425812,
        -0.4080666625611389,
        0.06569887962575804,
        0.6884219114218335
    ],
    "weightsFour": [
        [
            -0.1386209139854957,
            -0.016998650008133387,
            0.2531205972556507,
            0.35263648762198674,
            0.4760593222282521
        ],
        [
            0.7134831766462877,
            0.630222081570535,
            -0.5938074015502119,
            -0.2598006567830222,
            -0.9302577451856653
        ],
        [
            0.712659084627314,
            0.5917623830009795,
            -0.923969341798025,
            0.6635432137393356,
            0.38027383076582133
        ]
    ],
    "biasesFour": [
        0.5540348095821355,
        -0.4800644681540398,
        0.5957914251344516
    ],
    "weightsFive": [
        [
            -0.23594583327413732,
            0.35282150229019194,
            -0.6821242601565805
        ],
        [
            0.6012973598821318,
            -0.6029914010022204,
            -0.1061782877881241
        ]
    ],
    "biasesFive": [
        -0.4073493778094823,
        -0.8130660012484823
    ],
    "fitnessValue": 0
}