{
    "weightsOne": [
        [
            0.6348417172722793,
            0.18483210775051107,
            0.3354957031505632,
            -0.4723805996923569,
            0.4833521235329141,
            0.5369936562737749,
            -0.8314211114556713,
            -0.17387845057754991,
            -0.8320452943599881,
            -0.4984524028579851
        ],
        [
            0.1956286823349067,
            0.6719440925542242,
            0.3408265789270737,
            -0.8219443970689075,
            -0.6963950379563326,
            0.978341828143386,
            0.09531233900072333,
            0.14493699794242332,
            -0.9073574162412239,
            0.1037507924837009
        ],
        [
            -0.7673903818007088,
            -0.39675784231397393,
            -0.618533235372726,
            -0.7414076636655154,
            -0.943347831707575,
            0.5908929288992513,
            0.28604466615977575,
            0.7390129225021629,
            -0.5549267540914073,
            -0.7169939403522716
        ],
        [
            0.35388805007713553,
            0.9423834888342271,
            -0.501489374824555,
            -0.3642984360781958,
            -0.21957546619040924,
            0.6536386998864903,
            0.3019295136416953,
            -0.738967307094692,
            -0.06541791693132559,
            0.7361432055730519
        ],
        [
            -0.5025809786039808,
            -0.21859447310140823,
            0.8417260722168682,
            0.7016149591690786,
            -0.09616066467571271,
            -0.9110222204265472,
            0.13724964265250406,
            -0.3746848174129789,
            0.004439743703289034,
            0.22588186316961978
        ],
        [
            -0.10583233960722027,
            -0.5063915832466233,
            0.10315805164191816,
            -0.15334989452973047,
            0.6911502405414391,
            -0.6085785977575693,
            -0.5093403092904905,
            0.20150568780288403,
            -0.8736815646315339,
            0.6628507930069094
        ],
        [
            -0.3476358886265847,
            0.6850427880424117,
            -0.17668635682554856,
            -0.7665053446428141,
            -0.053536068113679836,
            0.4969895220339864,
            0.45461339500034836,
            0.8738652655613497,
            0.5791300481568058,
            0.3201761295214163
        ],
        [
            0.14668972634131827,
            0.13303944549491753,
            0.5856503515626894,
            -0.16115320720561233,
            -0.8506111299709367,
            -0.44308156379351304,
            0.510968764183596,
            0.3082992395938764,
            0.4229999436215399,
            0.8359104240386663
        ],
        [
            0.21479236548117253,
            0.4510499274243507,
            -0.2773258640481642,
            -0.6531569333098115,
            -0.8305488977200486,
            -0.9810691846507698,
            -0.6460912180129514,
            0.6585458054592825,
            0.13110843407226924,
            -0.6462861550003602
        ],
        [
            -0.1481306488250369,
            0.7595116201840564,
            0.3956973544292781,
            -0.8813705390783226,
            -0.3033462018318238,
            -0.5375362994577124,
            0.8490751019324059,
            -0.7596136234739643,
            0.5971533399822482,
            0.6643895182012267
        ]
    ],
    "biasesOne": [
        -0.21345855232723898,
        -0.08156775835688812,
        0.6715504174597879,
        0.8909443469118143,
        -0.29076937854219387,
        -0.009119656950192123,
        -0.6062504383674365,
        -0.6103273175893844,
        -0.29488355475769645,
        0.7423948923696653
    ],
    "weightsTwo": [
        [
            -0.784987460462035,
            -0.2655424082328335,
            -0.42856928367248015,
            0.5082898305580028,
            0.8456701381236751,
            -0.24902361711391774,
            -0.10375947003393726,
            0.7037252586311813,
            0.190189950483989,
            -0.1620172553766006
        ],
        [
            0.21866886309833888,
            0.13702484560451111,
            0.9832236650874329,
            -0.6294030661465806,
            -0.9988525921042859,
            -0.12437126448619784,
            0.5667119255138149,
            -0.9675001799243508,
            0.8617996438537536,
            0.2800890973959924
        ],
        [
            -0.2729525730904989,
            0.2997714415367567,
            0.2681543102943087,
            0.0841844791573485,
            -0.4046105407905305,
            -0.12526643995398334,
            0.8335318435079773,
            -0.7871712481500501,
            0.5215365644513312,
            0.6615365612289967
        ],
        [
            0.5995168080360112,
            -0.6481100213247915,
            0.6310002641318859,
            0.33624733707856325,
            -0.4863879871207979,
            -0.8771421221331386,
            0.77508753302361,
            0.19808103838637092,
            0.9215448889798139,
            0.7544562903465564
        ],
        [
            -0.6802387296184154,
            0.17836707841475352,
            -0.3003315070899195,
            -0.7921308903769297,
            -0.08252266824536814,
            0.19518405312222553,
            -0.32296308692532305,
            0.596736195511185,
            -0.6901135968621701,
            -0.8097487216896617
        ],
        [
            0.160272752724276,
            -0.9881730959444539,
            0.35759556142411264,
            0.9977126732837989,
            0.20586196352270658,
            0.6540436617636949,
            0.15453985815614035,
            -0.5048937075743771,
            0.18931740294046984,
            -0.34114985790723185
        ],
        [
            -0.5777030943748791,
            0.7483069761174677,
            0.5735841764828515,
            -0.9640172044227033,
            0.5956566669083385,
            0.10928921407694547,
            -0.38419556646928577,
            0.6049897662774268,
            -0.8921880679791978,
            -0.814019857313826
        ]
    ],
    "biasesTwo": [
        0.05141167729480589,
        -0.6962725287271281,
        0.5527096980913218,
        -0.7985678772443101,
        -0.4893959533503063,
        0.6963427896777055,
        0.07425420180194142
    ],
    "weightsThree": [
        [
            -0.7672545714107413,
            0.4966144411691078,
            0.020864901912826417,
            0.8471903453263046,
            -0.4049674131770842,
            -0.06685004578500608,
            -0.5197529548899664
        ],
        [
            0.7260768010999541,
            -0.22823822501354218,
            0.16885978529149415,
            -0.20951023648456868,
            -0.268125871566794,
            -0.698262504759007,
            -0.16891042384130284
        ],
        [
            0.6070633703464063,
            0.9751332396330261,
            -0.27664699599017606,
            -0.3403845928231428,
            -0.35267629476702544,
            -0.49952314993756697,
            -0.46141350039202234
        ],
        [
            0.30641974385967674,
            -0.9686424323780443,
            -0.7458722465771008,
            0.9479421218549764,
            -0.5880793991533761,
            0.6489296850978787,
            -0.7716889848254489
        ],
        [
            0.457408904633821,
            0.29099352166118586,
            0.5299290561630132,
            0.24450620333955952,
            -0.921530343352229,
            -0.689491049254711,
            -0.6154957107235113
        ]
    ],
    "biasesThree": [
        0.7324068956632606,
        0.42422861138789125,
        0.9998836307149788,
        0.3639302657477008,
        -0.1437098620345847
    ],
    "weightsFour": [
        [
            -0.11500609481839486,
            0.6217980595821064,
            0.7748857029259062,
            0.5849926506329386,
            -0.8830716128197285
        ],
        [
            -0.24856228800129876,
            -0.6097539061828086,
            0.08259094654590426,
            0.28983288023648823,
            -0.6322260494763776
        ],
        [
            0.7863590714511526,
            0.8906928585188794,
            -0.2799159769376296,
            -0.4175624716122426,
            0.09947397129496438
        ]
    ],
    "biasesFour": [
        -0.11993442230163365,
        0.8507501519549732,
        0.2765455988227956
    ],
    "weightsFive": [
        [
            -0.05602875197004775,
            -0.295222363012571,
            -0.09370091026499994
        ],
        [
            0.9987396154662891,
            0.23018793485674238,
            -0.09049640851697038
        ]
    ],
    "biasesFive": [
        -0.8651607172208273,
        0.6446017728900248
    ],
    "fitnessValue": 0
}