{
    "weightsOne": [
        [
            0.6221716676084013,
            -0.6916400615218963,
            0.33478783647832344,
            -0.07219355540513539,
            -0.9256862132779939,
            0.8767549996809536,
            -0.8471423971176693,
            0.1379172235830648,
            0.8546205571341547,
            0.5610496166608991
        ],
        [
            0.7618135238765857,
            -0.062021104623133594,
            -0.7867372884983528,
            -0.21863199514535792,
            0.6408868554551428,
            0.23369899858047005,
            -0.12686777503393332,
            0.36758533305957775,
            0.5531690663051054,
            -0.4522944455791116
        ],
        [
            0.90185756041262,
            -0.5341084153483953,
            -0.9838038951110142,
            -0.4096017089662214,
            -0.5484119040126836,
            -0.9374624500623081,
            -0.49625396805376387,
            0.22160236576223613,
            -0.625216484922593,
            -0.1014186541563229
        ],
        [
            -0.18821510396841168,
            0.0919853444709764,
            0.8550170322564699,
            0.45840414103140903,
            -0.636021876360541,
            -0.5805584465297604,
            0.559310751370768,
            -0.22397003573727758,
            0.6148545908370222,
            0.29287379606332875
        ],
        [
            -0.33050443857116174,
            -0.7311374565590669,
            0.2587342843303051,
            0.4626569207758968,
            0.2655730270602159,
            -0.9410764739310093,
            -0.7898851823812254,
            0.7338494406871623,
            0.47428478638016114,
            -0.4947510620015889
        ],
        [
            0.8656376149166873,
            0.4695226602734379,
            -0.24739940154422846,
            -0.888154918986531,
            0.8868906341718872,
            0.4085091475230893,
            -0.6486234941425413,
            -0.7796883525503937,
            0.9383088543701028,
            0.3606276385209102
        ],
        [
            -0.06983844794219696,
            -0.7306806024648786,
            -0.47476428083157596,
            0.354090771586143,
            -0.635348316549905,
            -0.08352719400491115,
            -0.33521141168585644,
            -0.5545714507736517,
            -0.7969115285376616,
            0.3115636875985395
        ],
        [
            0.37518522494426887,
            0.33942766425496074,
            0.4271894981513775,
            0.16815856901888426,
            0.28795396172213583,
            0.0463002088093456,
            -0.7720459990205442,
            -0.9288850860372648,
            -0.8239285927818989,
            -0.8145717774011758
        ],
        [
            -0.9090422073434687,
            0.5538662468863509,
            0.5502372932922595,
            -0.659340310327319,
            0.6924679272238934,
            -0.46234371920754325,
            -0.10218109857540969,
            -0.9755124097757251,
            -0.4473704908850633,
            -0.2784434575911299
        ],
        [
            -0.05185153087733618,
            0.23417719625734534,
            -0.45867332124218607,
            0.7561855120347993,
            0.10319742036519819,
            -0.37728258940119286,
            -0.038112001406440665,
            0.8953562919251785,
            0.3429764987066193,
            -0.586983620960591
        ]
    ],
    "biasesOne": [
        -0.6108292079883648,
        -0.37998198082126167,
        -0.1339943591550603,
        0.9123200139145078,
        0.8459120906831825,
        0.7735584592991522,
        0.7657124128349109,
        0.6893575056985668,
        -0.7677863983105706,
        -0.42845880050211194
    ],
    "weightsTwo": [
        [
            -0.8167738746891404,
            0.3382792773465868,
            -0.6628847738382142,
            0.9688942531093958,
            -0.9071079947991472,
            0.01186556964525387,
            0.3422409265114823,
            0.11572338966573104,
            -0.1595271539970322,
            -0.2855611925108632
        ],
        [
            -0.29442641143464643,
            0.49895773381019715,
            -0.6437679451434328,
            0.6998326028236099,
            0.498953721973038,
            -0.9086575841373801,
            -0.4913396144925981,
            -0.164252785564297,
            0.5864415142256438,
            0.7183369124562611
        ],
        [
            -0.13143294941565564,
            -0.3161092347574983,
            -0.01587343079313852,
            -0.36009835446414007,
            -0.37938916388527666,
            -0.3219420373110271,
            -0.48212417674379315,
            -0.23083082722258608,
            0.009801166405194905,
            -0.4823582666394668
        ],
        [
            0.555141340857439,
            0.5027868092299397,
            -0.3860963055172748,
            0.4579520766474314,
            0.015092389207630008,
            0.6160931193428747,
            -0.11900214621895078,
            0.5474989768986196,
            -0.06030834676718033,
            -0.8590878190353384
        ],
        [
            0.6310081985960954,
            0.07534411912099381,
            -0.3758982287178787,
            -0.644253965313164,
            0.8722127324765687,
            -0.6564607747073812,
            -0.17772985462308832,
            -0.8653117411585856,
            0.3375076238918968,
            -0.11166007958940694
        ],
        [
            0.5493817448967413,
            0.10547264131486855,
            -0.9276704178089679,
            -0.8319321360720975,
            0.18744026985911577,
            -0.7856157488594939,
            -0.35921820602642573,
            -0.48206737942564803,
            -0.25113662013765237,
            -0.4872604658590214
        ],
        [
            -0.43322733400227054,
            -0.5519108592436854,
            0.0240717523777918,
            0.5643857589212018,
            0.6011504006179054,
            0.37743486850472663,
            0.40411695593794605,
            0.14660129300314995,
            -0.607925379453097,
            -0.2108815696191053
        ]
    ],
    "biasesTwo": [
        0.7810009339299957,
        -0.23629211876286127,
        0.7513336902473584,
        0.4093963671043639,
        -0.595424304476355,
        0.08437566794311824,
        0.8886123757212365
    ],
    "weightsThree": [
        [
            0.2807785189364287,
            0.45131531836367245,
            -0.759150035855819,
            -0.36390644636044933,
            -0.4192715824154256,
            0.9953102984028661,
            -0.08245126652005008
        ],
        [
            0.4872515911223736,
            0.04156199850746756,
            0.6729330620816034,
            -0.8255524205769305,
            -0.2588909048332477,
            -0.8818873662304139,
            -0.4303071975169195
        ],
        [
            0.5594527790381914,
            -0.25168837805587185,
            -0.4479647368879933,
            0.8920216081261054,
            0.4821878277991316,
            0.7521991920354203,
            0.3781857043324899
        ],
        [
            -0.6381926314696427,
            -0.0249108284317876,
            -0.9190669790815775,
            -0.9282130426405852,
            0.28244628524189386,
            -0.7664615495249842,
            -0.47246691678697994
        ],
        [
            -0.7427752424987568,
            0.37280187679698384,
            0.3150263576989656,
            0.8772682884923737,
            0.15082170374262205,
            -0.621448592572639,
            0.15993968858628027
        ]
    ],
    "biasesThree": [
        -0.6814160479957418,
        0.39301192758262604,
        0.5978064824048037,
        0.08852967154492775,
        0.09833474089830707
    ],
    "weightsFour": [
        [
            0.10743859592505545,
            0.2922190144696566,
            -0.9348802613991651,
            0.5511543331122299,
            -0.8528534898258995
        ],
        [
            0.38786606517399536,
            0.5154561017750201,
            -0.7581301448277673,
            -0.19792431651846698,
            0.7158387860486193
        ],
        [
            0.6251215324471102,
            -0.8421872947860274,
            0.37720097469555114,
            0.36016948732795395,
            0.7304533554696024
        ]
    ],
    "biasesFour": [
        -0.8267173232916443,
        -0.5933316930226917,
        0.11377244075511839
    ],
    "weightsFive": [
        [
            0.5429714475333216,
            0.4457600133277386,
            -0.6781816853185405
        ],
        [
            -0.2972744411812438,
            0.14684660722363474,
            0.9046614860680551
        ]
    ],
    "biasesFive": [
        -0.6839605271910572,
        -0.6676967411251815
    ],
    "fitnessValue": 0
}