{
    "weightsOne": [
        [
            -0.9825219864394408,
            -0.5035827914804887,
            -0.7867843256541691,
            -0.8476211455541065,
            -0.6103767687344526,
            0.3969734430306644,
            -0.6432799737409653,
            -0.8159009371425248,
            -0.39556236048053695,
            -0.31257392507882686
        ],
        [
            0.05095487890571904,
            -0.5414455589820069,
            -0.21667804242071065,
            -0.6449542540481494,
            0.8241809935053759,
            -0.09919510732982029,
            -0.12848941369717992,
            0.9700530851402691,
            -0.3280850611672119,
            0.9581195684234995
        ],
        [
            -0.34837612548252084,
            0.6026759023556139,
            -0.13997585538343293,
            -0.07878825679990831,
            0.5181930237427037,
            0.12466710824687044,
            -0.43244806629926735,
            0.12867146473547475,
            0.9930221239217403,
            -0.3889395089531469
        ],
        [
            -0.9270863969599208,
            0.9006002376959352,
            -0.8094690930257475,
            0.004411536152762574,
            -0.2992587743718389,
            0.7705414623722624,
            -0.46665031923944067,
            0.005550431558525304,
            -0.7367260232028472,
            -0.18357980682759356
        ],
        [
            -0.43649367346044277,
            -0.6512598458293781,
            0.46072178241805006,
            -0.9669695199750259,
            0.04397706144197566,
            0.9672660722333573,
            -0.8038579559151335,
            -0.9523036531666229,
            0.973658259161148,
            -0.4844439076531859
        ],
        [
            -0.42952460230206313,
            -0.029987780450000612,
            0.7254752305284762,
            -0.49589908791023474,
            0.3142843765184298,
            -0.14723944629773267,
            -0.4599655211099871,
            0.1674409775286434,
            0.678990979042237,
            0.27787385388336805
        ],
        [
            0.6698821635802283,
            0.4475347431046519,
            0.054364848148780176,
            -0.8153228879229739,
            0.46804979516635314,
            0.06490501327101961,
            -0.03710854013637199,
            0.8657090507888889,
            -0.5208864035820704,
            -0.6144464888064745
        ],
        [
            0.6850547240108169,
            -0.17804363906943976,
            -0.17127925344241746,
            0.8890495504120297,
            0.5804362239110541,
            -0.43219947118548374,
            0.34495566770657793,
            -0.17593769070901266,
            0.9310544567891454,
            -0.8121540499134927
        ],
        [
            0.42040484016133206,
            0.8151246071630949,
            -0.3407131565575434,
            0.7440926514721209,
            0.5941797239672779,
            -0.836552877713951,
            -0.4877736064438061,
            -0.9900206387338073,
            0.18335044152710278,
            0.653026250868264
        ],
        [
            -0.4793981941787553,
            -0.9937958188924438,
            -0.3570437423631192,
            0.3158092191042363,
            0.04337250939627668,
            -0.6781830800807154,
            0.19314006834825803,
            -0.019510874943334366,
            0.927504926526888,
            -0.5296817806906751
        ]
    ],
    "biasesOne": [
        -0.014394752734836924,
        0.8624190378796164,
        0.517001121126001,
        0.014850665873865854,
        -0.09278346485526412,
        -0.4832364163393217,
        0.7743741467770373,
        -0.3946637991509008,
        0.20472770391534678,
        0.4475095839665506
    ],
    "weightsTwo": [
        [
            0.5016623454171338,
            0.17070602204094043,
            0.9814903738205192,
            -0.44673580332537877,
            -0.042359767802873094,
            0.24146906089060272,
            -0.041777937490623085,
            -0.8652154612907077,
            0.657755075614054,
            0.852965062331517
        ],
        [
            -0.3186669348123594,
            0.09185698923025187,
            -0.3208259765512822,
            -0.9791099904112803,
            0.5169917960383021,
            -0.6164466719271735,
            0.5112222631339562,
            0.9256398032610054,
            -0.38038400961284213,
            -0.35263469622430543
        ],
        [
            0.4796739456703001,
            -0.47436277262942106,
            0.724781011186689,
            0.7099334543983131,
            -0.44957440222629774,
            0.0961002291123163,
            0.9383876264510322,
            0.9593541706786299,
            -0.11872629077139196,
            -0.15331313067269003
        ],
        [
            -0.32453967719589194,
            0.11187935174432351,
            -0.026370921853461127,
            0.7253895286182899,
            -0.4284822847566343,
            0.9178175437578586,
            0.530165844721693,
            0.008780318938197196,
            -0.5036754552017257,
            0.11905194380096229
        ],
        [
            -0.9848909648055886,
            -0.8146581272074536,
            -0.4837854376108255,
            -0.2016799887570604,
            0.06513337683829734,
            0.502715750341028,
            -0.7285459550118791,
            0.9879903619664934,
            0.9101620640363801,
            -0.2746060171420919
        ],
        [
            0.49856011139502154,
            0.679957853919521,
            -0.3402502632567861,
            0.7414851900103216,
            0.7561074144162658,
            -0.0925706078371018,
            -0.9739553152504126,
            0.02607058162692799,
            -0.5878563893246744,
            -0.640050756617903
        ],
        [
            0.7792710078982141,
            0.44844104268202534,
            -0.3777399261672616,
            0.7986458027432612,
            0.15882180346938468,
            -0.6170951116154424,
            -0.9671397919982534,
            -0.9471205947510302,
            0.6858614452112906,
            -0.5187456236837975
        ]
    ],
    "biasesTwo": [
        -0.7258735052960628,
        0.30541804176012244,
        0.2809602663028854,
        0.5721287621142315,
        0.2820275597268902,
        0.07411009444980565,
        -0.0595530746869144
    ],
    "weightsThree": [
        [
            -0.6173674436550345,
            0.2284258506959218,
            -0.809244837596051,
            0.9357271987258036,
            0.2756582871988804,
            -0.5938211439699927,
            0.18220127755452964
        ],
        [
            -0.03311294442990054,
            -0.11054975656523403,
            -0.5246678249963981,
            -0.1399442761940688,
            0.7086207327605654,
            0.008046310826653968,
            0.9606187122426795
        ],
        [
            0.3602953910143718,
            0.28241522626468507,
            -0.1614205205054391,
            -0.7639331146822537,
            0.3943851354860508,
            0.5486069825246449,
            -0.5666795062834606
        ],
        [
            -0.7209603149674735,
            0.3711262129324826,
            -0.28840246073745757,
            0.6134143352084658,
            0.8972460289249502,
            -0.1417278649890099,
            0.0004511588184235027
        ],
        [
            0.31463928675959907,
            0.9972920756285408,
            0.40250237262485156,
            0.649391217478342,
            -0.4433513829149007,
            -0.7270365973757946,
            0.6336295949595352
        ]
    ],
    "biasesThree": [
        0.14162538392781587,
        -0.37282042447246133,
        -0.6954496453815815,
        0.8190480940532212,
        -0.7130966278932509
    ],
    "weightsFour": [
        [
            0.9524619944889814,
            -0.056016995961084115,
            -0.4306216224268009,
            0.5937937779649516,
            -0.5108668969759578
        ],
        [
            0.15345217512039944,
            0.30945495716133276,
            0.8104377773753968,
            -0.18702923548664874,
            0.20163091432814473
        ],
        [
            -0.9242761441221419,
            -0.6597828592670352,
            0.041153961561251284,
            0.14723205116629523,
            -0.04122182422765652
        ]
    ],
    "biasesFour": [
        0.38096576558392936,
        0.4888808611571047,
        -0.032266148009154394
    ],
    "weightsFive": [
        [
            -0.9602816710090709,
            0.8208804817878439,
            0.3385730357332448
        ],
        [
            0.1333315129668895,
            -0.40316045218829255,
            0.9674216330757299
        ]
    ],
    "biasesFive": [
        -0.3659884768568078,
        -0.46064013076975274
    ],
    "fitnessValue": 0
}