{
    "weightsOne": [
        [
            0.3214662864490456,
            -0.23102894474110536,
            -0.06775869297097503,
            0.9857201350491209,
            -0.5281512757888778,
            0.006202415057325661,
            0.5902663050351826,
            -0.5380427744100154,
            0.05445117280707068,
            -0.9964243646887505
        ],
        [
            -0.6049578136818208,
            -0.41939955262452044,
            -0.9434459839279599,
            -0.45950325809053516,
            -0.5570135220169161,
            -0.5190351510424072,
            -0.9805289273106856,
            0.27711124503222995,
            -0.23463200871024825,
            -0.21612486215051274
        ],
        [
            0.23847292642319062,
            -0.7994486428637586,
            -0.5451467496337523,
            -0.9247007567164658,
            -0.36732136783032954,
            0.07310143008662373,
            0.1985079382054311,
            0.9644048870322501,
            0.6332365582169057,
            0.4344751149774919
        ],
        [
            0.08682669245642938,
            -0.7471142044209147,
            -0.16136250336700475,
            -0.9585069670131228,
            0.4634393493187332,
            -0.07151942324103522,
            0.3228161267835741,
            -0.26006425015123713,
            0.05493509185625989,
            0.04604865889667087
        ],
        [
            0.7008107350417379,
            -0.6628047808771587,
            0.5142953044525653,
            -0.43055513002930734,
            0.06416795784565288,
            -0.8986924016919959,
            -0.004566253314472357,
            0.05342389406625481,
            0.5774754582302315,
            -0.9915658100870621
        ],
        [
            0.09586283842422794,
            -0.26290877280181557,
            -0.15128827173697612,
            -0.823431161355771,
            -0.8899631570677502,
            0.21043816370143142,
            0.07089698956909252,
            -0.011658099424782797,
            -0.35581175229033835,
            -0.8834535782857196
        ],
        [
            -0.47272625000525603,
            -0.5028610364691417,
            0.58736018991834,
            0.8077629566818263,
            0.41709148538832475,
            -0.06558666159141202,
            0.23192500625611445,
            -0.824222087615265,
            0.7657115304672701,
            0.9324017949098156
        ],
        [
            -0.916391093593939,
            0.7737085431677706,
            -0.9314119821889857,
            0.07624317152084403,
            -0.9352060666726756,
            0.1710516702611551,
            0.7137729671092718,
            0.9281597342024792,
            0.22075609878141766,
            0.6082332625990703
        ],
        [
            -0.6642721867759898,
            0.5126334912612487,
            -0.9311232876392257,
            -0.39513386039848886,
            -0.723079649869973,
            -0.1602248603350762,
            -0.3011179814981295,
            0.5937727958061039,
            0.3415148501633809,
            -0.9079759004141756
        ],
        [
            0.07950811444480799,
            0.8204398044631076,
            -0.7695063814462964,
            0.6097976870413371,
            0.44989438722484487,
            -0.11437943006192586,
            0.34830859415404003,
            -0.46005515945062303,
            0.9793919885968967,
            0.3983371528719595
        ]
    ],
    "biasesOne": [
        -0.2864672373014394,
        -0.037038973044679846,
        0.2304885032837778,
        -0.06339165879489461,
        0.5214488915669915,
        -0.984579632822332,
        -0.528967156680773,
        -0.6591961925062273,
        0.0406108419427913,
        -0.06377762476593252
    ],
    "weightsTwo": [
        [
            0.35685276299933677,
            -0.09587128929854583,
            0.7410206842031175,
            -0.4998119668248051,
            -0.7926472687666728,
            0.9386704217902357,
            -0.7368588411885273,
            0.6398886252181839,
            0.4991202704587687,
            0.46207627097743
        ],
        [
            -0.8750310575286457,
            0.7164935181240288,
            -0.31565482366246767,
            0.005662890630855122,
            -0.30789368641699144,
            -0.0571784559859414,
            -0.9229752264142967,
            0.4078057603070928,
            -0.3789611664876382,
            -0.263783046671233
        ],
        [
            0.3369448271865809,
            0.7783749252843217,
            0.1944738629443601,
            0.4084277404852785,
            -0.13235493371552454,
            -0.07325654541841242,
            0.8006387765424521,
            0.11745492208626884,
            -0.214879474204011,
            0.6062806276729342
        ],
        [
            0.7875826628576497,
            -0.24511543658083523,
            -0.9151792323897872,
            0.26112120491892243,
            -0.9843064088775619,
            -0.5242961089990288,
            -0.4936039428763521,
            -0.708726312736442,
            -0.4312788879654026,
            0.004351676264745752
        ],
        [
            -0.8470322007075102,
            0.6240542459976175,
            -0.7055900588349853,
            0.5894053021528396,
            -0.508837086912439,
            0.14641989457160043,
            0.9391803705948849,
            0.0238271174277358,
            0.0804984389000305,
            -0.9292984841800085
        ],
        [
            0.4904061353453004,
            -0.012363426776278441,
            -0.9126971160479094,
            -0.3320256311634755,
            0.7323304881827661,
            0.6606095706319437,
            0.47895341752775233,
            -0.7203994441766204,
            -0.7417435651957347,
            0.789374132862992
        ],
        [
            -0.11332638397660677,
            -0.03642617144377702,
            0.07550705409118463,
            0.010844610488723871,
            0.8028961051929115,
            0.6209707034188412,
            0.9930534981416776,
            -0.1430805211126509,
            -0.29091148221047103,
            -0.20044962668864397
        ]
    ],
    "biasesTwo": [
        -0.7150435310240779,
        -0.2189941004949223,
        0.29295007890759295,
        0.8974794585608266,
        0.7251876800034309,
        -0.8946942613615421,
        0.02540746411580086
    ],
    "weightsThree": [
        [
            -0.8835652307837172,
            0.7166159817387574,
            0.18810608667060524,
            0.6956288445941916,
            -0.4101816027628049,
            -0.11723549580074866,
            -0.5313075239249125
        ],
        [
            0.21497140592537778,
            0.015548813597165756,
            -0.4108047928642016,
            0.3276573077695204,
            0.6799631089728406,
            -0.6575567550733865,
            -0.10000575558832803
        ],
        [
            0.7892705085582632,
            -0.8652061291897708,
            -0.2814981114675552,
            0.4551421383779286,
            -0.9699479257041557,
            -0.8218554830803879,
            0.8485574591984681
        ],
        [
            -0.384522509202156,
            -0.266341168431798,
            0.500917197569501,
            -0.22574440644936944,
            -0.5342399325712042,
            0.9007641456742379,
            -0.2278278560280389
        ],
        [
            0.8515118469684595,
            -0.7115792993959138,
            0.15104712890220884,
            0.8345741348512443,
            -0.4286888081187523,
            0.4192756050221118,
            -0.5358939981121591
        ]
    ],
    "biasesThree": [
        0.037273566722672014,
        0.4945549015793962,
        -0.8197845946715381,
        -0.221170936363267,
        -0.8450966988909523
    ],
    "weightsFour": [
        [
            -0.42830833795022794,
            -0.1642027450037289,
            0.22333883633115037,
            -0.600076874949933,
            0.13619466567743133
        ],
        [
            0.8588310670278705,
            0.47414175369184375,
            -0.5389140139859043,
            0.2660637174743308,
            0.94801126143583
        ],
        [
            -0.9626078134683655,
            0.29873075280546235,
            -0.9873941524870486,
            -0.057165894969462006,
            0.636335821202253
        ]
    ],
    "biasesFour": [
        -0.8493530260189204,
        -0.9240266083120976,
        -0.5071331426631824
    ],
    "weightsFive": [
        [
            0.7470434243213728,
            0.6588044428503037,
            0.4519927406742692
        ],
        [
            0.3927813943699765,
            0.6031428048837586,
            0.4713631702962804
        ]
    ],
    "biasesFive": [
        0.2277951622326002,
        0.7964070259134675
    ],
    "fitnessValue": 19.79974795952575
}