{
    "weightsOne": [
        [
            0.5870643960708639,
            0.5511958814932449,
            -0.8551663641433591,
            -0.9588855883473149,
            0.5791170185523986,
            -0.2931914101885038,
            0.1037758885621225,
            -0.1419260972183769,
            -0.3683068228971116,
            -0.8722847861341352
        ],
        [
            0.5483382191297603,
            -0.5161041879924626,
            0.13103559927631503,
            0.37974794331951633,
            0.4199592200689899,
            0.38531672815161633,
            -0.6980152190756463,
            0.12003526398490516,
            -0.7652715795484311,
            -0.32640366807984567
        ],
        [
            0.13571989979418775,
            -0.3078056839540795,
            -0.9181085512278822,
            0.20800545558848094,
            0.23290898431324591,
            0.17710005171303966,
            -0.9623769218076541,
            -0.6135840248657671,
            -0.473407554146682,
            -0.5382392111521006
        ],
        [
            -0.12477234231549916,
            -0.19438884279347501,
            -0.12909898911488482,
            0.8278979485386173,
            0.2805835283692044,
            0.8960004017976764,
            -0.9920780081983851,
            0.8157768802361962,
            0.7353820032362484,
            -0.3125422588284281
        ],
        [
            0.6256757922203093,
            0.08520718872427113,
            -0.3718978841759115,
            -0.7808667508634299,
            0.07196391785692935,
            -0.7685884527876732,
            0.15703397203587466,
            -0.4718281273303164,
            0.4795615617931428,
            0.9137431130350104
        ],
        [
            0.9047365724343335,
            -0.3689898069324973,
            0.7429040832263256,
            0.5864258147480101,
            -0.32043819898509307,
            0.6486059641904474,
            -0.7607758010097894,
            0.3294070632852544,
            -0.8442129671463874,
            0.6721730254099763
        ],
        [
            0.910896470735074,
            -0.373146633151638,
            -0.8833602324661396,
            0.15916801648433432,
            -0.10959529539052326,
            0.7818235408328071,
            0.4598126626668353,
            0.28065539809603157,
            -0.5094389021038281,
            -0.1023169323175015
        ],
        [
            -0.8538145436069393,
            -0.7204366330007699,
            0.26281977385806643,
            0.28682383719894444,
            -0.3185447558079031,
            0.7973317058318083,
            -0.9122296253613216,
            -0.2897237832915023,
            0.7433314617766178,
            0.6666191365648555
        ],
        [
            0.6006709573367979,
            -0.5181558165321407,
            0.6221696815430238,
            -0.48409929058425516,
            -0.07725577566118935,
            -0.05392372165455028,
            0.5523001673678822,
            0.03787891951616995,
            0.5330407117107363,
            0.4285161895342833
        ],
        [
            -0.9720880992144021,
            0.7421143433229924,
            0.8798133322992787,
            -0.4966946160402288,
            0.48677216967731995,
            0.14870916589383998,
            0.22917349055931768,
            0.2677939020524367,
            0.43594313374679716,
            0.515795456180941
        ]
    ],
    "biasesOne": [
        -0.08640440629390089,
        -0.0660984985992703,
        0.17284304083203494,
        -0.6687614696386108,
        0.3619767988844369,
        0.5477368680244044,
        0.12877222175550673,
        -0.7002530736003971,
        -0.13750342329831677,
        0.2599646393129007
    ],
    "weightsTwo": [
        [
            0.28710848202083694,
            -0.0320525410896797,
            0.792513033763665,
            -0.06955720667649445,
            -0.969769735258438,
            -0.8454176271411604,
            -0.07077477178311997,
            0.18172775647546624,
            -0.5703542067999381,
            -0.9641136975479738
        ],
        [
            -0.4216070628863824,
            0.308156094686445,
            -0.47329437331087854,
            0.6084398759681864,
            -0.6587051034662825,
            0.9470941396060157,
            -0.49626516574036383,
            0.6600537847068693,
            -0.8462239283919559,
            0.922580553264627
        ],
        [
            -0.9837158347970552,
            -0.07416013134722044,
            0.38812573050224874,
            -0.07755749127856104,
            0.9968930448228388,
            0.7170942634369613,
            0.9832171280722277,
            -0.40609059305216966,
            -0.8597025149743103,
            0.3408514589777636
        ],
        [
            0.9146673667962735,
            -0.15350945787059933,
            -0.27009568509855253,
            0.7455460669951433,
            0.506740197856687,
            -0.05411411528245802,
            0.5892115967229805,
            -0.04904079397899119,
            -0.9439007507002481,
            -0.021484763667807272
        ],
        [
            -0.4331699494119925,
            0.47518800933777183,
            0.1336517395380934,
            -0.677673870088733,
            -0.16990779485493657,
            -0.7676900724384861,
            -0.5988300797749255,
            0.8857049732734441,
            0.34832381281031854,
            0.2758847437670622
        ],
        [
            -0.5647799992362241,
            -0.7387672222452113,
            0.43024330118250353,
            0.4814045973969121,
            0.13757819537871474,
            -0.19951915875697068,
            0.7580714018115595,
            -0.21051651734702048,
            0.367139462499825,
            -0.9095137903246817
        ],
        [
            -0.33022421392792833,
            0.879454712927257,
            -0.8411280146609101,
            0.3897590122485497,
            -0.44932441000763124,
            -0.304738830666329,
            -0.9728126119831235,
            0.33730104609874845,
            -0.19427430562465786,
            -0.21577748199492497
        ]
    ],
    "biasesTwo": [
        0.9803754228000621,
        0.6770741758636798,
        0.38405762888795936,
        -0.35801611871199945,
        -0.47325433671111594,
        -0.65259658816364,
        -0.19412679517121245
    ],
    "weightsThree": [
        [
            0.6992648249501561,
            -0.4338653444990872,
            0.7104346658529983,
            0.8613510525833663,
            0.9704563481509112,
            -0.09352369104208935,
            -0.4521846192619301
        ],
        [
            0.04180837174702323,
            0.9739519386354667,
            0.6175575355255789,
            -0.9475965186699216,
            -0.4267065535869512,
            0.5296339520604283,
            0.3838215553563462
        ],
        [
            0.9475743763017461,
            -0.6353008465968346,
            -0.4302181544397179,
            0.3005091520885723,
            0.6744197615343359,
            0.31299306274656424,
            -0.9215974162950133
        ],
        [
            0.39789256766246717,
            -0.9417784880416076,
            -0.4425953349410596,
            0.5088992888365973,
            -0.2469891231029493,
            0.7850867847216254,
            0.2270203019678858
        ],
        [
            0.2253050255645701,
            -0.9989932982954988,
            -0.4281017855603515,
            -0.1677276569097439,
            -0.3165048657822207,
            0.2291590588819692,
            0.16466053941296122
        ]
    ],
    "biasesThree": [
        -0.40416683803713904,
        -0.10492475413485547,
        0.09573507613970555,
        -0.06984863428090526,
        0.6038731546405527
    ],
    "weightsFour": [
        [
            -0.8317665855779528,
            -0.4710212333703543,
            0.47550454520713803,
            -0.58516307427527,
            0.10993522157249025
        ],
        [
            -0.92571283436144,
            0.39975245302542506,
            -0.4004652670672728,
            -0.8055679673486091,
            -0.4586214199401164
        ],
        [
            0.45862007309405284,
            0.004383039216857121,
            -0.9771131224851657,
            0.5932535270365844,
            -0.33332204604177096
        ]
    ],
    "biasesFour": [
        -0.006256064144597451,
        -0.4710828742432631,
        0.9199425549819065
    ],
    "weightsFive": [
        [
            -0.23888977159428948,
            -0.6486875135652492,
            0.6631922296237858
        ],
        [
            -0.6732689323134566,
            0.8827506302648227,
            -0.2876634654524566
        ]
    ],
    "biasesFive": [
        0.746444738348546,
        0.18832563058739615
    ],
    "fitnessValue": 0
}