{
    "weightsOne": [
        [
            -0.03355631713182006,
            0.16469371456674708,
            0.2732468914513848,
            0.1895003709603844,
            0.07173783799388778,
            -0.3373008643320574,
            0.1562869237161688,
            -0.11545759535717193,
            0.010033956986057913,
            -0.8152261714669453
        ],
        [
            -0.7200842561867955,
            -0.5890316445203465,
            0.9030343498214719,
            0.5996782421927793,
            -0.09156498200973973,
            0.25895311163635903,
            0.6335881438823829,
            -0.7640105411418558,
            0.5168573863735924,
            -0.7605694186475778
        ],
        [
            0.2124065829079853,
            0.2441703350689024,
            0.049044249667929085,
            -0.12248171217521353,
            0.40412604145430797,
            -0.18966645020192452,
            0.8551294949203068,
            -0.9957891459961508,
            -0.6202214684840361,
            -0.31501191691666697
        ],
        [
            -0.5876004594373303,
            0.9048775191753835,
            -0.3144379554734895,
            0.5392162494327615,
            0.8935343924250139,
            -0.30981650256139304,
            -0.20451132346589374,
            0.1960938296798116,
            -0.1904048851658262,
            -0.9085825691750222
        ],
        [
            -0.5870028910469822,
            0.52779343486381,
            0.7503135429624335,
            -0.9922155016546856,
            0.049428742328527786,
            -0.9512996578002952,
            -0.7183219717469218,
            0.078165815278888,
            0.426962936287699,
            -0.7178401234057199
        ],
        [
            -0.7327519945905672,
            -0.2778286650344346,
            0.22983318524093344,
            0.10339312406970858,
            0.25089939379908066,
            -0.5452584746877633,
            -0.9808078738011108,
            -0.8968636065171425,
            -0.40617749582280016,
            -0.7325611503751992
        ],
        [
            -0.7026784448035186,
            0.9416136904410466,
            0.49975896567916167,
            -0.7672349086955872,
            0.23263425837015816,
            -0.5429573838131876,
            0.007581374318224698,
            -0.7444678395545727,
            0.16541725044606737,
            -0.3229798374094668
        ],
        [
            0.7691612661464358,
            -0.9766512298656427,
            -0.5140354367756717,
            0.16568663169858988,
            -0.5618735085530371,
            0.09176140459345716,
            0.8452236849940091,
            0.1114689444257404,
            -0.6562595064511496,
            -0.09081943472882203
        ],
        [
            -0.8477269879819305,
            -0.77482724126968,
            -0.4011562989666262,
            0.5581190570033376,
            -0.655597742752495,
            -0.6635626914537427,
            0.8166864379574732,
            0.09459365234298533,
            -0.7551419697333275,
            0.17650978762754943
        ],
        [
            -0.006206377159611032,
            0.8819066540090139,
            0.9951948671806734,
            0.09604325305571026,
            -0.2735507857026902,
            0.9941666416524093,
            0.6293668269032087,
            -0.9747695506172924,
            0.45282521480870197,
            -0.9758480902271529
        ]
    ],
    "biasesOne": [
        0.3616744727275658,
        -0.8872243230897761,
        0.13444443411774554,
        0.19120269311189242,
        -0.3922409701280347,
        -0.8787968268981532,
        0.7657358359720456,
        0.7521636815758865,
        -0.6301191303400075,
        -0.5240074003616937
    ],
    "weightsTwo": [
        [
            0.19755443277753226,
            -0.5648814753818943,
            -0.7583964651747543,
            0.7267817880479932,
            -0.47878314480709183,
            0.3534912880787622,
            -0.08843239811274972,
            0.932919178619662,
            -0.005379735607919045,
            0.023395881836226984
        ],
        [
            -0.2910434919562537,
            -0.2439610699664192,
            -0.8096910582004548,
            -0.7384815925074315,
            -0.7476104193321389,
            0.12670335078082684,
            -0.7623544541754108,
            -0.37805484345894524,
            0.785102468757576,
            0.9058933022608497
        ],
        [
            -0.6282207257374872,
            0.36478951885815736,
            -0.40515409168344396,
            0.7745770998717443,
            -0.26026150809249193,
            0.6355763043459466,
            -0.5247259341547623,
            0.6749576742223498,
            -0.17743864621830063,
            0.3285737572555383
        ],
        [
            0.31276330251852436,
            -0.47415426845769737,
            0.45336422776564267,
            -0.23841287914638087,
            -0.0008050066583107363,
            -0.24102035149244427,
            0.9742198655492327,
            -0.7019919463098814,
            -0.2030965453352367,
            -0.2606120296219512
        ],
        [
            -0.702549908837284,
            0.025232243912195473,
            -0.8206695240076811,
            -0.9241663726270868,
            -0.5654512102509153,
            0.02862899051691903,
            0.5805989747222708,
            0.520478133338169,
            0.38981200938356153,
            -0.30465365117853627
        ],
        [
            0.5765106300144569,
            -0.6026616514152829,
            0.4326943486032635,
            0.8377476021396235,
            -0.05353075349036396,
            0.8732790220310249,
            0.8023755944763877,
            -0.9100338328264022,
            0.8056630650133989,
            0.9402096318402864
        ],
        [
            0.940951578323207,
            -0.7764205604663998,
            0.2707580959666869,
            0.9657787301038032,
            -0.2823165197726589,
            -0.7402793505532146,
            0.3962090928701405,
            0.3392669922071163,
            0.8087860831753266,
            -0.4718132031365654
        ]
    ],
    "biasesTwo": [
        0.9667843783873882,
        0.7643809990328143,
        0.48736468279081446,
        -0.6371099647713965,
        0.9648207302258458,
        0.6897047529344911,
        -0.9412898820728182
    ],
    "weightsThree": [
        [
            0.2820240401625578,
            0.1866810410360269,
            -0.9161973691722587,
            -0.7273323659309006,
            0.943103223778917,
            -0.37649141450651946,
            -0.09072185675574751
        ],
        [
            -0.1538150139803518,
            0.14929838717948485,
            0.5654763537296221,
            -0.043985286017202974,
            0.7970438557310728,
            -0.6041196025937046,
            -0.9665554023999814
        ],
        [
            -0.1530906179899174,
            -0.9661578666703139,
            -0.059979131454196866,
            -0.9501545754551426,
            0.7988702931215725,
            0.6776728019119969,
            -0.8343469722680794
        ],
        [
            -0.3054522353254532,
            -0.6532414879195754,
            0.037615521246278094,
            0.16769993794112548,
            0.3949566883285549,
            0.4138642236388046,
            0.865850504852935
        ],
        [
            0.030460514936043737,
            0.057133667676513955,
            0.2580198316513096,
            0.16958807606491622,
            0.23717755258964401,
            -0.1759458245402714,
            -0.6014210385464922
        ]
    ],
    "biasesThree": [
        -0.511519209367139,
        -0.42077179476008464,
        0.5447463707036717,
        0.9848828363298252,
        0.34535852740835793
    ],
    "weightsFour": [
        [
            0.19545132918304953,
            -0.8934428065527329,
            -0.15972374780084686,
            0.7751865935580768,
            -0.9973145421118055
        ],
        [
            -0.7363265926432045,
            0.4234219067338081,
            -0.1561257447174753,
            -0.21884466921068224,
            0.8381215607157608
        ],
        [
            -0.5213735184595141,
            -0.9989816811534231,
            -0.2722067739240819,
            0.9530054031522859,
            -0.033152341729565826
        ]
    ],
    "biasesFour": [
        -0.47396762542252624,
        -0.2603154611539329,
        -0.5241683292776314
    ],
    "weightsFive": [
        [
            -0.48432312699446345,
            -0.17284352910263978,
            0.4028203031021296
        ],
        [
            -0.5380920422909348,
            0.2880096538386443,
            0.5910824505504821
        ]
    ],
    "biasesFive": [
        -0.09904977921421931,
        0.13544308340659583
    ],
    "fitnessValue": 6.090644039184117
}