{
    "weightsOne": [
        [
            -0.14982604062311644,
            -0.8274852818438987,
            -0.5269786816986692,
            0.17370455053893874,
            -0.8378357891944299,
            0.3030693094119612,
            -0.7309459607057718,
            0.6173452786501672,
            -0.6482266144311082,
            0.19191976756595763
        ],
        [
            -0.037748316306619456,
            0.8973910151555549,
            -0.1971652635937895,
            0.6015696612337655,
            -0.8391684806177562,
            0.23754481378624615,
            0.5954516814721129,
            0.00608651770364288,
            0.47270597331700803,
            -0.6169189566898272
        ],
        [
            -0.3739307712878166,
            0.01045344999551312,
            -0.904815319204322,
            -0.3000888262759003,
            -0.22860179916053536,
            0.8734413002757793,
            0.8123204151148791,
            -0.0744720368732994,
            0.5700523994615145,
            -0.4208077129903145
        ],
        [
            0.39684436386029187,
            -0.5947062817586015,
            0.10031425312266529,
            0.8347850721835515,
            -0.43893278531090796,
            -0.588890496914489,
            0.9672714281414745,
            -0.2359603199575362,
            -0.4403811414827459,
            0.247298526320894
        ],
        [
            -0.9494082728764479,
            0.6365454238620658,
            0.7103235872152973,
            0.6803625944641825,
            0.18544438328440793,
            0.15771916413628428,
            -0.08270318954946454,
            -0.17730131145356132,
            -0.22264228470413605,
            0.10789520121000429
        ],
        [
            -0.36082458080779656,
            0.8802485941612952,
            -0.9248152276149035,
            0.481308563840926,
            0.39717075703664473,
            0.19296227843768388,
            0.2730420733871022,
            0.7712270497120381,
            0.7541422103650748,
            -0.6932222282284799
        ],
        [
            0.3832462161206027,
            -0.8772612829579876,
            -0.862728730058768,
            -0.31681567680853706,
            -0.15967246937078317,
            0.4972737565810079,
            0.7044121165984336,
            -0.9048357179089535,
            -0.500301896495627,
            0.28129376805861717
        ],
        [
            -0.38229659224981827,
            -0.7505078991010365,
            -0.9934893064834509,
            -0.8881471015077798,
            0.27696723438660276,
            0.8798330066226536,
            0.033848963262283815,
            0.4083265609300053,
            -0.8186725835952733,
            -0.7605392089666452
        ],
        [
            0.21673627709065557,
            0.8842772755408852,
            -0.47073967974498987,
            0.21639758232879536,
            -0.929529711097721,
            0.44633937015009706,
            0.46141815744336445,
            -0.559777680506117,
            -0.32219881489656954,
            -0.9899270242687892
        ],
        [
            0.7974611636263422,
            -0.276019580599558,
            0.46567946856396913,
            -0.48280327475533324,
            -0.9982326280758704,
            0.026082441399743805,
            0.6867813422912441,
            -0.9570880350147934,
            0.23760747168470364,
            -0.8384353593236842
        ]
    ],
    "biasesOne": [
        -0.1795492872113389,
        -0.4446637918863785,
        -0.12289139293846962,
        -0.7574020025220736,
        -0.3374265533683596,
        0.4036922909548293,
        -0.6301151090133656,
        -0.7044827004780041,
        -0.8060256913788713,
        -0.23140752474512394
    ],
    "weightsTwo": [
        [
            -0.46086769265945127,
            -0.3666049641105744,
            -0.36964620998050424,
            0.4390560693445851,
            -0.3864769874608329,
            -0.7051323462427517,
            0.5260744410499874,
            -0.8002815157970091,
            -0.9199487263534971,
            0.7392623089172699
        ],
        [
            -0.396371975828103,
            0.9028587249996973,
            -0.5583478341577688,
            -0.02730058837289495,
            -0.9506063601576404,
            -0.151930511609766,
            0.0030867382133794585,
            -0.4817685726898182,
            0.09417362182788658,
            0.31370388605135524
        ],
        [
            0.7805729586100012,
            0.3752427622082981,
            -0.36239389975394753,
            0.44889664904129867,
            0.4086651885901329,
            -0.13787622890898876,
            -0.7826511667836415,
            0.0793183676156608,
            -0.9475422229936683,
            -0.857529446498587
        ],
        [
            -0.7043775068429774,
            0.897379320951518,
            -0.22818767747029978,
            -0.8400438964280594,
            -0.9250990586398276,
            0.14941473248806725,
            0.5023671894809258,
            0.39225127772745494,
            0.23496081727289364,
            -0.27966459040264424
        ],
        [
            0.7044808965691174,
            -0.5844295723166231,
            0.5596671312620043,
            0.24679734894374783,
            -0.23651054375497815,
            0.5355406942307264,
            0.2269447011554826,
            -0.7593576762342369,
            0.08064654876753297,
            0.6017593686107665
        ],
        [
            -0.5326099243579512,
            -0.05948599353105011,
            0.9196569220477708,
            0.8979997922421772,
            -0.3230077573368071,
            0.5923967334443725,
            0.03031371012000683,
            -0.9514691556054524,
            -0.30169792878983315,
            0.14414540825815325
        ],
        [
            -0.34910647209587675,
            0.8639137870404836,
            -0.37750777778103717,
            -0.2969545991014346,
            -0.5957016402652202,
            -0.7913291189439939,
            -0.5649752990450054,
            -0.25912799452423285,
            -0.9491212732291596,
            -0.15764043247106296
        ]
    ],
    "biasesTwo": [
        0.8680988894997113,
        0.9727227832342686,
        -0.8679112878653681,
        -0.9644420824956206,
        0.4869181005637657,
        0.36284801995096005,
        -0.047288971527225776
    ],
    "weightsThree": [
        [
            -0.7120737617319113,
            0.11042481527970005,
            -0.8330705029146113,
            0.06553370825662985,
            0.1924795881492023,
            -0.48015482667066856,
            0.7705784844004653
        ],
        [
            0.7507593575528453,
            0.7119808569131398,
            0.86295780013364,
            0.021818343037800503,
            0.717406472194235,
            -0.3362737625755352,
            0.2873532853747294
        ],
        [
            -0.7153528729623659,
            0.7958853662024286,
            0.7000580227072402,
            -0.5447998866066073,
            0.22401368812176514,
            0.1579521184337611,
            -0.25849436717704655
        ],
        [
            -0.5180504496975964,
            0.7430286798034986,
            -0.12877535482185065,
            -0.37875530991009376,
            0.5677532568711448,
            -0.02842574276372334,
            0.42357242517080396
        ],
        [
            -0.5117774992897506,
            0.18690883723795304,
            0.6669666075020169,
            0.029366052203656734,
            -0.36694093536872097,
            -0.013632571256617654,
            0.6779501384930204
        ]
    ],
    "biasesThree": [
        -0.12077869523319351,
        0.5960770221028853,
        -0.30140904661877466,
        0.07016611912296788,
        0.8206849147970758
    ],
    "weightsFour": [
        [
            0.9385087556196814,
            0.2636301996670487,
            0.29743624322247,
            -0.7416016465356903,
            0.2907658038407406
        ],
        [
            -0.024145564924247465,
            0.7990665867323852,
            0.33948884306321725,
            -0.16218255252660185,
            -0.9217685081713038
        ],
        [
            -0.9445733185552929,
            -0.43750264088053803,
            0.5803749380913812,
            0.21657983630663757,
            -0.7381294062511181
        ]
    ],
    "biasesFour": [
        -0.004313155124829882,
        -0.9871903515073674,
        0.8308397681608612
    ],
    "weightsFive": [
        [
            -0.8955606921319397,
            0.8313121731640878,
            0.7219083394103518
        ],
        [
            0.6210840500990746,
            -0.018024170365654957,
            0.3365268925234157
        ]
    ],
    "biasesFive": [
        -0.40356438495119007,
        -0.05171120675929464
    ],
    "fitnessValue": 0.0
}