{
    "weightsOne": [
        [
            0.13610660289057974,
            0.40195159023700877,
            0.4146233110189661,
            0.03132739716521993,
            -0.319252516233836,
            -0.3140017617901678,
            0.06365675132586368,
            0.36820194508794324,
            0.9470275343798642,
            -0.8602385268898469
        ],
        [
            -0.23358646571345631,
            -0.46035024094878607,
            0.9190309280310185,
            -0.7778993642175729,
            0.9948458900141222,
            0.6700040141143959,
            -0.7288001439376608,
            -0.5545425410262335,
            0.21908994327623632,
            -0.33736391346201655
        ],
        [
            -0.22421306568888943,
            -0.7900020670503485,
            0.94720090329964,
            0.7136078599078624,
            0.3397561371022584,
            -0.2728792025515614,
            0.7004324385216547,
            -0.6312798078129147,
            -0.9133408148480309,
            0.22672469815216467
        ],
        [
            0.19371224581976842,
            0.8528515911241585,
            -0.7627111101087607,
            -0.2039069026004361,
            -0.8935164360048085,
            -0.3436592404610139,
            -0.35017837531308404,
            -0.5701889846864627,
            -0.7812066473303529,
            0.3891493193530249
        ],
        [
            -0.6057189553300015,
            0.5047560961321731,
            0.9719411854147568,
            0.4452532186332987,
            -0.6686585698231791,
            -0.7227556545930034,
            0.19738077645118168,
            -0.004319431483010616,
            -0.19683850684974824,
            -0.5311774787960581
        ],
        [
            -0.5700089814497575,
            0.39189763936188093,
            -0.9106997018945651,
            0.8240952426852264,
            0.8631411303632388,
            0.9998846062232429,
            0.18753473202517834,
            0.13099076302151347,
            0.20166056818355882,
            -0.8100896645605942
        ],
        [
            -0.18724633625499743,
            0.6894983401831818,
            0.9954647230582736,
            0.695194514365022,
            0.19549561920619207,
            -0.8480936050111045,
            -0.9690725288403919,
            0.9949931309377003,
            0.038062210343779324,
            -0.10538113502335578
        ],
        [
            -0.7684688799558952,
            0.7216641642326878,
            -0.5968730406860399,
            0.7525496412255808,
            0.8013957628786661,
            -0.2470983575380623,
            0.4230320648434056,
            -0.19359265639453227,
            0.057035679735254474,
            0.7557037819674011
        ],
        [
            0.165587443641525,
            0.6156035436891298,
            -0.6679323756043727,
            0.48048305343314346,
            0.05067465764904733,
            -0.24738752952513643,
            -0.22284920012027554,
            -0.8481648625003226,
            -0.0633600427595864,
            0.6027883712930346
        ],
        [
            -0.7401940224547998,
            0.18818380393683154,
            -0.7624128187590558,
            0.42707361392191934,
            -0.18963453521357532,
            0.5587340916073622,
            -0.8337843643551037,
            -0.13723663784759355,
            0.16131881509191293,
            -0.5395860891245408
        ]
    ],
    "biasesOne": [
        -0.2886457345811968,
        -0.4042368695199601,
        -0.019339424033765873,
        -0.46687374970005835,
        -0.6295655494188184,
        0.29509990056953317,
        0.9854327357064352,
        0.7673273325710201,
        -0.17770658509779813,
        -0.5058913136002596
    ],
    "weightsTwo": [
        [
            -0.013222993036001496,
            0.12069417341392286,
            -0.1879886844169283,
            -0.064520194362085,
            -0.5530426953971672,
            -0.9129234840240712,
            0.7885402486836215,
            0.20585269487991353,
            -0.16320206676037463,
            0.45601313871318383
        ],
        [
            -0.6493227794273191,
            -0.07925826172843609,
            -0.48848359406042197,
            0.12946273904434502,
            0.5506716706143147,
            0.36122924027754255,
            -0.7106591828580187,
            0.7568134045532751,
            0.6024460551344206,
            -0.5310158783847665
        ],
        [
            0.26954730427482576,
            -0.7420539492208142,
            0.6382694063410235,
            -0.46574956511937526,
            -0.12902052468161163,
            -0.49621804457633023,
            0.046213704808366174,
            -0.7240511652359125,
            -0.5657285724655521,
            0.29218342341484393
        ],
        [
            -0.6933804346297374,
            0.5307534252832851,
            -0.8463109392940769,
            0.6322694816952301,
            0.3509322308609095,
            -0.2989732983323601,
            0.5472111867159923,
            0.634764506847197,
            0.727293760317153,
            -0.44786125236358965
        ],
        [
            -0.14922982695249276,
            -0.6415064082735222,
            0.47289091115826243,
            -0.5479683945179648,
            -0.03344365678959149,
            0.08265298925380749,
            0.4951103331961304,
            -0.21553770160315122,
            0.5019926232125074,
            0.47345390428568845
        ],
        [
            -0.30737763517658356,
            -0.5520235474783781,
            -0.5171950514446617,
            -0.11421046192014583,
            0.6469161045470042,
            0.39735237282029456,
            -0.016374956348232494,
            -0.2219292805055304,
            -0.2700212430566036,
            -0.7117424446278058
        ],
        [
            0.6021044364284083,
            0.05481139058364404,
            -0.4705244066240455,
            -0.8187820793413556,
            0.4653572915996831,
            -0.417728338319977,
            0.7675972198885208,
            -0.24784432479513874,
            0.6617697256419273,
            -0.5683208152960615
        ]
    ],
    "biasesTwo": [
        -0.5246569332012834,
        0.7743963379044585,
        -0.01726737631020736,
        -0.3007051751311802,
        -0.9413114179678428,
        0.1338670161435771,
        -0.15334243974430284
    ],
    "weightsThree": [
        [
            0.5246957897608622,
            0.5908695629873777,
            0.5970678383565393,
            -0.12368858535921001,
            -0.635871113211639,
            -0.08765811832665116,
            0.0020450212035210136
        ],
        [
            0.39134218241663943,
            0.6636585058331805,
            -0.7764604940503546,
            -0.5183369563895082,
            -0.18927880939364305,
            0.498223815557703,
            0.5566882644343334
        ],
        [
            0.2242337252339841,
            -0.935676689919912,
            0.09649004756154622,
            -0.23320589759098986,
            0.5955120053781338,
            0.15365404889885004,
            0.9084688998410371
        ],
        [
            -0.11673399883678992,
            -0.35365270224776224,
            -0.0693605656406806,
            0.4928815765414789,
            -0.9342511987654789,
            -0.8671778120163889,
            -0.4006609055953523
        ],
        [
            -0.416735239027922,
            -0.7496728170031686,
            0.7662126496585011,
            0.0921317113441733,
            -0.41941061508552613,
            -0.2435905133617544,
            -0.722301288929045
        ]
    ],
    "biasesThree": [
        0.11720955019037538,
        -0.247971500023219,
        -0.8527774736174187,
        0.4400484017364428,
        0.4079384464368716
    ],
    "weightsFour": [
        [
            0.3179362284367995,
            -0.16546045363290562,
            0.36146797798812824,
            -0.6678120084867969,
            0.7352667476469905
        ],
        [
            0.5614627997888129,
            0.6454328365765756,
            -0.24207512063858294,
            -0.6649769307127926,
            -0.7223951241530118
        ],
        [
            -0.18801820708323302,
            0.5792065414141625,
            -0.33759927599803863,
            0.09525172142264227,
            -0.24047560048952765
        ]
    ],
    "biasesFour": [
        0.4169738299224832,
        0.831778092766239,
        0.7868004844469534
    ],
    "weightsFive": [
        [
            -0.26282254587223974,
            0.09350834864344493,
            0.5494616691080656
        ],
        [
            0.1317557476495641,
            -0.9372627404930021,
            0.22704719416989572
        ]
    ],
    "biasesFive": [
        0.07437038641167648,
        0.16797431836396504
    ],
    "fitnessValue": 0
}