{
    "weightsOne": [
        [
            0.160091707622096,
            0.8787787162283538,
            0.13661960475030832,
            0.6801713603592141,
            0.0392109214617844,
            0.0009532398974803069,
            -0.2523373044347359,
            0.04211382171888256,
            -0.013871053554096013,
            0.08726122499034683
        ],
        [
            0.7166216448107015,
            0.7824290025698004,
            -0.9978307906742712,
            -0.8188045553150296,
            -0.804232558515181,
            -0.2801329457634072,
            -0.8001806951739563,
            0.04890792774285169,
            0.0377329205284338,
            0.7477642588532922
        ],
        [
            -0.2760140798015356,
            0.03621184320573834,
            0.4294458532902041,
            0.7696992981529396,
            0.0360063036533369,
            0.2819934365342649,
            0.45485481284159257,
            0.6096575583302526,
            0.006297142473205231,
            -0.6571057290669171
        ],
        [
            0.4802171693495947,
            0.28583494578735347,
            -0.5000173320381334,
            0.0476604234029494,
            0.1017313223064531,
            -0.6396721281011732,
            0.8449738271224734,
            -0.999016054420641,
            0.07845677930569672,
            -0.9548068338734561
        ],
        [
            -0.2767304461480047,
            0.42133989506116687,
            0.37240183134807037,
            -0.41449259919438863,
            0.7174657398860853,
            -0.33591444270512416,
            0.7729364875982558,
            -0.3338960602740635,
            -0.8189898227573711,
            0.6968264598920109
        ],
        [
            0.9724984600395221,
            0.8206670358616044,
            0.5100007742315835,
            0.3722072969391339,
            -0.03292408676395997,
            0.3525243419473456,
            0.07656433223444847,
            0.555152475266192,
            -0.05310778602747357,
            0.8501549145754892
        ],
        [
            0.7384579903222801,
            0.9719150820369722,
            0.8779451819744644,
            0.2594645370852038,
            0.3727320243119654,
            0.3950397265666903,
            -0.9642161754690548,
            -0.3621854449037507,
            -0.9773996662897577,
            -0.40727579813496995
        ],
        [
            0.037202680683806166,
            0.1622149251251006,
            -0.7018332696816223,
            -0.929876759209278,
            -0.6486259432644319,
            0.38307038675809046,
            -0.8391703824109251,
            -0.11879792591404903,
            -0.17679062121083633,
            -0.39139377957390753
        ],
        [
            -0.4196270348968423,
            -0.6452731487504215,
            0.7375674071425091,
            0.7045253272344423,
            0.07735775235774955,
            0.1583231117503172,
            0.5388252482962239,
            0.5439278689913138,
            -0.339293999375347,
            0.4978804903684244
        ],
        [
            -0.3900817252308524,
            -0.020637816305442147,
            -0.5540151406290075,
            -0.6126260164791555,
            0.9234386421699496,
            0.17093375388472287,
            -0.978094995749841,
            -0.1856390005905344,
            -0.9132426183614477,
            0.15479091084922691
        ]
    ],
    "biasesOne": [
        -0.46718406123692957,
        -0.5870191133867058,
        -0.5409290086041589,
        0.7305691911723042,
        0.3590106331576881,
        0.32571680392085467,
        -0.11833184982918121,
        -0.27009371097114165,
        0.1729449247655097,
        0.4562466454727687
    ],
    "weightsTwo": [
        [
            -0.7868791869624499,
            0.22016383921160143,
            0.4113645997962858,
            0.030495272272492713,
            -0.662850479952636,
            -0.6832168158409693,
            0.10152075087927104,
            -0.008141388678576833,
            -0.8396781587534381,
            -0.42003269514454344
        ],
        [
            0.37058507395553364,
            0.9526612164339527,
            -0.05983443307601233,
            -0.15674120526598712,
            0.35754779003988646,
            0.7734441334689939,
            -0.8229185758537247,
            -0.5678451683291614,
            -0.337848263891545,
            -0.8034340166100542
        ],
        [
            -0.049444316074338746,
            0.5509102303662199,
            0.8453169176420898,
            0.1296714240863439,
            -0.4330565536839488,
            -0.3860854397970819,
            -0.8385580729631914,
            0.7376768623490875,
            0.3518316403145041,
            0.4260069499354313
        ],
        [
            0.3279450187563706,
            -0.17279467319795394,
            -0.33988895628335425,
            -0.7270599245971385,
            0.10120189690519044,
            -0.18368173125029763,
            -0.7189210064369032,
            0.19006594020868217,
            -0.5046096681270618,
            0.2522732072467113
        ],
        [
            0.1266288562687652,
            -0.7174143113025067,
            -0.5590274124682795,
            -0.05938870840279975,
            0.8204498688358017,
            0.15754871939165827,
            -0.06338890377195283,
            0.6345710635350335,
            -0.2779396068521005,
            -0.5325676008482583
        ],
        [
            -0.42484152223409066,
            0.9942950074471091,
            -0.6095885461678014,
            0.9192844113426222,
            -0.18461563746137322,
            0.5995090193271426,
            0.17704869548940838,
            0.8478562685918116,
            0.9764766130648279,
            -0.5381191397885714
        ],
        [
            -0.046545634652212176,
            0.14752927251042247,
            -0.38512248459181797,
            0.8368439186539531,
            -0.11817130563047273,
            -0.4218652432063952,
            0.14002030027664136,
            -0.5739309153477239,
            -0.4824437978678249,
            0.9176527142963191
        ]
    ],
    "biasesTwo": [
        -0.9830208571723669,
        0.25187095426196837,
        -0.7036658290657059,
        0.0459212340719779,
        -0.9568890436892676,
        -0.2213221054898582,
        -0.7336553227427953
    ],
    "weightsThree": [
        [
            0.42953569116690593,
            -0.2311099593225885,
            -0.8827124130548964,
            0.2207838482168727,
            -0.2847388614635058,
            -0.12014947428260858,
            -0.449357124042274
        ],
        [
            0.3472947086777276,
            0.4592343037938549,
            0.2557534443020315,
            -0.7055024901818387,
            0.8573580670143657,
            0.6726224039549997,
            0.06286378413748728
        ],
        [
            0.8199676824382627,
            -0.4205455038660262,
            0.9052620157655795,
            0.2970181899572062,
            0.07652215750824753,
            -0.7408269269942971,
            -0.4156773646816343
        ],
        [
            -0.15916793920818173,
            0.9690502121732818,
            -0.9548059506704649,
            -0.5098083210170412,
            0.9304416744849282,
            -0.4707931575004862,
            -0.34079738178784047
        ],
        [
            0.128910589516684,
            0.4004938622308767,
            -0.7197731122979911,
            -0.40201459620240976,
            -0.7577063377380542,
            -0.8733396507876443,
            0.47411678533969637
        ]
    ],
    "biasesThree": [
        0.741595299633586,
        -0.18462541962318757,
        -0.04762435050230551,
        -0.2908200609021332,
        0.6769233223867164
    ],
    "weightsFour": [
        [
            0.0643889873965815,
            0.22272726364998352,
            -0.5735316263335508,
            0.3127410662035417,
            -0.6785114979887052
        ],
        [
            -0.4862128247860693,
            0.016246318273607674,
            0.24478093064531325,
            0.744329769343105,
            -0.810246533857615
        ],
        [
            -0.33334989871775345,
            -0.3582338521276045,
            -0.015474877606376447,
            0.8216984984030822,
            0.6070378266700123
        ]
    ],
    "biasesFour": [
        -0.5865874132247877,
        -0.9183844812486919,
        0.17108838533509263
    ],
    "weightsFive": [
        [
            -0.7404827297261058,
            0.358459178930173,
            -0.14100691172581548
        ],
        [
            -0.1964190378640014,
            -0.44494627691261,
            -0.4104428114225853
        ]
    ],
    "biasesFive": [
        -0.0703112943160018,
        -0.04771390350525517
    ],
    "fitnessValue": 0
}