{
    "weightsOne": [
        [
            0.8779174206784912,
            -0.04161664156678002,
            0.4483116416084725,
            -0.10075364902050454,
            0.18951297645388965,
            0.18147031015756565,
            -0.501669599273667,
            0.09904941987381899,
            -0.34891524305321564,
            -0.22976988266012421
        ],
        [
            -0.28621540155315106,
            0.15507130863487095,
            0.2998896367009971,
            0.12013496337933227,
            -0.3524913933948792,
            0.9776315715523878,
            0.7809868118335928,
            -0.17513447026245155,
            0.9435711661794841,
            -0.4286320388901983
        ],
        [
            0.3745871528916247,
            0.3919154333750985,
            -0.11243107758012716,
            0.7843688910253586,
            -0.785494917318881,
            -0.8767843634495456,
            0.4600663017451345,
            -0.342380248710876,
            -0.7441079144011116,
            0.12096313922780544
        ],
        [
            0.2644563218756921,
            -0.03511808247548309,
            -0.0742460356489123,
            -0.6077762502657351,
            0.6512924253680754,
            0.2943943324658116,
            0.34148784766877105,
            -0.03784500884941,
            0.3122984063826735,
            -0.5960470627087551
        ],
        [
            -0.9049648523827687,
            0.11907645350893614,
            -0.1705044023716087,
            0.6109980042996119,
            -0.7767174449468583,
            -0.3446208833321436,
            -0.5863636029881918,
            0.6538312230338357,
            -0.8955395574079492,
            0.07563487135817049
        ],
        [
            -0.20913812569066859,
            -0.19909910346405035,
            -0.52554748750491,
            0.24775369687549365,
            0.3157456048248519,
            -0.39521476031765435,
            0.471984715984898,
            0.1946869175328847,
            -0.9180797069057987,
            -0.5270376054305876
        ],
        [
            0.05438715998237642,
            0.1275476815752461,
            -0.4671262314238851,
            -0.11657282829176108,
            0.6711767249452916,
            -0.9925626012287023,
            -0.5671040616916891,
            -0.7527811507265476,
            -0.08970708680355188,
            -0.6393045732457274
        ],
        [
            0.05667940921633874,
            0.0297550558266495,
            -0.4532808375972104,
            -0.43188062795987414,
            0.4874059738723897,
            -0.6680214783929896,
            -0.39020523442512633,
            -0.18762037316894253,
            -0.22106703529221705,
            0.6774268073721899
        ],
        [
            0.17687825249433842,
            -0.10736154498058093,
            0.1985070721667379,
            -0.6279238315296505,
            0.19673998933949766,
            0.03424428622624931,
            0.7085934076347944,
            0.6179717511591742,
            0.2550769118962013,
            -0.7667114306907628
        ],
        [
            0.4601222539092211,
            0.1863873809159211,
            0.048193650175284874,
            -0.2885734277476637,
            0.36790009707808413,
            0.20543292518766298,
            -0.027083793696634828,
            -0.5195365298076497,
            0.5531152198676421,
            -0.31440702818615507
        ]
    ],
    "biasesOne": [
        -0.21159834111920595,
        -0.9988895311121562,
        -0.34410231312302453,
        -0.6627259426210117,
        0.40088508176353277,
        -0.8847253731299121,
        0.32207565466653865,
        0.6738569407447659,
        0.4011117684035257,
        0.08491536667482324
    ],
    "weightsTwo": [
        [
            -0.7607897671404948,
            0.6167097860023385,
            -0.5817384784753787,
            -0.2074710177285699,
            0.09075448222136329,
            -0.24948515570552132,
            -0.5084202548589194,
            0.14485123429857927,
            -0.9626550224844928,
            -0.42380769190030265
        ],
        [
            -0.6111463470915885,
            0.04712465849888425,
            -0.7892783511435815,
            -0.8142104872491596,
            -0.901293566702873,
            0.23100361507784828,
            -0.8588065236056364,
            0.3381219997405618,
            0.9790079021571745,
            -0.057132867587611935
        ],
        [
            -0.7791728189987852,
            -0.196341283313191,
            0.9824601130176431,
            -0.256615198696027,
            0.8467904092387335,
            0.8659546645230698,
            0.48422370643819934,
            -0.001255341472360172,
            0.49198234981028666,
            0.641198538590646
        ],
        [
            -0.4032025111291142,
            0.02455739409374824,
            0.3515714342504408,
            -0.22633162836691523,
            -0.7408621485490692,
            -0.935344169531535,
            0.10299266740708446,
            -0.3204584842209748,
            0.9734201840762533,
            0.6931427710701168
        ],
        [
            0.42535372687111117,
            0.5314362895929745,
            -0.2799872915578623,
            0.7428815375328381,
            -0.5807134069603621,
            -0.8491686188355871,
            -0.8951985178868034,
            -0.9058482951100548,
            -0.6907913244400654,
            -0.3950418136411935
        ],
        [
            -0.910921942622805,
            -0.687366926300653,
            -0.7670808302248988,
            -0.08433608895982969,
            0.5566263057602387,
            -0.9963445726856406,
            -0.6844777049358541,
            0.5394289536177681,
            0.2679204310073775,
            -0.8474964167190329
        ],
        [
            0.4269636915856505,
            0.8727623620291591,
            0.0008206299163382447,
            0.29315546584551355,
            0.7019278496743289,
            0.19890054523350842,
            0.2799114518884873,
            -0.02248274256789884,
            0.6594034812701428,
            0.5723791105304623
        ]
    ],
    "biasesTwo": [
        -0.596361153726858,
        0.7263645126966995,
        0.7582334034542126,
        -0.7142887461675789,
        0.8502587506030466,
        -0.9534519535179184,
        0.7264517879734314
    ],
    "weightsThree": [
        [
            -0.8541515507871056,
            -0.6402266524725808,
            -0.44430043532715047,
            -0.9730185189840683,
            -0.3846923614267277,
            0.046175125967036657,
            -0.5782258815595562
        ],
        [
            0.7219885552971586,
            0.2212161521726299,
            0.3395787896051925,
            -0.7705944375951581,
            0.15147281251078826,
            0.27674262310801967,
            0.6690897087494483
        ],
        [
            0.33765204493635115,
            -0.2904734259591286,
            -0.45755505669697016,
            -0.5774535557912603,
            -0.9189157706295952,
            -0.5602462065320752,
            -0.9622956397101716
        ],
        [
            -0.3307913979886965,
            -0.9348578800217531,
            -0.5405606587027703,
            -0.47180835425429724,
            0.4178492962204574,
            -0.28495592981790563,
            0.4898884143297364
        ],
        [
            0.23395396916779565,
            -0.056995208741866143,
            -0.2560390673168391,
            -0.7840645845891514,
            0.5092974012972322,
            0.7622781923835125,
            0.7780397485762958
        ]
    ],
    "biasesThree": [
        -0.8187249633943849,
        0.3060764164940064,
        -0.4885280628883899,
        -0.664569537517274,
        -0.6375813467016807
    ],
    "weightsFour": [
        [
            0.5822445124551103,
            -0.8022455799872386,
            0.38334658316825787,
            0.8532698112661836,
            0.91217192117207
        ],
        [
            0.08662593239212124,
            0.7300760058049593,
            0.042297832265348,
            -0.7825670542560679,
            -0.4529754626860836
        ],
        [
            0.7888569702255148,
            -0.429390623819357,
            0.211635668719663,
            0.00032780439271729023,
            -0.611605833340721
        ]
    ],
    "biasesFour": [
        -0.13521970284187512,
        0.12358564633868818,
        -0.6271933936242495
    ],
    "weightsFive": [
        [
            0.22312252304824653,
            -0.16961969114888542,
            0.049695584309175755
        ],
        [
            0.2392377220962676,
            0.3007207946136887,
            0.9424300155404071
        ]
    ],
    "biasesFive": [
        -0.0019637126628737622,
        -0.029674316384456834
    ],
    "fitnessValue": 0.0
}