{
    "weightsOne": [
        [
            0.6799518396844515,
            -0.29762422004080835,
            0.24665277062902957,
            0.9342870529598557,
            -0.10211759536460319,
            -0.5377080386584332,
            -0.7682519519124196,
            0.19351056153154444,
            -0.9306965508395464,
            -0.8215878411582616
        ],
        [
            -0.12865069881987634,
            -0.5982128652501377,
            0.4178366544211596,
            0.25750646615255013,
            0.8034957457675405,
            0.6326572271522231,
            0.2205737872296829,
            -0.4036598747347393,
            -0.7582141495365942,
            -0.00847120358586384
        ],
        [
            -0.5060647394994542,
            0.947843637194288,
            -0.6260495135014652,
            -0.15597054825891377,
            0.8659338019299296,
            0.00946067907411785,
            0.06782655058329445,
            0.8703694958338999,
            0.8320733842100583,
            -0.6988877484403428
        ],
        [
            0.9306930814091985,
            -0.42657075261386734,
            -0.9883239727592987,
            -0.8845048287095458,
            -0.49019333458219805,
            0.754844465882456,
            0.5383191829119967,
            -0.5201099041599746,
            -0.6656408191836871,
            0.7489360127663707
        ],
        [
            -0.3679971618279718,
            -0.5811037880004426,
            0.15435344591233058,
            0.13608486744994974,
            0.8109470774784331,
            -0.18861788778058952,
            0.7496887280339855,
            -0.5038213026562777,
            0.5498547042609372,
            -0.2727308946905578
        ],
        [
            0.3054862648701171,
            0.701869995047292,
            0.6094437029586737,
            -0.7949494452122907,
            0.2521678824904636,
            0.7581116808862896,
            -0.3529428301812185,
            0.7993738278101292,
            0.7790217013722653,
            0.24611662321033267
        ],
        [
            0.15613810541040385,
            0.5153094838340964,
            0.1339494666587584,
            -0.699887009989534,
            0.879561172963399,
            0.9462649362025901,
            -0.727358538779374,
            -0.08364764856302997,
            -0.826533124635741,
            -0.9637521561201083
        ],
        [
            -0.6345860578120599,
            0.33126088738710835,
            -0.9780587152508244,
            -0.04717166363695413,
            -0.5092274930986049,
            -0.7913392706980336,
            0.9190876809543977,
            -0.43117372427120815,
            -0.07073629324676545,
            0.30158657046120907
        ],
        [
            0.7978565425595341,
            -0.3159909224603288,
            0.6337303269482415,
            -0.12332786505967674,
            0.32341511314875193,
            0.06779494867698599,
            -0.7688552909645356,
            0.6543458377605507,
            0.6185496487216497,
            0.12837273952408812
        ],
        [
            -0.7514672078595668,
            0.009609947297946064,
            -0.779267514462137,
            -0.12866036281401128,
            0.029357001550350814,
            -0.8104916462148555,
            -0.017762115967329795,
            -0.677392587721096,
            0.36712704024330645,
            -0.10673160678602911
        ]
    ],
    "biasesOne": [
        0.2980699598511485,
        0.6566152256419671,
        0.4345506779859487,
        0.9273191062846864,
        -0.03583126782751789,
        0.9051595550947527,
        0.8707684751255698,
        0.5628279344651497,
        0.4314505273737459,
        0.06762556818812304
    ],
    "weightsTwo": [
        [
            0.1941421403020136,
            -0.48824151124164406,
            -0.54107603800767,
            -0.8855700456490012,
            -0.6480792435381668,
            0.2075976970477189,
            0.281920016551354,
            -0.8184356304377136,
            0.3638814394245491,
            0.09952301650139694
        ],
        [
            -0.790884017509285,
            -0.4976171811868406,
            -0.45073526719215007,
            -0.7955807601279761,
            0.8925212111473473,
            -0.8537622502649278,
            -0.3253300802852479,
            -0.8810942064672631,
            0.8510245588620813,
            0.43338783591813
        ],
        [
            -0.39434769822999005,
            0.4646334933723233,
            0.30650725647611776,
            0.6843571480680553,
            0.3924834653513747,
            -0.4088636318969172,
            0.49156844158761803,
            0.8408683358183866,
            -0.7885609477776399,
            0.47706099417350045
        ],
        [
            0.807370111854901,
            -0.8090077401938927,
            0.25891508412368114,
            0.07533270967940409,
            -0.32913010506847895,
            -0.788655148055879,
            0.7935975010311058,
            0.17652653713658073,
            -0.7856650257833582,
            0.1219431862068201
        ],
        [
            0.13817495687735004,
            -0.49745767036515276,
            0.6016914836056779,
            -0.07244751061325472,
            0.4390134013857614,
            0.6027988899953243,
            -0.6726494181942131,
            -0.5394875046503294,
            -0.5198316141574104,
            -0.1919731591351581
        ],
        [
            0.3868276602155625,
            0.9802631161340505,
            0.8947061271318568,
            -0.2500527798378305,
            -0.7928168044473571,
            -0.8151372041735714,
            -0.17117240430979175,
            -0.6014638759966595,
            -0.5366638149187368,
            0.2811621741763186
        ],
        [
            -0.015138287745429801,
            0.3703677160036698,
            -0.0683153841369597,
            -0.477754458862768,
            -0.560012269674913,
            0.47647921910216184,
            0.24106995940109632,
            -0.5312236181724854,
            0.8516180333178123,
            -0.3951975236888412
        ]
    ],
    "biasesTwo": [
        0.8884249356083251,
        0.9966275295967006,
        -0.10922896790090442,
        0.7174078506121684,
        -0.9591374797279681,
        0.06772327342656181,
        -0.1371977305411507
    ],
    "weightsThree": [
        [
            0.0258986579949696,
            -0.7605673452364092,
            -0.7472642768188065,
            0.845216973726352,
            -0.6756623383022919,
            0.45321174494261096,
            -0.3698584979764967
        ],
        [
            0.7447772536884247,
            -0.5451072735964377,
            -0.1290237124410889,
            -0.12492966620831969,
            -0.08169344887679086,
            -0.8528857708439004,
            0.8322423807236357
        ],
        [
            0.02794298454908173,
            -0.22314098659923354,
            -0.552955414393999,
            -0.7062743601422012,
            -0.6015406448278815,
            0.4403732920592698,
            0.887257379119236
        ],
        [
            -0.20973350675736935,
            -0.8038617213570292,
            0.7808019958195713,
            0.9449766107547273,
            -0.3268199899076478,
            -0.6571535700164999,
            -0.9295622399092958
        ],
        [
            0.591604013237818,
            -0.5830283582988887,
            0.38535362546759444,
            -0.3013473220062297,
            0.16036672156593834,
            0.7817768563685292,
            0.22452515947731388
        ]
    ],
    "biasesThree": [
        0.7536662481793137,
        -0.954902033310896,
        0.8247393552286246,
        -0.49331756307180386,
        0.7207469874713137
    ],
    "weightsFour": [
        [
            0.7301312286714121,
            -0.5299799370017326,
            -0.859550034259321,
            0.8889598373558256,
            -0.8614196167605355
        ],
        [
            -0.8090173009276684,
            -0.5922159168608396,
            -0.4989009264601565,
            -0.9850203241617126,
            0.9955017259234427
        ],
        [
            -0.6099141297478687,
            -0.06453844949127241,
            -0.5943503614425252,
            0.2656170058138885,
            -0.3312055617354315
        ]
    ],
    "biasesFour": [
        0.3097429198132864,
        0.29111548988307057,
        0.7592709923196728
    ],
    "weightsFive": [
        [
            -0.5595092689874464,
            0.9175157917840258,
            0.9238340474994433
        ],
        [
            -0.14106073009708497,
            -0.13513870529392813,
            0.7726528800572146
        ]
    ],
    "biasesFive": [
        -0.5497931126039994,
        -0.5864831688588998
    ],
    "fitnessValue": 0
}