{
    "weightsOne": [
        [
            -0.9347289414892781,
            0.5917754201706429,
            -0.9226924403131815,
            -0.3715594664448636,
            0.10852125617866393,
            -0.8073334791570375,
            0.5753614605313979,
            -0.6604010170005667,
            -0.539721777416003,
            -0.7756829838430968
        ],
        [
            -0.7816333616856876,
            -0.198121311128302,
            0.06803951690792887,
            0.8805514226314157,
            0.9726681802198687,
            0.8314540495445415,
            -0.9795532181893924,
            -0.652228691003971,
            0.5567784543268919,
            0.47963612926172594
        ],
        [
            -0.8123907813489566,
            0.8118334902581763,
            0.34637196930379077,
            0.9737868726497614,
            0.6466814193934605,
            -0.8818357662164744,
            0.44251097395005745,
            -0.6538425013737386,
            0.46307807364782727,
            -0.7076804235119003
        ],
        [
            0.49302632780677347,
            0.7220740045565015,
            -0.7676972236810207,
            0.5206862166990387,
            -0.18990360796112804,
            0.91143236060869,
            0.025626482395571637,
            -0.5123701777573582,
            -0.45724491820642554,
            -0.06780841492725309
        ],
        [
            -0.43293605958795145,
            -0.3198895725710782,
            0.23110213988459782,
            -0.9698812511285448,
            0.1770756224754484,
            -0.655760945574503,
            0.6846482137470493,
            -0.21392576415705244,
            0.40259716889186703,
            0.866956006258053
        ],
        [
            0.43035322183299507,
            -0.9013841809303194,
            -0.4747665550668392,
            -0.21731415234254658,
            0.2570281731361719,
            0.2555442442079867,
            0.6108320131333556,
            0.4999885313921548,
            -0.19371578367772702,
            -0.7907835080358716
        ],
        [
            -0.5740893714047464,
            0.6881402096824378,
            -0.9951547886564498,
            0.6773716207403815,
            0.913205001821352,
            -0.25373331954734235,
            0.17766261579713394,
            -0.22804739331051738,
            0.6727313922314109,
            -0.9622282360267544
        ],
        [
            -0.3323082963123425,
            -0.9736133755550247,
            -0.4487685355587083,
            0.5617125689866127,
            0.86227171719348,
            -0.2383634273479096,
            -0.5388622540578498,
            0.5757130223393674,
            0.28873322880750085,
            -0.9938220036500329
        ],
        [
            0.7269251201368694,
            -0.7492290717132739,
            -0.21525496217194107,
            0.19992696565405232,
            0.06037767090836099,
            -0.2831906134824087,
            0.0002313750502276335,
            0.5810302418800526,
            0.872115352417431,
            0.8363262181559363
        ],
        [
            -0.9640650551625489,
            0.4040573494057662,
            0.9923734121815855,
            -0.17155230830028056,
            -0.7789940051730846,
            0.11999579044013586,
            0.21956124960279455,
            -0.3027978197950276,
            -0.38456189607312674,
            -0.47935959077293844
        ]
    ],
    "biasesOne": [
        0.091409698058589,
        0.05745980209561696,
        0.6552910788281163,
        -0.6159129893334869,
        -0.948465585002952,
        0.34203879212601684,
        0.7869410495192606,
        0.7893273234272518,
        0.06149366140522394,
        -0.6689555078259972
    ],
    "weightsTwo": [
        [
            0.9511648617798574,
            0.45925639457052925,
            -0.4853804421261716,
            0.4763150003574843,
            -0.3618075443708251,
            -0.08860561773462572,
            -0.6132457446699564,
            -0.7652033445950503,
            -0.23176631245363621,
            0.9457861607720583
        ],
        [
            -0.7234897083382872,
            -0.9004929634442604,
            0.4840425689066843,
            -0.9385344792832475,
            -0.573521386086693,
            0.4763496483221141,
            -0.8283591923057483,
            -0.04861700793038626,
            0.9080934562898431,
            0.91954181350496
        ],
        [
            -0.23538266699438126,
            -0.24111227385384404,
            -0.16448162237623398,
            0.5058806433394758,
            0.4277305621099725,
            -0.14562381169264382,
            -0.9353479492700179,
            -0.8784559968901178,
            0.05037846842849958,
            -0.13383400377242927
        ],
        [
            0.7815265381710399,
            0.016572284680262506,
            0.9791780875535792,
            -0.2345173173730355,
            0.270626618947742,
            -0.4659128159488428,
            0.33763234345203497,
            -0.2746658026198383,
            0.5853185672126957,
            -0.4027738327805981
        ],
        [
            0.14624738573469287,
            0.04783328655649788,
            0.812538606945056,
            -0.06196965941182708,
            -0.1742187284270993,
            0.5720443118170992,
            -0.14037426558225863,
            0.9838886278583701,
            -0.6777723025975824,
            0.5177833303076709
        ],
        [
            -0.4017246258289844,
            0.491613727493446,
            0.7197921887019638,
            0.3814447626351607,
            0.9171000485703642,
            0.6982244907751844,
            -0.3561388225778863,
            -0.1870143237626023,
            0.14372372653150456,
            -0.548760835492921
        ],
        [
            -0.11689483740948625,
            -0.18871912486613684,
            -0.7482407319004909,
            -0.5026205509349215,
            0.18776363397712248,
            -0.706748769279042,
            0.6754505855040753,
            -0.2647133932130139,
            0.32752327853296714,
            0.010190980657735382
        ]
    ],
    "biasesTwo": [
        0.7165719258871619,
        -0.65505114387072,
        0.4372315128270976,
        -0.4413815781919397,
        -0.5262381372298082,
        -0.6415604506834467,
        0.7312928652105766
    ],
    "weightsThree": [
        [
            0.09751883983824783,
            -0.04109220808681946,
            -0.6683497141019694,
            -0.6019981772570044,
            -0.2129497672386924,
            0.4308816242542908,
            0.9935162804154618
        ],
        [
            -0.5858764072000686,
            0.2162260103181688,
            0.7781782119485294,
            0.7440278296044547,
            0.22327870669693461,
            -0.0915263795693595,
            -0.9522937916629388
        ],
        [
            -0.17971114278274936,
            -0.8646595587637405,
            0.0913165896561956,
            -0.3110346590566637,
            0.609010480059857,
            -0.2697933193187021,
            -0.3534077045695201
        ],
        [
            0.23780225011573108,
            0.9040445658210816,
            0.7250793499367423,
            -0.517042604737544,
            -0.8325584384081037,
            -0.36817545298992327,
            0.4434979831379433
        ],
        [
            -0.2170801907679738,
            -0.4938609262951721,
            0.9825840050840415,
            0.0736318052761551,
            -0.6256134309148849,
            -0.09117470742348144,
            -0.40708078878351417
        ]
    ],
    "biasesThree": [
        -0.010605293591539944,
        0.6755997986781617,
        -0.3315218319745401,
        -0.02755227112532066,
        0.7683424833363861
    ],
    "weightsFour": [
        [
            0.04997297975463555,
            -0.1645507988092083,
            -0.28828554410626905,
            -0.949895671308546,
            0.7725044299672823
        ],
        [
            -0.601521657614704,
            0.5342469025328882,
            -0.4315652839854742,
            0.6694872437617794,
            0.38044948671730117
        ],
        [
            -0.9660873846349594,
            0.5502600270848244,
            0.8660265996359107,
            -0.14104733052159268,
            0.4779562404948867
        ]
    ],
    "biasesFour": [
        0.6533499406310885,
        -0.8829482725740689,
        0.8015498701973787
    ],
    "weightsFive": [
        [
            0.14638540947922318,
            0.6490583896946596,
            -0.5597332580547874
        ],
        [
            -0.39344521559188017,
            -0.7884445100439541,
            -0.4054604613248043
        ]
    ],
    "biasesFive": [
        -0.7321352103794314,
        -0.07133098804398585
    ],
    "fitnessValue": 0
}