{
    "weightsOne": [
        [
            -0.29190011369034097,
            0.23903749020035892,
            0.47107363346779785,
            -0.1412681603077499,
            -0.1071303594802524,
            0.19156595969170498,
            0.8522661580941964,
            -0.06128309813690902,
            -0.5965221288189466,
            0.9697089480609045
        ],
        [
            -0.5611727443372474,
            0.3519340419412418,
            -0.7959660004023505,
            0.5467592366052938,
            -0.5786013320029,
            0.38800760482534447,
            0.1526657236235296,
            0.5982255504641678,
            -0.5847423001037213,
            -0.08015737972244752
        ],
        [
            0.8511048268266894,
            0.7029810279398103,
            0.5285199057042935,
            -0.62617585128799,
            0.23724911220935052,
            0.1956667506214791,
            0.7911097406080918,
            0.0104109006458466,
            0.37647085322015816,
            0.35503878241429065
        ],
        [
            -0.5385675474448717,
            -0.5107757221059275,
            0.6860038975780454,
            -0.08579457796653878,
            -0.655468260580979,
            0.46406099148702196,
            -0.450624548845423,
            0.4753214518858817,
            0.22809038494628897,
            -0.7882132850562082
        ],
        [
            -0.47380931534426907,
            -0.42330947543692443,
            -0.0580935364485915,
            0.07129843613123299,
            -0.5169716070906345,
            0.9519130779155391,
            0.6373456905428176,
            0.8534619388685547,
            0.6307250924696297,
            0.5701209345282949
        ],
        [
            -0.38998023287567873,
            0.011127058970074932,
            0.8211447044832512,
            0.7670541892666298,
            -0.7858764799184657,
            -0.3098453979189588,
            0.5917233222214691,
            -0.45791663119416914,
            0.6482750917267814,
            -0.9516231269156383
        ],
        [
            -0.16980431227820936,
            -0.8224209422783446,
            -0.2427115450179842,
            -0.6708644374726018,
            0.8291119699619152,
            0.5196405718159358,
            0.6910500626357245,
            -0.22345092082962092,
            -0.3456919670326055,
            0.8867328315888494
        ],
        [
            0.9649598915124404,
            -0.85891701556868,
            -0.7379049373381497,
            -0.8491666702297751,
            0.2821977888162692,
            -0.18426816184366257,
            0.08806027142252182,
            -0.43702427434431157,
            -0.6491164697006719,
            -0.7259189377790569
        ],
        [
            -0.7565862852118221,
            0.25508290072218864,
            -0.8855939340963546,
            -0.24845825974627966,
            0.298969033451397,
            -0.4513514309547011,
            -0.6853679407865809,
            0.1308151151671071,
            0.39076157912940057,
            0.5105728907449716
        ],
        [
            0.47605584839003057,
            -0.835696079136363,
            0.03924450470898866,
            0.982254473061791,
            0.7305561126270574,
            -0.7433128096614474,
            0.11315945691057361,
            0.42442986928274795,
            0.9132669087895842,
            -0.3701160218599444
        ]
    ],
    "biasesOne": [
        0.5694334676776582,
        -0.5573495467943359,
        -0.179843915449154,
        -0.9793293018807778,
        0.6571279354330783,
        0.13075717313779522,
        -0.9637621894930029,
        0.42704353535555106,
        0.06850033398180488,
        -0.11823475771937231
    ],
    "weightsTwo": [
        [
            0.5305179937888853,
            -0.8950160990555014,
            -0.9481261867366371,
            -0.4254779545131768,
            0.16765172618080015,
            -0.4476508680592788,
            -0.5853479864853324,
            0.6616682398802294,
            -0.6314554773659526,
            0.08462962626661619
        ],
        [
            -0.10902730351947998,
            -0.27908783235947165,
            0.3785789146310887,
            -0.8283872368355811,
            -0.669151195632355,
            -0.32611486857777194,
            -0.004086127109150572,
            0.353367854446206,
            -0.34644810896041034,
            0.7766482835944202
        ],
        [
            0.6297922438679484,
            -0.4211179738228863,
            0.5244178316365338,
            0.9097319133663913,
            -0.9713366330674633,
            0.49620452709376894,
            0.9323420758318617,
            -0.6019697730207756,
            -0.16881271726571057,
            0.8771208044534258
        ],
        [
            0.7326139651760635,
            -0.2324602092439665,
            -0.45013300790368915,
            -0.10963066002325528,
            0.2625983574898849,
            0.35271937796602626,
            0.9478374752218892,
            0.6736880458899164,
            0.9168153820078133,
            0.07498328071340188
        ],
        [
            0.3360966152344531,
            0.7264629200580635,
            0.752931508601089,
            0.8825005136222437,
            0.7583871816462588,
            0.7783651228641753,
            0.1534717830774288,
            -0.20673109489584718,
            -0.3166084487016767,
            -0.0031737728130278864
        ],
        [
            -0.7126982717392139,
            -0.06746187262033065,
            -0.44593797919654343,
            0.5751490479061994,
            0.8564518959580283,
            -0.7819009431111528,
            -0.015994405155628666,
            0.7594377964932482,
            -0.31038703312143623,
            -0.21908849604804903
        ],
        [
            -0.3647861403348931,
            0.27452717213666333,
            0.35749750241961054,
            0.8644851528550599,
            -0.10935332858494329,
            0.9833061395129288,
            0.48943326386268704,
            0.2207649892816672,
            0.3012776100011081,
            -0.22107503922144556
        ]
    ],
    "biasesTwo": [
        0.42145685171409664,
        -0.15163205548128467,
        -0.9548807349504185,
        0.5419751305029359,
        0.3321645485964899,
        -0.15246019661703825,
        0.27080346587111204
    ],
    "weightsThree": [
        [
            -0.9332912546077798,
            0.166371351951641,
            0.721870744755629,
            0.9416589899435948,
            -0.27036719201545045,
            -0.18163571075594032,
            -0.4998843288095074
        ],
        [
            0.26365446467774634,
            0.5484394039911502,
            0.7168503108106985,
            -0.10012515619237106,
            -0.9572555994765217,
            0.2730404216497193,
            -0.9877749302127858
        ],
        [
            -0.026018364426383167,
            -0.8140387529661408,
            0.2600520991046358,
            0.7151685800887493,
            0.6807201241897929,
            0.11466568671448751,
            -0.5738639416672224
        ],
        [
            -0.5038393491135238,
            -0.27318247398387485,
            0.7504325141012413,
            -0.4076905350842275,
            -0.6059704545832321,
            -0.08382061946780062,
            -0.9400728728448489
        ],
        [
            -0.23997406511907537,
            0.4536551025521578,
            -0.6148120821475003,
            -0.7009044944907001,
            -0.5248713353815253,
            -0.33197315514345327,
            0.0554377776731676
        ]
    ],
    "biasesThree": [
        -0.10370573677470318,
        -0.18661216120920043,
        0.8447830779052363,
        0.9007449656863138,
        0.6897116573676343
    ],
    "weightsFour": [
        [
            0.07780578752629497,
            -0.7535539812373091,
            -0.10647469265446685,
            -0.08340721987639688,
            0.3113719272985338
        ],
        [
            -0.3436329596554377,
            0.5237040041000736,
            0.5848730457104778,
            -0.4884970841628864,
            0.39142754128375956
        ],
        [
            -0.24068086918518516,
            -0.9648657504882496,
            -0.7219986274402239,
            0.7560322338319982,
            0.12901441808318959
        ]
    ],
    "biasesFour": [
        0.6857602672683811,
        -0.30389101173119637,
        -0.22244531593398986
    ],
    "weightsFive": [
        [
            0.5431092757073885,
            -0.5456864396491412,
            -0.7411448509590501
        ],
        [
            -0.010045927522766007,
            -0.8963799825614165,
            0.9227454585490735
        ]
    ],
    "biasesFive": [
        -0.344506064100905,
        -0.24139093862504013
    ],
    "fitnessValue": 0
}