{
    "weightsOne": [
        [
            0.8452363135216088,
            0.2097987511505739,
            -0.651963407327413,
            -0.7677336320558874,
            0.455411756753098,
            0.1443379759418717,
            -0.8914809336697187,
            -0.21286352365080208,
            0.7109265532588123,
            -0.22794630311604114
        ],
        [
            -0.666785839225138,
            0.6370896162292368,
            0.714359184722517,
            0.04662760864928517,
            0.38089643822649744,
            0.795609621930031,
            0.9988678348844071,
            0.271488966683596,
            0.4241712737044083,
            0.8904646501965179
        ],
        [
            -0.30498038347571765,
            0.9613032995447093,
            -0.17550023655911384,
            0.196780757282631,
            -0.6055829248655484,
            0.9349944891716346,
            -0.23782641718131847,
            -0.07269717321089275,
            0.16151430815394963,
            -0.8619913198148861
        ],
        [
            0.2554080186831671,
            -0.57623277225006,
            -0.8143070113518609,
            0.926222832386016,
            -0.18216509581357498,
            0.7526790541600645,
            -0.9268184700532642,
            0.7128755438747065,
            0.16294545694104268,
            -0.9737915933216288
        ],
        [
            -0.27370844254983284,
            0.27515171764676194,
            0.31476308365095984,
            -0.15425089356384758,
            -0.3684823668674293,
            0.8383532056194676,
            0.5624766834000832,
            0.9244153032082336,
            -0.347786854906283,
            -0.0011430190923955585
        ],
        [
            0.7020884781516541,
            0.9135783855826212,
            0.17690135962467735,
            -0.45281953148392495,
            -0.5869805765623575,
            -0.9791477933566188,
            -0.8304232729199845,
            -0.9821830470653481,
            -0.16384913917679977,
            0.05439206058254786
        ],
        [
            -0.7259864605556865,
            -0.21708034674418797,
            0.9263297811642985,
            -0.7815617125705965,
            -0.5375393629819263,
            0.406912098736117,
            0.4359488984515667,
            0.5631630783563164,
            -0.7790029067725546,
            -0.6986293673291775
        ],
        [
            0.19905231345068697,
            0.08740051307568852,
            0.26407389710922713,
            0.514675704136327,
            -0.7060025515138921,
            -0.8115700066587443,
            -0.575624028484508,
            -0.6487851537944243,
            -0.48651930085602735,
            0.5806283947361837
        ],
        [
            0.8729558191136433,
            -0.2554913754317649,
            0.971856428152801,
            0.5087120396781972,
            0.15294294534149988,
            -0.3878529316125494,
            -0.9080599533095806,
            -0.04250445874526032,
            0.4366246690125728,
            0.7990656741748401
        ],
        [
            0.6903452575681148,
            -0.44822041615993347,
            0.21150117989432204,
            0.8059158460003215,
            -0.4844252205041859,
            -0.03270093755256909,
            0.6368464447384954,
            -0.5092877928605173,
            -0.4904949348125933,
            -0.04954231052537006
        ]
    ],
    "biasesOne": [
        0.47263143247428085,
        0.8872136150240713,
        -0.8239535224557399,
        0.5900559467349653,
        0.06667068482797323,
        -0.443879608343124,
        0.8681745889206811,
        0.07383756419878118,
        0.4775253469995675,
        0.4323704189371147
    ],
    "weightsTwo": [
        [
            -0.23066646236028476,
            -0.8562617711843781,
            0.4740579607864892,
            0.6496646300608111,
            0.7381239558561463,
            0.2277333960188237,
            -0.657429839740026,
            0.21264594516693913,
            0.28630506771473585,
            0.9331650894305612
        ],
        [
            0.06424096075404973,
            0.03889916941215987,
            0.04581053533055002,
            0.9468520729097039,
            0.24985858134211147,
            -0.10235360126408022,
            0.9082024115183847,
            -0.8852936377451688,
            0.09672774039610732,
            0.20929132941808803
        ],
        [
            -0.8304550295854896,
            0.4083416155571813,
            0.02389354436333546,
            0.2555088474194176,
            -0.04302069912119055,
            0.6250595411063748,
            0.5329420750848732,
            -0.3275499761197094,
            0.34109497304520175,
            0.7875941628482297
        ],
        [
            0.33937873663164675,
            -0.43355088420235455,
            -0.96796957506792,
            0.9540038627359777,
            -0.4204884894491263,
            0.4438996647049631,
            -0.04193698622108877,
            0.028577891297800306,
            0.9112939722178339,
            0.8036955200699167
        ],
        [
            -0.8113019834538138,
            0.8054479710291451,
            -0.6912993729156289,
            -0.05560291930650885,
            -0.4138622714498683,
            -0.3648049154696491,
            -0.26426045827593336,
            0.462290822780405,
            -0.050188488469484094,
            -0.7625970108173201
        ],
        [
            -0.5583153305150561,
            -0.5117478113285001,
            0.12538949028561763,
            0.36213778282450626,
            -0.16885075472110578,
            -0.13480363936749096,
            0.6359108467348136,
            -3.588689694766778e-05,
            0.8714975010340609,
            0.2857505147294688
        ],
        [
            -0.44509460322744476,
            -0.772280322283964,
            -0.6159590970244406,
            0.7006078375876574,
            -0.9664676940677637,
            -0.5726660288719896,
            -0.35870066712404247,
            0.06619201377044504,
            -0.08780377049441301,
            -0.2801878728754512
        ]
    ],
    "biasesTwo": [
        -0.20323517465734708,
        0.15575366462345763,
        0.0655571757136415,
        -0.8990600690804189,
        -0.30352471614173004,
        0.2966663635519593,
        -0.15102466189559172
    ],
    "weightsThree": [
        [
            -0.050728222142277124,
            0.24241499784145137,
            0.20702045325908647,
            -0.8610325015365357,
            -0.5078659622310919,
            -0.01919822422521711,
            0.16871735505566976
        ],
        [
            0.505556417826325,
            -0.2830430392569532,
            0.16723589477313516,
            0.1602119864746978,
            -0.22761004928811834,
            0.7907986365328386,
            0.42655965176830946
        ],
        [
            0.6373419044268693,
            0.2345120403080867,
            -0.10021280246457676,
            -0.3353439125882014,
            0.8371043558095637,
            0.5403680280678913,
            0.2915294836860862
        ],
        [
            0.6878306887599606,
            -0.47260279606025035,
            -0.932121583756234,
            0.8993825149084311,
            0.15918227903541382,
            0.8701794964546932,
            0.2975485496508281
        ],
        [
            0.14004296929033777,
            0.6438272873111199,
            0.2130472516282842,
            0.8592566193326348,
            0.5848267578158697,
            0.41821399309847584,
            -0.10342380125607886
        ]
    ],
    "biasesThree": [
        -0.8591830972206485,
        -0.06259621739115717,
        0.9634398071311303,
        0.6132752117103168,
        -0.019384811070552344
    ],
    "weightsFour": [
        [
            0.4623699230613154,
            -0.13291615394209866,
            -0.5335069716477254,
            0.5290439167795242,
            -0.13922018008815318
        ],
        [
            0.9094209788674548,
            0.48993376340132677,
            0.3594964201912134,
            0.143936709866072,
            0.8680361171957605
        ],
        [
            0.27247984579829176,
            -0.9640971509721887,
            0.07264120297134258,
            -0.4114733452909527,
            0.7065068149334914
        ]
    ],
    "biasesFour": [
        0.02154974480479388,
        0.39764610497364794,
        0.8143130058177412
    ],
    "weightsFive": [
        [
            -0.7066390819979667,
            -0.4942377388717192,
            0.8065414930953401
        ],
        [
            -0.7244982795784298,
            0.4137025231174374,
            0.09123416702917297
        ]
    ],
    "biasesFive": [
        -0.5776466359685208,
        0.005711844374004071
    ],
    "fitnessValue": 36.34448909919419
}