{
    "weightsOne": [
        [
            -0.7906274677128731,
            -0.019706932662408416,
            -0.7121630616202719,
            0.8870707374148774,
            0.23159107729325346,
            -0.17478625291689331,
            0.5010633153269912,
            0.5645792427536924,
            0.9795379852798154,
            -0.2075530812612263
        ],
        [
            0.44507425656571686,
            -0.13416604709928825,
            0.07594942591643039,
            0.44613294236006307,
            -0.23640548125380723,
            0.6403374814020388,
            0.6632240593637928,
            -0.4412262928939161,
            0.946216568349296,
            0.5176143170033998
        ],
        [
            0.9537356645529613,
            0.4894520429755045,
            -0.4983068751427395,
            -0.9643368514292592,
            0.8979800322425537,
            -0.6039988207909199,
            -0.40342269658627794,
            0.28820801451530853,
            -0.9415788879265297,
            -0.35531990188506546
        ],
        [
            0.6999596207448697,
            0.7001264640431193,
            -0.6060122419281657,
            0.1156282854180295,
            -0.8907909058236847,
            0.09553212601407046,
            -0.09244931258001188,
            -0.9588799564715451,
            -0.7804002392611051,
            -0.48726805794707917
        ],
        [
            0.28569966957540416,
            0.06990204076006701,
            -0.49467011219294355,
            0.32560720370279417,
            -0.7769103720043704,
            0.6422888005903951,
            0.9581028324831036,
            0.3695303332829427,
            -0.3350277659746861,
            -0.6477294281573891
        ],
        [
            0.9419220280384311,
            -0.7400792255244437,
            0.9118217187466577,
            0.6324257772614277,
            0.7277572869951741,
            0.5188833596172602,
            0.3854789779300678,
            0.0858320706425233,
            0.2216655068725213,
            0.6280563486093607
        ],
        [
            -0.9449868862167066,
            -0.9412334772926991,
            -0.5429138909897822,
            0.5442860677662087,
            -0.860454066378191,
            -0.019198247360436183,
            -0.5185269595871247,
            -0.593764414536069,
            0.14791848749737202,
            -0.9052888714450584
        ],
        [
            0.9774094270414544,
            0.5044240395428756,
            -0.7212496073751016,
            0.6548983332122635,
            0.2335902166702919,
            -0.22655872385394127,
            -0.9801515043992872,
            0.6512021912470503,
            -0.7772673117969804,
            -0.6503921405805446
        ],
        [
            -0.04611888568828171,
            0.8822551005304038,
            0.7813993370376675,
            0.32841845227020694,
            -0.013512911072413702,
            0.8880690598226042,
            0.6170500116134654,
            -0.2558827555265344,
            -0.016731759440829608,
            -0.8472249427874659
        ],
        [
            0.024500479884778104,
            0.7948360877981893,
            -0.5913842990230411,
            0.4125767977501813,
            -0.24157349838967157,
            -0.4546350658627618,
            -0.7343676452156216,
            -0.071664043899615,
            -0.25539013550132506,
            -0.8179633135551176
        ]
    ],
    "biasesOne": [
        -0.9405300501549596,
        -0.1514837186771405,
        -0.09154546764624438,
        0.20075528492216477,
        0.8761618621681035,
        -0.9550369811943595,
        0.1211240047755282,
        0.09405314963013178,
        -0.6190327487269585,
        0.8506160914078917
    ],
    "weightsTwo": [
        [
            -0.7789851205852263,
            0.9607291384139915,
            -0.06133360583337488,
            0.13824003488892544,
            -0.19184651437792843,
            -0.018514497280771813,
            0.8790184873982205,
            0.3509018540599258,
            -0.6959061954202999,
            -0.41316221664541675
        ],
        [
            -0.5206892376502295,
            -0.7171045669448799,
            0.04786628426030615,
            0.665432462390297,
            -0.005233429141492163,
            0.2538472035701318,
            -0.8705094506126694,
            0.17130520401653038,
            0.2104475011877589,
            0.3903498656784945
        ],
        [
            0.34697354134354574,
            0.4384049641499308,
            -0.22409144540270032,
            -0.5917466825927808,
            0.2842380340287063,
            0.2584298531401299,
            0.1305697703617772,
            0.3097669116463002,
            -0.16931020417534715,
            -0.3079496958716865
        ],
        [
            -0.11558433326224993,
            0.33542764675360814,
            0.8202994364820462,
            0.30941659691055845,
            0.20771898350816076,
            0.20709754810517778,
            -0.2950549965701128,
            -0.6658666694965425,
            -0.10341897793697341,
            0.8656245398364726
        ],
        [
            -0.44017451321547973,
            -0.8022113514240585,
            0.5162797022576902,
            0.8621660397628612,
            0.6746336536039763,
            -0.636670586120736,
            -0.8029901137806992,
            0.42713151055146614,
            0.39234659106766845,
            -0.09250339126533369
        ],
        [
            0.05649703470050782,
            0.3254833439996079,
            -0.951620147947928,
            -0.5633174161373993,
            -0.23200277995606866,
            0.28556316383119396,
            0.2764113886714379,
            0.4553559861800667,
            0.2725220027234265,
            0.7045829639061758
        ],
        [
            0.2865222444098898,
            -0.05264527536509034,
            0.5910329788053028,
            0.7139912548597549,
            0.21097285807931665,
            0.36797714248829627,
            0.20490029309554036,
            -0.19060478936667713,
            -0.11331152834777503,
            0.787245052879249
        ]
    ],
    "biasesTwo": [
        -0.16288983391589107,
        0.9646136184642764,
        0.32181401039305424,
        -0.49018010217983665,
        -0.3508123170155639,
        -0.6270932352998098,
        -0.46845638789187727
    ],
    "weightsThree": [
        [
            -0.4700190114056002,
            -0.7537428467911169,
            -0.336663259027725,
            -0.53562955310463,
            0.7426031996705857,
            0.8558899745841313,
            0.6793324471578255
        ],
        [
            -0.21024959978143243,
            -0.6442960340885857,
            0.830534849704087,
            -0.07207491764036988,
            -0.6811543956316974,
            -0.4683718849235412,
            -0.10769268990245662
        ],
        [
            -0.925737257229128,
            0.32450947402506514,
            0.7038012016158055,
            -0.29929003630524953,
            0.049490877728681104,
            0.7881266562227403,
            -0.40119358019760565
        ],
        [
            -0.7771223976278896,
            -0.14968519095166433,
            0.5908607929516441,
            -0.3205066191458461,
            0.7688289654322564,
            0.09710715056987995,
            -0.8071959322508941
        ],
        [
            -0.5777609168117539,
            0.6985947000941262,
            -0.5004250113620001,
            0.5718900429148028,
            0.09657428658531231,
            -0.8298624135974821,
            -0.8887789888406827
        ]
    ],
    "biasesThree": [
        -0.012915855747012817,
        -0.6672191494628756,
        0.9827744634301805,
        -0.3027802458788962,
        0.8896842465016361
    ],
    "weightsFour": [
        [
            -0.754425426036305,
            0.11179378558828468,
            -0.9899483871092638,
            0.02912339220954352,
            0.7763606368079701
        ],
        [
            -0.717823295396578,
            -0.5830978862181619,
            0.285127141625956,
            -0.19121028299384712,
            0.7614501656241488
        ],
        [
            0.9903732245649699,
            -0.21645667913441913,
            0.4517519563510075,
            -0.8401512630960966,
            0.13807722992339477
        ]
    ],
    "biasesFour": [
        -0.9966963017016666,
        -0.13921499058364128,
        0.3119567141191959
    ],
    "weightsFive": [
        [
            -0.35298344942834103,
            -0.07003412054012981,
            0.26945544772053664
        ],
        [
            0.9019206568831593,
            0.5989967281678588,
            -0.9610264772971158
        ]
    ],
    "biasesFive": [
        0.08795546378970154,
        0.7532628579061491
    ],
    "fitnessValue": 0
}