{
    "weightsOne": [
        [
            0.6366701924902944,
            0.9207050475123026,
            -0.26916941534726746,
            -0.476733111811499,
            0.8802252115032589,
            0.6471802634756469,
            -0.5994340938467171,
            0.6226313704992847,
            0.5938955375484154,
            -0.2919922527944294
        ],
        [
            0.1506170801811444,
            -0.41921732526786304,
            -0.7159301236309128,
            -0.37624676364724685,
            -0.9767998949217185,
            -0.08302258151807584,
            0.04897293053237739,
            0.3269382954422386,
            -0.9723763121105593,
            0.45280459816652163
        ],
        [
            0.6922748100514111,
            0.7658706624748752,
            0.2724474635022336,
            0.792746254776489,
            0.35308709648368275,
            -0.5247731418317911,
            -0.43360052788261494,
            0.678680623123153,
            0.6299277598147484,
            0.8582807395224847
        ],
        [
            -0.15474647363432736,
            0.4355503370470135,
            0.09363040749691431,
            -0.03296174492767312,
            0.5101809641344734,
            0.9205565144674865,
            0.7702959742315691,
            0.10574312708896305,
            0.7020139530676024,
            -0.8081957834052542
        ],
        [
            -0.8834174304178277,
            -0.3742241865264895,
            0.5814145416835099,
            0.6108108043854157,
            -0.7678162309440346,
            0.6478170484033636,
            -0.7393012227780498,
            0.7766220119159439,
            -0.04332819477250993,
            0.6451117079830322
        ],
        [
            0.0985009630790783,
            0.47975928047937333,
            -0.9242226317537712,
            -0.36393067234911936,
            -0.662937900682244,
            0.5431380477767134,
            0.9181672621643058,
            0.5927151461660713,
            -0.4196441608307757,
            0.940015081126399
        ],
        [
            0.029806536360117653,
            0.6604334044282898,
            -0.3264663324692991,
            0.3295155013799953,
            0.14622205098425956,
            -0.984175126326363,
            0.5145518997123517,
            -0.05564534472699778,
            0.09571859983705444,
            0.9055674858905871
        ],
        [
            -0.3922790297792247,
            -0.30003575436871466,
            0.04331025187970705,
            -0.3270014948104447,
            0.5211173830717291,
            -0.318821794194893,
            0.40164339833086915,
            -0.1486971179683536,
            -0.26775003698171207,
            -0.15370843567207593
        ],
        [
            -0.818742351149597,
            0.4107908020243387,
            0.9336464596755574,
            -0.15292811440712328,
            -0.09484777173099035,
            -0.3345640518794504,
            -0.749755458912678,
            -0.4946324749625697,
            -0.8500614661330905,
            -0.3656851146874158
        ],
        [
            -0.9667462691401874,
            0.8155264716005697,
            0.06689487683284967,
            -0.1844584851500739,
            -0.7425224578295171,
            -0.8153084300542417,
            -0.034482626756660695,
            -0.26463348924425834,
            0.7279802851244723,
            0.772498157610338
        ]
    ],
    "biasesOne": [
        -0.30046354334922065,
        0.8266035913695966,
        -0.492505129894625,
        -0.8398733970707424,
        -0.2546614629473143,
        0.8497451636997975,
        0.08737312096684224,
        0.0853347321004736,
        -0.4323307363286293,
        0.4947499618098765
    ],
    "weightsTwo": [
        [
            -0.11405276716943846,
            -0.16369565808673703,
            0.7711429401933276,
            0.35716765749255486,
            -0.8800584817520785,
            0.2745547004509059,
            -0.570938013405434,
            0.6778653397466479,
            0.02303016108429423,
            0.08448333352816251
        ],
        [
            -0.9174326198173408,
            -0.9568488352663052,
            -0.04815441062677306,
            -0.3713033742048002,
            -0.5681149815647208,
            0.32507966731369864,
            0.5763638545458778,
            0.4238192408533319,
            0.05510342216658781,
            -0.03488088872861428
        ],
        [
            -0.10844839914921134,
            0.7457215281358682,
            -0.12557112685257477,
            -0.42721857849646705,
            0.8517090473312083,
            0.3089820518679738,
            -0.20795882291827783,
            0.0672515213792555,
            0.6449672684948484,
            0.7279753565674629
        ],
        [
            0.6962668559660992,
            -0.8364203492147657,
            -0.2131225502583769,
            -0.30446211664145006,
            0.7926105901718556,
            0.6460974042958243,
            0.8337195521651319,
            0.33770573534415127,
            0.6703999347963641,
            -0.6395961083330921
        ],
        [
            -0.8254236531277461,
            0.7884482685917946,
            -0.9526558116604453,
            -0.7246130851274124,
            0.19756421031546134,
            -0.18178650273442698,
            0.1838277845123386,
            0.2549671216107885,
            -0.4720173823854512,
            0.5087912523269196
        ],
        [
            -0.30533961287615585,
            -0.668585715275898,
            -0.09600065140212743,
            -0.19133050772231552,
            0.9722444497118119,
            0.13160054520004838,
            -0.7869113399913157,
            0.1304964149214607,
            -0.37767376586548496,
            0.2149161077831232
        ],
        [
            -0.2855529370589158,
            0.4762568705590069,
            -0.7709868655014904,
            -0.21505019949746118,
            0.3809547965017732,
            0.15167702405802075,
            0.43766031834294505,
            0.26648165410332014,
            0.49948079352830543,
            -0.5327554583191623
        ]
    ],
    "biasesTwo": [
        0.9291081594086386,
        0.9883260154205331,
        0.1557690841156798,
        -0.6267191843044759,
        -0.20483540644174658,
        -0.32441083156779116,
        0.5353237677596809
    ],
    "weightsThree": [
        [
            0.9905223235169658,
            -0.5045257656486484,
            -0.5016696880254938,
            -0.8876868034441674,
            0.7906572822915614,
            0.8432743403074339,
            -0.07210253358732932
        ],
        [
            -0.21248754060815367,
            0.7888469293468305,
            0.8114410299102373,
            0.5714673227023561,
            0.4389993955839475,
            0.544061959729216,
            -0.9955038886942009
        ],
        [
            -0.24469069784280784,
            -0.12048447247031446,
            -0.8939467961275569,
            -0.18552657459356214,
            0.01915470221010307,
            -0.11778034612171351,
            0.030949542869303626
        ],
        [
            0.22736036374147361,
            0.2551473590564348,
            0.2374719028135479,
            -0.21071622709398774,
            -0.924332424702828,
            0.8099413057022289,
            -0.7725910953754895
        ],
        [
            0.7170357131297314,
            0.13683565898834082,
            0.06483900465730863,
            -0.8076014821935487,
            0.6122500289058799,
            -0.1159450718161188,
            -0.8117150333841201
        ]
    ],
    "biasesThree": [
        0.534200572719836,
        -0.1927300253503712,
        -0.15352684306948183,
        0.1853681388137749,
        0.819800857681364
    ],
    "weightsFour": [
        [
            0.44322013230612645,
            -0.10975219828822302,
            0.14310734535993141,
            0.697414936481612,
            -0.9123859873042697
        ],
        [
            0.17164149914340543,
            0.9143597428903918,
            -0.6177330950270465,
            -0.03480752516099139,
            -0.6837809380833604
        ],
        [
            -0.4009661065488914,
            -0.09510924695828593,
            0.8610170018357173,
            0.8300648352586801,
            -0.7340311457901547
        ]
    ],
    "biasesFour": [
        0.9638569080900499,
        -0.554335478358811,
        0.604939897658511
    ],
    "weightsFive": [
        [
            -0.43359337202321524,
            -0.2089785888305189,
            0.1541087843402884
        ],
        [
            -0.9444629632466945,
            0.23177503414635425,
            0.47551768326274746
        ]
    ],
    "biasesFive": [
        0.4553030047999229,
        -0.5266625793169957
    ],
    "fitnessValue": 0
}