{
    "weightsOne": [
        [
            -2.2068819585470316,
            -2.4315308904321076,
            1.3266115132269416,
            1.8376632993630606,
            0.2918947384100483,
            0.9490134769350607,
            -1.655579659208954,
            -0.3505896035671814,
            -0.264851682952405,
            0.22314364362116024
        ],
        [
            -1.2559193186748279,
            1.8659053923886724,
            -0.15469891774473554,
            1.6721204018108375,
            1.7261427438426278,
            -0.22307663407580325,
            0.372418544859356,
            -0.9033219108124628,
            -0.7764750616935117,
            1.2468053365400333
        ],
        [
            -0.9301532220162008,
            0.4123811148472951,
            -1.4997483662447286,
            -2.1480825644281945,
            0.24391228726130354,
            0.33348576630390925,
            -2.1779050344596174,
            -0.7530384976975819,
            1.679081138067974,
            -1.1605634359908656
        ]
    ],
    "biasesOne": [
        0.8152719218582494,
        1.0108711470898046,
        0.4390675616889803
    ],
    "weightsTwo": [
        [
            -1.8284699995576985,
            0.10293884275289855,
            -0.7818552795906475
        ],
        [
            2.1966378845130166,
            -0.14702698404950576,
            -0.8698092631121779
        ],
        [
            0.38636543123059264,
            2.073565435824552,
            2.490745709578313
        ],
        [
            -2.451687323961875,
            1.3439776592524755,
            -1.7748014863876482
        ],
        [
            0.7770523130861906,
            -0.8739557564764966,
            -2.010436518137203
        ]
    ],
    "biasesTwo": [
        -0.9218779887620903,
        -2.266727688799437,
        2.1932465793945335,
        0.05949637567547006,
        2.3614576105372596
    ],
    "weightsThree": [
        [
            1.507143269183139,
            -1.4555804887394086,
            -0.27530390744332944,
            0.6342990895378704,
            0.3957296752720545
        ],
        [
            2.0765349804536593,
            -0.9047630627196712,
            -0.71496873737749,
            0.03678882051369747,
            -1.8789984282106287
        ],
        [
            1.1532065430115375,
            2.287302533209159,
            -0.48584823059086535,
            0.9305135639472617,
            -2.296256192504132
        ]
    ],
    "biasesThree": [
        -0.9820952067063093,
        0.3073609385235123,
        -1.9163458623978018
    ],
    "weightsFour": [
        [
            -1.237465652948217,
            1.0591762089268442,
            0.7077240063924188
        ],
        [
            0.16743742456582122,
            1.3092456170193483,
            1.2621516379119821
        ]
    ],
    "biasesFour": [
        1.395656805681988,
        1.9878630660312604
    ],
    "fitnessValue": 0
}