{
    "weightsOne": [
        [
            -0.8563577202517549,
            0.3442222253543159,
            0.2588864881509232,
            -0.13355162415054345,
            -0.6179843133350924,
            0.9068407882981859,
            0.0018498437062117734,
            0.6215800092060353,
            -0.6371421403105428,
            -0.15232164092148692
        ],
        [
            0.7749612443990848,
            -0.25211981313647724,
            -0.3411824912442576,
            -0.606220739381335,
            0.5162201741904837,
            -0.8463000114844033,
            0.5724619571901142,
            -0.9909894751175723,
            -0.34484000878746124,
            -0.9578685518408463
        ],
        [
            0.9326040295896818,
            -0.6084352633001997,
            0.7962348623404274,
            0.9718192399909529,
            0.5490541981208523,
            0.07616674545764268,
            -0.7057862621942588,
            0.29587429965404866,
            -0.3795155391103753,
            0.23425677444262227
        ],
        [
            0.19143414170398376,
            0.8456626860984267,
            -0.2887914769056654,
            0.6468358101214391,
            0.009937584102778008,
            -0.13410430768780124,
            -0.10881892428131468,
            0.506166229681863,
            0.5091178112922912,
            -0.5761379918454235
        ],
        [
            0.19000766203887887,
            0.5416205599652855,
            -0.42185970044826315,
            0.909115910647335,
            -0.2771438964064563,
            0.6196482461509314,
            -0.4591333156677744,
            0.8300432647499059,
            0.5942741116695058,
            -0.8225284285560839
        ],
        [
            -0.8392102787489959,
            0.24885803320290112,
            0.8194079748535135,
            -0.10766565729141098,
            -0.7751076243889934,
            -0.4924031736792309,
            0.9908333274841057,
            -0.42967855196888527,
            -0.05921272277682599,
            0.010196340309888141
        ],
        [
            -0.4680855265606696,
            0.8786145298853232,
            0.5925818361333683,
            -0.8841051529882478,
            0.029781768320156887,
            -0.2219843787190181,
            -0.9154192758852564,
            0.9654307081703981,
            -0.42559368046553736,
            0.22202470774541916
        ],
        [
            -0.7722384890761589,
            0.09779789098379332,
            0.49305394727811214,
            0.03472311336403866,
            -0.553400008576491,
            -0.8440603048182085,
            -0.6848257732121898,
            -0.9249173886989828,
            0.8383723973413608,
            0.9444821922866564
        ],
        [
            0.7997119507448955,
            0.6334959399868716,
            0.11141884977004457,
            -0.3777589282727576,
            0.06135486368108145,
            0.8334629147475952,
            0.967176499640015,
            0.7803836345751944,
            -0.030233046445776512,
            -0.10872226155089315
        ],
        [
            -0.8485077864520738,
            0.3276049765814004,
            0.03796501015618947,
            -0.7537973493549948,
            0.8948369359273289,
            0.4475339322609495,
            0.7292852981811788,
            0.2916368860316776,
            -0.8614104161621254,
            0.43176537508083435
        ]
    ],
    "biasesOne": [
        -0.8985050663114242,
        -0.8393028360302415,
        0.7891202108744058,
        0.9987193194122803,
        -0.06426131724116946,
        -0.36939602477571154,
        0.00395652081284581,
        -0.41893799952863287,
        -0.4853983393589778,
        0.9395657846412584
    ],
    "weightsTwo": [
        [
            0.4919366657758486,
            -0.5833430286386734,
            -0.03881644671313089,
            0.7242222707444457,
            -0.34077662209622606,
            -0.30748509596911955,
            -0.9174769622273207,
            -0.24920976131849004,
            0.7872827343632458,
            -0.3063045693119304
        ],
        [
            0.4037263536498459,
            0.4262460056360913,
            -0.2307693099662227,
            -0.8046581790768168,
            0.17015609310952784,
            0.756592040789871,
            0.3539741163256833,
            -0.537130087996035,
            0.7680254605123777,
            -0.44031595019963743
        ],
        [
            -0.4394295052176467,
            -0.22197414984840158,
            0.13644084816813273,
            -0.5812764230509693,
            -0.6194979831447158,
            -0.24291230079408543,
            0.5598025600337795,
            0.8734954547757827,
            -0.1949215155803603,
            -0.07966471625228477
        ],
        [
            -0.7788718631836864,
            -0.2831067897212971,
            -0.06721617152588677,
            -0.9408819467912162,
            0.44248925601073275,
            0.4412383674532341,
            -0.7247648299293121,
            0.5681674466605684,
            0.13014176547283407,
            0.24742324917003478
        ],
        [
            0.610818661855008,
            -0.4446918517354963,
            -0.6972216161875542,
            -0.9267738529087848,
            0.06052813981269445,
            0.8728467634649044,
            -0.05448902938680167,
            -0.036310488165910204,
            0.6150993200890851,
            0.6451514932733291
        ],
        [
            0.0011058139598649763,
            -0.9641230626746198,
            -0.6824618501811757,
            -0.08553015227524541,
            0.04063892008745462,
            -0.8809473992116554,
            0.16991983157738044,
            0.3569163060878653,
            0.8862644214327438,
            -0.5177572877597618
        ],
        [
            -0.7066663101439845,
            -0.9271413197031837,
            0.6462121890925498,
            0.614429855734502,
            -0.9683073613681377,
            -0.49365815067147856,
            -0.630713289876041,
            -0.5076969223879557,
            0.6201251152842508,
            -0.7910321875619348
        ]
    ],
    "biasesTwo": [
        -0.7051484802327084,
        -0.3756965265361465,
        0.6995600427130595,
        0.24433781076818994,
        -0.39399439753180343,
        -0.45696095940344983,
        -0.7559826564555459
    ],
    "weightsThree": [
        [
            -0.7747372464014042,
            -0.5947036576143283,
            -0.2165694978189574,
            -0.3902829708777973,
            0.09628860401375894,
            0.49595202663199567,
            -0.7682659253338306
        ],
        [
            0.6746218312457837,
            -0.15975282189024376,
            -0.22127928278651776,
            0.667070937918564,
            -0.17497255018342805,
            -0.9897764182516173,
            0.9083965595164687
        ],
        [
            0.973835091803666,
            -0.32178543945879956,
            0.1955342429580822,
            -0.13289708065892958,
            0.06093636651372347,
            -0.10146162766275846,
            0.744834151941266
        ],
        [
            -0.30747989116077323,
            -0.27835444875913673,
            0.9852277936605274,
            -0.5936417238586575,
            -0.7563288032259186,
            0.7578275998222441,
            -0.40177964076432815
        ],
        [
            -0.9353756980258894,
            0.2356926426163657,
            0.7263713088132655,
            0.8030271180923874,
            -0.5529326689370098,
            -0.10483848497422277,
            -0.4997333969039941
        ]
    ],
    "biasesThree": [
        0.18208935227743583,
        0.8990972675822202,
        -0.6787421054553437,
        0.28163439656616407,
        0.20135879206292473
    ],
    "weightsFour": [
        [
            0.1812240995902621,
            0.8504514091927722,
            0.7208091093976285,
            -0.04706786802640317,
            -0.32762761981846045
        ],
        [
            0.25493987445852895,
            -0.9604013778163947,
            -0.8762655962355934,
            -0.8362715519470363,
            0.37642544591253446
        ],
        [
            0.5691322571420803,
            -0.4413090862832034,
            0.09858728110189285,
            -0.4819116858337138,
            -0.8938574859344126
        ]
    ],
    "biasesFour": [
        0.07211263615154939,
        -0.8339376663780733,
        0.8254702922161061
    ],
    "weightsFive": [
        [
            -0.20620674645888193,
            0.6101583798010461,
            0.6678382911635015
        ],
        [
            0.2700803835364445,
            -0.6849544518691513,
            0.10090886261339516
        ]
    ],
    "biasesFive": [
        0.37402209181325685,
        0.9581702565930315
    ],
    "fitnessValue": 24.506308842251777
}