{
    "weightsOne": [
        [
            0.3077267346357764,
            0.7807239130704704,
            0.473358219524767,
            0.9414078141805342,
            -0.991529513061365,
            0.1833544855947311,
            0.9507671572211771,
            -0.5886710855290003,
            0.814350847804904,
            0.7611610282991543
        ],
        [
            0.16438596678818906,
            -0.35163458176525264,
            -0.18772272987759075,
            0.573321449289856,
            -0.8872473910198964,
            0.4353110738174859,
            -0.6768292450118785,
            -0.051894621847480504,
            0.193753894912291,
            -0.6925415225718496
        ],
        [
            -0.2394896030194893,
            -0.2948846135740013,
            0.707365345692254,
            0.6843195754302145,
            -0.7978533027170525,
            0.8750843490185416,
            0.12635586850982405,
            0.46335118547613985,
            -0.9164675589870366,
            -0.9732977698319318
        ],
        [
            -0.022382845827983333,
            -0.09097289070302716,
            0.3239394778914979,
            -0.6433948908480827,
            0.5057478536158702,
            -0.10398210393590679,
            -0.36568103753313097,
            0.8118226976547414,
            0.853340955709031,
            0.7320887790492216
        ],
        [
            -0.8251878545062241,
            -0.721611626810118,
            0.7158105837661923,
            -0.49994558308491843,
            -0.27259880439341844,
            -0.9812262767311755,
            0.5629999586189944,
            0.16580206762930816,
            0.9943119032800227,
            -0.5243748259836882
        ],
        [
            -0.8406042780286438,
            0.9411193280402574,
            -0.04814287134958395,
            -0.11689729667567672,
            0.786122623768154,
            -0.5577073434973179,
            0.3610175909191631,
            0.3238754193161073,
            -0.05910915339655132,
            -0.8519201614756358
        ],
        [
            0.5953173182723706,
            -0.9469380170967954,
            0.22203903224301924,
            -0.31222350078613803,
            -0.7016136587799457,
            0.44405552824857164,
            0.9308768558131697,
            -0.240105890043965,
            0.2284401932754483,
            0.5453064285068145
        ],
        [
            -0.9213407065178734,
            0.7171304300624599,
            0.9591770246066329,
            -0.3104278967830796,
            -0.2795511669701767,
            -0.3471156409870859,
            -0.44366307275218486,
            0.40017520218693914,
            -0.9388368129583327,
            -0.9388313438605742
        ],
        [
            0.9252957440606802,
            -0.9898036800647294,
            0.6733784600356814,
            0.7921537595686081,
            0.5323344692898266,
            0.07014888088633042,
            0.8956884920733885,
            -0.7088786543761467,
            0.21867571201940783,
            0.7339859719042849
        ],
        [
            -0.19736627856857458,
            0.367203600474612,
            0.7246735682145156,
            0.823892170988981,
            0.8686948127657452,
            -0.8184572433958894,
            0.29426341827604974,
            -0.6082524758016756,
            0.7374070072163497,
            0.17403752918396265
        ]
    ],
    "biasesOne": [
        -0.13374073592217184,
        -0.18432009070560573,
        -0.08245854755556836,
        0.3416185575317914,
        -0.967177773272839,
        -0.5923858812106331,
        0.09795054090517641,
        -0.9333856176483113,
        -0.7009889555965303,
        -0.3297543770682745
    ],
    "weightsTwo": [
        [
            0.015046568695436413,
            0.27417949707921685,
            0.6313617758887435,
            -0.12834421752040215,
            -0.4716243241826439,
            -0.31032554849691496,
            0.5521452076606139,
            -0.31508463010964993,
            -0.7205153433942377,
            0.6297401000381182
        ],
        [
            -0.35024715468906975,
            -0.536610737859694,
            -0.03651732395649687,
            -0.21845831163446028,
            -0.34259837793823333,
            -0.496221111541975,
            -0.7060733181692136,
            -0.8341256721194301,
            -0.0791895653492376,
            0.20947381560626943
        ],
        [
            -0.8292203070235111,
            0.5208423578071821,
            -0.0543926389595355,
            0.5728768375573732,
            0.08124135225365636,
            -0.14491225509980699,
            0.16634329032771578,
            -0.11761467924930358,
            0.26660054017595813,
            0.12978756634700206
        ],
        [
            0.13002942524799277,
            -0.6527144725892993,
            0.4497674173803812,
            -0.038298940910933554,
            -0.8191808844495085,
            0.7055775390816774,
            0.6560056083538628,
            -0.037012753931856546,
            0.6609410693795574,
            0.3504776840911539
        ],
        [
            0.9433838896007711,
            -0.04160175037133529,
            0.4455300826629234,
            0.8589178999979816,
            -0.8280852118048672,
            -0.3701549224735057,
            0.050044864475042417,
            -0.5712460919876274,
            0.24730824432347354,
            0.6480721351284155
        ],
        [
            0.14611564259583498,
            -0.2749263441017009,
            0.1621442319728159,
            0.9749000913163639,
            0.20400037314776442,
            0.28296691117956585,
            -0.8223273392951238,
            0.9978821652901189,
            0.2913097315735931,
            -0.2974506634874028
        ],
        [
            -0.3032222832677989,
            0.9149555542712853,
            0.13793057400975517,
            0.8828097863978819,
            0.746933388691013,
            0.24043348766217365,
            -0.7624224881268653,
            -0.12962173215562212,
            -0.7621140621798641,
            0.6149632478390659
        ]
    ],
    "biasesTwo": [
        -0.45344233340101536,
        0.48046576378156747,
        0.3960726164127144,
        0.8944657396488662,
        -0.12239441062225298,
        0.44167322011225507,
        0.13086564986522053
    ],
    "weightsThree": [
        [
            0.30699462854002135,
            -0.7070439435705627,
            -0.37953039231890107,
            -0.7676931788978922,
            0.030612642817305025,
            0.17326710636318876,
            0.7003745613452459
        ],
        [
            0.09430295569969815,
            -0.7933037897462456,
            0.22545581312896057,
            -0.5304211034826909,
            0.6356820036380864,
            0.9257609586490754,
            -0.23149791719686097
        ],
        [
            0.3184802807391194,
            0.34582632540408964,
            -0.4176893760488778,
            0.4123243651897994,
            -0.021507947945432537,
            0.6466165993539008,
            -0.6880195537483749
        ],
        [
            -0.38584616813546146,
            0.697256604132503,
            0.669075080297697,
            -0.4592596684921235,
            0.26970017978948135,
            -0.9545026420093219,
            0.7827697435582637
        ],
        [
            0.178095620905244,
            0.9247130358591145,
            -0.3254471318122101,
            -0.1655728034272772,
            -0.05207929926079591,
            -0.09122550598965917,
            -0.7656044160009841
        ]
    ],
    "biasesThree": [
        -0.5848541308285131,
        -0.28978209293579926,
        0.3181285419206423,
        0.606691475037912,
        0.6613790089344156
    ],
    "weightsFour": [
        [
            -0.46977937217664767,
            -0.0013154587796768702,
            -0.6889400740804839,
            0.30530800998747165,
            0.7769655626317831
        ],
        [
            0.46387315823826736,
            -0.07746797091906155,
            0.6961968908663065,
            -0.2749277024794401,
            -0.7877818731039794
        ],
        [
            -0.3612600274964941,
            -0.9166379010760108,
            0.9916028383781548,
            0.26609403877857907,
            0.10672084553528594
        ]
    ],
    "biasesFour": [
        -0.807620590114017,
        -0.5716590923250295,
        -0.8782892626123822
    ],
    "weightsFive": [
        [
            0.45021406143870335,
            0.7307474448308462,
            0.5667011351280646
        ],
        [
            0.01674610012446265,
            -0.7415781449884509,
            0.546058546713633
        ]
    ],
    "biasesFive": [
        0.7474242151251524,
        0.7184360220334742
    ],
    "fitnessValue": 60.768973681095844
}