{
    "weightsOne": [
        [
            -0.07325265948041704,
            -1.506463713932046,
            3.7326218669470315,
            0.4476415660714146,
            -4.702638571776201,
            -2.115465685638646,
            -1.1435506883147974,
            0.044301386923616626,
            -4.210241716808236,
            -0.543881043178746
        ],
        [
            3.2801234083075776,
            -3.957975441197499,
            4.7423330461903035,
            -0.14730070932231953,
            2.7956115728579984,
            -2.195805322741504,
            -4.8538079534168945,
            -0.08167315748395643,
            0.28656649841164583,
            3.812446150153413
        ],
        [
            -4.121670668916764,
            3.7273658888402785,
            0.008548050224797876,
            4.350775613930953,
            3.2147080859213233,
            -4.760251385585179,
            0.4642845939571689,
            3.0255070740388295,
            2.269668958476153,
            2.3791837406157947
        ],
        [
            0.8533181294267611,
            -1.2309890464369353,
            -0.08911521511289511,
            -2.5551761976935907,
            4.770433605243731,
            0.8253354597862641,
            -0.9533535055706768,
            -1.1453983010888988,
            0.1191820643292143,
            2.071969905136214
        ],
        [
            1.048788569016982,
            4.989182804219096,
            4.229344390357532,
            1.5132035873635523,
            0.33526865954232465,
            -1.735358990920707,
            -4.833075023142469,
            -0.32041605604260326,
            -0.23409261071656395,
            -1.0776259699672464
        ],
        [
            -0.10151938419251039,
            4.202668564123272,
            -0.12276626953533487,
            -2.754659495377817,
            -0.9529166081492848,
            1.279007315182822,
            -2.9846432521266744,
            -1.686291836225331,
            -0.903481502241231,
            -0.6545498626537691
        ],
        [
            -0.3569821302435503,
            -1.3310150816860675,
            4.781451543967886,
            0.4963994822926887,
            -3.1215422565384667,
            3.6833087737937404,
            0.5882620840008563,
            2.7157162791281824,
            0.725724459383513,
            2.2654545993051878
        ],
        [
            -3.625158635086504,
            -1.8059699508096339,
            1.0853254855434713,
            -0.7463900487408457,
            -0.923150506444383,
            2.8042090653578278,
            4.42803561139147,
            -3.5467116051353518,
            -1.1909560435882316,
            -2.726144489116493
        ],
        [
            2.6251470354240922,
            2.247473798487613,
            2.2744023582260118,
            -0.16520428896824768,
            -4.165326570263917,
            -4.463514831322658,
            -0.536637237113391,
            -4.10994549860434,
            -3.9025708807798845,
            3.963023493579435
        ],
        [
            0.17198122607221666,
            -0.8363002992732522,
            -0.205792421188292,
            3.46622721064308,
            -3.4780196886080903,
            1.8243791176204578,
            0.1998225317098994,
            -0.5352025560595264,
            -3.2000403981580194,
            -2.2797902768378098
        ]
    ],
    "biasesOne": [
        -0.4982273736295024,
        3.3717862373090224,
        3.786548656854645,
        -0.21863032392055448,
        -4.019548271661786,
        -1.1778931709817666,
        1.190580508426792,
        3.7212421428681264,
        4.610902136818849,
        2.775890857713975
    ],
    "weightsTwo": [
        [
            0.6836371531455778,
            4.001764398830833,
            2.7639675999633626,
            -1.5244658201107253,
            -0.17446513229350202,
            -0.41750547612079103,
            4.921971964083108,
            1.6048568660991087,
            0.19752234665019763,
            -1.8485574673275629
        ],
        [
            0.735801909808881,
            4.7457350198606125,
            3.709218493295852,
            2.397204143811847,
            -4.750871889182959,
            -0.9338155423910415,
            0.49577874757086704,
            -0.1359136448137972,
            1.8399781963222406,
            0.0145190952324592
        ]
    ],
    "biasesTwo": [
        0.8116937933979589,
        1.6866296994599992
    ],
    "fitnessValue": 0
}