{
    "weightsOne": [
        [
            0.7848944175883197,
            -0.49519087215007995,
            0.5440646284550907,
            -0.391819598678147,
            0.29225793146602785,
            0.46646303169769854,
            -0.9874408426467438,
            0.65351840392992,
            0.1086395495455883,
            0.1858458804373393
        ],
        [
            0.15191374026867477,
            -0.849865438515049,
            -0.9156103179410511,
            0.1750946076483133,
            -0.04627741788845041,
            -0.6534132907890673,
            0.6763934544456689,
            -0.000831656938935943,
            0.658332594787095,
            -0.8198806521954247
        ],
        [
            0.42656227405426406,
            -0.614707811646352,
            0.8331462069057938,
            -0.6510466923994782,
            0.7073752701310938,
            0.3577340358271601,
            0.3513433729079791,
            0.6774155222643381,
            -0.4863765194077039,
            -0.08766646112131204
        ],
        [
            0.016789214046071255,
            -0.6999286958517341,
            0.9176156549643462,
            0.8203275717763705,
            -0.35785982426400853,
            -0.23276409973612378,
            -0.7422102225775953,
            0.4458935099231862,
            -0.10640394005141252,
            -0.6273881131077219
        ],
        [
            0.18881860181374122,
            -0.47391195924856677,
            0.5681577055166986,
            -0.8474202476142347,
            -0.045537702188986895,
            -0.639709441129219,
            -0.7248717605268418,
            0.955398530701036,
            0.5158981168975905,
            0.789134553193835
        ],
        [
            0.5242097904533998,
            0.32752895517616243,
            -0.004595740074004873,
            0.13104231466188576,
            0.7518733550250785,
            0.7071485438304936,
            -0.7596081259521077,
            -0.3663646350597525,
            0.9698795849274311,
            -0.039355639240955975
        ],
        [
            -0.6557953613918348,
            -0.7253249097998742,
            0.015648923942094495,
            0.9316830061444001,
            0.6510697251891688,
            0.8356833098966121,
            -0.5651735344340496,
            0.41901808597868273,
            -0.8424428788469003,
            0.34461195498477215
        ],
        [
            -0.3678198939257311,
            0.6203146985509234,
            -0.5014677362302407,
            0.16916423775723644,
            0.648139030378104,
            0.17837104984690422,
            0.8248359180529365,
            -0.022404357484254067,
            0.5916100449255508,
            0.11420892659162507
        ],
        [
            0.3716445738486429,
            -0.21605491953623113,
            -0.5172524424530542,
            -0.8614492073104987,
            0.11101074306086622,
            -0.6910543956802457,
            0.4657183375229135,
            0.3811880905328402,
            0.20186753056278794,
            0.8826051322446273
        ],
        [
            0.8068535117200726,
            -0.1827231757370651,
            -0.9358266347070094,
            0.5476666808899988,
            -0.1665015999616002,
            0.594790617169747,
            -0.45346853094502415,
            -0.22837385544375266,
            0.2598668956685146,
            -0.6911431957576577
        ]
    ],
    "biasesOne": [
        -0.09426460904872491,
        -0.4249215946666016,
        -0.15452577245418686,
        0.2710578335455074,
        -0.1396793265398899,
        -0.8970670365646576,
        0.9391632930353573,
        -0.20065114330109646,
        0.4844766886917464,
        0.2608336181399731
    ],
    "weightsTwo": [
        [
            -0.7563300472554779,
            0.11143311118522692,
            -0.8017614385353558,
            -0.9365450272446199,
            0.9428328858360069,
            0.28250477854154754,
            -0.20661768053466956,
            -0.5980638845263795,
            0.6738070412281674,
            -0.8201757536601155
        ],
        [
            0.2451255660837499,
            0.758700869486896,
            0.11288768434287744,
            0.8516179271289381,
            0.9764637668710112,
            0.5789869841453514,
            -0.601067337070321,
            -0.7175130983908289,
            -0.08648128865495841,
            -0.22627641882225946
        ],
        [
            0.3111192085466805,
            0.36490331087877537,
            0.225722459708809,
            0.6421376151727154,
            0.44794381669732664,
            -0.34966714049066394,
            0.9405990398876578,
            -0.7753804242272149,
            0.4242692009396385,
            -0.8413453113930078
        ],
        [
            -0.4493695920253773,
            -0.901718872685763,
            0.14275738441511,
            -0.18210855853387198,
            0.10638128685722115,
            0.3906121501925266,
            0.7437981787446262,
            -0.9149562379415934,
            -0.8895798934965062,
            0.034765556643316486
        ],
        [
            -0.2959694865091518,
            0.4374166016893193,
            0.09888593403499213,
            -0.5230216600230986,
            0.3738605600912903,
            0.4878327067398487,
            0.6846670692646311,
            -0.22950151666300345,
            -0.16608344273586395,
            -0.35989871696415743
        ],
        [
            0.9525070284783297,
            0.04960669939259299,
            -0.5258662812964565,
            0.16765286090561782,
            0.9842942706997977,
            0.16695664208736538,
            -0.7501045549865273,
            -0.8858801508529393,
            -0.5242251042066965,
            -0.9613390246512394
        ],
        [
            0.17172578837788888,
            0.5386160122714441,
            -0.13117229817041554,
            0.8159257150753245,
            -0.623270569643336,
            -0.6417621915830238,
            0.2881333950031135,
            -0.23667014247378648,
            -0.0507660425451284,
            0.20531021426953866
        ]
    ],
    "biasesTwo": [
        0.7347721558252385,
        0.9560351738549653,
        -0.8729098817770191,
        0.2821542151522425,
        -0.5470704148946817,
        -0.7543085352915608,
        0.6581055178963087
    ],
    "weightsThree": [
        [
            0.4177774454381733,
            -0.2215668012223193,
            0.8643871830408401,
            -0.5018627285988548,
            -0.8947535507763276,
            0.49919201298543414,
            -0.19128507133749562
        ],
        [
            0.9362441267330217,
            0.23600080645155397,
            -0.6638503618467986,
            0.6826655947724483,
            -0.13088567116584926,
            0.9162485794303439,
            0.24599192937280612
        ],
        [
            -0.1391569598302218,
            -0.7286632506861519,
            0.3090843490675561,
            -0.5904776058956915,
            0.3116648763034102,
            0.897371588022136,
            0.9978831055628947
        ],
        [
            0.0256873792640282,
            0.6499881469037441,
            -0.7636600091039183,
            0.5499862220914078,
            -0.6815678711012327,
            -0.3856888232371425,
            -0.7121849654353283
        ],
        [
            -0.05005210046547259,
            0.22274399790984223,
            0.6730924045172024,
            0.6195012771284187,
            -0.6305629723471171,
            0.1639735079258562,
            0.6198737109663401
        ]
    ],
    "biasesThree": [
        0.4517300175980081,
        0.2715871780805741,
        -0.7500794219433997,
        -0.2591348510822922,
        0.20167016544065564
    ],
    "weightsFour": [
        [
            -0.34704285133715973,
            0.7674043456159021,
            -0.16710948411630278,
            0.9541743086304564,
            0.2963142587551115
        ],
        [
            0.5032795131611809,
            -0.40484195982841475,
            0.33080292572571457,
            0.853094690525612,
            -0.1640725177638358
        ],
        [
            -0.7299968246566666,
            -0.1636814463942209,
            0.9685665661965497,
            -0.41705683044570296,
            -0.07622050020168292
        ]
    ],
    "biasesFour": [
        -0.37891608955295664,
        -0.8881467169867268,
        0.9040117153955591
    ],
    "weightsFive": [
        [
            -0.9774915195314913,
            -0.6520037640217593,
            -0.8977165902842184
        ],
        [
            0.09964424450592957,
            -0.41865360927773776,
            -0.45043848955696286
        ]
    ],
    "biasesFive": [
        -0.4068603512253517,
        -0.7502984152856438
    ],
    "fitnessValue": 0
}