{
    "weightsOne": [
        [
            0.652436402664976,
            0.588840764756426,
            0.24997712690693286,
            0.9088552226308262,
            -0.633289033478114,
            -0.04389185971412868,
            -0.24364262589762142,
            -0.9241822511878219,
            -0.24643124265806193,
            -0.4410259494675932
        ],
        [
            0.317863528939514,
            0.8729448125664605,
            0.6515062190575465,
            0.4197388311159851,
            0.9554435963699024,
            -0.491444817864523,
            -0.8645714747403015,
            -0.015431151539985644,
            0.04386133017997884,
            0.8190758564938991
        ],
        [
            -0.7435267351032389,
            0.6087231598925056,
            0.7342793668659291,
            0.913047991575386,
            0.01470127011483413,
            -0.8613027737712038,
            0.7854744984001443,
            -0.5696311498498208,
            -0.11950360180959296,
            0.9004280532972306
        ],
        [
            -0.1580092001846103,
            -0.40964766810539377,
            -0.3476581382442372,
            -0.698153875863899,
            0.24062083205206397,
            -0.7616312041831279,
            0.7662473369593761,
            0.39967537770768624,
            -0.27564392799646553,
            -0.9195540419474248
        ],
        [
            -0.09815172394064642,
            0.47583805326603024,
            0.6441807967001263,
            -0.7606281297045032,
            -0.6340780030178663,
            -0.45773300257836125,
            -0.43971414428759203,
            -0.20328235750333046,
            0.3620230713146395,
            0.9328691110432386
        ],
        [
            0.4582494137261146,
            -0.9040453386967005,
            0.27329657863149515,
            -0.584879918504553,
            -0.0791212478860801,
            0.86499856471227,
            0.31662785835102314,
            -0.6353151145303568,
            0.4206980920572565,
            -0.9367745172811912
        ],
        [
            -0.7507635774039809,
            -0.37781069853345306,
            -0.17298213510418803,
            -0.5910331431935592,
            0.6323935149321358,
            -0.06726193594631824,
            -0.8459252055126636,
            -0.9479739394037752,
            0.8956162074696199,
            0.37877374614196313
        ],
        [
            0.29960782894831794,
            0.029161512522853705,
            -0.14823549386936463,
            -0.6058553555463324,
            0.770922736317595,
            -0.694937759845415,
            -0.04547067699826646,
            0.3936318488750101,
            -0.11298668791937772,
            0.11132975171552584
        ],
        [
            -0.6340049927257423,
            -0.8503947806898386,
            -0.16008133233011335,
            -0.736272610385849,
            0.19264672950471384,
            0.8402946436427752,
            0.5977985713315785,
            0.17629920423007617,
            -0.061459869758933916,
            0.7203166122198554
        ],
        [
            -0.09111752746396373,
            -0.7166744411025787,
            0.6744595082971567,
            -0.07288539566906094,
            0.21182134264481944,
            0.5004961783862338,
            -0.28706504422937584,
            0.13005117189596826,
            -0.9413249531295027,
            -0.11290441938312168
        ]
    ],
    "biasesOne": [
        0.2631895098483539,
        0.7695697003273572,
        0.2607868578195198,
        0.017446340027620355,
        0.01707628094990299,
        -0.20409303431901704,
        -0.02275817381363665,
        -0.7991882340684304,
        0.2782503258572311,
        -0.11125761332888606
    ],
    "weightsTwo": [
        [
            0.10211592982858853,
            0.2306989964702968,
            -0.03543610471950265,
            -0.3077665522746498,
            0.3998112408044938,
            -0.37494234157395967,
            -0.4186699899476216,
            0.22406921876955455,
            -0.4671632679798876,
            0.4583328204577961
        ],
        [
            0.7881228023836127,
            0.8181011280229105,
            0.39900851580845864,
            0.4995917358213606,
            -0.9961243485660844,
            -0.8153272485468726,
            0.9730029013091728,
            0.6691232523583934,
            0.9089035883498211,
            0.3570856668503706
        ],
        [
            0.07743329087438355,
            0.3417432475224351,
            -0.31737054101808804,
            0.7085214438706036,
            0.19889953300338203,
            0.9445632137763806,
            -0.7623374211954645,
            -0.34498801716003435,
            0.14849699703767438,
            -0.9943811637344211
        ],
        [
            -0.7422194161387414,
            0.09978907312788943,
            -0.8135867835638781,
            -0.7630982594128835,
            0.21654251075612962,
            0.9932770754995373,
            0.39878055845732296,
            -0.5579739635468834,
            0.7690193691036584,
            -0.7623744835822344
        ],
        [
            -0.4178421604172984,
            -0.9458487870695611,
            0.5660788158966912,
            -0.6232985871845804,
            -0.8041293107059526,
            0.4428290701255495,
            0.1413043780214731,
            -0.45887435596351733,
            -0.1498343903775452,
            -0.07421362318854641
        ],
        [
            -0.431968663629998,
            0.16603337182542632,
            -0.21568007677268053,
            -0.19044517926241866,
            0.9486307236147737,
            -0.3265351925588349,
            -0.400772587411774,
            -0.11804589783933084,
            0.791582221371949,
            0.7516243925375778
        ],
        [
            -0.619874031871156,
            -0.028985813988466225,
            -0.18784365743088394,
            0.7914058379415161,
            -0.6114044548853614,
            -0.9759031923301067,
            0.6674137295992202,
            -0.932949345278788,
            -0.7289662633214227,
            -0.33226399582685495
        ]
    ],
    "biasesTwo": [
        0.6816188953967612,
        0.3864370156309367,
        -0.8488233901291156,
        -0.7527939683837626,
        -0.8243056023026514,
        0.8446767770160639,
        0.30309665944881914
    ],
    "weightsThree": [
        [
            -0.6607322653323078,
            0.7386037550776299,
            0.14499138639686082,
            -0.433860397729257,
            0.7737187138013784,
            -0.08660244148121587,
            0.7926505513947364
        ],
        [
            0.8040622014284282,
            0.5219501127402737,
            -0.28472633986248574,
            -0.5045530509057707,
            -0.9919474133981279,
            -0.5953888982351474,
            -0.9643289329472342
        ],
        [
            0.9112816303273683,
            -0.8903485626782972,
            0.6890973295110896,
            0.07764104808181993,
            0.39758144180038,
            -0.7026145410299123,
            0.6446866492516918
        ],
        [
            -0.4358802417202696,
            -0.9500999200466487,
            -0.9105566254869528,
            -0.6680776216135094,
            -0.6270510842850245,
            0.3602094150317321,
            -0.8324480541947394
        ],
        [
            -0.799738333758303,
            -0.7068785138881826,
            0.06816086224164186,
            -0.2698372121497763,
            -0.6361601888246695,
            0.6840830706235697,
            0.5746694317934098
        ]
    ],
    "biasesThree": [
        0.024597118137255514,
        0.14807345521761062,
        0.9191825078349112,
        -0.15860027717801173,
        -0.9409501053806255
    ],
    "weightsFour": [
        [
            -0.10545957770912162,
            0.952734135131869,
            -0.4814649752231184,
            -0.8529535533348358,
            -0.3222800859164334
        ],
        [
            0.1969736177946555,
            0.25081966105819253,
            -0.7112227990475495,
            0.1333636362598174,
            -0.21731919952305234
        ],
        [
            0.7186434872992684,
            -0.22578802688306165,
            0.4406522183211854,
            0.7951048145663049,
            0.23097657221549972
        ]
    ],
    "biasesFour": [
        -0.851431143453629,
        -0.7080210175655686,
        0.4588033593146059
    ],
    "weightsFive": [
        [
            0.18032668008710706,
            0.6980130247659155,
            -0.0838792205433232
        ],
        [
            0.6832934585263173,
            0.13351594958511703,
            0.9135820430673867
        ]
    ],
    "biasesFive": [
        -0.07962825433235343,
        0.16925379274032548
    ],
    "fitnessValue": 0
}