{
    "weightsOne": [
        [
            0.7723108123998819,
            0.08210181999113297,
            0.05164238139000776,
            0.15810765232124968,
            -0.49623328622146534,
            0.5096398212161208,
            -0.0436203763288705,
            0.12241040905869038,
            -0.9722834827215918,
            -0.9965570915697919
        ],
        [
            0.6070294730402872,
            0.9834221322466516,
            0.70603347475067,
            0.8944500897373446,
            -0.766173755753232,
            0.7107827707981651,
            0.5300416403328467,
            0.055573078663101905,
            -0.9154648121446405,
            0.4932455058805494
        ],
        [
            0.2897634129466109,
            0.5455068630489808,
            0.09414017289179588,
            -0.9006832277626005,
            -0.4677672658758607,
            -0.03426199924128914,
            0.6972734847761428,
            0.71169530143842,
            -0.381609816659674,
            -0.9151423775955307
        ],
        [
            -0.8734666436004008,
            -0.5143399897617291,
            -0.5371303901180342,
            0.35499704100842333,
            -0.3980467707381663,
            -0.18506222242511527,
            0.6370416092793245,
            0.736055655422406,
            0.0007233350122561877,
            0.6905201537329924
        ],
        [
            0.26815807135902503,
            0.8612808050528198,
            0.08271783353251849,
            -0.4748939187462584,
            0.4427796628480052,
            0.7884123723082375,
            -0.9912567789944942,
            -0.7259985779622355,
            -0.15557151543878445,
            -0.10708786452502683
        ],
        [
            -0.05759852786524933,
            0.9969194268656092,
            -0.6669798439279242,
            -0.9361118200279852,
            -0.4384720865592491,
            -0.5543790089100551,
            0.29159776970608187,
            -0.7397954484217482,
            0.042282228863398386,
            0.9781832001694637
        ],
        [
            0.2234445515038581,
            -0.2920956222969664,
            -0.440068964650862,
            -0.3722624182597305,
            0.8387996217981193,
            -0.7379097509849033,
            -0.2693227386020127,
            0.7620956278813424,
            0.2918620202797513,
            -0.20184944763596002
        ],
        [
            0.4738993175185173,
            -0.5868241133966126,
            -0.7210617659893692,
            -0.6613079821237142,
            0.4306471126391298,
            -0.5202220753869571,
            -0.025707674575399464,
            -0.7703743761787507,
            0.023282618027957946,
            -0.3590804141236805
        ],
        [
            0.24545225466129428,
            0.32393668322233093,
            -0.21535588751823176,
            0.5305212813520948,
            -0.5482725032524594,
            -0.29548463002327674,
            0.46098104353323843,
            -0.4034013651301731,
            -0.5092763015868602,
            0.592507538953738
        ],
        [
            0.9911541735747529,
            0.5868284735999771,
            0.9706094189282717,
            -0.7745792831939484,
            -0.34863479086926596,
            0.0025885306231645533,
            0.11004836398724005,
            0.5709689904895436,
            0.21050485570434208,
            -0.4522174612808161
        ]
    ],
    "biasesOne": [
        -0.17537959679811554,
        0.6013136616640176,
        0.22757507678618927,
        0.5727783383441749,
        -0.874591291384683,
        0.4039416798889839,
        -0.0489884541681338,
        -0.9916143822294867,
        0.4750520564893901,
        -0.3383093075977641
    ],
    "weightsTwo": [
        [
            -0.9300699119054041,
            0.21758502123687418,
            -0.5462485284604035,
            0.16216538334776254,
            0.9798808840770719,
            -0.5497688502748106,
            0.15595030779363417,
            0.7311229078477828,
            -0.31558612997887003,
            -0.33934504635249074
        ],
        [
            -0.9572810345284628,
            0.3064120499244076,
            0.10830978257591295,
            0.7550213545287681,
            0.10917706385285486,
            0.5452345506550169,
            -0.6576445996245948,
            -0.16638548116940788,
            -0.21559861161131244,
            -0.6950599313230776
        ],
        [
            0.20257685297785755,
            0.49237025887046726,
            -0.38178645832709446,
            -0.29540098026925254,
            0.4181298268245701,
            -0.7438638474930985,
            0.9769566825503189,
            -0.9301290259067345,
            0.034584376910117065,
            0.7241410559194437
        ],
        [
            0.16550987399342554,
            0.43631614467588054,
            0.2741760928591761,
            -0.6832681548612602,
            0.21604825526196603,
            0.1388426337142803,
            -0.7267112308022892,
            -0.36784433337280653,
            -0.7302077957113058,
            0.0011571852725282827
        ],
        [
            0.8845123510520507,
            -0.9733236052146172,
            -0.3478934568916756,
            -0.48307946932162826,
            -0.9827716821693233,
            0.8212420615663372,
            -0.7072296370697289,
            -0.1693754659633122,
            0.6258272112938117,
            -0.6939178384071254
        ],
        [
            -0.9966765144772711,
            0.5265550575261033,
            -0.8642361792310587,
            0.4502995028599026,
            -0.35413820791702344,
            -0.8629424888565407,
            0.5271105173025845,
            0.6597510902023809,
            0.7415553229219771,
            -0.4275257405644599
        ],
        [
            0.1371538900697642,
            0.2183540334020928,
            0.9752381154614362,
            -0.1912104349719641,
            0.25627428866732616,
            0.7527907922520136,
            -0.6063948072036511,
            -0.7704266041693577,
            -0.06558804292425946,
            0.6448989690726092
        ]
    ],
    "biasesTwo": [
        -0.3609693792892039,
        -0.19468410611248088,
        -0.4535347985146805,
        -0.03154755361556272,
        -0.11890244378405779,
        -0.7895464948734443,
        -0.22963784965476663
    ],
    "weightsThree": [
        [
            -0.9299976268846029,
            -0.03605836585957878,
            0.6852218154338849,
            -0.6387757908954914,
            0.13380834177169554,
            -0.625676801201744,
            -0.43044712489424075
        ],
        [
            0.49917731448891645,
            0.19543210550197254,
            -0.7262744058476351,
            0.32708305477424515,
            0.8845651408912831,
            -0.48775988311064244,
            0.38515721939787717
        ],
        [
            0.2279851021107837,
            -0.11436385947358962,
            -0.3879309784345595,
            0.41565078612260553,
            0.29149430918437425,
            0.9678054437346926,
            -0.62265589754668
        ],
        [
            -0.12005067278840231,
            -0.7263223601845759,
            -0.1220055876463495,
            0.13959786704261945,
            0.9944002580264764,
            0.8270250229528768,
            -0.7471923725113563
        ],
        [
            0.08396446665699453,
            -0.906308929970473,
            -0.1201489754494951,
            0.8428014910293973,
            -0.05475957217508798,
            -0.1794758015815232,
            -0.21905504068432458
        ]
    ],
    "biasesThree": [
        0.26154576526008966,
        -0.5103451801732422,
        0.3985137895577946,
        0.6859415176823229,
        0.8196460964779575
    ],
    "weightsFour": [
        [
            0.6391138041885362,
            0.5969854736155507,
            -0.3249995547148812,
            0.6524566069654518,
            0.036387096566588006
        ],
        [
            0.49073125668893747,
            -0.14442832747964007,
            0.1183796837924267,
            0.3676934970560348,
            0.8236133669155601
        ],
        [
            0.27091444951771204,
            -0.5481836660726893,
            -0.9520240186573532,
            0.9822384094952097,
            0.8720758412780674
        ]
    ],
    "biasesFour": [
        0.37360444934425896,
        0.6630130312652265,
        -0.2878065106186398
    ],
    "weightsFive": [
        [
            0.6252350295888391,
            -0.37488473931955046,
            -0.10931546291960226
        ],
        [
            -0.2761600485763127,
            -0.7540997858945095,
            -0.22529805701965522
        ]
    ],
    "biasesFive": [
        -0.8214717881859999,
        -0.30437273319273106
    ],
    "fitnessValue": 0
}