{
    "weightsOne": [
        [
            0.10608291928439262,
            -0.017191381755131463,
            0.7674568430059547,
            -0.49652965979604713,
            -0.578466056326308,
            -0.7168578269927639,
            0.9903186331709632,
            -0.5686990553085391,
            -0.32182376840047144,
            -0.2043068799169092
        ],
        [
            -0.9093747657997184,
            0.36191663541938324,
            0.11006528445031538,
            -0.03364309672152266,
            -0.22121829936706283,
            0.30948767048265147,
            -0.9228569359100587,
            0.14441606127463769,
            0.03358143497347266,
            -0.8640362848455123
        ],
        [
            -0.929120863995613,
            -0.6033743515566892,
            0.028745300582765365,
            -0.5877550970447201,
            0.8285587905405722,
            -0.12312792722172294,
            0.5033355191342193,
            0.5923627396347291,
            -0.2568635422073011,
            0.5099833364158366
        ],
        [
            -0.7083743680324655,
            0.4752158107854161,
            -0.6513950199175074,
            0.2592712642748056,
            -0.711613577210757,
            0.5106631866832692,
            0.5803219346547943,
            0.7488137119757068,
            -0.09818309119659951,
            0.9649155206925191
        ],
        [
            0.051718551761671394,
            0.4518848023921995,
            -0.6117249544221677,
            0.6994915283945866,
            -0.48060987770905106,
            -0.07222174142041005,
            0.3994571948134322,
            0.7657460249404116,
            0.7572702696098126,
            0.7431639986466092
        ],
        [
            0.3363041924599619,
            -0.02909372342761163,
            0.4111573794115351,
            0.94093707158064,
            -0.8574694992677478,
            -0.8311691731206454,
            -0.6807230824962838,
            -0.5444929227350794,
            -0.7328465717150967,
            0.7657536925109407
        ],
        [
            0.2633203508245394,
            -0.49590283889098097,
            0.18747157877777876,
            0.20995359561421267,
            0.3933287095489977,
            -0.08091695886454131,
            0.23742363145049494,
            -0.9449970932498737,
            -0.1753034856695368,
            -0.032084533416084415
        ],
        [
            -0.7309201510606222,
            0.9972608349618044,
            -0.3281620575216184,
            0.7220627146658467,
            0.19349546260216233,
            -0.23181775760801115,
            -0.8451710296037505,
            0.521898883667278,
            -0.6612664486544246,
            0.6148481077365666
        ],
        [
            -0.8645708148094344,
            -0.7194181902926058,
            -0.10000974956849817,
            0.5176764312633031,
            -0.08536734744213681,
            -0.715822096387768,
            -0.5401254989838438,
            0.49869956692790396,
            -0.5517526625274216,
            0.346486032167876
        ],
        [
            0.10537290687816725,
            0.6069004319693552,
            -0.009268548655542386,
            0.6799185010293392,
            -0.13855772636962493,
            -0.21569954565882865,
            -0.01162786361670265,
            0.15852233336931953,
            0.3191232826729866,
            -0.6457490178011203
        ]
    ],
    "biasesOne": [
        0.3107467079538797,
        -0.006861145652480083,
        0.24269465326216477,
        0.5194092490501425,
        -0.8131459199949063,
        -0.029228797681660756,
        -0.3346153650091992,
        0.9873877270927229,
        0.5815569035729622,
        -0.12279338305052812
    ],
    "weightsTwo": [
        [
            0.3851379068097336,
            0.7050498195726826,
            -0.024121118604015335,
            0.44805614113564785,
            -0.2904856892303622,
            -0.24908213738174467,
            -0.6825895501267671,
            -0.20005672708849964,
            -0.8032839175133508,
            0.2921759595555571
        ],
        [
            0.4320631455153703,
            -0.09054851404818542,
            -0.7317657502925863,
            0.36435349686390106,
            -0.07684894483609406,
            -0.6640411303796228,
            -0.32062660820219047,
            0.7133526430381827,
            0.6926943139740493,
            0.1836025437515132
        ],
        [
            0.7722002717782952,
            -0.12222574243884621,
            0.504542291109429,
            0.7781678993487324,
            -0.5903708907240544,
            0.3134217840801041,
            -0.8621333883838314,
            -0.986526054812846,
            0.28351491954232144,
            0.2728975250678529
        ],
        [
            0.2685663121096502,
            -0.7383336294169827,
            0.485427123103656,
            -0.6878606100191966,
            -0.8353090777723733,
            0.4037853267912581,
            -0.5977380512263717,
            0.4726835341442752,
            0.3887131119000571,
            0.6513987117085935
        ],
        [
            0.253621147727378,
            0.6395837801638842,
            0.2965620274815177,
            -0.5053311142463175,
            0.026410647568707146,
            -0.0033250828375663843,
            -0.06486914788859721,
            0.041642167659783125,
            -0.9779441480938631,
            0.16589022086695615
        ],
        [
            0.8501664778434344,
            -0.760820295950825,
            0.2883603914056896,
            -0.17728128540732935,
            0.43501257442227814,
            0.949213343113873,
            0.34546471026646985,
            -0.35932351164600607,
            0.9592936699805885,
            0.9474705956080351
        ],
        [
            0.6056434917022149,
            -0.280232816234413,
            0.5740821454670864,
            -0.49065819197127514,
            0.6223009266512538,
            -0.7581411210066737,
            0.9527737323582359,
            0.7873689654562461,
            0.1639871082051605,
            0.552081534206855
        ]
    ],
    "biasesTwo": [
        0.42068385728242075,
        -0.3076474333253356,
        -0.26536166387934856,
        0.3775482486638866,
        -0.944391537064661,
        -0.07683097005297812,
        -0.25431718415721694
    ],
    "weightsThree": [
        [
            0.16992300491538503,
            0.7632495804147432,
            0.18286318814755198,
            -0.08201129020887477,
            0.3219145646337165,
            0.5105300484596826,
            0.6861481674063843
        ],
        [
            -0.7267317150615127,
            -0.2916397399772721,
            -0.6068176925467708,
            -0.6824949912359584,
            0.8074602874311283,
            0.25231626756717507,
            0.7536621129626853
        ],
        [
            0.4267769868213067,
            -0.005669449822874428,
            -0.0845955664760143,
            -0.0346577109829731,
            0.696519316194546,
            -0.8210287922544102,
            -0.3519090593729455
        ],
        [
            0.7282091934746429,
            -0.12543988066671852,
            -0.17736567857820074,
            -0.7976802028118026,
            0.9142026110591974,
            -0.6769460267207694,
            -0.4304280227299264
        ],
        [
            0.8381786194465366,
            0.3966160872977855,
            -0.2687507081364673,
            -0.15498251766126891,
            -0.6064911245936511,
            0.19060055043897517,
            0.8313306911214815
        ]
    ],
    "biasesThree": [
        0.08211003063417732,
        -0.8285046302215939,
        -0.7769029849177025,
        0.468593761290081,
        -0.22243276595891404
    ],
    "weightsFour": [
        [
            -0.7450686304332836,
            -0.7924387764195546,
            0.6117065890563798,
            -0.662552960713066,
            0.5150212104591219
        ],
        [
            0.9274200308605098,
            0.9462136441390696,
            -0.11380672037793338,
            0.1552601049358746,
            -0.39351498737995594
        ],
        [
            -0.38526511852440004,
            -0.6302889445524864,
            0.006787566874983275,
            0.3390840760905296,
            -0.4430350390432236
        ]
    ],
    "biasesFour": [
        0.6458997033301273,
        -0.8565446488064978,
        -0.4549399330432913
    ],
    "weightsFive": [
        [
            -0.9150107505715266,
            -0.5898014427765017,
            -0.9396354538682656
        ],
        [
            -0.6272546903000131,
            -0.9374556110246821,
            0.2628018272419357
        ]
    ],
    "biasesFive": [
        0.7289869670026639,
        0.6443008732294406
    ],
    "fitnessValue": 0.0
}