{
    "weightsOne": [
        [
            0.666452416345443,
            -0.3214333243897505,
            0.5111309278234277,
            -0.31486616979727744,
            -0.2841854642465267,
            0.32708608060364974,
            0.19466406697944016,
            -0.3611461581815485,
            -0.7278065276904035,
            0.37426527803107423
        ],
        [
            -0.16950003679034764,
            0.7522505443477863,
            -0.536262911032547,
            0.8202788676871156,
            -0.7733413746881146,
            -0.2702008422827389,
            -0.16499378493547612,
            0.2472384826230869,
            -0.9382817129525907,
            -0.36811491333047663
        ],
        [
            0.5922840049459974,
            0.8414559437278817,
            0.9592671604722374,
            0.26442657310675943,
            -0.8780903011370766,
            0.3544009473782941,
            0.7002638982886258,
            0.14551844670491154,
            -0.8129691326131319,
            -0.9528302964240656
        ],
        [
            0.49073636555094313,
            -0.22980671459550805,
            0.42415052885838733,
            0.6195838927262327,
            0.3864880811737028,
            -0.9263143294474965,
            0.20636485281171346,
            -0.9750608813647093,
            0.3285880053346377,
            0.9135395997488878
        ],
        [
            -0.8953793414289866,
            0.7584229858573155,
            0.278551205043549,
            0.8007480623556171,
            0.47452631978804005,
            0.7016380100055952,
            -0.7901784348614596,
            -0.8665055079808073,
            0.8354510549716061,
            0.7380658789716565
        ],
        [
            -0.936485638916434,
            0.5967931717971924,
            -0.519347911461753,
            -0.42338659460991623,
            -0.5825839173110612,
            -0.6931549118861153,
            -0.9203829150838119,
            -0.8121752496904833,
            -0.93543743791065,
            0.9191041021772774
        ],
        [
            0.9767174136315993,
            -0.2363738738632719,
            0.41760385436348724,
            -0.04466672550258988,
            -0.484649092420653,
            0.8162136109751765,
            -0.23068131647336076,
            -0.013080135295421957,
            0.3654575383723655,
            0.9884836242228685
        ],
        [
            -0.8625674732035837,
            -0.31500901717632646,
            -0.2702856605317743,
            -0.48651978555983444,
            -0.18045462039689641,
            0.9845833456981443,
            -0.9177416720398786,
            -0.8305122232306368,
            -0.8807900489620153,
            0.9110057524415853
        ],
        [
            -0.8656613909486894,
            0.5389874586336905,
            -0.7390111583862908,
            0.5900340809181841,
            -0.020206628233295998,
            -0.5188032915616096,
            -0.35917083129917016,
            -0.8529566653966716,
            0.14799601174967947,
            0.9679833966758682
        ],
        [
            0.86626313040021,
            0.6208415273580199,
            0.3854302496768658,
            -0.9350806477629661,
            0.11319356431505012,
            0.09606647570142202,
            -0.2625649508769272,
            -0.9067732373340682,
            0.16232940742068291,
            -0.43851910692800855
        ]
    ],
    "biasesOne": [
        -0.19437852367040054,
        0.7799652421415357,
        0.06880577793571097,
        -0.2923827881283829,
        0.46318786833085945,
        -0.4044287954096424,
        0.4504386135205578,
        0.9007384145798147,
        0.6536187635043813,
        0.10820869630919883
    ],
    "weightsTwo": [
        [
            0.5647531236746863,
            -0.12468843531402607,
            -0.8298281341812335,
            0.6800386006713985,
            -0.9031980854167221,
            0.9522080779517359,
            0.2496925699459489,
            -0.10138444513819733,
            0.004446370952805756,
            0.17410414205679348
        ],
        [
            -0.9844043970218672,
            -0.48120479537342886,
            0.552118117715757,
            0.1129266921737988,
            -0.5371364294066265,
            -0.4989043047693753,
            -0.2097388504686808,
            -0.8648290700020009,
            -0.33607499300681765,
            -0.5744951438825725
        ],
        [
            -0.8045089477141474,
            0.4278289605984835,
            0.010509683269911863,
            0.9674849755378143,
            -0.797490167907446,
            0.7159048522445921,
            -0.23177433889878296,
            -0.7606719829488424,
            0.34481866950845497,
            0.4975358300608037
        ],
        [
            0.9038055482571961,
            0.5004224143333587,
            -0.40074739564859674,
            0.2732910024176902,
            0.40686003483474087,
            0.7277974603637496,
            -0.587763945399566,
            0.8827243063276073,
            0.8089725721390844,
            -0.6241187573179956
        ],
        [
            -0.04624171890470952,
            -0.7672034341480716,
            -0.9298529568643485,
            0.5210285359043085,
            0.2499463221243139,
            0.16010435360364328,
            -0.4062830710021419,
            -0.3175517154314307,
            0.09232706766552079,
            -0.9686498394151337
        ],
        [
            -0.5877225945455158,
            0.6403823817717067,
            -0.926590052586868,
            -0.29746656381805936,
            -0.26616751846947295,
            0.16053577092800264,
            -0.7939792737662486,
            -0.6129659866529333,
            0.6405464005121237,
            -0.07946347611477744
        ],
        [
            0.5525208350887185,
            0.45201720155551084,
            -0.47921777594868464,
            0.475337991079005,
            0.2847561039906017,
            0.19189152999815962,
            0.4929522057005842,
            -0.2910078773111726,
            0.4671451587236415,
            0.7451716320210224
        ]
    ],
    "biasesTwo": [
        -0.6044250030881171,
        0.3125838312890006,
        -0.9893383982862543,
        -0.6299643691364869,
        0.3954961111766635,
        0.5602070723830161,
        -0.5579672556548949
    ],
    "weightsThree": [
        [
            -0.8336588614849336,
            0.599148891230898,
            -0.7277806124256843,
            -0.7308642722434604,
            -0.49893484753069917,
            0.17648233318147222,
            0.349458062062453
        ],
        [
            -0.047163399051666444,
            -0.7102370222095291,
            -0.18806023544094996,
            -0.4425419777912456,
            0.17806180352301082,
            -0.9108430587716232,
            -0.589722710323608
        ],
        [
            -0.04740711331522163,
            0.6307368330009895,
            -0.4073618187307604,
            -0.05689744766128646,
            -0.9273729821960992,
            0.7302510368554502,
            -0.3654699488661486
        ],
        [
            -0.23804580007599685,
            -0.49297603284301195,
            -0.5462383472387202,
            0.4275662218171974,
            -0.320311671294764,
            -0.7806987049802419,
            -0.05511754238147093
        ],
        [
            0.45156053276742747,
            -0.7510657283031901,
            0.4914168065526574,
            -0.26208711220215686,
            -0.46994029737934184,
            0.24942105182451701,
            0.25347631644538215
        ]
    ],
    "biasesThree": [
        -0.06254612624018607,
        0.5886479431040237,
        0.6777201062826639,
        -0.2742387555355297,
        0.9160239177553753
    ],
    "weightsFour": [
        [
            -0.07810341123159725,
            -0.6597397433382226,
            0.826480568814365,
            0.5162451446274818,
            0.7236532242124434
        ],
        [
            -0.8888952378274446,
            -0.6433106121365326,
            -0.4929383662893865,
            0.6580773366217108,
            -0.18184976638579964
        ],
        [
            -0.5790087225786713,
            -0.7132832885857359,
            0.1764039023694477,
            0.28981335450329104,
            0.07048620167378061
        ]
    ],
    "biasesFour": [
        0.7413764128233264,
        0.5945074245430109,
        -0.09791241799249417
    ],
    "weightsFive": [
        [
            -0.3254458957019326,
            0.38947487524766,
            0.5939541535549209
        ],
        [
            -0.2868121660968883,
            0.40492466500958746,
            -0.8778080273675257
        ]
    ],
    "biasesFive": [
        0.6035139968431231,
        -0.22207984388675706
    ],
    "fitnessValue": 0
}