{
    "weightsOne": [
        [
            -3.3083609247790946,
            -1.506463713932046,
            3.7326218669470315,
            0.4476415660714146,
            -4.817999164061693,
            -2.115465685638646,
            -1.1435506883147974,
            0.044301386923616626,
            -4.210241716808236,
            3.051770944644499
        ],
        [
            3.2801234083075776,
            -3.957975441197499,
            4.7423330461903035,
            -0.14730070932231953,
            2.7956115728579984,
            3.1752914365632225,
            -4.8538079534168945,
            -0.08167315748395643,
            3.429206113156372,
            -0.7539686572532602
        ],
        [
            -4.121670668916764,
            -2.2748446231351913,
            2.7213615500455006,
            4.350775613930953,
            3.2147080859213233,
            -4.760251385585179,
            0.4642845939571689,
            -0.9617452960762605,
            2.269668958476153,
            2.3791837406157947
        ],
        [
            0.8533181294267611,
            -1.2309890464369353,
            -0.08911521511289511,
            -2.5551761976935907,
            4.770433605243731,
            0.8253354597862641,
            -0.9533535055706768,
            -1.1453983010888988,
            0.7383347409875969,
            2.071969905136214
        ],
        [
            0.9001567236197914,
            2.6794294552980533,
            4.229344390357532,
            1.5132035873635523,
            1.4445071463314338,
            4.913030903755919,
            -4.833075023142469,
            -1.7627296063733198,
            -0.23409261071656395,
            -0.5935652872271122
        ],
        [
            -0.10151938419251039,
            4.202668564123272,
            -0.12276626953533487,
            -0.9649835762680565,
            -1.0067665731791875,
            1.279007315182822,
            -4.730441718246451,
            -1.686291836225331,
            -0.903481502241231,
            -0.6545498626537691
        ],
        [
            -1.0129806093451355,
            -1.3310150816860675,
            0.7929001860032123,
            0.4963994822926887,
            -3.1215422565384667,
            3.6833087737937404,
            0.5882620840008563,
            2.7157162791281824,
            0.725724459383513,
            2.2654545993051878
        ],
        [
            -3.625158635086504,
            -1.8059699508096339,
            1.0853254855434713,
            -0.7463900487408457,
            -0.923150506444383,
            2.8042090653578278,
            4.42803561139147,
            -3.5467116051353518,
            -1.1909560435882316,
            -2.726144489116493
        ],
        [
            -0.3526574518415284,
            2.247473798487613,
            -0.3900720217869831,
            -0.16520428896824768,
            -4.165326570263917,
            -4.463514831322658,
            -0.536637237113391,
            -1.6718344592524872,
            0.4148706013244179,
            3.963023493579435
        ],
        [
            -3.714057626033882,
            -0.8363002992732522,
            0.9843572225916564,
            3.46622721064308,
            -3.4780196886080903,
            1.8243791176204578,
            0.1998225317098994,
            0.2141272960963183,
            -3.2000403981580194,
            4.560825749083458
        ]
    ],
    "biasesOne": [
        3.964088995472812,
        3.3717862373090224,
        3.786548656854645,
        -0.21863032392055448,
        -4.019548271661786,
        -1.1778931709817666,
        1.190580508426792,
        3.7212421428681264,
        4.610902136818849,
        2.775890857713975
    ],
    "weightsTwo": [
        [
            -0.4695058078539711,
            4.001764398830833,
            2.7639675999633626,
            -1.5244658201107253,
            0.11655762484632604,
            -0.41750547612079103,
            4.921971964083108,
            2.7009889885969702,
            0.19752234665019763,
            -1.5393501389447426
        ],
        [
            0.735801909808881,
            4.7457350198606125,
            3.709218493295852,
            4.523922799136557,
            -4.750871889182959,
            -0.9338155423910415,
            0.49577874757086704,
            -4.353066697316482,
            1.8399781963222406,
            0.0145190952324592
        ]
    ],
    "biasesTwo": [
        0.8116937933979589,
        1.6866296994599992
    ],
    "fitnessValue": 33.44614043855269
}