{
    "weightsOne": [
        [
            -0.3781581030902643,
            0.8428177275086486,
            0.26893070165812794,
            0.7298181975452525,
            0.2047473843668206,
            0.0707153986260185,
            0.9659405884465748,
            0.004500251420144652,
            0.05724960532111911,
            -0.10916832783793295
        ],
        [
            0.422004645965804,
            0.43652684974289846,
            -0.7771050176336527,
            -0.5062685385880816,
            -0.6457039032216161,
            0.27750346067832954,
            -0.7796465081027901,
            0.5964484070543135,
            0.7055605548261776,
            -0.9928777161550559
        ],
        [
            0.2628238048839704,
            0.7536252944490016,
            -0.28032294661683066,
            0.4187292035804251,
            0.4670342520146571,
            0.3569810481146516,
            0.1992167409846688,
            0.9564230022817,
            -0.5701789056227577,
            0.07898417865282537
        ],
        [
            -0.591290784494477,
            -0.700812530092719,
            -0.3070514388549672,
            0.18514415561054998,
            0.36873529729965826,
            -0.839074116517017,
            0.8678465064341458,
            -0.09717900967404991,
            -0.8937354566623548,
            -0.6654238623419508
        ],
        [
            -0.4935798004244589,
            -0.8853900196431865,
            0.8259515070577101,
            0.3599112516488068,
            -0.7367576457515601,
            0.7833656154231066,
            -0.5550049079111339,
            -0.7485131717068272,
            0.716353954353834,
            0.33899097370492437
        ],
        [
            0.938395903013665,
            0.13558248425555997,
            0.5686773198514914,
            0.10257309523879288,
            -0.8771808426198453,
            0.9794111206212095,
            0.7368532638189049,
            -0.5710281414630551,
            -0.0551647041890766,
            -0.20296702063368044
        ],
        [
            -0.07496781275902142,
            0.44190850677983584,
            0.27845329722513523,
            -0.6281086506717972,
            -0.005815458054351241,
            0.0005121596003172524,
            0.1285324622435795,
            0.32059428977377036,
            0.340175415283287,
            -0.4564092016347563
        ],
        [
            0.9249188797697019,
            -0.11105600370087099,
            -0.10876784836302722,
            -0.3617051924644272,
            0.17863687752475776,
            0.3410477975467865,
            0.5961640254071052,
            0.007504596438591138,
            0.24285079039138524,
            -0.8754023879180697
        ],
        [
            0.1590711492453234,
            0.24909398087685775,
            0.41659893119974556,
            -0.23421229008238775,
            0.3640578163825061,
            -0.25102937842958495,
            -0.1979774742729692,
            -0.582129277496132,
            0.07727222465200234,
            -0.9598314465545132
        ],
        [
            0.10684771701417084,
            0.37886705943961374,
            0.4980579061209489,
            -0.144647386370238,
            -0.5066935788491935,
            -0.5574702156106324,
            0.7494461310179257,
            0.0690249290269409,
            -0.12329586664467884,
            -0.3080510038769242
        ]
    ],
    "biasesOne": [
        0.09505453006808584,
        -0.11885470834523626,
        0.48452590974726206,
        -0.08215632150084251,
        -0.2137234984331744,
        -0.5108703232109424,
        0.4409150105948054,
        0.6427106807274277,
        0.21858252055656924,
        -0.5805974873670747
    ],
    "weightsTwo": [
        [
            -0.33776760930313077,
            0.4801058510798104,
            -0.7472467516388663,
            -0.14645373199652867,
            0.5142656972343285,
            -0.31542143298247116,
            -0.6081053875946321,
            -0.35325003354673035,
            0.8240734808496646,
            0.9267489756983589
        ],
        [
            0.9229374634977845,
            0.06724502119166931,
            0.6780911832446803,
            0.7556444290967381,
            0.7582240895233108,
            -0.21705065667216972,
            0.41998291696086354,
            -0.7565763767143725,
            0.2861135223716371,
            -0.4208260665385388
        ],
        [
            -0.7136150080576433,
            -0.7584378539223273,
            -0.4353344848285985,
            -0.4018481584710405,
            0.20245594510018372,
            0.4996840186301392,
            0.4060452589799852,
            -0.589192679360361,
            -0.14080524168405595,
            -0.4645116241309972
        ],
        [
            0.07072676759144647,
            0.972258327891067,
            -0.11444446483797854,
            0.17090501700793648,
            -0.12974985097469127,
            0.642005982436,
            -0.8088451990932641,
            -0.9474438546399493,
            0.3440822724102559,
            0.08216073868866336
        ],
        [
            0.5059190684661963,
            -0.8323404426350076,
            -0.05892651767976709,
            -0.8535566998603874,
            -0.571889131486532,
            0.6747206688744172,
            -0.2591092199054159,
            -0.4649336393668566,
            0.14628388068605602,
            -0.8975364803052543
        ],
        [
            -0.29423258197535684,
            0.7054231671973537,
            0.23302643077640184,
            0.5797932025201766,
            0.24933488687355077,
            -0.08415893664120211,
            0.18539618165736083,
            -0.2031071496096386,
            -0.929148499169991,
            0.9725035594969875
        ],
        [
            -0.5097861864898998,
            0.7011378066605438,
            0.609513903867563,
            0.5641116694151234,
            0.5029783574831854,
            -0.17844100380467576,
            -0.2984114286411286,
            -0.8970881960556278,
            0.9043126608377261,
            0.018829753557023876
        ]
    ],
    "biasesTwo": [
        0.33935161191752417,
        -0.9874620370750327,
        0.3669775217755489,
        0.47717084718717495,
        -0.536872905228921,
        0.029313072742224167,
        0.023570456353152913
    ],
    "weightsThree": [
        [
            -0.07281295867169235,
            -0.8844547509367118,
            0.9521679692081781,
            0.5257241986560697,
            -0.24618687210096346,
            -0.051371543585652546,
            -0.041742611698775134
        ],
        [
            0.9089278881344989,
            -0.3180724183076602,
            0.8582970349858077,
            0.052701608574700076,
            -0.6676412516173513,
            0.3379207598264895,
            0.2608055793095567
        ],
        [
            -0.6702194130488193,
            0.8589829442293933,
            -0.9932276933899276,
            -0.6275436200550217,
            -0.521810916698559,
            -0.18627488818339688,
            0.8935000713688819
        ],
        [
            -0.20678292587769365,
            -0.09162409544551897,
            -0.1570661435448517,
            0.2991385078353348,
            -0.16781865822207842,
            0.35689191442012946,
            -0.22034594901358218
        ],
        [
            0.6564354341621075,
            0.7147117701549006,
            0.29952933666973114,
            0.514746182223526,
            -0.015155618584419273,
            0.5928962737993293,
            0.09035924528447214
        ]
    ],
    "biasesThree": [
        -0.42685705402183327,
        0.853449489641146,
        -0.976506492063804,
        -0.06437893198647249,
        0.15285960878240545
    ],
    "weightsFour": [
        [
            -0.7228423172753451,
            -0.52677375239865,
            -0.3819360195303232,
            0.6226060556892203,
            0.48041297611515654
        ],
        [
            0.7512840897246265,
            0.28430566197969753,
            0.9623524768128957,
            -0.43310196507368626,
            0.06257126578592698
        ],
        [
            0.6334570707569132,
            0.7417362428170489,
            -0.3454484868617884,
            -0.3058222174440519,
            0.5534216463538029
        ]
    ],
    "biasesFour": [
        -0.5545700003190279,
        -0.5472608417064757,
        -0.4021994610658699
    ],
    "weightsFive": [
        [
            0.15734984880379388,
            0.8488124452608985,
            0.8061787516594341
        ],
        [
            0.012805059204642477,
            -0.6630633250087719,
            0.32629647902784775
        ]
    ],
    "biasesFive": [
        -0.5721325977064091,
        0.25738129842563207
    ],
    "fitnessValue": 0
}