{
    "weightsOne": [
        [
            0.42740653242975823,
            -0.8918005161952112,
            0.018651897903159353,
            -0.5093550659970405,
            -0.13670956753994035,
            0.7262247407856943,
            -0.7124502003062827,
            0.7353342201101114,
            -0.45482279459369757,
            0.5219526186927514
        ],
        [
            0.5030376890485222,
            0.4507514469004201,
            -0.23400237412050817,
            -0.13715118661536474,
            0.9008762054561004,
            -0.521726827692141,
            -0.748688590784313,
            0.8584223803264006,
            0.9198117214089931,
            0.9623010796733771
        ],
        [
            -0.2885951663310571,
            -0.8926817572637422,
            -0.7847862575858786,
            0.7680082485917357,
            -0.5764891003567878,
            0.2561294565350818,
            0.34187964745199073,
            0.182696216614034,
            0.014614438840114374,
            -0.5747648249971209
        ],
        [
            -0.36180880841010366,
            0.43535072611030823,
            -0.12398990996949744,
            0.27613954484702785,
            0.19076321120793494,
            0.456046336615904,
            0.3825880649097606,
            0.10924328758440471,
            -0.5025396053801281,
            -0.5329265811371244
        ],
        [
            -0.6119148212817087,
            -0.3257508655106722,
            0.004167704008930073,
            -0.027229677915446393,
            -0.1422086186399496,
            0.3218147336912842,
            0.44486602275899045,
            -0.6567410580027466,
            -0.48760452583509606,
            0.8865920002627934
        ],
        [
            -0.2001511217739993,
            0.8121445134421563,
            -0.269022514541291,
            0.5804109997951621,
            -0.5944047243462252,
            0.519487882990902,
            0.7423413077886927,
            0.5219138291847263,
            0.25353697401570563,
            0.5648521082803037
        ],
        [
            0.4243168589841684,
            0.09777004637158915,
            -0.741336780154666,
            0.6242134519737152,
            0.4870501533852647,
            -0.701605350422619,
            -0.3643665270693328,
            0.7426831494382957,
            0.9830995209955458,
            -0.5107621032468026
        ],
        [
            0.9004577221279395,
            -0.5726659316557514,
            0.8373707773400196,
            -0.6967079706830073,
            -0.721636913555127,
            -0.05102656297992447,
            0.5116112489132194,
            -0.8928755598504858,
            -0.6358008964923298,
            -0.16962360006038146
        ],
        [
            0.5007697142896899,
            -0.6098123503138271,
            0.33575853891910223,
            0.375058745547467,
            0.29702230752919956,
            -0.03148992903505743,
            0.9525402288710143,
            -0.2642058241481686,
            -0.3235634422434812,
            -0.3173732236994311
        ],
        [
            0.1770001897594211,
            0.29969216552776157,
            0.4729427033281026,
            -0.22266466367523008,
            0.0070312444993678724,
            -0.024749900368349786,
            -0.8418410549094286,
            0.7556546167076026,
            -0.46498610423768993,
            0.2567563235087069
        ]
    ],
    "biasesOne": [
        0.02800553238838477,
        -0.9822229984119533,
        -0.9025039826582875,
        0.330947665594407,
        0.7374133128719604,
        0.5263106029340214,
        -0.5949768412353946,
        0.8030970212575592,
        0.9335140340063957,
        -0.8717384498385676
    ],
    "weightsTwo": [
        [
            0.5674222903045996,
            -0.8522443037174474,
            0.7003163971988664,
            -0.46687853221209874,
            0.725905739385962,
            -0.28027325225628164,
            -0.45265361083553546,
            0.29646659134130093,
            -0.9864507065532824,
            0.018815384956378356
        ],
        [
            -0.7444290298308405,
            0.02972227403279759,
            -0.768679973849336,
            0.8608017041779019,
            0.12731426400832513,
            0.7479645828483432,
            0.48410394364103304,
            0.7498608726558724,
            -0.5872573857909655,
            0.3238905533683931
        ],
        [
            -0.8947305274375041,
            -0.23273925687123387,
            0.8828546680007834,
            -0.18888367425314878,
            -0.2869897769281158,
            -0.3802318392673998,
            0.2846860377867142,
            0.5168646024770329,
            0.2276947510867331,
            -0.682535983299279
        ],
        [
            -0.02713750256556624,
            -0.24927861173186838,
            0.6492847316404065,
            -0.6016762340295281,
            0.22634852857236232,
            0.7784375690518814,
            0.6180867120366529,
            0.6756284871288987,
            0.18935790197202618,
            0.04618077935792453
        ],
        [
            -0.11602273627964466,
            0.9043656981809769,
            0.5003605268652065,
            0.13472992425524,
            0.18383924972163768,
            0.5780863517215316,
            -0.43800402632828916,
            -0.9752605734162973,
            -0.3408814226782191,
            -0.855579479675961
        ],
        [
            0.11271678065595059,
            0.639081613034854,
            0.22221253870662605,
            -0.6905156463545625,
            0.39653614567578455,
            0.4096555118802485,
            0.1383798625990187,
            -0.5972322230311486,
            0.4505163397722671,
            0.012646824495057274
        ],
        [
            -0.8291404620002294,
            0.5721408547882656,
            0.21955304065813896,
            -0.02211013858833466,
            -0.831429854258114,
            -0.4425580637438622,
            -0.648260782090692,
            0.5482027411904988,
            0.5402459329720015,
            -0.030316511325274575
        ]
    ],
    "biasesTwo": [
        -0.17110519709671768,
        0.9728657395376712,
        0.3857322382805539,
        0.7059747966764249,
        -0.7992550999205557,
        0.6910480353779749,
        0.4124505134669132
    ],
    "weightsThree": [
        [
            0.8362201356638785,
            0.6492235732313514,
            0.46456308673061186,
            -0.32776034601140913,
            0.6928939699501435,
            -0.00439016981147744,
            -0.9933934562141646
        ],
        [
            0.32661844812521923,
            0.27979336591538617,
            0.761431837764222,
            0.034180023676372295,
            0.6673216996148172,
            -0.9764906948534697,
            -0.6176329144222896
        ],
        [
            0.17253407053184788,
            -0.23593000388336893,
            0.9776474142540894,
            0.8985792505595445,
            0.29944537091092105,
            -0.4151438179846869,
            0.5388014744758907
        ],
        [
            0.9528867832495009,
            -0.24281635803673574,
            -0.4775281666128508,
            -0.16327615154937258,
            -0.7892472660162386,
            0.04018040087272268,
            -0.03217205249193311
        ],
        [
            0.41348973894692787,
            0.9681737867669942,
            -0.13059313101301817,
            0.7007118055839989,
            0.37410037605988267,
            -0.10941113568451777,
            -0.12564238943896822
        ]
    ],
    "biasesThree": [
        -0.7889399058067301,
        0.0866131577529421,
        -0.436200690852377,
        0.8254682624046785,
        -0.5930282068430741
    ],
    "weightsFour": [
        [
            -0.6619746017475008,
            -0.07979849965701424,
            0.15291725653617982,
            -0.13485676757947407,
            -0.22811149242786422
        ],
        [
            -0.34736955393066293,
            -0.3274408156988613,
            -0.8264089103889363,
            0.6301598301860007,
            0.6180242418841577
        ],
        [
            -0.47864024284303763,
            0.5360090697352327,
            0.4390191707753994,
            0.6282622184376003,
            0.128475705608589
        ]
    ],
    "biasesFour": [
        0.8940820546338519,
        0.934353538806157,
        -0.994857127775101
    ],
    "weightsFive": [
        [
            -0.9199664922029087,
            -0.19877228667824154,
            0.9630592878516484
        ],
        [
            -0.15722580736141634,
            -0.20338655582094312,
            -0.12218559863259482
        ]
    ],
    "biasesFive": [
        -0.5689820401825507,
        -0.9846201201775528
    ],
    "fitnessValue": 0
}