{
    "weightsOne": [
        [
            0.29115094460212276,
            -0.3390372648838782,
            0.62373939091352,
            0.7823812695789574,
            -0.694470819194799,
            -0.9684133509007242,
            -0.41596238003199226,
            -0.8555276390271929,
            -0.3125487160922915,
            -0.17362497944462585
        ],
        [
            -0.3508227345582997,
            0.5279330718688653,
            0.1994769203303144,
            -0.25186774914312804,
            0.8210434583705903,
            -0.27250244551777203,
            0.9680524581783012,
            0.47253451309350236,
            0.2609159031685624,
            -0.8779510277042624
        ],
        [
            0.8188086149577489,
            -0.3730193270199469,
            -0.8025719217149045,
            0.7515945975832368,
            0.5836061980601106,
            0.5486894726486782,
            -0.49720480990261273,
            0.5461693132139687,
            -0.21386268488804783,
            -0.7655697810016378
        ],
        [
            0.1305854376075426,
            -0.1504177420926478,
            -0.6940937585722646,
            -0.02268836553333653,
            0.4525301974433886,
            0.6998404654866752,
            0.8762563451020027,
            -0.7893162935698437,
            0.7293320310055051,
            -0.46872522661908866
        ],
        [
            0.17571454180747725,
            -0.6496565176417015,
            0.599727836659687,
            0.3206704255992856,
            0.7036333486533171,
            -0.3463484821657763,
            0.32562323742879573,
            0.30827119543733916,
            0.06935342529446409,
            -0.5178532996950402
        ],
        [
            -0.5092599660856443,
            0.2810127825019244,
            0.5862954120100023,
            -0.791977282487224,
            -0.6160567777140318,
            -0.9288485133733257,
            -0.20670755763567805,
            -0.5570469509509814,
            0.04901757105829341,
            -0.7762299795675451
        ],
        [
            0.3791808905962599,
            0.8099140919382954,
            0.6986289683477096,
            -0.291031556835611,
            -0.343612775182478,
            0.17767288692565475,
            0.6384655423027878,
            0.8016763526692365,
            -0.8037847604061357,
            -0.41680284066175366
        ],
        [
            0.6328502786195476,
            -0.3387749149931978,
            -0.44545089318381836,
            0.10312627857392664,
            -0.1322969336807096,
            -0.5580457628211435,
            0.36075095789647227,
            -0.27706973087394604,
            0.9772443160992963,
            0.7901471741414634
        ],
        [
            -0.3818620689168255,
            0.8600295163670248,
            0.8384883819570716,
            0.613431388719323,
            -0.09360141586727333,
            -0.24376281751673745,
            -0.9327558669715388,
            -0.8817737323675454,
            0.7816476263990855,
            0.6957389080920551
        ],
        [
            -0.4237812948939248,
            -0.9401235045467404,
            0.5965491366939513,
            0.12263338779691813,
            -0.6547333911237372,
            -0.5923528754620424,
            -0.8848726691860505,
            0.0037414321949571505,
            -0.6238989067298413,
            0.7549726448574237
        ]
    ],
    "biasesOne": [
        0.08533560494937875,
        -0.5104224835524627,
        -0.2289459416889703,
        0.4747613293504769,
        -0.043467077218006134,
        -0.9657112818536571,
        -0.2591566684874702,
        0.9183817780197971,
        0.603172508118679,
        -0.9159183049542696
    ],
    "weightsTwo": [
        [
            0.5459994042035767,
            0.024763066943563894,
            0.03152512428387655,
            0.7101085141626002,
            0.9590533033402857,
            -0.788881175735388,
            0.42544175810266416,
            0.4357180104856111,
            -0.25739550046400583,
            -0.7553405009834135
        ],
        [
            -0.03518859640772787,
            0.23031702051743475,
            0.9340406340062446,
            0.556815631493629,
            0.2646649159341852,
            0.17860589968823293,
            -0.09774690408065001,
            -0.29045076724277297,
            -0.11025216933603321,
            -0.8372945853922034
        ],
        [
            -0.9220599090356532,
            0.48175906330746954,
            -0.7278244765882889,
            -0.05708556831766498,
            -0.4919050680893038,
            -0.5218590852346747,
            0.8596779161282149,
            0.46881250957830534,
            -0.6839338160930295,
            0.9455905954812494
        ],
        [
            -0.838522723680859,
            -0.00454092037056375,
            -0.01905485178223465,
            -0.25478419053234425,
            0.2923226249743778,
            0.10441603689037438,
            0.17308150487782692,
            -0.6177983709118311,
            0.36886409415723564,
            -0.25396925321998687
        ],
        [
            0.8558044666720044,
            -0.5882822058944996,
            0.33436612128517673,
            -0.41918336504514997,
            -0.10288560194287588,
            -0.6483102876844349,
            0.6792589725546276,
            -0.7774589088304726,
            -0.14975683264655926,
            0.30818127783550153
        ],
        [
            -0.48038144011402273,
            0.5639202887514474,
            0.28660255363389187,
            -0.6947789175447785,
            0.8295068545431088,
            -0.6087624612085296,
            -0.956797673590599,
            0.7575471369912625,
            -0.30691915660537306,
            -0.7423924744854606
        ],
        [
            0.14381153403724478,
            0.9181866569872204,
            0.5139168739977289,
            -0.6990716140702562,
            -0.8139734092453919,
            -0.13711892721527374,
            0.0927514586615219,
            -0.6545747837991003,
            0.2820782528746124,
            -0.4121253087174699
        ]
    ],
    "biasesTwo": [
        0.6656070479145713,
        0.3168952416745878,
        -0.6778751351929475,
        0.1239480395490844,
        0.07905890797270843,
        -0.04193661934522752,
        -0.4235724558435976
    ],
    "weightsThree": [
        [
            0.2596364035920893,
            -0.40545874662860126,
            0.9763713046638383,
            -0.06604254790974129,
            0.6699629226015238,
            0.7368247282087133,
            -0.3665525198089914
        ],
        [
            -0.13428681135363285,
            -0.8436997823916261,
            0.9864838646816387,
            -0.915579691403386,
            0.3422191821230256,
            0.49745071952374875,
            -0.4591541369533567
        ],
        [
            0.42857494977989297,
            0.6787490736666999,
            0.7948114630733332,
            -0.29338561963077225,
            0.10471664620045873,
            -0.5389144618361192,
            -0.0541073503740408
        ],
        [
            0.9379610139740049,
            0.8956049480231476,
            0.9052230424306218,
            0.6304872296297406,
            0.9242195480540096,
            -0.2636568255447729,
            0.8375828639097944
        ],
        [
            0.14395424491905118,
            0.16521815564057674,
            -0.5945206231875868,
            -0.2000852455692117,
            0.646504151232562,
            0.44298358217109035,
            -0.37307137933739964
        ]
    ],
    "biasesThree": [
        0.21444278115694515,
        0.07691164877771328,
        0.056995939491943926,
        -0.4496884167743058,
        0.8427535906859833
    ],
    "weightsFour": [
        [
            0.7993467438285897,
            -0.7495356082253211,
            -0.8188264954780964,
            -0.47344147882790066,
            0.0873080209125967
        ],
        [
            -0.4219967756387484,
            -0.32197424785071016,
            0.21857651803808165,
            0.8038624187480916,
            -0.6482373521659281
        ],
        [
            -0.6846678541774078,
            0.4172213984571127,
            -0.8194731382670561,
            0.9665236697055346,
            0.49907790032252364
        ]
    ],
    "biasesFour": [
        0.09505178220906485,
        -0.8094154070440429,
        -0.7641151493525129
    ],
    "weightsFive": [
        [
            -0.13030545338103172,
            0.1698213841582057,
            -0.19111974266259746
        ],
        [
            -0.012722931628565748,
            0.1269165339792071,
            0.18578450751775022
        ]
    ],
    "biasesFive": [
        -0.024491456531799738,
        -0.8122975452363213
    ],
    "fitnessValue": 0
}