{
    "weightsOne": [
        [
            0.0006506843721347799,
            0.2640208417983134,
            0.021173546655807174,
            -0.46538280173096,
            0.010338911231365877,
            -0.5896531733515122,
            0.8315697266596593,
            -0.9738324713247397,
            -0.7268511791788537,
            0.0743315342654991
        ],
        [
            -0.11668304677944308,
            0.5115476652803945,
            0.8480628712443281,
            -0.14659771700151203,
            0.19787133442387028,
            -0.2543862201864837,
            0.8841028005012865,
            0.3804563081852488,
            -0.7887010128450009,
            -0.5267419409781817
        ],
        [
            0.9077360574228401,
            -0.6845095153938554,
            0.3297566760745907,
            0.781605588591556,
            -0.2386894485520923,
            0.2835086962920641,
            -0.0424706855599033,
            0.05763698881815271,
            -0.07703364624250786,
            -0.03992922671916044
        ],
        [
            -0.5597376135862491,
            0.9242807850185841,
            -0.9859292156389912,
            0.430365504863379,
            0.23031398392712576,
            0.005165474061095798,
            -0.44140461449643964,
            0.4007087522046937,
            0.6510243810305258,
            -0.06506167647339489
        ],
        [
            0.41454740961898984,
            0.5469136375931207,
            0.446536591761328,
            -0.8384403898138661,
            0.557865220491943,
            -0.5329038295831254,
            0.43093450498033414,
            0.68258055572253,
            0.8442166124359554,
            0.9547077801180368
        ],
        [
            -0.49546297687330454,
            0.5909537728025847,
            0.9258092182180009,
            0.5956556971569673,
            0.7555723051512375,
            0.3811703739035053,
            0.8301101311752559,
            0.4388610907871906,
            0.8102553188025203,
            0.4850828096729598
        ],
        [
            0.5361262660829877,
            -0.8317599302171457,
            -0.30795072167429693,
            -0.665839432056802,
            -0.36618134182682005,
            0.10096086130883886,
            0.6139517008296687,
            -0.3075059397552544,
            0.9051812100951064,
            -0.18722480704006883
        ],
        [
            -0.2807463704081008,
            -0.9893602718827939,
            -0.5660139629706282,
            0.2811378944564029,
            -0.2923632306807842,
            0.754639558460122,
            0.006046639388584074,
            -0.2543569394033163,
            0.6554767458955542,
            -0.5102372399773207
        ],
        [
            0.7979543707798349,
            -0.64352242308541,
            0.253127887356807,
            -0.682368349922138,
            -0.5023775455051533,
            -0.8560303967983289,
            0.9762196937686916,
            -0.5096661944141949,
            -0.015894753807476958,
            -0.6658297362226719
        ],
        [
            -0.28885194383254187,
            -0.04872054901312928,
            -0.15623877554048704,
            0.48427135440706404,
            0.2853810608289351,
            0.54074758837075,
            0.20710326407116542,
            -0.9279918749529115,
            0.5794459998665589,
            0.4494132677764269
        ]
    ],
    "biasesOne": [
        -0.31750650436225336,
        -0.09650533580055654,
        0.43395328025387236,
        0.0435193330564978,
        -0.4174813091339562,
        0.9482002294962499,
        -0.5007051666574764,
        0.6558003646789134,
        -0.7007662197275542,
        0.20750474155170107
    ],
    "weightsTwo": [
        [
            -0.05588260950190782,
            -0.5140055342688112,
            0.3907738629590569,
            0.6561935118272484,
            -0.7993430438510365,
            0.13657915658735464,
            -0.12628912017702,
            0.8262164542462012,
            0.15704281472207837,
            0.3333243102857939
        ],
        [
            -0.46499655408455287,
            0.22562030371657293,
            -0.41913147114228666,
            0.4943163992952422,
            -0.41783401570411605,
            -0.8031003257285012,
            0.6231806290866717,
            0.19372488003571453,
            -0.46787653563122866,
            0.5396587398450612
        ],
        [
            -0.6931995509313253,
            0.944412804995002,
            -0.778036438430399,
            -0.6121188180113877,
            0.12155526324310384,
            -0.5050139512104506,
            0.2766425834844546,
            0.38628268961075274,
            0.9778808128219127,
            -0.6959129326451667
        ],
        [
            -0.5699454356019449,
            -0.46429625039426736,
            -0.21760276461531847,
            0.9492945372805299,
            -0.1439026192088737,
            -0.5539979119270706,
            -0.07791663606311094,
            0.8538379271026517,
            0.006756967467505426,
            -0.7219523875434064
        ],
        [
            -0.5808837137860534,
            -0.899995609729473,
            0.16831730746461426,
            -0.8804811723594106,
            -0.6039551843774762,
            -0.4825538951611872,
            0.05290738414704932,
            -0.5524897484497919,
            -0.10600030829540863,
            -0.05245851587091055
        ],
        [
            0.9400756142645088,
            0.049172023512220164,
            -0.45149401342131523,
            -0.0011243929210700276,
            0.8672738920343048,
            -0.19933277302409702,
            0.5985275482992769,
            -0.7178452230241847,
            -0.9783061948373062,
            -0.7294793907934582
        ],
        [
            -0.24957229690018568,
            0.2039003659893388,
            -0.33075872795139527,
            0.2546429188774548,
            -0.11075744135454713,
            -0.2405367650672292,
            -0.4989694914829419,
            -0.8927017145361735,
            -0.022093106578772614,
            -0.052381779355796576
        ]
    ],
    "biasesTwo": [
        -0.9212870462907177,
        0.0088960831135656,
        -0.7062060264335086,
        -0.04896636123171483,
        0.9892199232595447,
        0.8607076029057708,
        0.30487473716241964
    ],
    "weightsThree": [
        [
            0.8498193852369047,
            -0.09349594677962325,
            -0.18672686027089824,
            -0.6410354510714893,
            -0.06347568604032894,
            0.3688792057478647,
            0.15801642581804387
        ],
        [
            -0.5732322545904565,
            0.456077941237907,
            0.5932976948849746,
            0.6080675156204938,
            -0.9237020638832405,
            0.47884965687279735,
            0.6541839433849388
        ],
        [
            0.9080869236107232,
            0.8070549276697043,
            -0.5588945923522874,
            -0.36295598681552965,
            -0.7520348737856553,
            0.21211451220841093,
            -0.27302869649331085
        ],
        [
            0.8143058762311175,
            0.9523457431242528,
            -0.18851501363781153,
            0.9164475309366777,
            0.04020968300434502,
            0.10688181858529999,
            -0.19865679361130373
        ],
        [
            0.6566492083457331,
            0.061279057052710195,
            0.7652968530307886,
            0.7549031900458747,
            0.08234949463086827,
            0.5076508110673461,
            0.7445274877084147
        ]
    ],
    "biasesThree": [
        -0.4359246514234134,
        -0.78606516877111,
        0.6091253915105228,
        -0.3200154236103949,
        0.3707330378295488
    ],
    "weightsFour": [
        [
            -0.6300174384008632,
            0.9902516239932313,
            0.17824077380727976,
            0.8855686096516724,
            -0.743939803415022
        ],
        [
            -0.0674561353992813,
            0.5559227810143803,
            -0.2492482714265727,
            0.16716991970090134,
            0.04340013465776593
        ],
        [
            0.6139195256085013,
            -0.7824541120373159,
            0.6047256285000542,
            0.6926153018651231,
            -0.025186841223955758
        ]
    ],
    "biasesFour": [
        0.7800434741796018,
        0.6597228124887808,
        -0.596175574974739
    ],
    "weightsFive": [
        [
            0.6220569524853363,
            0.9255409142467292,
            -0.4242864668837554
        ],
        [
            -0.5173406298500731,
            0.7734480394486518,
            0.20224687350422266
        ]
    ],
    "biasesFive": [
        0.43778909403285704,
        -0.5741431033891244
    ],
    "fitnessValue": 33.53894020381062
}