{
    "weightsOne": [
        [
            -0.07325265948041704,
            -1.506463713932046,
            3.7326218669470315,
            0.4476415660714146,
            -4.817999164061693,
            -2.115465685638646,
            -1.1435506883147974,
            0.044301386923616626,
            -4.210241716808236,
            -4.818509282490898
        ],
        [
            3.2801234083075776,
            -3.8497115271981674,
            4.7423330461903035,
            3.1889349866991594,
            2.7956115728579984,
            -2.195805322741504,
            0.1354441441989045,
            -0.08167315748395643,
            3.429206113156372,
            -0.7539686572532602
        ],
        [
            -4.121670668916764,
            -2.2748446231351913,
            0.008548050224797876,
            4.350775613930953,
            3.2147080859213233,
            -4.760251385585179,
            0.4642845939571689,
            -0.9617452960762605,
            2.269668958476153,
            2.3791837406157947
        ],
        [
            3.5009886155739984,
            -1.2309890464369353,
            -0.08911521511289511,
            -2.5551761976935907,
            4.770433605243731,
            0.8253354597862641,
            -0.9533535055706768,
            -1.1453983010888988,
            0.1191820643292143,
            2.071969905136214
        ],
        [
            0.9001567236197914,
            2.6794294552980533,
            4.229344390357532,
            1.5132035873635523,
            1.4445071463314338,
            -1.735358990920707,
            -4.833075023142469,
            -0.32041605604260326,
            -0.23409261071656395,
            -1.0776259699672464
        ],
        [
            -0.10151938419251039,
            4.202668564123272,
            -0.12276626953533487,
            -2.754659495377817,
            -0.9529166081492848,
            -1.5199741619709295,
            -2.9846432521266744,
            -1.686291836225331,
            -0.903481502241231,
            -0.6545498626537691
        ],
        [
            -1.0129806093451355,
            -1.3310150816860675,
            0.7929001860032123,
            0.4963994822926887,
            -3.1215422565384667,
            3.6833087737937404,
            0.5882620840008563,
            2.7157162791281824,
            0.725724459383513,
            2.2654545993051878
        ],
        [
            -0.6551806062915624,
            -1.8059699508096339,
            1.0853254855434713,
            -0.7463900487408457,
            -0.923150506444383,
            2.8042090653578278,
            4.42803561139147,
            -3.5467116051353518,
            -1.1909560435882316,
            -2.726144489116493
        ],
        [
            2.6251470354240922,
            2.247473798487613,
            2.2744023582260118,
            -0.16520428896824768,
            4.616679797606119,
            -1.6471738306179553,
            -0.536637237113391,
            -4.10994549860434,
            -3.9025708807798845,
            3.963023493579435
        ],
        [
            -3.714057626033882,
            -0.8363002992732522,
            -0.205792421188292,
            3.46622721064308,
            0.9382128859645296,
            1.8243791176204578,
            0.1998225317098994,
            0.9558281001463065,
            -3.2000403981580194,
            0.5459851158191069
        ]
    ],
    "biasesOne": [
        -0.4982273736295024,
        3.3717862373090224,
        0.7204522436663952,
        -0.21863032392055448,
        0.3870019572207961,
        -1.1778931709817666,
        1.190580508426792,
        3.7212421428681264,
        4.610902136818849,
        2.775890857713975
    ],
    "weightsTwo": [
        [
            0.6836371531455778,
            4.001764398830833,
            2.7639675999633626,
            0.644125488449814,
            -0.17446513229350202,
            -0.41750547612079103,
            4.921971964083108,
            1.6048568660991087,
            0.19752234665019763,
            -1.8485574673275629
        ],
        [
            0.735801909808881,
            -4.6682434061053915,
            3.709218493295852,
            4.523922799136557,
            -4.750871889182959,
            -0.9338155423910415,
            0.49577874757086704,
            0.05430612445535843,
            1.8399781963222406,
            0.0145190952324592
        ]
    ],
    "biasesTwo": [
        0.8116937933979589,
        1.6866296994599992
    ],
    "fitnessValue": 107.92504373217939
}