{
    "weightsOne": [
        [
            -0.08586142130712071,
            -0.5774078537016216,
            0.3000373959392306,
            -0.7804596202737808,
            0.4353169244578705,
            -0.7106636390311722,
            -0.5295854566818632,
            -0.7509920092682829,
            0.08727421071243247,
            -0.4456302814724957
        ],
        [
            -0.9868042624555784,
            0.3892257808629307,
            -0.6937262684048049,
            0.14933066946958862,
            0.3255183292350037,
            0.49048886130652547,
            -0.3604316676083361,
            0.5160895220415382,
            -0.4913372198930921,
            0.9031156449231494
        ],
        [
            -0.7513346264344465,
            -0.8621997493501203,
            -0.8378169472904211,
            -0.3203673751972822,
            0.6981613078626623,
            0.6579972208489986,
            0.5763824963477906,
            0.6033630781022099,
            0.5819729765990271,
            -0.9367218817568816
        ],
        [
            0.43771738362562385,
            -0.32184314154629523,
            -0.5003467740157397,
            -0.3519218827114996,
            -0.5446768807050897,
            0.5751062820713069,
            0.9863525885169437,
            0.13251692069158127,
            0.7622875951222827,
            -0.37722706531652794
        ],
        [
            -0.14230489125501866,
            -0.927470478018527,
            -0.7104935695937111,
            -0.05557902929624836,
            0.9298465648241478,
            0.7828237607733839,
            -0.25475699109089955,
            0.03766308624513903,
            0.35507631241673177,
            -0.31141277567802383
        ],
        [
            -0.8785992448216022,
            0.662123813348354,
            0.9906340528899926,
            0.5226562542457358,
            0.7424662342945201,
            -0.8061534375821322,
            0.9430767280230834,
            0.5441989338979067,
            -0.88942039292939,
            0.09733695534889697
        ],
        [
            0.5038514496566378,
            0.8919118856131085,
            0.29294506554228494,
            -0.19716410308780308,
            -0.6334556131931646,
            0.5373286529881454,
            -0.4371642884886495,
            -0.33545459988756443,
            0.6629872611148291,
            -0.6846417652609667
        ],
        [
            0.7242576579394093,
            0.6231428349594699,
            0.16748682271586546,
            0.7216595759677653,
            0.9607471110224957,
            -0.07261515918310524,
            -0.9945215581977622,
            0.2650745289655172,
            0.8328391751561517,
            -0.02706944473684114
        ],
        [
            0.04396268898562328,
            -0.1282002283474475,
            -0.8847312642402474,
            -0.29358208653178575,
            0.9440228797018773,
            -0.41223691743431967,
            0.49505912599497304,
            -0.8293718558790737,
            0.8914365675777236,
            0.3665510589656844
        ],
        [
            -0.3469995970657913,
            -0.7967760433937408,
            -0.21487565049579938,
            0.8574176580445445,
            -0.9768332952192131,
            0.34151871500116493,
            0.04254700158497071,
            -0.5378474629190637,
            -0.9984327846859367,
            -0.612554210665365
        ]
    ],
    "biasesOne": [
        -0.2618580192748139,
        0.3521265583855808,
        0.5169417447891598,
        -0.7749321939225873,
        -0.6005473914783885,
        -0.17220348136853025,
        -0.4195524511831552,
        0.9497625160897201,
        0.32588839174845474,
        0.7773614829636397
    ],
    "weightsTwo": [
        [
            0.8927623126134772,
            -0.7083287742782152,
            0.00014932926992727857,
            -0.6195995860665775,
            0.36266530690546905,
            -0.8329221736584129,
            -0.7381422758741825,
            -0.5879943319293894,
            -0.3633765105273046,
            0.18213832655963635
        ],
        [
            0.26970543385909207,
            -0.6660459285284308,
            -0.9144002278359202,
            -0.8387661177619579,
            -0.7194150454683585,
            0.7497792925398559,
            0.3006350514405127,
            -0.5417775191837597,
            0.9186343142209239,
            -0.2931967099401598
        ],
        [
            -0.17648489042163673,
            0.36436604441780585,
            -0.33665733767209005,
            0.9122120846926345,
            0.9824373752216133,
            0.4418716852533857,
            0.5365569711698244,
            -0.6147587385625957,
            0.5533234312300432,
            0.8611006019148055
        ],
        [
            0.9350551435684302,
            0.8069154344553773,
            -0.6033595049286167,
            -0.4405460817962601,
            0.35289723578746734,
            -0.08850279847987719,
            0.7370257522290267,
            0.07013101973502223,
            -0.4583609002175306,
            0.8405796743687837
        ],
        [
            0.64135915975799,
            -0.9468386339896042,
            0.5055269220514986,
            -0.29501445554370465,
            -0.4673423448418841,
            0.7803816843571836,
            -0.21995466651811002,
            -0.9926205965125277,
            0.14385056657337447,
            0.9161074858939031
        ],
        [
            -0.12728247027481054,
            -0.956711366461374,
            0.14897024043151186,
            0.4547982786838005,
            -0.19265862860338023,
            -0.9136321999652455,
            0.7548460120833207,
            0.37455002398124204,
            0.526455864151957,
            0.469659712335762
        ],
        [
            0.05709700549847074,
            -0.12600656188685821,
            0.17189312613539753,
            -0.936062728306633,
            -0.29773967536991286,
            0.7546772872258118,
            0.9801655450039601,
            0.7676303962414717,
            -0.37354197012260726,
            0.1419395123915168
        ]
    ],
    "biasesTwo": [
        0.347731531101767,
        0.9634451435543712,
        0.7051154425178388,
        -0.004157973541004889,
        0.21536799230667603,
        -0.43608464595976626,
        -0.9135963371612974
    ],
    "weightsThree": [
        [
            -0.8352271282319577,
            0.7389741824757687,
            0.872374420084616,
            -0.578413028262299,
            0.34412471175771464,
            0.720816468519605,
            0.8951529474425506
        ],
        [
            0.611563859641165,
            0.5686792959901794,
            -0.358831433711402,
            0.081812249057309,
            0.8040003367651407,
            0.7399284191738977,
            0.7811388960377321
        ],
        [
            0.9477177350354653,
            -0.5821528268855827,
            0.6001188498520205,
            0.3917978100295534,
            0.17396597200656294,
            -0.45885349655056595,
            0.2494024030211015
        ],
        [
            0.4586955642392163,
            0.8559919360196693,
            0.9754178922902932,
            0.9668041437069166,
            -0.8907741211606008,
            -0.2711439349967977,
            0.40589423992301343
        ],
        [
            0.2886759258667535,
            -0.7088095380635917,
            0.15403054797814586,
            -0.9082477911601217,
            -0.03390869333030899,
            -0.031028675773074443,
            -0.15106548216057014
        ]
    ],
    "biasesThree": [
        -0.7895845525289795,
        0.88296959252282,
        -0.8432523769753051,
        0.5833482369245928,
        -0.5470403726990254
    ],
    "weightsFour": [
        [
            0.7535778853920678,
            -0.8588296414359311,
            0.22493000024044596,
            0.33806597958078544,
            0.39110830564256593
        ],
        [
            0.6909872699299724,
            -0.14907225683393888,
            0.5577698208421213,
            -0.2028046241669017,
            0.3840798680071589
        ],
        [
            0.883291612616735,
            0.8376850972253498,
            0.3755510001098381,
            -0.4660439139875361,
            0.556541872779656
        ]
    ],
    "biasesFour": [
        -0.7893287280789465,
        -0.04144638148210067,
        0.6852700500993576
    ],
    "weightsFive": [
        [
            0.1037251626172615,
            -0.45505281722323,
            -0.06758356006777944
        ],
        [
            -0.983821857576668,
            0.7921798267678333,
            0.38537108344764515
        ]
    ],
    "biasesFive": [
        -0.2838249035789515,
        0.36848108257707635
    ],
    "fitnessValue": 0
}