{
    "weightsOne": [
        [
            -0.9262595229952255,
            -0.7747264821857556,
            0.7812636808343594,
            0.5754684511866954,
            0.12282749760812961,
            0.34769008837547033,
            -0.7817103083252577,
            -0.7036223558984489,
            0.997849152842945,
            -0.5866617548203112
        ],
        [
            -0.36711973209249527,
            -0.6737122805721882,
            -0.7761756446901218,
            -0.13623136114390255,
            -0.34220128039212483,
            0.7768321794598616,
            0.06388753291921678,
            0.9857215463751545,
            -0.4462519675690877,
            0.631004173550793
        ],
        [
            0.7960547365283315,
            -0.9030454798216927,
            -0.7052070664045933,
            -0.6922543299535724,
            -0.727197755526793,
            -0.8070175452515549,
            -0.007591311774633125,
            -0.7052364946483063,
            0.1361881072142972,
            0.4660448127340997
        ],
        [
            -0.764342718495093,
            -0.30228704220227276,
            0.01949170704428793,
            0.026751757723557645,
            -0.1190794813126761,
            0.6238525870784006,
            -0.8099384169956745,
            0.3959052861682568,
            0.36658011980867844,
            0.13860987807118574
        ],
        [
            0.16067725636127372,
            0.24711231119095411,
            -0.6642460128898291,
            0.6264306915145155,
            0.6051143112842305,
            -0.5007186518313429,
            0.5243608733411727,
            -0.6665624633859153,
            -0.17923414666369775,
            -0.9908535473824511
        ],
        [
            0.5937876420454975,
            0.7310893081238772,
            0.6059291368233417,
            0.7747604324881554,
            0.4228374153793386,
            0.7738252509265267,
            -0.7580674652333874,
            0.06486578198953774,
            -0.7288044340442787,
            0.42457123732982094
        ],
        [
            0.39140210951907095,
            0.26362738628309446,
            0.766656397154865,
            -0.7631922298747962,
            0.0750160846185961,
            0.44336672385143383,
            0.9307993679467896,
            0.9778780014705142,
            0.7664178586975428,
            0.9429722831577994
        ],
        [
            -0.15058076691143296,
            -0.009573571768728861,
            0.7984931929490109,
            0.8584002775306279,
            0.4792174529510216,
            0.3218569045864359,
            -0.3924635857426719,
            -0.9098649296365611,
            0.5201731332890589,
            0.07201558110757911
        ],
        [
            -0.8841839837986047,
            -0.9853421605484156,
            -0.20654389832258824,
            0.18237074773956885,
            0.25843462585199783,
            0.8791144441198018,
            -0.8051377627337148,
            0.6513921777013139,
            0.017272313273071882,
            -0.7108043846169794
        ],
        [
            0.29762293750167856,
            0.9293790102680135,
            0.24062129615629524,
            0.17942182659276074,
            -0.8634013478442337,
            -0.2700610397351533,
            -0.9709152408484276,
            -0.11093043747038833,
            0.00968706151356491,
            0.8644813642911557
        ]
    ],
    "biasesOne": [
        0.619522630732178,
        -0.6061914797971113,
        -0.5997312488819049,
        0.9131647358195225,
        0.6416615072247929,
        0.3957407537730697,
        -0.6266387472144195,
        -0.899605871693294,
        0.5487465784713865,
        0.05824963355496693
    ],
    "weightsTwo": [
        [
            0.17846961935595984,
            -0.12099214025632765,
            -0.87011156336342,
            0.01346385705047215,
            0.44719082431682056,
            -0.5091609778806021,
            -0.18434803221935758,
            -0.21288906177409728,
            -0.1307371001558264,
            0.8712179119411845
        ],
        [
            0.3459289359774447,
            -0.23900462774614284,
            -0.9043050269029347,
            0.6738100428548597,
            0.15120833576020076,
            0.6796147559092061,
            -0.114720314715832,
            0.02504492001478531,
            0.8894340078023817,
            -0.33198800407777584
        ],
        [
            -0.977842622461178,
            -0.6402646436914421,
            0.7522290208324394,
            0.982025879438962,
            0.9326378929700425,
            -0.13343631503086817,
            0.4673923836947731,
            -0.2980243078862801,
            0.060323512944430835,
            0.029824162892188033
        ],
        [
            0.7928307713752547,
            -0.10541178489441405,
            -0.32476138256339926,
            0.2733177625463743,
            0.08532992011647367,
            -0.9378575395187077,
            -0.21586050146045266,
            0.00045109530536624476,
            -0.297478385352983,
            -0.1048655121456672
        ],
        [
            -0.7294886680682762,
            -0.6683808760388785,
            0.9792358149431244,
            0.17393910548653269,
            0.7418766606648552,
            -0.8126954661946937,
            0.3796958425526671,
            0.6089747388231137,
            0.6442816907586117,
            -0.9660565473867917
        ],
        [
            0.18426309537798002,
            -0.8769620749946532,
            0.4836715392215829,
            -0.46138870205164006,
            0.6192604672429853,
            0.5260746974991397,
            0.2721013751375212,
            -0.7152782110185412,
            -0.4335204956736638,
            0.2709911050847644
        ],
        [
            -0.8305206830373157,
            0.5013150102074384,
            0.5995887153805248,
            0.2573519651350078,
            -0.3015691837924508,
            -0.6863874985397571,
            0.7536725307000522,
            -0.061305898063584996,
            0.8873426992735955,
            -0.02199598056041019
        ]
    ],
    "biasesTwo": [
        -0.23181195592881232,
        -0.1312989430360254,
        0.8207457068640496,
        0.014072141196815213,
        0.5457858622229756,
        0.31957790536722697,
        -0.7728534474146727
    ],
    "weightsThree": [
        [
            0.5056610147559559,
            0.4671185428888085,
            0.3818106966814272,
            0.3426772695101419,
            -0.007634459427488194,
            -0.6606171960145713,
            0.31950282985364176
        ],
        [
            0.9448660802242945,
            -0.6090339156286357,
            -0.8943041293975256,
            0.6071663144026485,
            -0.490927960725138,
            -0.768495063894638,
            0.6174549224116945
        ],
        [
            -0.4289187067867086,
            -0.19412060881566662,
            -0.0943641093532177,
            0.07786276914123058,
            -0.9311746165026593,
            0.27806467425268977,
            -0.6218740249393497
        ],
        [
            0.7707833533189727,
            0.08334223756597181,
            0.7104356054712486,
            -0.8062653314927208,
            -0.49582407549028384,
            0.9308754301933486,
            0.39447935653357513
        ],
        [
            0.9204659359764706,
            -0.548881662723032,
            -0.18766544949496855,
            -0.04852275776394688,
            -0.296239863917217,
            0.17441345059517643,
            -0.44597526036796875
        ]
    ],
    "biasesThree": [
        0.13124779597623637,
        -0.9684174576966325,
        0.8761170946655754,
        -0.28514205839129314,
        -0.9174244170053307
    ],
    "weightsFour": [
        [
            0.8358424696476872,
            0.6869082160996256,
            -0.7179193042329444,
            0.14330543146706942,
            -0.6286753331406221
        ],
        [
            0.7902316710185762,
            -0.4171998271452433,
            0.7571130506656589,
            0.355132182013123,
            -0.5691666335160068
        ],
        [
            0.5767514053916094,
            -0.20092260551921992,
            -0.42159140935601,
            0.8134528594987958,
            -0.8362497589087852
        ]
    ],
    "biasesFour": [
        0.8218054412742726,
        0.9880578844535315,
        -0.5394351916350619
    ],
    "weightsFive": [
        [
            0.2644515199739703,
            0.8499289207078704,
            -0.7303620650596547
        ],
        [
            -0.48921464091804845,
            -0.8616973295113044,
            -0.39075689425642524
        ]
    ],
    "biasesFive": [
        -0.2607068172465752,
        0.42071642238087614
    ],
    "fitnessValue": 0
}