{
    "weightsOne": [
        [
            0.3985858943326215,
            0.17859806018756208,
            -0.38502376478140854,
            -0.01974678846208544,
            -0.1710949962384003,
            0.29810169190309366,
            0.19964258400060242,
            -0.9161759958287494,
            0.8164984200778453,
            0.8734081947126406
        ],
        [
            -0.685325471735887,
            0.2297959218973309,
            -0.9896947419986857,
            0.1524332472941785,
            -0.5445716988217231,
            0.28359755007929666,
            0.3730255061170431,
            0.630021098121105,
            0.9630473899322907,
            0.03214790838439607
        ],
        [
            -0.7853944701574471,
            -0.9773059815433487,
            -0.24564706673271353,
            -0.4393043377173287,
            0.16017335056286752,
            0.9777774885975068,
            -0.9989786993545595,
            0.15318732261810197,
            0.17002564982716462,
            0.5412831351247662
        ],
        [
            0.24976448732884537,
            0.4733305752348034,
            0.2572646615815435,
            -0.23373542963052252,
            0.5178920424679998,
            0.6650747755587592,
            0.6757906443814368,
            -0.9672026196934489,
            -0.48105926685497735,
            -0.15734024437548544
        ],
        [
            -0.7463586865019673,
            -0.387819752476257,
            -0.11843362800769053,
            0.2417964822078642,
            -0.9394290872611208,
            0.9627143121260715,
            0.5962170691596882,
            -0.503764210193578,
            0.5338949993727806,
            -0.8429674842894483
        ],
        [
            0.683784467131525,
            -0.40277952802021644,
            -0.9073163118804513,
            0.6739741610579479,
            -0.8263710879746857,
            -0.737511571169366,
            0.8264615792045953,
            -0.17074090485385263,
            -0.7610718249131825,
            -0.25635279624254315
        ],
        [
            -0.02939543164341174,
            -0.1263804808162836,
            0.36701880041295243,
            0.8701518156121992,
            -0.6374408839913173,
            -0.3406493203211185,
            -0.9230605102145208,
            0.9721525619364069,
            0.8390493600819722,
            0.4447677435224413
        ],
        [
            0.5601384876665072,
            0.7735623340831113,
            -0.08739768666450343,
            -0.5251689785619915,
            -0.07417185963901218,
            -0.9303781477848627,
            -0.29755940500926736,
            -0.2202984563224415,
            0.5442315498249675,
            0.7267675254069355
        ],
        [
            0.8769658571498913,
            0.8851949770154621,
            -0.6044945226825664,
            -0.48369129720309734,
            -0.528603050138994,
            -0.26975485637221364,
            0.8602897330851293,
            -0.061154625197610724,
            0.33384726655380126,
            0.3947050594914949
        ],
        [
            0.8906769512699404,
            0.3851536892722114,
            -0.10853580093062187,
            0.054732666731201585,
            0.40597111728005,
            0.6324975839581786,
            0.8589187270627652,
            -0.7657213985643738,
            0.98984772507141,
            0.33188452348695074
        ]
    ],
    "biasesOne": [
        -0.13101822183835954,
        0.9142731921208949,
        0.8213316990013355,
        0.5494836591647729,
        -0.4253470307705933,
        -0.5797340036951995,
        0.01034139279623525,
        -0.1071474686859395,
        0.18688866678288374,
        -0.9255084238015232
    ],
    "weightsTwo": [
        [
            0.14637542854224428,
            -0.9020389263472826,
            -0.8631991123018079,
            0.6147602868669517,
            0.3705652542530258,
            -0.35728381312418533,
            0.35778562595426977,
            -0.8103866107435049,
            -0.6230323472192281,
            0.0738410842320929
        ],
        [
            -0.9073813214346169,
            -0.6684253334391561,
            0.7197044153159975,
            -0.24207457189969017,
            0.46271316614839053,
            0.7817379294327911,
            0.49977523977616256,
            -0.2371978968356694,
            -0.02607573438852051,
            0.6309761560899876
        ],
        [
            0.907040006015652,
            -0.5529833325480347,
            0.810221356475781,
            -0.7727105777957592,
            0.7108229533864763,
            0.8242073258082323,
            0.564816563747776,
            -0.5601988806462888,
            -0.1570145974929158,
            0.8235440750266034
        ],
        [
            0.23269503564478944,
            -0.7110242845073633,
            -0.5161739776983658,
            0.5560469087542215,
            -0.9600011962222408,
            -0.3974062224845336,
            0.5606519028619574,
            -0.8438037778815592,
            -0.8989453865469823,
            0.798211854382207
        ],
        [
            0.11153383121960392,
            -0.23256847641920442,
            -0.0980150025929234,
            -0.7893267510312323,
            -0.9132842221915491,
            -0.028427176869369353,
            -0.6852891226283728,
            -0.18075609889495037,
            -0.7584574148950218,
            -0.12105503148586227
        ],
        [
            0.29668012956407597,
            0.9810660522430155,
            -0.5893034333373026,
            -0.8049154915590231,
            -0.19438736472513374,
            -0.3425791268645013,
            0.38427114817302477,
            0.5149757545268123,
            -0.006542276875543873,
            0.04555147970144646
        ],
        [
            0.14168755394944488,
            0.8299904595028138,
            0.5874546460633954,
            0.9660953806141652,
            0.5629097284623417,
            0.9129224215762128,
            -0.33130118005016773,
            -0.3076251665992409,
            0.003429927501887864,
            -0.45617494067873365
        ]
    ],
    "biasesTwo": [
        -0.48170595720313814,
        -0.03304350684680757,
        0.5916948219845797,
        0.8615265088372721,
        -0.8487550355407929,
        -0.7748375481382237,
        -0.7080929375160363
    ],
    "weightsThree": [
        [
            0.48701936964223114,
            0.702738140957381,
            -0.10286225166144769,
            0.7111920564780454,
            0.5065568572990637,
            -0.7272715216384638,
            -0.1576886045484005
        ],
        [
            -0.8155279553726755,
            -0.6326655703387567,
            -0.8416872228478476,
            -0.4790046881024699,
            -0.9371498834280878,
            -0.19716123076262715,
            -0.019592433655428954
        ],
        [
            0.9023670534965047,
            -0.591474784354393,
            0.21773271797266402,
            0.18646784346162537,
            -0.29410646238581295,
            -0.7241712459739635,
            -0.8088135369609002
        ],
        [
            -0.43101819133030506,
            0.08310270411599197,
            -0.2184200126986462,
            -0.3529904944440845,
            -0.1544858948186727,
            0.6550126097889988,
            -0.3624720892922686
        ],
        [
            0.9615081191056734,
            -0.7879287450770363,
            0.5327799650003744,
            0.8112659184722308,
            0.19768212602089852,
            -0.2919919379027758,
            0.7143628120508421
        ]
    ],
    "biasesThree": [
        -0.6538850872538884,
        0.17841470027560202,
        0.7317050113405232,
        0.6560856269315141,
        -0.4916833155325602
    ],
    "weightsFour": [
        [
            0.8311787278600262,
            0.679708538847202,
            -0.2770006735896946,
            -0.5216782763830445,
            -0.006121814669211245
        ],
        [
            -0.12084958650896871,
            0.06401585084935646,
            -0.41152147854956356,
            -0.04117767364857561,
            -0.8213017640989151
        ],
        [
            -0.9774910192886552,
            0.7026114640480596,
            0.8022477683630092,
            -0.6002985255258844,
            0.4218593207724486
        ]
    ],
    "biasesFour": [
        -0.39811506195764523,
        0.3611263133762155,
        0.6589741087286463
    ],
    "weightsFive": [
        [
            0.8065966461686733,
            0.825840989066025,
            -0.5171254230364717
        ],
        [
            0.9273529039414385,
            0.3848667975199551,
            -0.5033382446208898
        ]
    ],
    "biasesFive": [
        -0.8663396146650384,
        0.8433529223228686
    ],
    "fitnessValue": 0
}