{
    "weightsOne": [
        [
            0.48816367779682257,
            -0.5517374930888799,
            0.6915620976176569,
            -0.2347740167539818,
            0.7068491830731074,
            0.9597731731380663,
            -0.1852628798413798,
            -0.7979555872987356,
            -0.9129587300584265,
            0.907834695315793
        ],
        [
            0.9480322263883494,
            -0.2876666721823784,
            0.49584732945909393,
            -0.13593499133244347,
            0.7676751016780377,
            0.407690947347787,
            0.9485019762069022,
            -0.2679938167128233,
            -0.8277561804961051,
            -0.5828105597806108
        ],
        [
            -0.6826315916296866,
            0.3539124020500197,
            0.6744433713631413,
            0.8555856634823034,
            0.8479405120785057,
            -0.552679285218671,
            -0.314466168082679,
            0.4301105738473685,
            -0.9722686953932702,
            0.23012429225065079
        ],
        [
            0.4560525766874073,
            0.8097105523936567,
            -0.21925108203652677,
            -0.6796662371062459,
            0.5931784724853169,
            -0.10718664815263579,
            -0.8895178639475949,
            -0.3119094519006018,
            -0.7712930158110753,
            0.4014095587944013
        ],
        [
            -0.8685770344957113,
            0.9896055276379148,
            0.7349147623594308,
            -0.48317933790338397,
            -0.8046853397001632,
            -0.7188721549801009,
            0.8636627629902986,
            0.6740393113858822,
            0.8986992765086106,
            -0.6828528156746758
        ],
        [
            0.18502907752293063,
            0.5183188192572148,
            0.37529541690317125,
            0.8581105479532878,
            0.8987002438921072,
            0.5750449711451946,
            -0.23568179327908667,
            -0.44158359526869173,
            0.8819632834897246,
            0.5565330130474346
        ],
        [
            -0.22130266619651917,
            0.7426928338892489,
            -0.6063557999774947,
            -0.7884550051778279,
            0.765389012902548,
            -0.9692344058357594,
            -0.3107674043978801,
            0.1668145659400191,
            0.9854503002785056,
            -0.5067197011482034
        ],
        [
            -0.7298395448684816,
            0.3457156883527448,
            -0.5887573113203275,
            0.31034992097206837,
            -0.010005602838211836,
            -0.4656876237715706,
            0.047197731552988786,
            0.39701344842507913,
            -0.89703184393667,
            0.4967960487985723
        ],
        [
            0.5651953653312964,
            -0.9788603900569235,
            -0.7218360388450453,
            0.4220068476872372,
            0.26871425699218254,
            0.06254239548070384,
            -0.6064592309813512,
            -0.7586537381733625,
            0.330779827383336,
            0.964227606952605
        ],
        [
            -0.8964320112912763,
            -0.05089977798458256,
            -0.9066593767706461,
            0.2985685538952991,
            0.11101821997499783,
            -0.5314426962326066,
            0.11416450162229541,
            0.5237382540733049,
            -0.7647869220316439,
            0.00675753506454857
        ]
    ],
    "biasesOne": [
        -0.03380849307722755,
        0.029113245538618937,
        -0.7366129638654257,
        -0.15523077390480355,
        -0.9920009040658622,
        0.2141575265961715,
        0.454991365901412,
        0.13711271935167368,
        0.9819681506320759,
        -0.9063720088867906
    ],
    "weightsTwo": [
        [
            -0.8117205789327122,
            0.9137013566413006,
            0.39548702068644226,
            0.5676528303020048,
            -0.3436933685335344,
            -0.8937578728694056,
            -0.0063940434963769555,
            0.6796484725821577,
            0.0827180055842156,
            -0.8703075095601978
        ],
        [
            0.07920637687084153,
            -0.27012825557172526,
            -0.5688014253305806,
            0.2646364592115049,
            0.992127065673934,
            0.4174166701819928,
            0.3749556309790676,
            0.05200884350020307,
            -0.5101005162128673,
            0.04582673675661275
        ],
        [
            0.359412748933424,
            0.8907964494844585,
            0.4342005487126277,
            0.813650019810839,
            0.46633620139673737,
            -0.3077076166982535,
            0.3533908713270233,
            0.9165403549669351,
            0.23464920346549256,
            -0.6867996498892517
        ],
        [
            -0.08504329028366397,
            0.27178390828903165,
            -0.46256075644924555,
            0.9078205212955832,
            -0.41107100851414047,
            -0.6558134674122666,
            -0.46835380151878603,
            -0.3896146738461559,
            -0.31306645876689676,
            -0.421331219273813
        ],
        [
            0.8734058258447439,
            0.5115154454223179,
            -0.2989930826459275,
            0.6629433594140903,
            -0.6927752143230559,
            0.43395983924246373,
            0.3819594871388803,
            -0.10045500001346186,
            -0.2869894329660687,
            -0.8354226273017122
        ],
        [
            0.281601434777065,
            -0.8231044586471341,
            0.5940054749387671,
            -0.1151994257461526,
            -0.5832246860582226,
            -0.8148207356881094,
            0.2833221450082348,
            0.5690176828450624,
            -0.5705958476194104,
            -0.9852039988044543
        ],
        [
            -0.8459267545366407,
            -0.397574967512869,
            0.15845919631232497,
            -0.9918632130372516,
            -0.10280930002474187,
            -0.3525901609688493,
            0.54404686284262,
            0.3613804244992209,
            -0.9109740916492994,
            0.579645809839963
        ]
    ],
    "biasesTwo": [
        0.49959738799850073,
        0.7238629994098047,
        0.9850050260675944,
        -0.7640039490087172,
        -0.24593282858627208,
        0.5311036948034964,
        -0.007126623148233868
    ],
    "weightsThree": [
        [
            -0.23664582453647998,
            -0.8946141171562962,
            -0.40826792819627067,
            -0.9109535764493362,
            -0.7597766474924659,
            0.08413373469367746,
            0.7883431988753433
        ],
        [
            0.47179589619488627,
            -0.38426728088190965,
            -0.8819965494223769,
            -0.047205524978078284,
            0.6830719114894659,
            -0.7077554873941494,
            -0.5784736486443203
        ],
        [
            -0.5733317427880034,
            -0.18362587348033177,
            -0.6614138184505562,
            0.6142415183424803,
            0.760004520283124,
            0.2733398732104977,
            0.24319039746304316
        ],
        [
            -0.39485380139701287,
            -0.6086004276749182,
            0.24789634797295879,
            0.021230855771739554,
            -0.9531170995390523,
            -0.15014795032100414,
            0.7798633886682187
        ],
        [
            0.02149806431414847,
            -0.9577145123989796,
            0.8578459109593979,
            -0.18966363291414412,
            -0.35273098552525495,
            0.2899537811252848,
            -0.5738982183135597
        ]
    ],
    "biasesThree": [
        -0.9683108029960921,
        -0.9508149222552935,
        0.7420577324551061,
        -0.2763481514300048,
        0.4475744137940514
    ],
    "weightsFour": [
        [
            -0.1650219152570589,
            0.15268847316973289,
            0.39551270061651267,
            0.0946682420721785,
            0.407149482630752
        ],
        [
            -0.7070038121502249,
            0.06173192487129442,
            0.8727127773397898,
            -0.8890105684445917,
            0.8157962588050891
        ],
        [
            -0.47764322922640057,
            0.48275414285263873,
            0.6086460336146087,
            -0.8223634689566441,
            -0.018282473673242983
        ]
    ],
    "biasesFour": [
        -0.5836081403699456,
        0.47627571580500816,
        -0.06474831194081854
    ],
    "weightsFive": [
        [
            -0.6636086896200191,
            0.8520699660062447,
            0.02373584408635332
        ],
        [
            -0.44507850787347514,
            0.22651508336902748,
            0.343372514026935
        ]
    ],
    "biasesFive": [
        0.43965689334590574,
        0.8648475482873903
    ],
    "fitnessValue": 16.816194528286562
}