{
    "weightsOne": [
        [
            0.568513290819249,
            0.22867047932809603,
            0.6847039008621969,
            -0.8224455730740232,
            -0.6833938477489836,
            0.20994015153672896,
            -0.3889518617590193,
            -0.4104339720818726,
            0.721937994557394,
            0.7208852222845785
        ],
        [
            0.6106486722608824,
            -0.5045618529272917,
            -0.21223782063322738,
            -0.4839733710367027,
            0.4211210494428492,
            0.7100987627374054,
            -0.5460846102136805,
            -0.700014574704019,
            0.7949964739282744,
            -0.8063715037421748
        ],
        [
            -0.038148535659398464,
            0.8800183595831033,
            0.8584875826973677,
            0.720722718831148,
            0.3987601257932305,
            -0.6402148599903001,
            0.12377088459806584,
            -0.8792208534723065,
            0.10991959501004467,
            0.5619116182242745
        ],
        [
            0.97849815038991,
            -0.32389122604940823,
            -0.2119846019740088,
            0.6307961547346168,
            0.8530883810956653,
            -0.023524638070573367,
            -0.789464228349176,
            0.3648429284201631,
            -0.857230502645411,
            -0.9202693478249064
        ],
        [
            0.04196631368870807,
            -0.2530441012019584,
            0.9792125572198758,
            -0.23260786978314196,
            -0.5832685237523152,
            -0.883547150019846,
            -0.09290118508531187,
            0.8319886915681045,
            0.8687787396875484,
            -0.01839902422798234
        ],
        [
            0.4440414159915367,
            0.16993462478016808,
            0.9993703460769856,
            0.6659873958027875,
            -0.9077206439466652,
            -0.6282182231487321,
            -0.7210036119922183,
            0.8496885778489709,
            0.30125734919158176,
            0.9166026643794312
        ],
        [
            0.6921285441269032,
            0.9699972837688333,
            0.08526631638742876,
            0.16761845754643168,
            -0.630000732369469,
            -0.738425251746347,
            0.31992189296617024,
            -0.9919986547716078,
            0.37152777113752844,
            0.60631824921713
        ],
        [
            0.129833639195442,
            -0.9758462537965948,
            0.4983656962886922,
            -0.6218610032534382,
            -0.9149963231181448,
            0.2823984470619647,
            -0.6014288589088379,
            0.5813962687004319,
            0.7506023640232793,
            -0.3328974700971863
        ],
        [
            0.783242210394413,
            0.2962878097969883,
            0.9365026582644562,
            -0.13965089055841573,
            0.6091304327285081,
            0.747791496336246,
            0.008914899149442546,
            0.3603107698503074,
            0.9290530885100936,
            -0.4855273071905477
        ],
        [
            -0.5623785738998226,
            -0.9810441142075546,
            -0.07337024955529436,
            0.7738737437806706,
            -0.32126235067901177,
            0.10637732063194005,
            -0.10799844564715988,
            0.09930100397395503,
            0.016434950647823854,
            -0.3515909563412076
        ]
    ],
    "biasesOne": [
        -0.511008120198327,
        -0.6761397653579015,
        0.6844240742263741,
        0.09849269681324246,
        0.18692045971768678,
        -0.06329941562887442,
        -0.06022557578895671,
        0.8992515220447355,
        -0.47500511725806693,
        0.6281883308679272
    ],
    "weightsTwo": [
        [
            -0.6124245919624693,
            -0.7346307909085041,
            -0.9775635627507067,
            -0.17837857438811033,
            0.9538513208855262,
            0.1798329304865096,
            -0.5197377765735214,
            0.13410964413481752,
            0.6043967506318817,
            -0.16110522151456141
        ],
        [
            0.024809597444412912,
            0.6271545813909503,
            0.07291420822509909,
            -0.8127241657912503,
            0.0254449527203664,
            0.4438702985204648,
            0.674772065989985,
            0.4880684017502379,
            -0.669516398710861,
            0.7794720299158631
        ],
        [
            0.4241043199256225,
            0.994901740378433,
            -0.04394929328954622,
            0.11100457958206356,
            -0.028098906822189296,
            -0.4407370810458233,
            0.2801364527048502,
            -0.9395699335597429,
            0.301087759243827,
            0.7408668739141011
        ],
        [
            0.09764683677543817,
            -0.7077346520042915,
            -0.24679864444790045,
            -0.13090279306535635,
            0.34494807758424706,
            0.9117490345140553,
            -0.13869186507411846,
            -0.26283995721266695,
            -0.5761949247952778,
            -0.463897211588842
        ],
        [
            -0.5234610601686505,
            0.18667397509714356,
            -0.3644792839244648,
            -0.4558143773531902,
            -0.745526005692998,
            0.14480379029176493,
            0.06568404299992836,
            -0.9719972040765317,
            0.25426522414433506,
            0.4058419234853916
        ],
        [
            -0.2847229448076056,
            -0.23859084889006676,
            0.47462439843305426,
            0.1014552923815728,
            0.8497847041674651,
            -0.2009316686573499,
            0.38671122800047675,
            -0.6497236980946872,
            -0.8829290779769534,
            -0.8093179326319544
        ],
        [
            -0.754597318577811,
            -0.7773946728509242,
            -0.2809812784117054,
            0.2395354457227128,
            0.8514360433462138,
            -0.3738667983423438,
            -0.8585894575251223,
            0.4229456507833176,
            0.2538645026344901,
            -0.4006177078694799
        ]
    ],
    "biasesTwo": [
        0.9652811815685354,
        -0.16771317023978338,
        -0.689358774205745,
        -0.47871205590713783,
        -0.6022648927100485,
        -0.4976482711719259,
        -0.9033202043515856
    ],
    "weightsThree": [
        [
            0.709726847659153,
            0.9411277829299396,
            0.43118605374233665,
            0.7498152780833274,
            -0.329153873264753,
            0.6854384467400614,
            -0.07729420154054822
        ],
        [
            0.8896678114109837,
            0.2705324544384704,
            0.7033127006568529,
            0.20777051344310493,
            0.9013863475815924,
            0.5008490301555069,
            -0.22799614834338877
        ],
        [
            -0.9225415749706234,
            0.655578725700974,
            -0.3117134652771494,
            -0.5503978388205459,
            -0.539771007511098,
            0.14781415836364364,
            -0.8094102821838733
        ],
        [
            0.7407539823337883,
            0.44023894678648046,
            0.45345273861579916,
            -0.8391006316316205,
            0.918341993227823,
            0.7763728251651569,
            0.9105452500091984
        ],
        [
            0.7649879725887188,
            0.3294862499823141,
            0.744359187780089,
            0.8676552816996208,
            -0.9817685005001733,
            0.32114764302706167,
            0.32502956793083926
        ]
    ],
    "biasesThree": [
        0.4835480026002592,
        0.008244051362096938,
        0.2756021727340554,
        0.974186583664854,
        -0.7321440131342909
    ],
    "weightsFour": [
        [
            0.02922549966825949,
            -0.9147932199663698,
            -0.608640402218888,
            0.7342990580915301,
            -0.962495583986297
        ],
        [
            -0.8892654906758475,
            -0.9375845299097747,
            0.3185542491923965,
            -0.06598408709659909,
            0.06283818650986839
        ],
        [
            -0.5302115881788092,
            -0.44940267764726505,
            -0.9377872949673776,
            -0.16858071332401026,
            0.1007174174563672
        ]
    ],
    "biasesFour": [
        0.8439018122173947,
        0.4760954460296756,
        0.1070800702500021
    ],
    "weightsFive": [
        [
            -0.6804664869049672,
            0.5617935774311089,
            -0.7939812039762069
        ],
        [
            -0.41742570582573224,
            -0.818463739613601,
            -0.9702977621225333
        ]
    ],
    "biasesFive": [
        -0.22946496799681504,
        0.662157308086379
    ],
    "fitnessValue": 0
}