{
    "weightsOne": [
        [
            0.03228215630488984,
            -0.48585618159407984,
            -0.7547809421711904,
            0.5020338899215178,
            -0.4174821421746546,
            -0.5762711765180515,
            0.48059119478795176,
            0.8778257738658752,
            -0.05211578960478813,
            -0.24102065153807173
        ],
        [
            -0.8570075251413267,
            -0.6644277946797346,
            0.21516453486496045,
            0.3687357767366217,
            -0.12727493438953785,
            0.25768976958599454,
            0.6562180298211093,
            0.3734838563766405,
            -0.01466530641276731,
            0.449280655210631
        ],
        [
            0.24614338984131323,
            -0.942187307630139,
            0.7855137090696755,
            0.010569082458392165,
            0.6629404960564278,
            0.004909400878947201,
            -0.9368699831072722,
            -0.3379051707641807,
            -0.024351095718660565,
            0.051163380361721744
        ],
        [
            0.048582640227475826,
            0.6066205417248509,
            0.9246277262904461,
            0.552695753063825,
            0.4375960784748949,
            -0.10199803866195567,
            0.49735423376941656,
            0.34774316651995996,
            -0.1585065120528144,
            0.523778359947312
        ],
        [
            0.3614409719281493,
            0.2659648512259738,
            0.30038273381482106,
            0.12489922921848362,
            -0.14546892731901173,
            0.5814573033789991,
            0.9523380238342511,
            0.30664128662760204,
            -0.3413719264236206,
            0.2507239592777666
        ],
        [
            0.15035118537344272,
            -0.7532209637454621,
            -0.7904225779955452,
            0.8070876976554031,
            -0.5662971230181988,
            0.6534031997848129,
            0.7322679945574015,
            0.503620049910487,
            0.09255108998220374,
            0.8533815090229597
        ],
        [
            0.3441250571932306,
            0.008459852737137119,
            0.18104648706438042,
            -0.6358892081101368,
            0.5426989704255962,
            -0.4673984240050557,
            -0.8969612159036509,
            -0.28488290042775555,
            -0.47059264127228406,
            0.2410398490634762
        ],
        [
            -0.2940058260678957,
            0.17871430329285087,
            0.9488314835870111,
            0.37929932018888746,
            -0.699980368453688,
            0.5205642796927412,
            -0.7137818999512464,
            0.6654477276567283,
            -0.668077870259032,
            0.9470981766723823
        ],
        [
            0.12300259094199917,
            0.7216227820858494,
            0.6867365797012384,
            -0.6691258223720997,
            0.03181574730753978,
            0.1240573521356394,
            -0.8689827253581721,
            -0.1805743347263551,
            -0.7593364294739917,
            -0.9456461931750659
        ],
        [
            -0.09973713136609574,
            -0.15050700706859543,
            0.5417505934416349,
            -0.09788898555245429,
            -0.39022974009850175,
            -0.11583347328789717,
            0.9545766402654683,
            -0.2756469876780352,
            0.03478742418652736,
            0.8785433906273599
        ]
    ],
    "biasesOne": [
        -0.9505872959910862,
        0.10505023434126781,
        0.7827423113389271,
        -0.7785053538537599,
        -0.6704225331678211,
        0.9287982287116705,
        -0.1690662917244854,
        -0.3308369793334367,
        0.5144078937561336,
        -0.4783375964565426
    ],
    "weightsTwo": [
        [
            0.8657429648055226,
            -0.15827075359995835,
            0.30266102321520494,
            0.34728000543469184,
            0.3347947698022897,
            -0.8812190259948438,
            0.8239490471610613,
            0.3763294534646109,
            0.5900953404259002,
            0.5911507134969041
        ],
        [
            0.39809387521547834,
            -0.8391786079073353,
            -0.5354570747104568,
            0.034989871694467656,
            0.9823490323550774,
            -0.1539793557279736,
            0.8988097381249844,
            -0.36784366311790095,
            -0.23536090355250172,
            -0.6152256370506575
        ],
        [
            0.9007593098783928,
            0.6761510470823342,
            0.09146959388187548,
            0.46317048891333834,
            -0.11436653053358814,
            0.5253040059635838,
            -0.0020344105063676565,
            0.7165259750581283,
            -0.8099985410498718,
            0.02141117075805976
        ],
        [
            -0.7553163008019403,
            -0.3961713500752351,
            0.5636017371106152,
            0.2785510626887555,
            0.40023733052149035,
            -0.01704756920777406,
            0.4910756020759699,
            -0.05188432112064856,
            0.6462609635257917,
            -0.8906748734569105
        ],
        [
            0.9823473753021452,
            -0.9013672788330616,
            -0.758399874055256,
            -0.9031957235901125,
            0.912059613913428,
            0.5579063014559238,
            -0.9448748677260228,
            0.5783185145441039,
            0.3210898329008516,
            -0.31166585165874094
        ],
        [
            -0.06449758287103435,
            -0.45157280552375045,
            -0.7951936250198215,
            -0.48650109371430594,
            -0.5353792100277819,
            -0.514822482026023,
            0.18287303291532608,
            0.5976681176533807,
            0.7953543492576867,
            0.3013563899324896
        ],
        [
            0.5954179337865448,
            -0.9234933934901799,
            -0.5090299562550367,
            0.3930554103899082,
            -0.5767298722476732,
            0.6157600480061287,
            0.5360659675580508,
            0.9372970689616775,
            0.012645504867422108,
            -0.6968626345668967
        ]
    ],
    "biasesTwo": [
        0.9402545726216551,
        -0.3048695588130159,
        -0.3626786709209322,
        -0.6610471703882153,
        -0.8656100965738251,
        0.01412166733644038,
        -0.7401788602431012
    ],
    "weightsThree": [
        [
            0.0880908090536614,
            -0.4962847314906884,
            0.3100411610047056,
            0.6411750252444031,
            0.1058870015132567,
            0.07966921052016684,
            -0.7573699556328208
        ],
        [
            0.15578819704185198,
            0.1994115993760639,
            -0.9153839197020668,
            0.8529275787363517,
            -0.45764502845529687,
            -0.9807303617528764,
            -0.3877045937699586
        ],
        [
            -0.31113606920312376,
            0.6023831908257902,
            -0.027302782263793235,
            0.3996471896346536,
            0.9997054005226258,
            0.281893572506845,
            0.4107108567911122
        ],
        [
            -0.575293588400531,
            0.1898287358266817,
            -0.581561029239873,
            0.13438316893650515,
            0.99148757137331,
            -0.24245016554855958,
            0.3923721621737539
        ],
        [
            -0.9092087480877296,
            0.05939007676688224,
            0.9885560647022185,
            -0.4479672734268394,
            -0.7444703474649854,
            0.3337247314722438,
            0.22797937645811261
        ]
    ],
    "biasesThree": [
        -0.5458930605940282,
        0.6952268933647878,
        0.05391839788002106,
        0.35947760216182467,
        -0.008657681710739551
    ],
    "weightsFour": [
        [
            -0.9948189344881058,
            0.4454095077349953,
            0.4423333511979475,
            0.5927783361731802,
            0.3178580534670903
        ],
        [
            0.3424364295392037,
            0.9500787106181652,
            -0.7214123399562218,
            0.32177563964828093,
            0.8377412109082827
        ],
        [
            0.10143685481637954,
            0.6483031085783453,
            0.15788667199189188,
            0.02185767824500995,
            -0.9573777210502583
        ]
    ],
    "biasesFour": [
        -0.8060001984447829,
        -0.6500740214617775,
        -0.07597468034721566
    ],
    "weightsFive": [
        [
            0.39647963589648416,
            -0.5442023229332789,
            0.919887974586691
        ],
        [
            -0.10484852337957085,
            0.7813730045637814,
            -0.8775771543178295
        ]
    ],
    "biasesFive": [
        -0.8588150801038725,
        0.21542328643073771
    ],
    "fitnessValue": 0
}