{
    "weightsOne": [
        [
            -0.28539887869596625,
            -0.9884627557739987,
            -0.6532493083959836,
            0.43034092547122516,
            0.26292940045516344,
            0.00019032209183644788,
            -0.028536409304990906,
            -0.7709075307865114,
            0.11080443538297269,
            0.4818274647210339
        ],
        [
            0.449316952856875,
            0.13022851296888316,
            -0.13362953996884674,
            0.7205854873484856,
            -0.673027642584288,
            0.36678092172436405,
            0.19360953197892683,
            0.29155371463200486,
            -0.7984548313187565,
            -0.6271567290761375
        ],
        [
            -0.5186082389378155,
            -0.26011627573598006,
            0.9741940977498502,
            -0.5637138632489409,
            0.17486267922690302,
            -0.7599484475199159,
            -0.47227581150421316,
            -0.2737888381802709,
            -0.8279434281756408,
            0.5304382273246437
        ],
        [
            0.6977199184423308,
            0.6210545544327792,
            -0.7412048612872593,
            -0.8239084220803381,
            0.5838390700189908,
            -0.004762766099903004,
            -0.1480901766503211,
            0.7890000494762588,
            -0.45059634215093447,
            0.1266866258125552
        ],
        [
            -0.849304175551544,
            0.17234125064428563,
            0.48936489432473373,
            -0.24782930276868642,
            0.8877749773528978,
            -0.5891593466544256,
            0.21187218532837981,
            0.9017976154851775,
            0.11738202776187356,
            0.3238827541163658
        ],
        [
            -0.3146308257184023,
            0.32330664604517434,
            -0.28690155038382104,
            0.396925895854791,
            -0.37893227262709295,
            -0.20454620204996687,
            -0.6553146850737508,
            0.5237172622592869,
            -0.17322677527565977,
            0.5356298143842237
        ],
        [
            0.31586145585730163,
            0.9786439403342917,
            -0.3054534623947749,
            -0.41583067434402987,
            -0.8526044071513488,
            0.11339181443826063,
            -0.5122061756795986,
            0.19221713040495492,
            0.8234685617292119,
            0.9850349175444939
        ],
        [
            0.7794699803154213,
            -0.04412203864966768,
            -0.7276651360542394,
            -0.7047558892571697,
            -0.04556180730118298,
            -0.9928847585167411,
            0.33861830793586356,
            0.27197787175845134,
            0.46039607617774325,
            -0.6679131460853871
        ],
        [
            -0.162320080383068,
            -0.7556965220428085,
            -0.9530873536181577,
            0.9978696939966334,
            0.21206024854086092,
            0.9433913603684836,
            -0.10224513274166869,
            0.6659904258934781,
            0.1562146517773182,
            -0.0075979237164656155
        ],
        [
            0.718338171253609,
            -0.7626043791137367,
            0.44952977260817994,
            0.2647205154240566,
            -0.4350879550843678,
            0.4301348557105711,
            -0.315204051597179,
            -0.21819884581315208,
            -0.6831876793411629,
            0.9872306837344584
        ]
    ],
    "biasesOne": [
        0.7853061450318441,
        0.7529173793697974,
        -0.8719492563521996,
        0.49169233320774963,
        -0.6358047321622784,
        -0.09977182730682932,
        -0.21609774603612286,
        0.29855170233540207,
        -0.8505740770837156,
        0.9414924985601554
    ],
    "weightsTwo": [
        [
            -0.39402115639824786,
            0.8035973367971414,
            -0.3820306026205289,
            0.10587501686460632,
            0.990643369219244,
            0.6050376799646959,
            -0.6362976999979413,
            -0.985642988535719,
            0.6274514919505039,
            0.9051467514540004
        ],
        [
            -0.24952659428425883,
            0.49808852767026424,
            -0.9297724997132624,
            0.03546998908271326,
            0.5780710738647306,
            0.05554692968312458,
            -0.5957370601647418,
            -0.29944456410342957,
            0.2532296638381093,
            0.0819114186981802
        ],
        [
            0.6268491980760229,
            0.0758481135540583,
            0.30054678715240657,
            0.6498800089168362,
            -0.6568757041418394,
            0.11280905041642719,
            -0.5423506840852039,
            0.5716967145191321,
            0.996499561143041,
            -0.48053741612458456
        ],
        [
            -0.08816548041203132,
            -0.9236459419527459,
            -0.7437386587841774,
            -0.6679528655690712,
            0.2948653184009744,
            -0.6099570980504752,
            -0.7196096979960938,
            -0.7650680123600393,
            0.27934260813094025,
            0.4097325768113431
        ],
        [
            -0.9410400787617244,
            0.6553337741103955,
            0.8221639985065012,
            0.8425803665776668,
            -0.7884959003231118,
            0.3859198876474219,
            -0.23202189120724603,
            0.12031392723000467,
            0.21197513664262302,
            0.9267176072134626
        ],
        [
            0.9743223703957178,
            0.7060023281494425,
            0.3576079862922126,
            -0.26777855792930283,
            -0.6256776467160983,
            -0.5768680288300974,
            0.8976731731625527,
            0.21762944624600888,
            -0.23765191260179908,
            0.08706969840980117
        ],
        [
            0.8876839338656357,
            -0.24306214671158388,
            -0.9032322728941213,
            0.6387321596756841,
            0.5868450889705781,
            0.04649683087701839,
            0.1553051352911159,
            0.40348921885802236,
            -0.398646543443967,
            -0.3927987768119725
        ]
    ],
    "biasesTwo": [
        0.5258975996811708,
        0.7722873485079518,
        0.9772904099116437,
        -0.7873391726493062,
        -0.2644770486475674,
        0.8422744373578515,
        -0.44299078878213094
    ],
    "weightsThree": [
        [
            0.4331304368437321,
            0.9977841071042484,
            -0.45953076988526576,
            0.5736546973265746,
            -0.3202341036480696,
            -0.6800324349769769,
            0.7916351195251907
        ],
        [
            0.8029052593129886,
            0.45892690080006804,
            0.09842584763583595,
            0.025938841596897078,
            -0.3190154227858286,
            -0.35810231539872994,
            0.7449246799332068
        ],
        [
            -0.9975050565453543,
            -0.42220785256156357,
            0.11072944091739934,
            0.39509057706923856,
            0.6744538462449718,
            0.6956428441188276,
            0.7803577207360548
        ],
        [
            0.5301588897248883,
            0.39099627900396094,
            -0.33228328811006147,
            0.19877705609773644,
            -0.012673490106731355,
            0.2481740422491605,
            0.18229011585647625
        ],
        [
            -0.7251658598095374,
            -0.39471943667171394,
            0.28690122846283983,
            0.9700898185990068,
            -0.6491041523964876,
            -0.5613522062798904,
            -0.3806217515790473
        ]
    ],
    "biasesThree": [
        -0.9888761649640307,
        0.4837436477283159,
        -0.4113467054109974,
        0.9800592063280316,
        -0.5653984040264302
    ],
    "weightsFour": [
        [
            -0.8861651168152751,
            -0.16371296442587058,
            0.7124587690087179,
            -0.2094125063472605,
            -0.3756637363840467
        ],
        [
            -0.9818468778914478,
            -0.03300633204115089,
            0.4171328108015573,
            0.35940671837133387,
            -0.19712653121665613
        ],
        [
            0.6674969300048572,
            0.16924478080391014,
            0.2800646584341189,
            0.22992163961777123,
            -0.3323986816537805
        ]
    ],
    "biasesFour": [
        -0.8949991640770676,
        -0.32548524577120364,
        0.8037603885253926
    ],
    "weightsFive": [
        [
            -0.2304964925600912,
            0.6216228511581299,
            0.5078839589508966
        ],
        [
            0.6893928068584303,
            -0.21935776624410264,
            0.7248595133352895
        ]
    ],
    "biasesFive": [
        0.3969170686611676,
        0.9646058292594728
    ],
    "fitnessValue": 13.76767225025111
}