{
    "weightsOne": [
        [
            -0.8521846813582912,
            -0.7414712980596119,
            0.6757866053088402,
            0.5862691228874466,
            0.8203611985133885,
            0.4148093254446057,
            0.49175234444922045,
            -0.6439475209592076,
            -0.649803830376485,
            0.246131147129945
        ],
        [
            -0.5971172650188079,
            -0.09927631256998293,
            0.10338635059530987,
            0.8723286650467557,
            0.23737984244775623,
            -0.6284172133629828,
            0.544390695611948,
            -0.9385478923207782,
            -0.059102592759645356,
            -0.028626228056634728
        ],
        [
            -0.5574383709283324,
            0.835106143763237,
            -0.5297155901851578,
            0.4706290427177233,
            0.12467291093957256,
            -0.6999498398724138,
            0.5558933748510329,
            0.47108320827983086,
            -0.8967710455353672,
            0.20253319843747608
        ],
        [
            0.3156236198640452,
            0.1060765739238616,
            -0.7473804625303551,
            0.000645030533354074,
            0.577192373692184,
            0.5893636432603311,
            0.7802634407881135,
            0.9227876346110007,
            0.541487216017055,
            -0.3575465711216983
        ],
        [
            -0.9682695161762733,
            0.22804213352905278,
            0.2728631101206873,
            0.8841102149340572,
            0.049844734139900426,
            0.3637613886502147,
            0.2982367417657925,
            -0.47074726967098246,
            0.18729296498186554,
            0.7407210943532774
        ],
        [
            -0.36367884031373476,
            0.10501304288286528,
            -0.8765230589986392,
            -0.8772953177447804,
            0.7742053059525973,
            -0.14736538554460066,
            0.07114239109488985,
            -0.5940735763924416,
            -0.8985814254520781,
            -0.49956410578275356
        ],
        [
            0.30594554458237355,
            0.4285399799719867,
            0.05128132765269733,
            0.07076516416800627,
            -0.16292342438466312,
            0.6045836246968062,
            0.4289396962524812,
            0.6702438204820045,
            -0.8841493575258643,
            -0.593890446969755
        ],
        [
            0.47045710534424656,
            0.5222805000325144,
            -0.8821417595182268,
            0.1437941344353053,
            0.5455241193711768,
            0.7454308875495606,
            0.9768099144412767,
            0.14200208523339009,
            -0.579448271024483,
            0.8793853215047227
        ],
        [
            -0.5242181578128124,
            -0.03101481884125934,
            -0.29985611110230503,
            0.1581281149007827,
            0.8560498971430635,
            0.6706818717333496,
            -0.2201898876793087,
            -0.45481232950635353,
            0.3349855302164326,
            0.8146850275383353
        ],
        [
            0.911788420502545,
            -0.6945464527476919,
            0.06086471073916799,
            0.5364754179769136,
            0.38555727204717516,
            -0.08008356539384032,
            -0.17486750341652524,
            -0.04129410251836152,
            -0.5430983319285478,
            0.7215880078597416
        ]
    ],
    "biasesOne": [
        0.15869347010267343,
        -0.9109128557275024,
        -0.19187434449419705,
        0.9388402788805783,
        0.033133824243666066,
        0.13345095977571186,
        -0.3974127956602489,
        0.4060110184303367,
        0.6795415064974089,
        0.9320383580579636
    ],
    "weightsTwo": [
        [
            0.4336958499547361,
            0.10809142950061923,
            -0.46667193067064683,
            0.48833296355181965,
            0.8394450538300586,
            0.9499865760806105,
            -0.4093940127847657,
            -0.8272318745463503,
            0.6963374580034716,
            0.5518059971198974
        ],
        [
            0.9811886762465045,
            -0.45675502861913375,
            -0.06653506217694627,
            -0.44517073306475563,
            -0.5408202801499518,
            -0.8159591919834897,
            0.9867356436830188,
            0.8992473713214766,
            0.6892144123229318,
            -0.01641562500794813
        ],
        [
            -0.39720402912462016,
            0.912447264774243,
            0.7947480799427338,
            -0.1826014077578022,
            0.7809897427094512,
            -0.6043491917541075,
            -0.19048806376132377,
            -0.07869174095331366,
            -0.6546791644222141,
            -0.732152823292993
        ],
        [
            -0.9888339191697435,
            0.6149582787705612,
            -0.8145561240432566,
            -0.7608171710384337,
            0.3704483690798208,
            -0.18853643156934696,
            -0.9282791671696771,
            0.25980555341314804,
            0.3747846505217367,
            -0.858858228016359
        ],
        [
            -0.890197014252651,
            0.1599112956164055,
            -0.35478277504172784,
            -0.11598571777844069,
            -0.03654721971209196,
            -0.07721681844735029,
            0.9458421526789553,
            -0.6831933929980343,
            -0.21742593044656489,
            -0.11168174351508986
        ],
        [
            -0.29503807433725693,
            -0.4452648504466312,
            0.33367981750055975,
            -0.15510266377268844,
            -0.5140661255749772,
            0.1980242653888411,
            -0.8361718244639966,
            -0.4065769466046123,
            -0.13962141448016196,
            -0.06329573614813255
        ],
        [
            -0.023493446967481013,
            0.5569546844808568,
            0.945776247853791,
            -0.954177741565386,
            -0.9026947555041744,
            -0.01585169786185392,
            -0.3039470741290402,
            -0.1340086364211115,
            0.07277843020123886,
            0.35945163670241365
        ]
    ],
    "biasesTwo": [
        -0.7201836107266917,
        0.8297872966132707,
        0.6091994145936548,
        0.6676286466688173,
        0.05591025694938723,
        0.5252580784879302,
        0.3385223041204315
    ],
    "weightsThree": [
        [
            0.8147369895234711,
            -0.3378372272649117,
            -0.48635380614341694,
            0.9839048931559817,
            0.8138975640093051,
            -0.3602745870218924,
            -0.8956591586814544
        ],
        [
            -0.6981985041912457,
            0.6721105290182174,
            -0.25662629480428945,
            0.021539809057324,
            0.8914183748342643,
            0.16214053721986588,
            0.9961290673339147
        ],
        [
            -0.6276307200440503,
            0.5485609207718243,
            0.11764501126831162,
            0.07057295777214567,
            0.04117169533227094,
            0.7689865274995202,
            -0.687647656504355
        ],
        [
            -0.2108025901498065,
            0.4568519108047353,
            -0.2661864946304999,
            0.7068281527122255,
            0.5041591507102239,
            0.6623560546924208,
            0.7090262539710441
        ],
        [
            0.7655490905978259,
            -0.4803196471474718,
            -0.6501914440632612,
            0.44346642065442854,
            -0.7138601293630931,
            -0.3353021586314604,
            0.6457748057120474
        ]
    ],
    "biasesThree": [
        0.8880170187888812,
        0.06526777014501395,
        0.7282656066800102,
        -0.058056613055752715,
        -0.3307558585882431
    ],
    "weightsFour": [
        [
            -0.714690759644425,
            -0.700952460175092,
            0.7909968905454301,
            0.4856390981580583,
            0.926879978819291
        ],
        [
            -0.22082309835573843,
            0.5896259637335641,
            0.2542906346610492,
            0.33218001574815337,
            0.5863546688309627
        ],
        [
            0.5858741462243187,
            0.9297629034929402,
            0.18997275920239187,
            0.8394988160350714,
            0.6330324101822713
        ]
    ],
    "biasesFour": [
        -0.9830946471788571,
        -0.22338036398819017,
        -0.8659092358704146
    ],
    "weightsFive": [
        [
            0.8976783249371147,
            0.3846332941700705,
            0.12989980987214622
        ],
        [
            0.5649606189587679,
            0.8469995968575863,
            0.2318665760560097
        ]
    ],
    "biasesFive": [
        0.35676512189636944,
        0.7477063847471892
    ],
    "fitnessValue": 0
}