{
    "weightsOne": [
        [
            0.8117047401156703,
            0.7441751591766399,
            -0.8887404716883496,
            0.8799042492397262,
            -0.47947820022000287,
            0.7174396877575542,
            0.7948158681548254,
            -0.4004893951136268,
            -0.08988074226818688,
            0.4466564822409971
        ],
        [
            0.1161250702397274,
            0.49511608264366846,
            -0.5271324660360379,
            0.6314725051771148,
            -0.6812968028994881,
            -0.8830015396622202,
            -0.05882669743663782,
            -0.04937893737561172,
            0.3285248641841305,
            0.5511432219023003
        ],
        [
            0.3956346344055077,
            -0.8355673813063296,
            -0.9533811533235717,
            0.23965955055942945,
            0.34162508702906136,
            0.7215089856979451,
            -0.8100533996604957,
            -0.8840182984001841,
            -0.9808994540348888,
            -0.730602942927701
        ],
        [
            0.19609472546061912,
            -0.9041176184054622,
            -0.6489356644783018,
            0.570078304469501,
            0.0030752242446017153,
            0.915020542351769,
            0.13247651897937196,
            0.1555823456089065,
            0.11701894754691322,
            -0.05614517824263077
        ],
        [
            0.489538295925545,
            0.5446801397661998,
            0.7634229017737333,
            -0.8918274156853359,
            0.5304949272068922,
            0.5910993069001325,
            -0.6366507933260037,
            -0.2928118456828497,
            0.5937619012979505,
            -0.36219316671105783
        ],
        [
            0.649277865244593,
            -0.053514263339484947,
            -0.964630936493162,
            -0.20016713656454987,
            -0.09707159417371791,
            -0.5976421378133454,
            0.38090276712367355,
            0.05189691883777425,
            -0.4420080860565443,
            -0.19371587748283203
        ],
        [
            0.8957918486513816,
            0.2639899271056396,
            -0.3496205714369993,
            0.7068848464828767,
            0.5088011335013443,
            0.4689355296686377,
            0.6857242516952247,
            0.5936443243560812,
            0.8795579146709787,
            0.6865900155089695
        ],
        [
            -0.4127582679255104,
            -0.2622396986833371,
            -0.992318296495597,
            0.03498152971827584,
            -0.3255646378876582,
            0.4825568961610185,
            -0.4728173518833123,
            0.049730441888793386,
            -0.23679511208697557,
            -0.24593061482450285
        ],
        [
            -0.8954551938582089,
            -0.34732969689484894,
            0.4108143728445781,
            0.615411692881199,
            -0.3069020833550913,
            0.03467041793117476,
            -0.3448029614450743,
            -0.13478465843939502,
            0.34521923276077127,
            -0.16309441944312741
        ],
        [
            0.25914255368184214,
            0.27355449607024385,
            0.9180020013386194,
            -0.5129484461360523,
            0.10216668510870397,
            0.49744131220093135,
            0.8969274406702781,
            0.7690670098257317,
            0.3932434647715879,
            0.1950313417851386
        ]
    ],
    "biasesOne": [
        -0.8754009161544352,
        0.039523907426042504,
        -0.9849267859546909,
        -0.11711608849525668,
        -0.7510811261319454,
        -0.8315716490128437,
        -0.7410341922552264,
        0.9517667889652606,
        0.23207224154741812,
        -0.6694255674616378
    ],
    "weightsTwo": [
        [
            0.7623300105515534,
            -0.9520984585700849,
            0.41828280215916736,
            0.9118856975244727,
            -0.45227255201378935,
            0.24174107737163708,
            0.8103714042060894,
            -0.36008092326280416,
            0.43485831888429205,
            0.33639728855337236
        ],
        [
            0.6919049105906947,
            0.7955613107749722,
            -0.8976035680839423,
            0.9731963665362309,
            0.08441775279919761,
            0.9897623551426389,
            -0.1900877826664813,
            -0.8853512923007683,
            -0.31670817842501187,
            -0.9317824899830518
        ],
        [
            -0.1120267498727634,
            -0.4053068874264172,
            -0.5027078490662993,
            -0.1551652339625158,
            0.5382769761596913,
            0.7805149169133758,
            -0.916345249769162,
            0.31734434856239013,
            0.7452602651875826,
            0.7975210558241337
        ],
        [
            -0.5546563171171355,
            -0.7470828955209918,
            -0.7434600806195408,
            -0.7722201948764948,
            -0.527708825200593,
            0.41772579035154167,
            -0.11665449766516867,
            0.8892283884950258,
            -0.5481761277747699,
            -0.6214074414863056
        ],
        [
            0.9361193117124138,
            -0.6170602049219578,
            0.5149604974086666,
            -0.23558631283849518,
            -0.9339629449108882,
            0.39379473061742587,
            -0.13482303809342033,
            0.6469646706415679,
            -0.7479626447835532,
            0.19057516635283478
        ],
        [
            -0.7111139012136116,
            0.9045608033740071,
            -0.9670783830551082,
            0.14874447347674713,
            0.6244991150708794,
            0.7181907222748254,
            -0.4265416850794359,
            -0.6914559851012934,
            0.38235286724798634,
            0.5410081654493615
        ],
        [
            0.3991052691040351,
            -0.23773695312994114,
            0.6780872011013221,
            0.35277033740514163,
            -0.195601980708634,
            -0.055622711029088556,
            0.7563297996969256,
            -0.9508520091755412,
            0.2536482518853531,
            0.48670765600649535
        ]
    ],
    "biasesTwo": [
        0.08669524789309024,
        -0.5265418141490545,
        -0.9193529868518053,
        0.4108249820106591,
        -0.6582313576681886,
        -0.42403659869503674,
        -0.3996010411001667
    ],
    "weightsThree": [
        [
            0.8170421484953008,
            0.3112474103069578,
            0.4448479218135708,
            -0.6340033772505085,
            0.3418431954490775,
            0.934773949861055,
            0.26401858225350194
        ],
        [
            0.4789822024735284,
            -0.9638104885915637,
            0.34236681893038945,
            -0.624631892463142,
            0.8413920101693309,
            -0.6487469284841858,
            0.34774000585968956
        ],
        [
            0.6282329390111787,
            0.14153223889755062,
            0.8215654762585931,
            -0.11483534813700902,
            0.11236415658962073,
            0.12439418201223273,
            0.35460206257061144
        ],
        [
            0.4294311704042628,
            0.19497189941086757,
            0.6472078666493375,
            0.34176461188872165,
            -0.5589384779117852,
            -0.34210413655101934,
            -0.4583024164315026
        ],
        [
            0.6176606267907876,
            -0.9304091210230521,
            0.7169624375255217,
            -0.11690577060686369,
            0.4113022352303388,
            -0.8967283616820918,
            -0.40551764100612475
        ]
    ],
    "biasesThree": [
        -0.6216371208123956,
        -0.15993773039975,
        -0.2864701941323766,
        0.5977062535495432,
        -0.49319294484020926
    ],
    "weightsFour": [
        [
            0.7234621582568075,
            -0.5087552392130912,
            0.16892053341652868,
            0.2053222948004887,
            0.6661557318253122
        ],
        [
            0.29054360945886004,
            0.9232820672177251,
            -0.516037319817809,
            -0.7143433062629188,
            0.8691938807498305
        ],
        [
            0.4180834539954348,
            0.021746820715367488,
            -0.25186937648955543,
            0.4332182852074409,
            -0.3562934226054617
        ]
    ],
    "biasesFour": [
        0.47761312867906947,
        -0.4880732292849397,
        -0.8109894038124483
    ],
    "weightsFive": [
        [
            -0.3533814015239647,
            -0.5598329203582597,
            0.9023872542850289
        ],
        [
            -0.398183787769663,
            0.5263038617986846,
            -0.1730853179043499
        ]
    ],
    "biasesFive": [
        -0.6144360356023129,
        0.8074029798992115
    ],
    "fitnessValue": 0
}