{
    "weightsOne": [
        [
            -0.6023884367049666,
            -0.6505156443769975,
            -0.5355042647624628,
            -0.23482148591930652,
            0.3198761521322331,
            -0.6235385719932336,
            -0.6945464287714884,
            0.18392670443932824,
            -0.33921679427704965,
            -0.7026700616544526
        ],
        [
            0.6635715803405582,
            0.5139634941367279,
            -0.14208185451468824,
            -0.7184706057317491,
            0.7746654782141165,
            -0.6645170391801789,
            0.7952730930764178,
            0.3616869913887155,
            0.3087108611261715,
            0.23101324125086542
        ],
        [
            -0.562967608896467,
            -0.9371873054171471,
            0.5118553163692787,
            -0.7164117520145872,
            0.023224688197573062,
            0.3516635355959308,
            -0.23246031607462014,
            0.02411791046662226,
            0.5968299363233163,
            -0.9641425635008589
        ],
        [
            0.2121294446171742,
            -0.12423613460407901,
            0.11890014625829237,
            0.05552652979098083,
            -0.3448994070097171,
            -0.12968391627763154,
            -0.240161343319504,
            -0.6900133428995816,
            -0.04532716569356099,
            0.4213055837055306
        ],
        [
            -0.6459834458691378,
            -0.14949474370837468,
            0.9096242132031069,
            -0.2512681970445545,
            0.1345732296322213,
            -0.14587168937852057,
            -0.8598561757001462,
            -0.9265677300119259,
            0.4070219892013076,
            0.3781959464515434
        ],
        [
            -0.9555455749166233,
            0.0015413958218895019,
            0.7215700480884069,
            -0.296727887300424,
            0.5935421967566985,
            -0.5469226234825537,
            -0.5894942570874186,
            0.399830684046369,
            -0.1376296856566268,
            -0.3691407941460567
        ],
        [
            0.03012253926506081,
            0.8466821255074719,
            0.1492891521001034,
            -0.6614815122842257,
            0.5614693165739848,
            0.19335313659105635,
            0.9194877544443725,
            -0.11461670563462212,
            -0.4646203715304247,
            -0.7875645253859644
        ],
        [
            0.371641718633668,
            0.6287639691826228,
            -0.0360000747346767,
            -0.16974953892772549,
            -0.6901551744446623,
            -0.7412111392015763,
            0.40648253963912095,
            0.8306761291906304,
            -0.7717415675714261,
            -0.8588583713210933
        ],
        [
            0.47097909047145015,
            0.4942313790300099,
            0.05222223017217531,
            0.0634376621785171,
            0.5235494041661803,
            0.8734079541000208,
            0.8727851705182552,
            0.3187163435394227,
            -0.9775778528180317,
            0.6731005863456914
        ],
        [
            0.972952143410371,
            0.4318976720584522,
            0.32602227010619544,
            -0.8430844816345202,
            0.22561992368765527,
            -0.40964934625465554,
            -0.799019138670708,
            -0.9012938955160725,
            -0.3478189347974543,
            -0.08292927388297766
        ]
    ],
    "biasesOne": [
        0.9493861301263475,
        0.5151269085092569,
        -0.6673662700336835,
        -0.45232374082809645,
        0.2997133977950923,
        0.950006227350739,
        0.4706657240523062,
        0.9493131480324672,
        0.1523052689635318,
        0.019814639740632245
    ],
    "weightsTwo": [
        [
            0.02836862990466993,
            0.3253548885681157,
            0.05376738770240297,
            -0.040969936115934136,
            0.5986047823343463,
            -0.3195043745550181,
            0.754693894716493,
            0.14000391663029932,
            0.6025192842629219,
            -0.6913333002897746
        ],
        [
            -0.5564749592766194,
            0.693357938438995,
            0.8245928099826263,
            -0.025597762608689845,
            -0.747832609334798,
            0.15363845728095438,
            0.5310992076313752,
            0.398412717537451,
            0.29019324013102565,
            0.6240439098287789
        ],
        [
            -0.12315680234154591,
            -0.48116214099778043,
            0.988243877237609,
            0.4890707068386324,
            -0.7173022562267162,
            0.46447900950286525,
            -0.3792982086855947,
            0.009342459829621896,
            0.7754130503299457,
            0.9978581693402502
        ],
        [
            -0.6599905864690803,
            0.09616277028750075,
            -0.3502460907035452,
            0.31741064335066027,
            0.5111335212883978,
            -0.4518156295330671,
            0.7100446006321737,
            -0.18233814574979812,
            0.5822855619948026,
            -0.8811857357777051
        ],
        [
            0.9335073989920768,
            -0.3560749436771067,
            0.913883590074744,
            0.19196866306940508,
            0.09225035422847783,
            0.17432654220562172,
            -0.032153384234772986,
            -0.9802269578021165,
            -0.985038105418047,
            0.3676236625912588
        ],
        [
            -0.058666484651099804,
            -0.6704667223252476,
            0.5155116451881945,
            0.052254509074016076,
            0.9873174958530804,
            0.1352624117001051,
            0.9652054645808612,
            -0.6412134185700706,
            -0.01398581476026628,
            -0.22493530580829812
        ],
        [
            0.6877616338428401,
            0.18940241457200213,
            -0.2401112693894505,
            -0.8148910330806312,
            0.44504173681830883,
            0.2501360102452299,
            -0.5953214486885989,
            -0.27953227269238035,
            -0.041905746589345316,
            0.5579193575366621
        ]
    ],
    "biasesTwo": [
        0.9974886691842553,
        -0.2867155671716215,
        -0.05929996551126071,
        -0.3211136570527988,
        -0.8823647968279766,
        0.7819392481299772,
        0.6002933643211341
    ],
    "weightsThree": [
        [
            0.7973364265081071,
            0.6102632173839571,
            -0.8103745566313612,
            0.6996258922641385,
            -0.2333749062854089,
            0.25865884411909223,
            0.13557405090367936
        ],
        [
            0.8098362692856289,
            -0.148025397088551,
            0.8428543458075319,
            0.5008185328977441,
            -0.9706622307462236,
            0.24258324726148772,
            0.5253066398184492
        ],
        [
            -0.835276371331177,
            -0.5892886274650713,
            0.3758536276057638,
            0.8158737788407342,
            -0.6478461963248239,
            -0.30178084850288567,
            -0.2831925791143124
        ],
        [
            -0.9492883622168213,
            -0.8471142623267771,
            0.7299704752550644,
            0.44657670909134395,
            0.25871149032963414,
            0.8884086506230369,
            -0.8121325506378032
        ],
        [
            -0.4293074294953405,
            -0.8540194343719241,
            0.9017436318210645,
            0.37463246464199607,
            0.4988136267363561,
            0.4698891822890896,
            -0.8632282149743924
        ]
    ],
    "biasesThree": [
        -0.5709127413576249,
        -0.7277212791497205,
        -0.3623511895999678,
        0.14842913143928116,
        -0.056705956732173046
    ],
    "weightsFour": [
        [
            -0.7330913233560676,
            -0.8549510346180127,
            0.11736291695598577,
            0.5506303953926461,
            -0.8218848946600663
        ],
        [
            -0.9045568286926451,
            -0.3237892391046975,
            0.016846024536739,
            -0.665681746136298,
            -0.8838006023235969
        ],
        [
            0.832929367456394,
            0.5633630145539723,
            0.3145480556162592,
            -0.7944911679352706,
            -0.5803668853427761
        ]
    ],
    "biasesFour": [
        -0.2703434512353555,
        0.7593051449438153,
        0.9680425143938896
    ],
    "weightsFive": [
        [
            -0.36862501465032405,
            -0.4181591808877503,
            -0.06513405580861553
        ],
        [
            0.6810597292781138,
            0.099061538515685,
            0.9680355597885326
        ]
    ],
    "biasesFive": [
        -0.0372303963079339,
        -0.02297523691850567
    ],
    "fitnessValue": 4.723465129980166
}