{
    "weightsOne": [
        [
            -0.88928742403515,
            0.200456104449668,
            0.5081262381189213,
            0.6171500067680329,
            -0.5099616716114159,
            0.800388609221061,
            -0.45035890824953606,
            -0.7865308234215316,
            0.10171642032676642,
            0.4172880720551788
        ],
        [
            -0.928500372229059,
            -0.7900996562536005,
            0.41225313394322893,
            0.6853893002316951,
            -0.038233322715398144,
            -0.9915016375883245,
            0.1565820900137691,
            -0.7355103861456633,
            -0.7118685899727131,
            0.5133515696518614
        ],
        [
            0.2787902501211377,
            0.6832863184958693,
            -0.8175209488680377,
            -0.6070279925674995,
            -0.07312133654855502,
            0.359059102771043,
            0.48363703631728105,
            -0.5653820426685243,
            0.42230891942730797,
            0.9297605035219463
        ],
        [
            0.489231783841352,
            -0.5093974476630929,
            -0.37448531011897535,
            -0.8059134892419986,
            0.6312516219378004,
            0.46175369004232625,
            0.42421092026287655,
            -0.9778585153156754,
            -0.6683646958842209,
            0.060912821818422724
        ],
        [
            0.0771851080936321,
            0.3208963919680736,
            0.7910661770143264,
            -0.3639355636381607,
            0.2687713640274798,
            0.3764163619083405,
            0.002727767294374628,
            -0.39313689908538274,
            0.8148552975441274,
            0.7854419736392226
        ],
        [
            -0.391567577002244,
            0.32491459796539424,
            0.7590015403843904,
            -0.5950121606453112,
            -0.9665808346473077,
            0.6557235117421021,
            -0.5599303656971142,
            -0.6105321328310582,
            -0.6496315105930985,
            -0.9527236308901841
        ],
        [
            0.4201091369838521,
            0.4601562425856427,
            0.874387593266744,
            -0.7332157138336772,
            -0.23577221831824868,
            0.0755014698579628,
            0.31769783698788046,
            -0.042667109795584635,
            -0.027988953927970073,
            -0.589105716853882
        ],
        [
            0.7194444998491876,
            0.7417623811561076,
            0.6318216696029264,
            -0.1842834034440468,
            -0.5606399734074459,
            -0.16807555761073045,
            0.059631089920472835,
            -0.2695765062588493,
            -0.26290612297237037,
            0.6298434327854299
        ],
        [
            0.9364648234195345,
            0.9752066515794404,
            -0.4508562775896745,
            -0.2871300402568233,
            0.20283070500554978,
            -0.36829678280672273,
            -0.14365158952359436,
            -0.7872479490258135,
            -0.6944554888296708,
            -0.971166351403298
        ],
        [
            -0.6311474670339003,
            -0.5895009585324116,
            0.06930296975102168,
            0.3214819649763514,
            0.5696028636574861,
            -0.07557841828388012,
            0.9576917347373806,
            -0.7429890818144351,
            0.05071632730656228,
            -0.7419971950562332
        ]
    ],
    "biasesOne": [
        0.8439912009204389,
        0.9321995522562099,
        -0.8041149057403725,
        -0.8930143950501317,
        -0.6322611696448885,
        0.678766288734834,
        -0.5585836607532184,
        0.1461033846658264,
        -0.785407280650066,
        -0.04673161143409521
    ],
    "weightsTwo": [
        [
            0.079008346189537,
            -0.48630383334899796,
            -0.058913493839960696,
            -0.11845776517070838,
            0.7874446984441377,
            -0.7369108955373715,
            -0.6429581003625835,
            0.04136763322572379,
            -0.2507559216417006,
            -0.052926654698001396
        ],
        [
            0.000478779811372565,
            0.02742973660378567,
            -0.4204441028339585,
            0.07569371156208349,
            -0.7435782154541815,
            -0.1262184631934944,
            0.7664856435385676,
            0.9757700552264741,
            -0.5867495192437835,
            -0.9196646860856719
        ],
        [
            0.1319097880981479,
            -0.6463721847435082,
            0.6450353621140386,
            0.7625549711615738,
            0.7638045045456936,
            -0.07405873164816978,
            -0.1534441483831015,
            -0.6430850327544471,
            0.6395427370213655,
            -0.6874155454020252
        ],
        [
            0.6977065887770222,
            -0.9171877698195734,
            -0.6126517528454505,
            0.4702408290423288,
            -0.9424612890306914,
            0.9042665260883491,
            0.08013927170225488,
            -0.08076918546293199,
            0.9043565039750368,
            0.4248566720333624
        ],
        [
            -0.6329798301762044,
            0.024291318756921365,
            0.11439452815555051,
            0.8457402957236071,
            -0.8494693990545001,
            0.6125777339618883,
            -0.4814874686546595,
            0.5513210442166043,
            -0.5742210996992414,
            0.834212997868029
        ],
        [
            -0.3091677065230596,
            0.9354075851931907,
            -0.9372387093593284,
            -0.9413019163824836,
            -0.8632610843295527,
            -0.046041251519801873,
            -0.38133816212670935,
            -0.12220049302248293,
            0.17103450175305146,
            0.7834256448063857
        ],
        [
            -0.9310727922940187,
            0.9726935298992154,
            -0.10671859189397548,
            -0.6518743074585882,
            0.2749761740056793,
            -0.3501248309610836,
            -0.17515774084694136,
            0.2151490365651132,
            -0.6911888907245292,
            0.017571808408792577
        ]
    ],
    "biasesTwo": [
        -0.2431769786878173,
        0.24469428527385828,
        -0.4831282697115744,
        0.7960452896313304,
        -0.42582978327123144,
        -0.1457248636774553,
        -0.39088700184165504
    ],
    "weightsThree": [
        [
            -0.1569840397852702,
            0.06946220235758238,
            -0.39677215458133563,
            0.7731268742821988,
            -0.13755113979442868,
            -0.011812843497130299,
            0.9103636715731069
        ],
        [
            -0.20648616013147914,
            -0.6772006216847357,
            -0.4867878830172887,
            -0.4738947144853829,
            -0.18761871986966994,
            -0.8082665973773289,
            0.8182570161944809
        ],
        [
            0.7056679385374471,
            0.4273875720004563,
            0.349163757148238,
            -0.2801083392080319,
            0.28983117792111135,
            -0.9905983323534389,
            -0.105215117908255
        ],
        [
            0.38109379054770853,
            -0.8870376932636095,
            -0.5430274110420186,
            0.5649746067580961,
            0.31344896649130094,
            -0.6180542670603852,
            -0.3505418019083726
        ],
        [
            0.01513759223252964,
            0.3060130802018388,
            0.9749817084364323,
            0.045056379559530235,
            0.31782206677861646,
            -0.8404041056745621,
            0.048646348250707794
        ]
    ],
    "biasesThree": [
        -0.02016679821135936,
        0.0012474762315020094,
        0.8348440446233534,
        0.23709275596311885,
        -0.3956024228540742
    ],
    "weightsFour": [
        [
            -0.4731310834898417,
            0.6931948616364665,
            0.5771998258036275,
            -0.369914528686381,
            0.18931036858380512
        ],
        [
            -0.5871865891508485,
            -0.6841322761537432,
            -0.17450475868783277,
            0.4167337296646578,
            -0.5665756288000061
        ],
        [
            0.23789574611358644,
            0.1934248022430447,
            0.14581436326896902,
            0.6598856246159088,
            -0.3047130610880484
        ]
    ],
    "biasesFour": [
        -0.54526033578182,
        -0.5586670700636338,
        -0.30414742723638466
    ],
    "weightsFive": [
        [
            0.9636849869244961,
            0.47651546257483934,
            0.6181196980913171
        ],
        [
            -0.5861607833890303,
            -0.2557530010393352,
            -0.0017731175917894415
        ]
    ],
    "biasesFive": [
        0.07163684395874448,
        -0.7952221986412695
    ],
    "fitnessValue": 14.936964295700859
}