{
    "weightsOne": [
        [
            0.40359288920954905,
            0.5177236502860592,
            0.14949543598865267,
            -0.30893789683203354,
            0.9846593655815974,
            -0.9571962356822867,
            0.3742079996094676,
            0.15412794944994812,
            -0.3560233529157901,
            0.14926943206888033
        ],
        [
            0.0548806837267346,
            0.7975395939418319,
            -0.7942427366253206,
            0.5366722683701999,
            0.9176927347953188,
            -0.799050548244866,
            0.48205076480099507,
            -0.09442188711574873,
            0.775017925349486,
            -0.05932792661278241
        ],
        [
            -0.0004740807472172204,
            -0.5941650528113931,
            0.08056117491227455,
            -0.3374505378903401,
            0.05465852726270248,
            0.1193835293462544,
            -0.6397502600397855,
            0.20857859733424933,
            -0.2925905889871747,
            0.2949134603450696
        ],
        [
            -0.07449498255751741,
            -0.09533786904473773,
            0.8693205568283642,
            0.3026818705131018,
            0.26833481034277096,
            0.887197360976844,
            -0.7310914870592142,
            0.9060184742900681,
            -0.1059518283807559,
            0.6001513333599391
        ],
        [
            0.5444891275134627,
            -0.5508026858994648,
            -0.1653038771305555,
            -0.12115313144707551,
            -0.5543093135616055,
            0.35075729571355785,
            -0.20204418838268823,
            0.24996617583735592,
            0.5573525158294548,
            -0.2874027158166843
        ],
        [
            -0.32027769433220676,
            0.5981414536466856,
            0.8661352020826965,
            0.15383221584818174,
            -0.9965866636071741,
            -0.3887894797124021,
            0.159617978734246,
            -0.7133008879216534,
            -0.748878300394811,
            0.446921768121596
        ],
        [
            0.06772562334297727,
            0.5908294531784708,
            0.01393237610937681,
            -0.2367674962309565,
            0.7796168552776916,
            -0.7872324145265388,
            0.6289184183036889,
            -0.20782251979142452,
            0.44618946138486004,
            -0.713903482064181
        ],
        [
            0.6272834429788119,
            0.25020715888279743,
            -0.395055347367127,
            -0.5644985680197023,
            -0.9795555954308095,
            0.309829086761769,
            0.8007929353782808,
            -0.1850458331721696,
            -0.12079920628395802,
            0.4363257367546878
        ],
        [
            -0.5436726259251825,
            -0.33765745615660636,
            -0.6409669928584543,
            -0.7695288382975363,
            0.9999209458375031,
            0.051667171318596106,
            -0.00803092834850272,
            -0.0497848911774077,
            0.547401089158126,
            0.8508158067070071
        ],
        [
            -0.6701790516217137,
            -0.5149779719381629,
            0.9230174989654973,
            -0.5991877297628938,
            -0.6009601953943238,
            -0.9079843121855513,
            0.8873702159210315,
            0.18240623044882676,
            0.2068378175477963,
            -0.0012440104567623678
        ]
    ],
    "biasesOne": [
        0.1755662229572379,
        0.963241413389972,
        -0.7927275233631621,
        0.45515062195552036,
        -0.9033384836448064,
        -0.24704174171141768,
        0.07983798658243946,
        -0.24063241990597994,
        -0.18090983339883615,
        -0.07189148392730105
    ],
    "weightsTwo": [
        [
            -0.8202708856439951,
            -0.8027280390146756,
            0.8628570359868937,
            0.1636462569619559,
            -0.8394229099624608,
            0.6013583324694256,
            0.5653082664442739,
            -0.022345814217187954,
            -0.9839532096537087,
            0.16273026251310752
        ],
        [
            -0.9925292443584448,
            0.10300635206230258,
            -0.6432147252294496,
            0.6612553675287891,
            -0.420393809280311,
            0.16262992379999686,
            -0.975988804810682,
            -0.32065100249551026,
            -0.8558284786367529,
            0.8859327594526805
        ],
        [
            0.4223889751335488,
            -0.04771120819811747,
            0.6914555231437518,
            -0.5723307039166059,
            0.18578474246195698,
            0.3547409403391004,
            -0.08163857174711397,
            0.9008703577079551,
            -0.2851283412692778,
            0.7521691544308484
        ],
        [
            -0.2527975399059861,
            -0.9892789037259531,
            -0.5386691318979262,
            0.44087096127292846,
            0.9245224843087207,
            -0.6091990656298383,
            -0.07418579179894413,
            0.8807490370359452,
            -0.6955978530092473,
            0.5837925584009853
        ],
        [
            0.0786688322729332,
            0.6268793991734463,
            -0.4999743769593148,
            -0.2167507841058407,
            -0.4660564752127936,
            -0.6503287000360938,
            0.19623009690675763,
            -0.578035677344505,
            0.22507989464124645,
            0.4048454066711551
        ],
        [
            0.6691138117295705,
            0.6570007200834851,
            -0.006666211357615692,
            -0.4582618569653496,
            -0.15684595964260217,
            -0.0016539313598964434,
            0.2258091733712131,
            0.3310128513523334,
            -0.027954381525971517,
            -0.804839193690277
        ],
        [
            -0.39345120271168943,
            0.8864136680189332,
            0.8030933093901254,
            0.5481673423879523,
            -0.35566950072210757,
            0.5500645589952271,
            -0.7010577707287169,
            -0.07283284149256097,
            -0.07105014425663647,
            0.0191727177579728
        ]
    ],
    "biasesTwo": [
        0.4774844300317478,
        -0.3285304901926689,
        0.834160226734471,
        0.3841794185627794,
        -0.44578119193309607,
        0.9278220340914516,
        -0.5905870374609452
    ],
    "weightsThree": [
        [
            -0.29174067201301046,
            0.7442826240477605,
            0.9134556044577862,
            0.8349262364821759,
            0.823881936569772,
            0.8690094898501772,
            -0.22085500307768413
        ],
        [
            0.14300529039454046,
            0.154862334260488,
            -0.6539428815498962,
            -0.9962895430537699,
            -0.2833109403618479,
            0.9155691408950901,
            0.6220520988068892
        ],
        [
            -0.0234558866805068,
            -0.45230530894280485,
            0.5133427270594129,
            -0.2894630701866865,
            0.32112442893222504,
            -0.6620430267698272,
            -0.3684995338268282
        ],
        [
            0.22768435261143516,
            -0.7055622402562929,
            -0.85740284835553,
            -0.5966337471346639,
            -0.21094547480489068,
            -0.8521947093008093,
            -0.5477861160500446
        ],
        [
            0.7756091569846202,
            -0.8727109844509988,
            0.8610443176587821,
            0.8727204657935854,
            0.8188294505364304,
            -0.15337159487646068,
            0.4561171966714197
        ]
    ],
    "biasesThree": [
        -0.2816655559933692,
        -0.13124820938098458,
        -0.049221426165842574,
        -0.25058820313973196,
        -0.2752329072254478
    ],
    "weightsFour": [
        [
            0.5359911595098714,
            -0.2915783362218267,
            0.8952954953477781,
            -0.4845648378725438,
            0.06895166189799795
        ],
        [
            -0.14810631487940285,
            -0.8019359129292742,
            0.3660150203797725,
            0.48098485459651497,
            -0.33524203156289345
        ],
        [
            0.19962969545294795,
            -0.3245974532584326,
            0.6433630614397299,
            -0.5850468627296876,
            -0.12190570978242254
        ]
    ],
    "biasesFour": [
        0.6917520672150368,
        -0.540764562256129,
        0.5521257288095325
    ],
    "weightsFive": [
        [
            0.3443358020836522,
            0.9043833618429518,
            -0.8744228614585796
        ],
        [
            -0.6619737929993048,
            0.23829747804961565,
            -0.02105058660721748
        ]
    ],
    "biasesFive": [
        -0.8425232957145623,
        0.25742004979458
    ],
    "fitnessValue": 0
}