{
    "weightsOne": [
        [
            -0.6301850912372182,
            -0.2842884603676459,
            0.5486264795267124,
            -0.4344614939994278,
            -0.6586967399188666,
            0.19382303891782016,
            -0.35695397013203944,
            -0.053066880887732815,
            0.6277272816906116,
            -0.5334188243705376
        ],
        [
            0.6374531523705773,
            0.6006659206322729,
            -0.9043003765047615,
            -0.9007956217462458,
            -0.2707004016877592,
            -0.7687574285183298,
            0.5705587639517875,
            -0.7407005506439341,
            -0.4606155948837558,
            0.3924247132446632
        ],
        [
            -0.8300663541472602,
            -0.6209976922840315,
            -0.23713072026535253,
            -0.31548649260536643,
            -0.6201568226192187,
            -0.7461779198674243,
            0.18579074886388147,
            -0.6829103685633338,
            -0.21630985979642348,
            -0.21714870965073274
        ],
        [
            0.8764988094816708,
            -0.30936706553903814,
            0.7164767150530333,
            -0.5159700785095049,
            -0.7560164726674754,
            -0.05499166375538822,
            -0.8148980731348519,
            -0.29697876205838103,
            0.9898397668704293,
            0.4600591598288484
        ],
        [
            -0.8143394655783689,
            -0.14396702047137921,
            -0.9198965040000786,
            -0.6815832301127078,
            0.4976206912903405,
            0.08719368201496525,
            0.3318142030415647,
            0.45152755605475137,
            -0.857467293937539,
            0.3135087438797326
        ],
        [
            -0.5252066760838634,
            0.46981488545751504,
            -0.9004405591834814,
            0.9138293352245417,
            -0.8384679687047558,
            0.07777141468054083,
            0.3869789572873408,
            0.22396866977007623,
            0.6967070071125088,
            -0.03824006523995416
        ],
        [
            -0.12660550275716442,
            -0.5165215788923281,
            -0.8380730772804315,
            -0.8341447170687304,
            0.04387386850202901,
            0.16684125759523116,
            0.9556510262457856,
            0.4622614453386471,
            -0.9499643707811198,
            -0.055537511464141875
        ],
        [
            0.6016374720602755,
            0.2497071018469501,
            0.9405140325625254,
            0.20805219204037018,
            -0.1255955251096883,
            -0.5669095072368866,
            0.05311021310312891,
            -0.762164216730969,
            -0.6366247046011442,
            -0.18434675124251476
        ],
        [
            0.20444090344759003,
            -0.4041095451034109,
            -0.6435492152692679,
            0.6771718062362893,
            0.20222811216302383,
            0.4027214310843654,
            -0.11719056628373714,
            -0.4331350967062111,
            -0.9218805033922233,
            0.7376376988858775
        ],
        [
            0.6990113751554197,
            0.7960145057908821,
            -0.8444867058320671,
            0.6592125151219077,
            0.9508122371096788,
            -0.40614844260477234,
            0.3155986286458796,
            0.7088273690783231,
            0.06124700819974671,
            -0.42111139168081557
        ]
    ],
    "biasesOne": [
        0.6052076232208194,
        -0.6869295100153721,
        -0.5003127663636635,
        0.08971904567208,
        0.38814123570050096,
        -0.9203852017202887,
        0.8395033114250485,
        -0.01784832595886976,
        0.5464884161688477,
        -0.9817894234003646
    ],
    "weightsTwo": [
        [
            0.13450430999650087,
            -0.6537861356596324,
            -0.3711548726478189,
            -0.23116219449217157,
            -0.58516352811344,
            -0.730575664388837,
            0.5503411291786389,
            -0.6373935440673306,
            -0.17215336787738988,
            0.08552341386202689
        ],
        [
            0.944772332561117,
            0.43783096179124614,
            0.5112849389846061,
            -0.4972892210411999,
            0.4312088493598738,
            -0.6178655016283934,
            -0.5035254764045074,
            0.03407239629963521,
            0.10316297368787697,
            -0.15277669230536417
        ],
        [
            -0.2641737888721314,
            0.08588215914653352,
            -0.6003613724544665,
            0.1445362132119059,
            -0.6931272060763003,
            0.3627496075255654,
            0.9815450453433785,
            0.7525961280829745,
            0.18902987892253154,
            -0.075777596312816
        ],
        [
            0.9364836626407185,
            -0.38984959353042536,
            0.4799695778020081,
            -0.733692303140963,
            -0.26528583824610186,
            -0.6063939951508008,
            0.981659748655143,
            0.676274975466209,
            -0.9081587104024431,
            -0.9733322922911136
        ],
        [
            0.08240587099040875,
            0.3925535866451757,
            -0.1091196545841846,
            0.6020177534021109,
            -0.28191798299721893,
            0.818460478040884,
            -0.3385922231697791,
            -0.3623653911254381,
            -0.671464679095283,
            0.9300703273488318
        ],
        [
            0.5491181961665348,
            0.7185742874172021,
            0.5032179725716719,
            -0.3548613895604731,
            0.6576358869965484,
            0.29205981923988666,
            0.29556661539956575,
            -0.15298656779469333,
            -0.9850641568289629,
            0.2818301614889547
        ],
        [
            0.27041886265196924,
            0.6829215972339149,
            -0.3662280574591874,
            0.22711035029994364,
            -0.3805436299454892,
            -0.6129250157702482,
            0.6899492069585313,
            0.9913855878899398,
            0.7423127208187168,
            0.27972648387219
        ]
    ],
    "biasesTwo": [
        0.4374433670107529,
        0.07956690180236392,
        0.30601328306927944,
        0.1953752575323049,
        0.7382177228112896,
        0.7620585574820717,
        -0.7107732325144791
    ],
    "weightsThree": [
        [
            -0.734194072727518,
            0.8142224537126339,
            -0.5618502647527928,
            0.24587684205102844,
            0.6402356730354324,
            0.06271845336606874,
            0.944538270321944
        ],
        [
            0.40583019317061697,
            0.7322453538355072,
            -0.09962146688272377,
            0.3391363031106962,
            -0.369015834807201,
            0.17676694227959655,
            0.5047739031011733
        ],
        [
            -0.06798060262705752,
            -0.9791318236055779,
            0.7009386265198514,
            0.45717945878726596,
            -0.023296627417545235,
            0.919920729543394,
            -0.7697733501946746
        ],
        [
            0.8180382140037241,
            -0.4440362743487687,
            0.3627944097664415,
            -0.3985266213279903,
            0.980371431667507,
            -0.250792819275069,
            0.23846900198036103
        ],
        [
            0.006482516560958551,
            -0.3758381728135549,
            -0.3863566809996948,
            -0.40537043100029857,
            -0.027776344690222388,
            -0.4102283761172081,
            -0.0616176708186269
        ]
    ],
    "biasesThree": [
        -0.8582606486780269,
        0.6294315423424377,
        -0.658612243043571,
        0.08361400909669459,
        0.14939574148888224
    ],
    "weightsFour": [
        [
            0.6002765644000094,
            0.23571364189262045,
            0.8319653177009083,
            -0.8136770554573958,
            -0.15565917828523967
        ],
        [
            -0.3087960042293445,
            0.24613895159741883,
            0.2930597571573943,
            -0.7668043756135341,
            -0.7403667468533175
        ],
        [
            -0.021113496526589337,
            -0.7808617194179248,
            -0.8613518166883636,
            0.6338544592381194,
            -0.2687187753452893
        ]
    ],
    "biasesFour": [
        0.03327153476625533,
        0.6080396954261298,
        -0.5334888238811035
    ],
    "weightsFive": [
        [
            0.9459922565441206,
            -0.5773950175751952,
            0.791954472764981
        ],
        [
            -0.22008236327337038,
            0.901622378501052,
            0.49757724556957905
        ]
    ],
    "biasesFive": [
        0.7674924403613976,
        0.2257332796904088
    ],
    "fitnessValue": 63.97417938591703
}