{
    "weightsOne": [
        [
            -0.05618398065082664,
            0.9286192326748848,
            -0.8779707455920291,
            -0.9640515199873854,
            -0.8314156311263126,
            -0.1517827146352011,
            0.19222105125740807,
            -0.0993993479010955,
            0.8969414995076344,
            0.27545543612196655
        ],
        [
            -0.38495975291258566,
            0.6199231065070603,
            -0.7665678443385833,
            -0.4365752152547502,
            0.18219629473943844,
            0.7646431561467659,
            -0.6033517443430334,
            0.3383149113301698,
            -0.31146936220156585,
            -0.749947164467416
        ],
        [
            0.9077434199541086,
            0.2773715979928608,
            0.043400737646177134,
            -0.12919531322339695,
            -0.4257981064019358,
            0.04647894348656778,
            0.08147358024348739,
            0.6777659004516077,
            0.6713537114005363,
            -0.4049566221321921
        ],
        [
            -0.6514836917243245,
            -0.5206537037778125,
            0.4579174177477243,
            -0.9968855487281643,
            0.44927121722272845,
            0.42351383839474055,
            -0.5746546919764359,
            0.10455283985458586,
            0.06845520108750036,
            -0.6738440888895152
        ],
        [
            -0.9561058098077093,
            -0.4590689264370682,
            0.7173580307744882,
            0.8744008810029311,
            -0.8172071960751683,
            0.891202698796111,
            -0.5112136203867519,
            0.5602753219585606,
            0.4392947524226496,
            0.15612302377360354
        ],
        [
            -0.4391536816359316,
            0.1358954939916972,
            -0.8669675338200258,
            0.06606261048861661,
            0.9234435884517649,
            0.2694761734414721,
            0.8606492221838182,
            -0.9514981241628251,
            -0.04920721297726138,
            -0.8560594173649316
        ],
        [
            -0.9713739455512933,
            0.6410480717234497,
            -0.5073686125412844,
            -0.5662188918548594,
            0.23716418526601024,
            0.8071884386209129,
            0.09513174446433936,
            0.408105493095138,
            -0.2991617510584834,
            -0.4642892724910257
        ],
        [
            0.29837947592280445,
            -0.7577309957580289,
            0.1565907009955565,
            -0.6541920627338467,
            0.8375991755193244,
            -0.0954918763687207,
            -0.03519156405892332,
            0.9495546884844053,
            0.8534070836960994,
            0.9153193586414017
        ],
        [
            -0.08028020166864347,
            -0.5953182180090626,
            0.20345232813259462,
            0.1549722255532502,
            0.8307579686032085,
            0.7756603764828092,
            0.5898550153690743,
            0.41020829217350263,
            -0.2977478746069113,
            -0.9457671758601256
        ],
        [
            -0.14613166683220502,
            0.5639368470704074,
            -0.8511326559296553,
            0.32151566031246803,
            0.36263408309668654,
            0.10372931450143597,
            0.3614027910656803,
            -0.6923834863862077,
            -0.7390042591700106,
            0.6491718519827097
        ]
    ],
    "biasesOne": [
        -0.8406239419847072,
        0.7487192892123862,
        -0.9598803107371883,
        -0.5354317069828192,
        -0.5423377081319911,
        0.3863101219304683,
        -0.2393646868314545,
        -0.13774943413675067,
        -0.7420126785730838,
        0.4345785931141144
    ],
    "weightsTwo": [
        [
            0.327294097609766,
            -0.5824857483692012,
            0.413820824475857,
            -0.9383715464033184,
            -0.06903833941004356,
            0.8852372820368122,
            -0.4728285504472538,
            0.5751390026117746,
            -0.8633575549947112,
            -0.001333244175180992
        ],
        [
            0.1575440577064824,
            -0.707366985266878,
            -0.4897769578778468,
            -0.028097015035799755,
            0.21298398001610797,
            -0.3239573211552218,
            -0.30315991846277557,
            0.4988095285297758,
            0.7794245236080442,
            0.6926128294597644
        ],
        [
            0.23130409428566212,
            -0.8624531097978063,
            0.18863132725520693,
            -0.4773431575631224,
            -0.5248224617335884,
            0.219317275754094,
            0.4060971483469773,
            -0.23670082211888355,
            0.6013578033721163,
            -0.42228321151678716
        ],
        [
            0.4589322123452533,
            0.40152082607082296,
            0.2986047384541348,
            0.8038194436710908,
            0.6106851834790763,
            0.7508392100888652,
            0.9734866102962607,
            0.09700968022318568,
            -0.6600350884765716,
            0.6791139793207959
        ],
        [
            -0.10166766164062557,
            0.022250839709085035,
            -0.031242533516834925,
            0.061865187716220404,
            0.6380601622707542,
            0.5050411234690451,
            -0.677166710780424,
            -0.33063310277012836,
            -0.10948305462898267,
            0.8636141404177462
        ],
        [
            0.7264426705303337,
            -0.21370202272882244,
            0.5184588863655732,
            -0.5805208474106207,
            -0.3217107678639515,
            0.8107747926462228,
            0.7658521396427047,
            0.6582771691931226,
            0.16825619315905782,
            -0.33284031708378925
        ],
        [
            0.13014394148628217,
            -0.4682380856082715,
            0.7833581908261811,
            0.639435232459401,
            -0.7113463742977251,
            0.7669361878997454,
            -0.5764762608471421,
            0.7714754315184773,
            -0.5430490170998672,
            -0.5957089965149143
        ]
    ],
    "biasesTwo": [
        -0.3234855035706188,
        -0.7399796480890657,
        0.3140577549142185,
        -0.8256170876779831,
        0.7734260157540951,
        -0.4263556277435805,
        -0.9128986360510731
    ],
    "weightsThree": [
        [
            0.932907046716364,
            0.2490147420155866,
            0.9830393645454891,
            0.2899574614423488,
            0.03098302022066779,
            0.19927869075039495,
            -0.8859758291128474
        ],
        [
            -0.2951184715363788,
            -0.6753793570987352,
            -0.7799769218878925,
            -0.7479028475148077,
            -0.7526344279372414,
            0.7038051382170787,
            -0.9392294046135861
        ],
        [
            0.9827569844182935,
            0.8328958989327504,
            -0.2968166118184501,
            -0.04918281864054208,
            0.014237205498036865,
            -0.8440762663133639,
            -0.2558290364252349
        ],
        [
            -0.33811194906840836,
            0.4781699500468144,
            -0.315165016896654,
            -0.8769947455260696,
            0.44016123267701945,
            0.7791033518715351,
            0.2900253296834796
        ],
        [
            -0.3596484512414435,
            0.9381613526644259,
            0.5081707939875781,
            -0.2785266793004719,
            0.7870228209824339,
            -0.09612263942568577,
            0.06196592226689068
        ]
    ],
    "biasesThree": [
        0.7443728037262112,
        0.5044154325703456,
        0.522277951710922,
        -0.5772900598568138,
        0.4216957201231133
    ],
    "weightsFour": [
        [
            -0.9397759391043183,
            0.6569476478581726,
            -0.5326594908414992,
            0.7768273650232957,
            0.28235317215323597
        ],
        [
            0.7070491167450186,
            -0.21274722985301975,
            -0.49024974222172935,
            -0.08810127705877102,
            -0.7509035740176462
        ],
        [
            -0.7799166480271904,
            -0.43527465936691123,
            0.7800862547353997,
            0.29432622217116444,
            0.5756922795530404
        ]
    ],
    "biasesFour": [
        -0.5884058654912887,
        -0.5328923818188314,
        0.5356958127388969
    ],
    "weightsFive": [
        [
            0.166476850778303,
            -0.6091669170796845,
            0.2682177076454
        ],
        [
            -0.5728250954802292,
            -0.1909128146579384,
            0.6348222558692711
        ]
    ],
    "biasesFive": [
        -0.37698730090645194,
        -0.15492308976191715
    ],
    "fitnessValue": 14.698961306423845
}